532 300
0 0.22231734 0.48586664 0.3407881 0.007734666 0.257781 0.38026667 0.24991965 0.14674333 -0.045143336 -0.66114336 0.0033810064 -0.73224 0.12119668 0.36787 -0.07242434 -0.06701533 0.021956434 -0.047875 -0.21638 0.1271 0.06878667 0.21869333 0.47250667 0.29020667 -0.22731166 0.14191367 -0.33345667 0.154813 0.33242333 -0.28097 -0.50384665 0.42569003 -0.16999967 0.061207 -0.6989667 0.44263998 -0.4274353 -0.30775666 -0.48675668 -0.15438999 -0.57275665 -0.35461602 0.5031433 0.18283665 -0.36058334 -0.07924 0.51655 -0.192854 -0.07307034 0.138927 0.050452996 -0.29891333 0.5405434 0.24530701 -0.009504001 -0.08652741 0.080005325 0.08483233 -0.061747998 -0.233561 0.18620332 0.02263867 0.36258435 -0.14110066 -0.41954124 -0.26770666 -0.009519994 0.085543334 -0.266283 -0.23864229 0.239191 -0.025980001 -0.34555003 -0.41488528 0.14204967 -0.13724466 0.13704668 -0.20181668 -0.22528367 -0.32409668 -0.20246333 0.21487899 0.10272267 0.29535067 0.12386644 -0.7228233 -0.214369 0.0200719 -0.3425567 -0.18191294 0.043634668 -0.07809367 0.041623335 0.010306001 0.0999316 0.10792933 -0.0051329993 -0.017431999 -0.29451832 -0.05779034 -0.041753337 -0.12798701 0.030940004 -0.6029767 -0.19318001 -0.6496533 0.09059099 0.27191067 0.11562332 0.033024002 -0.03776333 -0.02007334 -0.030704329 -0.1135 0.48401332 -0.17033868 -0.06735433 0.20226832 0.012233336 0.2789167 -0.009490341 0.25784668 0.48624933 0.07228001 0.062281337 0.050066996 0.21033567 -0.05588 0.29869032 0.13584866 0.28734002 -0.18757367 0.27474102 0.018775335 -0.012614335 -0.11016667 0.252 0.15837534 -0.10928301 0.5593067 -0.07860067 0.011512001 0.13048866 0.004103323 -0.16458334 0.2997153 -0.0004920016 0.11226667 0.014569998 -0.26247668 -0.46655 0.44642332 0.59558994 -0.28881666 0.02505666 -0.18959433 -0.4723133 -0.46656668 0.10819767 -0.39518332 0.6288267 0.13666667 0.102562 0.10009799 -0.331142 0.048807338 0.29123032 -0.44148 0.21205266 0.05160733 -0.006051997 0.14904933 -0.46219668 0.12759733 -0.34527335 0.50812334 0.12898934 -0.15092432 0.40162334 -0.20564334 -0.27714333 -0.18860333 -0.34207332 0.118191026 0.32703868 0.17871034 0.34997666 0.22877999 0.110753335 -0.28948334 -0.19794999 0.72791004 -0.5789367 -0.222591 -0.50730664 0.10534334 -0.5457067 0.20092 -0.09875666 0.57228 -0.1642 -0.26422665 0.34136 0.027859667 -0.08823466 0.12374667 -0.010939658 -0.1486293 0.34945235 -0.22352333 -0.42384532 -0.24929333 0.17492335 0.24539666 -0.18927132 0.270444 0.23678 -0.25118634 0.29064834 0.36327 0.64235336 0.101846 -0.34232333 -0.13561633 0.013371002 -0.24821667 -0.072236665 0.397691 0.18439668 0.038019996 0.089729995 0.21090485 -0.49045333 0.1764981 0.49005997 0.55533665 0.60543 -0.055197 -0.68228 -0.050798435 -0.32337335 -0.26123667 -0.19716366 -0.09587333 -0.7470867 -0.25918266 -0.022406662 0.26539066 -0.13272832 0.19641267 0.59301 0.19816267 -0.05081967 0.0700118 0.096590005 0.33772668 -0.47457996 -0.10238334 -0.09483334 0.07886 0.15692735 -0.37656465 -0.21400301 -0.77235335 0.09696 -0.08043588 0.14769597 0.27121767 0.32905337 -0.19743 -0.45192662 0.40959334 -0.0037966718 -0.06311434 0.23204267 -0.13584 -1.18776 0.40104333 -0.67912 -0.07743 -0.151536 0.053417336 -0.061926004 0.10191566 -0.12790667 0.23859702 0.50835997 -0.18733633 0.06764273 0.13614333 0.12869334 -0.056389663 -0.26550135 -0.09541067 -0.27776 -0.11431833 0.108830005 -0.33313534 -0.126292 -0.33580336
1 0.771195 0.868005 0.138852 -0.26277 -0.1556235 -0.375755 -0.195863 0.302589 -0.196125 -0.79034 -0.262005 -0.665835 -0.312855 0.22953498 -0.35333 -0.31778002 -0.130475 0.32793498 -0.59447503 -0.029595003 -0.137364 0.42225498 0.45152998 0.211697 -0.372765 0.474855 -0.16764 -0.53642 -0.1999655 -0.0047800094 -0.63964 0.49966502 -0.548745 -0.029430002 0.022589996 0.13828151 0.29375848 -0.061213996 -0.48299998 -0.240767 -0.1859325 -0.348315 -0.101107 -0.24749716 -0.1243685 -0.0967175 -0.035240002 -0.36330497 0.120942995 0.279495 -0.085407495 0.65680504 0.210323 -0.20637351 0.195167 -0.046861 -0.17825 0.006034501 -0.78089 -0.41516 -0.049477 0.208365 0.38568002 -0.492435 -0.26719952 -0.19063002 -0.41167 -0.42451 -0.16881 0.404535 0.52911 0.296205 0.0743385 -0.47741503 -0.2312495 0.225927 0.60524 0.44807902 -0.16624 -0.104518 -0.094645 -0.115095004 -0.34053302 0.1018355 0.322523 -0.67909 -0.22196001 -0.09651 -0.492395 -0.109556995 -0.26816 -0.59694004 0.1182265 0.27833 0.004435003 -0.0002319999 -0.708245 0.37811 -0.47292 0.42341998 0.082004495 0.063370004 0.074169 -0.94268 -0.64075 -0.053813297 0.07376245 0.21931 -0.243873 0.762845 0.209134 0.012219995 -1.133615 0.21416 0.073847 -0.1552 -0.327665 0.159845 0.157841 -0.09945001 -0.58673 -0.168545 0.253305 0.54944 0.106555 0.649375 -0.3676235 0.141384 0.081626 0.061702006 0.26981 0.442765 0.4638 0.32569999 -0.209215 -0.290268 0.0428665 -0.314691 0.344785 0.73985 0.18511951 0.24361 0.123992994 -0.49416 -0.40568 0.1088265 0.056375 -0.69478 -0.11148 -0.3332945 -0.990755 0.17116001 0.107119 0.20573789 0.195045 -0.036074996 -0.61851 -0.455845 -0.0984265 -0.50364 0.23583451 0.80564 -0.28418452 0.06863999 0.281125 -0.1964955 0.67963 -0.82486 0.24085 -0.217304 -0.1736905 -0.1361675 -0.0660005 0.57544 0.088185504 0.26128998 0.59595 -0.621975 0.41208 -0.45810997 0.352535 -0.17578 -0.726925 -0.59923 -0.464095 -0.07633565 0.595245 -0.3392785 0.1467015 -0.361445 -0.827725 0.592255 -0.756535 -0.071803704 0.16485201 0.0519175 -0.017420009 -0.23427501 -0.233105 0.42339998 0.396835 -0.173205 0.0023750067 0.1781195 -0.22555 0.76898 0.37498 -0.48461 0.155065 0.03746499 -0.1940655 -0.38989002 -0.29479697 0.526935 0.0137375 -0.145585 0.456965 -0.343585 -0.17727534 0.0823585 0.344755 -0.30863848 -0.54178 -1.28995 0.463015 0.112941 0.055171996 0.0995515 0.20383501 0.677925 0.34488952 0.1468345 -0.02206 0.0776355 0.51467 0.20519999 0.69935 -0.1152215 -0.48174 -0.12300735 -0.44281 -0.23904 -0.13461 -0.602225 -0.619635 0.2951 0.38109502 -0.081312 -0.13292 -0.45856002 0.0519635 -0.05499 0.285775 0.76012504 0.703095 0.48345 -0.28636 0.109286115 -0.272435 0.415415 0.2548765 -0.16542 -0.088535 -0.577155 0.27582002 0.166722 -0.182005 0.1304775 -0.0464995 -0.41163498 -0.64982 0.32961988 0.286802 0.18462649 0.12550549 0.30219 -1.53 0.2034285 -0.70429003 -0.30936 -0.447105 -0.167125 -0.058775 0.14193 -0.64322 0.52958 0.072522 -0.32146502 -0.0056949854 0.27153 -0.0099174995 -0.015509997 0.611925 -0.3269135 -0.1517435 -0.33810198 0.24540499 -0.662095 0.39686 -0.42815
2 0.46093 0.22783 0.41451 0.27443 -0.36239 -0.44977 0.14035 0.61402 0.37091 -0.1927 -0.045192 0.048234 -0.031179 0.30626 0.018384 -0.0084044 -0.2758 -0.12783 0.056717 0.24457 -0.2394 0.46117 -0.13163 0.043775 -0.39383 0.35736 0.11099 -1.0268 0.27384 0.15898 -0.56951 0.20358 0.22961 -0.11989 0.21463 0.60122 -0.10773 0.46946 -0.29769 0.072701 -0.43327 -0.021071 0.1777 -0.29079 0.23914 -0.26835 0.068451 -0.50209 0.062888 0.22068 0.16937 -0.49114 -0.060548 0.15803 0.11376 0.13526 0.20606 -0.029913 -0.71153 0.45683 -0.17084 0.10834 0.061268 -0.11231 -0.40711 0.77862 -0.13656 0.15786 0.91972 0.39361 0.060516 0.36311 -0.59309 -0.10178 0.88209 -0.25076 -0.065183 0.43149 -0.33579 -0.2992 -0.35309 -0.15784 0.33116 -0.086047 -0.55175 -0.76202 -0.47235 0.45098 -0.44298 0.56092 0.10048 0.23127 -0.25616 0.44357 0.041555 -0.096829 -0.037261 -0.23084 -0.52321 0.15761 0.16335 0.18115 0.044666 -0.32054 -0.83512 -0.14013 -0.15998 0.44273 -0.0054982 -0.87812 -0.25806 0.38516 -0.38939 0.096379 0.19138 -0.46088 -0.18252 0.18534 -0.10005 0.07023 0.11333 -0.62692 0.64894 -0.61203 0.22309 0.22319 -0.18941 -0.034221 0.30722 0.40973 -0.55486 0.24189 -0.055645 0.048635 0.070213 0.34506 1.117 -0.24284 -0.42294 -0.0055641 0.43671 -0.95088 -0.25402 0.10401 0.004413 -0.94841 -0.5087 0.19839 0.28138 -0.80973 -0.94961 0.30514 0.13101 0.2807 -0.28228 -0.36012 0.26151 -0.35977 -0.23424 0.09602 -0.40135 0.32575 -0.72927 -0.51098 0.065024 0.12601 -0.046156 0.28144 -0.1085 -0.54083 -0.038548 0.1602 -0.23438 0.69018 -0.21419 -0.18935 0.17774 -0.41408 0.17027 -0.42961 0.29576 -0.27612 -0.34051 0.57898 -0.14638 -0.14609 0.92646 -0.59043 0.24944 -0.27116 -0.97858 0.30317 0.11738 -0.025851 -0.34297 0.66823 -0.031909 -0.25095 -0.49594 0.010228 0.3872 -0.53973 0.051666 0.36245 0.25375 0.14045 -0.16321 0.28304 -0.1572 0.276 0.05897 -0.055163 -0.48881 0.71927 -0.2409 -0.22959 0.50248 -0.58479 -0.5077 0.62569 -0.40766 0.071811 -0.34463 -0.34652 -0.32338 -0.15391 -0.0022419 -0.35885 -0.45365 -0.13665 0.61318 -0.10742 -0.27043 -0.53461 0.61118 0.1598 0.39935 -0.22081 -0.12419 0.13446 0.25609 -0.24149 -0.95074 0.2557 -0.1997 -0.41391 -0.019019 -0.042258 -0.28513 -0.57539 0.44553 -0.70766 -0.30732 0.036266 -0.11683 0.41015 0.38383 0.50708 -0.72091 0.10237 0.023678 -0.027792 -0.26261 -0.33093 0.04353 -0.32467 -0.34495 0.27157 -0.49877 0.50034 -1.0302 -0.18527 0.40134 0.2984 0.31927 0.43562 0.32013 0.26101 -0.53993 0.097061 0.1497 0.27401 -0.17381 0.45511 0.28323 -0.039496 0.29268 -0.21078 -0.74191 -0.283 0.00015998 -0.063114 0.20392 -0.227 -0.3959 -0.85623 -0.010225 0.43294 0.2555 -0.59041
3 0.017195009 0.3890795 -0.213557 -0.50198996 -0.62285995 0.45168 -0.194873 0.42671 0.027514 -0.73122 0.170421 -0.170845 -0.34078 0.01099135 0.20183499 -0.22112149 -0.23735304 0.1961575 0.17076 -0.09303999 0.25968498 0.08307 -0.1661135 -0.148975 0.25071502 0.1959985 -0.52419496 0.29793 0.63553 0.024800003 0.19060251 0.093481995 0.13619 -0.30977 -1.26574 0.2179175 0.23572001 0.2317835 -0.05307 -0.069288 0.46136 -0.345855 -0.1354435 0.045657 -0.13336 0.029505 0.358765 -0.50007 0.38301948 0.446035 0.088837996 0.165037 -0.43356 -0.153975 -0.16507201 0.20408249 -0.067807995 0.39688 -0.140953 -0.32288498 -0.022169992 0.14394 -0.132235 -0.668975 0.410455 -0.189942 -0.271903 0.27062652 -0.066149995 -0.0158 0.048619993 0.0482485 -0.168808 -0.020504002 -0.22466499 -0.1482315 0.40898 0.24886 0.380575 -0.16321501 0.24866 -0.20666501 -0.071392 -0.36235 -0.0459335 0.0447025 0.18281999 0.039009996 0.25138998 0.070918 0.051 0.49431503 -0.13564526 -0.099626996 0.045894995 0.678405 -0.1249875 0.24891001 -0.117735 -0.80733 0.42501003 0.0025929995 -0.52323 0.144145 0.00016499683 -0.4359195 -0.0009550005 -0.207315 -0.10382749 -0.21867155 0.125955 -0.367064 -0.365255 0.18751 -0.036445 -0.33391 0.101315 0.47681502 -0.209988 -0.084881 0.04451 0.00040099956 0.176844 0.046185 -0.35688502 0.450865 -0.24812502 0.30171 -0.018514998 -0.0722615 -0.09743002 0.12449001 0.156345 0.3746 0.00586 0.205725 0.62927 0.16125 0.126454 0.919285 -0.033845 -0.145447 0.48469502 0.034814984 0.107140005 0.43079 0.52392 0.27867 -0.1373395 -0.4726758 -0.0855985 -0.24266002 -0.186845 -0.30241498 -0.086279 -0.435305 -0.54694504 0.198485 -0.637 0.08067 0.30211 0.34101248 -0.62765 -0.358295 0.82167 0.024339996 0.2577 0.48487997 -0.041015 0.38121 -0.01323 0.093113996 -0.84844 0.59015 -0.2296089 0.14135501 0.17201 0.36502498 -0.19722 0.56532 -0.380285 -0.08471 0.265105 -0.046800002 0.05071615 0.092575 0.048299983 -0.253135 0.29136002 -0.1486087 -0.1914675 -0.10315099 -0.047914997 0.1150835 -0.30373 -0.25405702 -0.18342501 0.31230998 0.080485 0.1357595 0.8971685 0.37787 0.1848445 0.0062399954 0.254825 -0.45979 -0.184525 -0.067105 -0.40759352 0.214042 -0.071155004 0.0615915 -0.076445 0.45137998 -0.1932135 0.12781501 -0.029584996 0.219637 -0.0040350035 -0.343275 0.16030833 -0.1166645 -0.37746 -0.173525 -0.0012200028 0.03449501 0.2122335 0.42343998 0.077423 0.0777655 0.1270032 -0.170001 -0.274015 -0.51297003 0.350735 0.4613935 0.539305 0.2317 -0.217769 -0.108315006 0.258385 -0.2162585 -0.435745 0.31492 -0.35698998 -0.418905 -0.422135 0.184005 -0.096442506 0.57049 0.1168655 0.34605 -0.30742002 -0.0326 0.008334994 0.1113965 0.080437995 -0.4285 -0.094124004 -0.3097635 -0.484415 -0.800305 0.090747505 -0.28517 0.09048001 0.088115 0.42531502 -0.23423849 0.22154 0.261674 -0.0472012 0.038804993 0.13610551 -0.28999498 0.37567502 0.30704 -1.9042001 -0.04069 -0.661116 -0.100225 0.071807 0.381625 0.023780003 0.166955 -0.22646001 0.114945 -0.3534785 0.0937535 -0.13888499 -0.473425 -0.44691002 0.26836 -0.20105001 0.361535 -0.2589505 -0.17571 0.55006003 -0.25324 0.088541 -0.42359
4 -0.22117 0.83635 -0.036354 -0.45756 -0.57152 0.46556 -0.4416 0.35601 0.080632 -0.53786 0.29885 0.33006 -0.43262 -0.0088803 0.0804 0.035957 -0.47019 0.3691 0.13686 -0.63214 -0.44701 -0.12422 -0.38941 -0.18404 0.63301 -0.047633 -0.33492 0.34498 0.11236 0.14968 0.47097 0.032934 0.3204 -0.37934 -1.8656 -0.092395 0.33395 0.53694 -0.29982 0.081704 0.41196 -0.14083 -0.30563 -0.053756 0.19616 0.18977 0.22931 -0.10699 0.053669 0.43478 -0.057994 0.3179 -0.40319 -0.68692 -0.34345 0.4484 -0.22016 0.57834 -0.060456 -0.2692 -0.32257 0.44599 -0.66797 -0.77951 0.13284 -0.30171 -0.077846 0.44431 0.41904 -0.40746 0.30797 -0.096863 -0.29454 0.014822 -0.95543 0.037727 0.62782 0.19288 0.51917 0.13576 0.27747 -0.14312 0.010396 -0.5555 -0.063933 0.17834 -0.213 -0.19453 0.60795 0.090109 -0.12678 0.64894 0.0021895 -0.14048 0.42484 0.73133 -0.21885 0.29734 0.09923 -1.1024 0.12401 -0.077356 -0.39875 0.10714 -0.083772 0.062151 0.22439 -0.17907 -0.2553 -0.0061931 -0.25227 -0.69367 -0.49618 0.20643 -0.25603 -0.54045 -0.12631 0.111 -0.35384 -0.033222 -0.14159 0.061715 0.026048 -0.14586 -0.25853 0.36789 -0.25093 0.47477 -0.27471 0.022217 -0.77275 0.35449 0.12294 0.17276 -0.02043 0.16777 0.38899 -0.19254 0.18544 0.94526 -0.30462 0.034136 0.319 0.54743 -0.2595 0.63357 0.75993 0.13615 -0.37259 -0.0093016 0.098493 -0.34492 -0.47071 -0.48849 0.048382 -0.58437 -0.44258 0.22806 -0.874 -0.24713 -0.22994 -0.020685 -0.81535 -0.36586 0.55374 0.29696 -0.22832 0.53317 0.21814 0.21165 0.12066 -0.012692 -1.3323 0.20995 -0.45509 0.13424 0.46268 0.46874 -0.23607 0.83787 -0.26884 0.37948 0.2644 -0.21806 -0.0021077 0.3971 -0.44148 -0.3837 -0.22579 0.0098526 -0.44338 -0.085282 0.40175 -0.012703 -0.31065 -0.59908 0.10798 0.33319 0.26292 0.36062 1.774 0.17091 -0.066971 -0.27423 0.11603 -0.81539 -0.18478 -0.11738 0.060843 0.33951 0.17351 0.15584 -0.38167 0.67634 -0.29665 0.14281 -0.23861 -0.073596 -0.1254 -0.29035 0.00094667 -0.30117 -0.2819 0.10011 -0.13697 -0.44239 0.36901 0.37601 0.033846 0.12201 0.25131 0.039878 0.14284 -0.69436 0.22362 0.082647 0.57194 0.30598 -0.068778 0.12304 0.38634 -0.067877 -0.41813 0.16555 -0.1554 -0.49475 -0.67296 0.76545 -0.16003 0.2781 0.070171 0.52348 0.10871 0.25619 -0.26304 -0.052707 0.13959 -0.38479 -0.24803 -0.56434 -0.76341 -0.56801 0.16648 0.29231 -0.18889 0.2429 0.2052 -0.047797 0.15006 0.041458 -0.089252 0.31065 -0.033209 0.12834 0.38626 0.15125 -2.3396 0.11692 -0.046732 0.01773 -0.081076 0.38749 0.34152 0.1891 -0.35089 -0.19596 -0.71733 0.12139 -0.4278 -0.39441 -0.37774 0.35338 -0.97452 0.11383 -0.029611 -0.23481 0.31903 -0.39137 0.1073 -0.47724
5 -0.38631 0.074601 0.2092 -0.30036 -0.085545 0.23875 0.18827 -0.23329 -0.26254 -0.30991 -0.46297 -0.51541 0.5875 0.18463 0.72527 -0.048011 -0.086223 -0.092107 0.077738 0.29598 0.35495 0.35523 -0.0092552 -0.012009 -0.082914 -0.11863 -0.30228 0.080243 0.15945 -0.10221 -0.015408 0.45793 0.013218 -0.40414 0.19052 0.11347 0.49061 0.071236 -0.5117 0.11091 0.091329 -0.12591 -0.2951 -0.14907 -0.759 0.22501 0.61414 -0.2185 -0.11274 -0.40906 0.59425 0.45503 0.25818 -0.35914 -0.13371 0.39473 -0.64205 0.27837 -0.20828 0.29485 0.59362 0.55603 -0.097945 -0.11391 0.27126 0.27912 0.15394 0.81178 -0.01955 -0.49927 -0.046438 -0.055366 -0.38455 -0.22606 0.25328 -0.22667 0.10462 0.31174 0.63825 -0.5853 0.5274 -0.36757 0.56728 -0.047479 -0.61586 -0.14758 0.67855 0.025787 0.039797 0.44346 -0.25757 0.63321 -0.10345 -0.28531 0.3181 0.50131 -0.29852 0.053552 -0.070394 -0.8636 0.31858 0.6355 -0.22254 -0.32868 -0.026229 -0.21396 -0.28806 -0.60045 0.43492 -0.62456 0.44451 0.15385 -0.70952 0.012573 -0.0044966 -0.13995 0.015002 0.025676 -0.13026 0.16985 0.092134 0.094 0.10172 0.34435 -0.41332 -0.0028331 -0.21867 -0.22468 -0.1914 -0.46082 -0.26271 -0.06894 0.0080123 0.3116 -0.096391 0.070363 -0.13672 -0.23379 -0.30378 0.012474 -0.45845 0.10207 -0.15178 0.17714 0.63037 0.65907 0.083588 -0.13872 0.10056 -0.43456 -1.284 0.14008 -0.12371 0.22569 0.39437 -0.83218 -0.46065 0.30012 -0.33404 0.11609 -0.049439 0.44022 0.29757 -0.19134 0.47326 0.17708 0.24455 0.40018 -0.078481 -0.10156 0.29193 -0.29895 -0.63951 0.51173 -0.054482 -0.16604 -0.33854 -0.059492 0.18176 -0.58025 -0.01585 0.12894 0.46517 -0.58536 -0.26894 -0.12513 0.52764 -0.3205 -0.23213 0.26962 -0.68092 0.30343 0.658 0.066371 -0.52772 -0.30157 -0.71775 0.53179 -0.022738 -0.46446 -0.18156 0.17574 -0.0049614 0.32436 0.32312 -0.31621 -0.62736 0.41903 -0.17234 -0.061732 0.14299 0.24348 0.40435 -0.073568 -0.21054 -0.33539 -0.9759 -0.087185 0.22887 0.12846 -0.44703 0.23061 -0.30323 0.47895 -0.093597 -0.38795 0.066171 0.72861 -0.17361 -0.58157 0.077941 0.18666 -0.58859 -0.3701 0.59246 0.18607 0.36356 0.21648 0.053798 -0.061429 -0.040376 0.068592 -0.1423 0.26859 -0.34633 -0.2536 -0.64655 0.86546 0.041022 0.98483 0.11703 -0.12147 -0.09042 -0.37264 -0.026383 0.34511 0.16044 -0.053264 0.05958 -0.0022431 -0.53293 -0.40473 0.13787 -0.59534 0.6285 0.036805 -0.14521 0.26558 -0.088542 0.37911 0.23107 0.37176 0.24922 -0.085736 0.51518 0.25039 -0.35117 -0.42323 -0.1392 0.14852 0.22081 0.36909 -0.060583 0.082154 0.59213 -0.6375 -0.47196 -0.0061752 -0.15743 -0.6474 0.036907 -0.15996 0.12387 0.43051 -0.054643 -0.53472 0.35154 0.28624 -0.10461 -0.75494
6 -0.425675 0.116575494 -0.063485 -0.39131498 -0.0262685 0.26464 -0.0031199977 -0.232505 -0.53553003 -0.058985002 -0.463725 -0.3602 0.41357 0.303875 0.38128048 -0.1984155 0.020708498 0.010016501 -0.057506002 0.082505 0.436405 0.44357502 0.1155674 0.035099 0.030323002 -0.119169995 -0.42501 -0.0569635 -0.017915003 -0.10863 -0.286319 0.346925 0.13594899 -0.1994984 0.20374501 0.30764502 0.410325 0.20909801 -0.349405 0.25823998 0.11519951 -0.34144 -0.1641205 -0.17898 -0.623915 0.2819 0.39369 -0.290675 -0.24400501 -0.2365875 0.748265 0.51765 0.26405 -0.061945006 -0.15751 0.1624895 -0.588235 0.287945 -0.1908 0.134438 0.15692 0.41482 -0.29620248 0.063695 0.37355 0.352505 -0.07524999 0.56619 0.08851 -0.37309 -0.341034 0.016227001 -0.60198003 -0.368285 0.269605 0.036799997 -0.057819996 0.20974001 0.37021 -0.25190952 0.53917503 -0.27085 0.356575 -0.33048448 -0.591685 -0.23871 0.54814 0.1444985 -0.0400415 0.2320875 -0.24520001 0.69045496 0.04929 -0.405775 0.25807 0.25395954 -0.1666615 0.064806506 -0.23337701 -0.654195 0.136507 0.695675 -0.19615 -0.1418425 0.116565496 -0.18414 -0.042985007 -0.30317274 0.30209 -0.61484504 0.3031 0.213785 -0.69668996 -0.0666835 0.1075217 -0.427355 0.124541 0.0090402 0.019809999 0.049201503 0.288247 -0.011765003 -0.018815 0.385755 -0.2413895 -0.13743155 -0.308455 -0.221205 -0.2892 -0.304155 -0.22126001 0.068145 -0.00942935 0.400965 -0.05226045 -0.095363505 -0.15195 -0.39934 -0.38551998 -0.148943 -0.222217 0.15494 -0.22902998 0.201555 0.436055 0.26308 0.217544 0.243515 0.071711004 -0.53264 -1.13465 0.167375 -0.130895 -0.0185 0.29988998 -0.663675 -0.33543998 0.120754495 -0.532165 0.128795 -0.0447805 0.240831 0.29308 -0.335125 0.599985 -0.00897 0.441545 0.23871501 -0.067445 -0.037318997 0.26048 -0.292025 -0.20166999 0.321525 -0.0696445 -0.0430535 -0.301235 0.20725401 0.392955 -0.57361 0.12001 -0.011629999 0.552735 -0.52565503 -0.192915 -0.387455 0.26843524 0.104350016 -0.23033 0.24673 -0.316631 0.14295 0.337534 0.1844855 -0.42848998 0.004969999 -0.65182 0.59322 0.29850602 -0.56528497 -0.098419495 -0.024004996 0.0725643 0.10637 0.089515 -0.046405002 -0.495095 0.23722951 0.005789995 -0.038468502 0.203555 0.429765 0.49334502 -0.104904 0.046495005 -0.032000005 -0.61151 -0.108907506 0.185395 0.327725 -0.50803 0.42709002 -0.25975 0.323615 -0.21375349 -0.431685 0.2914005 0.39234447 -0.28452 -0.57285 0.2845405 0.039690003 -0.50648 -0.22348149 0.60917497 0.19337 0.37493 0.1281535 0.049103 -0.02953205 0.201857 -0.135824 -0.104103 0.35495 -0.279705 -0.23271 -0.25616 0.780055 0.193211 0.771 0.171075 0.21482001 0.072925 -0.23915501 0.3447835 0.32291 0.46073997 -0.0620165 0.064298004 0.20160845 -0.2526905 -0.33219498 0.35846 -0.09826501 0.364241 0.1501025 -0.27056 0.30256 -0.19678599 0.57642 0.21899 0.44279 0.18963501 0.137162 0.286821 -0.086380005 -0.117025 -0.58298004 -0.12584999 -0.022720002 0.252555 0.17276749 -0.2126915 -0.119288 0.52494 -0.60653996 -0.55171 -0.0610926 -0.264445 -0.612325 0.2726385 -0.08333765 0.24362999 0.541685 -0.1161565 -0.42711002 0.5939 0.30815 -0.051304303 -0.64945495
7 -0.147201 -0.097674996 0.160693 -0.47320002 -0.2631305 -0.22361 -0.022634998 0.14686699 0.030201 -1.04353 0.023375005 0.221165 -0.270985 -0.20133014 0.242045 0.2374285 0.07605502 0.10168 -0.094725005 -0.43594497 -0.23213801 0.086780004 -0.13877499 0.0674 0.23180501 -0.065197 -0.21968499 0.34748 -0.328385 -0.042499997 0.574795 -0.0064390004 0.43324 -0.143076 -1.51635 0.018467497 0.49175 0.2562255 -0.364445 0.088126004 0.1723765 0.015330002 -0.047565 0.327852 0.181585 0.308335 -0.0051199943 -0.308585 -0.0693005 0.14659 -0.232252 0.250535 -0.26323 -0.2950035 -0.012805 0.432945 -0.52334 0.701015 0.0043530017 -0.1688735 -0.28628498 0.34956 -0.15361 -0.48169002 0.189595 -0.403005 -0.139453 0.10074001 -0.109695 -0.30769 0.25748998 -0.022963 -0.1634475 0.0049425 -0.544955 -0.029246502 0.466335 0.448305 0.10219999 0.048631497 -0.18125501 -0.0937065 0.0235695 -0.196055 0.20452851 0.08047 -0.182615 -0.127343 0.23591998 0.074988 -0.36787498 0.33339903 0.04527175 -0.291535 0.349185 0.3651923 -0.29503 0.1776505 -0.187625 -0.78327996 0.102087 0.252732 -0.1544975 -0.21697 0.024764001 -0.006181501 0.0365 -0.18911499 -0.35122 0.00755445 -0.1442295 -0.46322 -0.2633995 -0.11086 -0.47434002 -0.16731499 0.159495 -0.05901 -0.3535 0.19002901 -0.31485 0.1651725 -0.012481 -0.006614998 -0.21515 0.1638235 -0.209975 0.179495 0.026054993 0.1894585 -0.35949752 0.26269 0.119619995 0.0012799948 -0.07597 0.309605 0.070920005 0.049674995 -0.155405 0.580175 -0.07643 0.401703 0.2474 0.15727499 -0.40680498 0.44174 0.46489 -0.29726 -0.214627 -0.1451208 0.43407148 -0.096695006 0.157465 -0.24796939 0.0498145 -0.107345015 -0.19574001 -0.16582999 -0.26256 -0.033255003 -0.1255225 0.1195075 -0.561935 -0.1509665 0.37527502 0.05467 0.073414996 0.447505 -0.13302499 0.5547 0.125545 0.139204 -0.93805 0.174535 -0.045124993 0.43633997 0.071245 0.258456 -0.12302955 0.592065 -0.11905249 0.31903 0.221745 -0.187855 -0.14351386 0.110915 -0.54040504 -0.272305 -0.072638996 -0.073328696 -0.28152502 0.12534401 0.1669985 -0.1774365 -0.21909499 -0.50451005 0.0454505 0.428495 0.15602 0.265095 0.99612504 0.117029 -0.1619555 -0.149498 0.009925 -0.603875 -0.0945154 -0.190845 0.0056205 -0.158385 0.21509999 -0.005560003 -0.31078 0.20297499 -0.061309993 0.01481 -0.328825 -0.098903 -0.059162404 -0.42260498 -0.14799166 -0.022794992 -0.057019994 -0.11922 -0.0602455 -0.201738 0.03936 0.033625007 -0.042262 0.010005001 0.12963304 0.248384 -0.24749501 -0.34583002 0.49995 0.059327 0.452285 0.289545 -0.085788995 -0.08252001 0.43271 -0.1834435 -0.09002001 0.00022500008 -0.45132 -0.161285 -0.037289977 0.015300006 -0.06825951 0.35861 0.1207355 0.081845 -0.0033950023 0.05315 -0.17140901 -0.15313351 -0.05313 -0.468715 0.09097999 -0.39249998 -0.54928 -0.24159 0.31913 0.059320003 0.206305 -0.010569997 0.0777545 0.052641504 -0.342955 0.377364 -0.139611 -0.021054998 0.1388005 0.21016501 0.104355 0.040537503 -1.91675 0.33369 0.284849 0.19887 0.027741995 0.3447 -0.032804996 -0.055955008 -0.227675 -0.1121935 -0.18074499 0.081105 -0.267075 -0.33505 -0.066484995 0.069929995 -0.79982 -0.12489 -0.05297 0.117905006 -0.030595005 -0.578385 -0.029959999 -0.13198
8 0.22677 0.34708 0.235 -0.079503 -0.23846 0.53466 0.31813 0.68685 0.67719 -0.83589 -0.2095 -0.59138 -0.51826 -0.34168 0.64218 -0.65351 -0.5435 0.12225 -0.30946 0.26593 -0.16671 0.55084 0.093169 0.35492 -0.54597 -0.23228 -0.6667 0.08366 -0.44193 -0.38303 -0.40546 0.10965 0.43949 -0.23287 -0.667 0.15048 -0.027567 0.28984 -0.36095 -0.32048 -0.71352 -0.44785 0.29097 0.017724 -0.33008 -0.49972 -0.21333 -0.12372 -0.20954 0.11917 -0.5367 0.10847 0.17275 -0.32245 -0.60892 0.032615 0.33787 0.39915 0.25936 0.041154 0.1429 -0.37801 0.14649 0.041641 -0.54463 0.25795 -1.07 0.57337 -0.60177 0.017596 -0.091561 -0.021187 -0.56019 -0.71532 0.26926 -0.19708 0.059558 -0.34187 -0.054257 0.19584 0.1409 -0.17559 -0.20368 -0.036239 -0.26043 -0.95003 -0.24906 -0.57814 0.06873 0.37967 -0.092729 -0.045578 0.37385 0.31741 -0.72962 0.68971 -0.068897 -0.18973 -0.3401 0.46703 -0.05868 -0.1437 0.01015 0.40066 -0.25562 -0.24618 -0.8336 0.3364 -0.077721 -0.034007 0.59931 -0.098774 -0.17414 0.017875 -0.013741 -0.56217 -0.23256 -0.065728 -0.23271 0.72045 -0.33766 0.037331 0.12283 0.082453 -0.24183 0.19695 -0.054315 -0.17948 0.40397 -0.35425 0.41606 0.53107 0.095183 -0.097022 -0.39854 0.6644 -0.080596 0.15071 -0.53143 0.078748 -0.28061 -0.44991 0.64834 -0.27383 0.12012 0.13927 -0.032056 -0.33037 0.48721 -0.35785 -0.0062775 0.183 0.72914 -0.42266 -0.60708 -0.26901 -0.69321 -0.47054 0.72073 -0.59333 0.42479 0.24707 -0.70929 0.12534 0.0106 0.0036237 0.24078 0.49882 -0.23569 0.42325 0.3899 0.18299 -0.38816 0.56618 -0.32123 -0.27646 0.29359 -0.4617 0.28865 0.15077 -0.39228 0.10098 -0.36792 -0.12391 0.47718 0.0061332 0.9027 -0.23372 0.03759 -0.41361 -0.33838 0.12359 -0.75106 -0.33269 -0.17348 0.09077 -0.64325 0.34824 -0.17107 0.38959 -0.83635 0.0028438 -0.023298 0.51052 -0.41707 -0.022026 -0.10269 0.057567 -0.43855 -0.41284 0.085138 -0.039716 -0.27603 0.25269 -0.14046 0.45938 0.40877 0.060828 0.19721 0.29339 0.409 0.42909 -0.48518 -0.7077 -0.56939 0.69184 0.046895 0.13257 0.22722 -0.2482 -0.26595 -0.23288 0.074591 0.23238 0.23152 -0.020828 0.27025 0.12071 -0.96155 0.20657 -0.90244 -0.26892 -0.40872 -0.74641 -0.25919 0.13242 0.60431 -0.37289 -0.7241 -0.017721 0.48804 -0.31287 -0.10977 0.081927 -0.99948 0.4133 -0.24639 -0.65288 0.17763 -0.29074 -0.18252 -0.35124 -0.098641 -0.53592 0.039816 -0.16181 0.75411 0.088132 0.26401 0.66657 -0.44566 -0.22456 -0.082837 0.18457 -0.14998 0.041099 -0.80961 0.10051 -0.65407 -0.37298 -0.064438 -0.16387 -0.2185 -0.34253 0.028955 0.38934 0.1434 -0.23989 0.22945 0.51726 -0.2053 0.95705 0.22632 -0.1466 -0.057403 -0.26757 0.16025 -0.63193 -0.73022 -0.25119
9 1.006 0.43686 0.42647 -0.30874 0.16829 -0.68469 -0.48762 0.2319 1.0061 -0.62534 -0.98097 -0.27609 -0.16294 -0.56487 -0.14244 -0.20496 -0.18374 0.47698 0.51871 0.65459 0.37473 0.50689 -0.27565 -0.4672 -0.23162 -0.24435 -0.14557 0.32786 -0.89755 -0.50447 -0.48408 0.26475 0.35748 -1.2097 -0.34426 0.57071 0.023446 0.46136 -0.41435 -0.0060278 0.16384 -0.031732 0.12781 -0.073203 -0.064144 0.20906 0.20998 0.59731 0.51491 -0.22671 -0.41373 0.51265 -0.043806 -1.0462 -0.83775 -0.071915 0.26292 0.1218 0.051474 0.024495 0.55023 -0.25407 -0.40852 -0.077107 0.0035765 0.13724 -0.45494 0.17648 -0.46996 0.35552 0.27241 0.11875 0.5657 0.16211 -0.48612 0.10378 0.77162 -0.58547 -0.5022 -0.20465 0.3052 -0.1894 0.21753 -0.52031 0.12917 -0.62399 0.27812 -0.33591 0.12402 -0.54333 -0.49285 0.01481 0.055288 0.11044 -0.59691 0.42471 -0.36091 -0.081933 -0.32219 0.3535 -0.17058 -0.14475 -0.33239 -0.30603 0.05169 0.31576 0.17766 0.1106 -0.2698 -0.010391 -0.067903 0.45838 0.38903 0.26565 -0.39403 0.26581 -1.2792 0.63502 0.086912 -0.14664 -0.42023 -0.13581 -0.032299 -0.0036391 -0.27802 0.0012336 0.0049254 0.22624 -0.14756 0.68796 -0.20359 0.15027 0.50463 0.23162 -0.92621 0.35265 -0.11226 -0.2674 -0.30755 0.16678 0.2923 -0.10539 0.20625 -0.025561 0.10089 0.43659 -0.39195 0.070243 0.31922 -0.34229 -0.56866 0.27017 0.84818 -0.21053 0.080283 -0.62554 -0.35239 -0.51039 0.32886 -0.3542 -0.45247 0.19335 -0.01565 -0.018398 -0.10687 -1.0852 -0.1626 0.35401 -0.077877 0.15277 0.17233 0.36257 -0.24296 0.43842 0.086045 0.20535 0.50431 -0.41417 0.93791 -0.034478 -0.58063 -0.18509 0.6537 -0.17996 0.33936 0.59415 1.0236 -0.0030995 0.16075 -0.24311 -0.39399 0.9996 -0.57111 0.18335 0.21999 -0.2562 -0.47854 0.078772 -0.96154 0.6225 0.10351 0.27557 0.50119 0.33391 0.26535 0.67641 -0.26922 -0.01738 0.038679 -0.079696 0.22383 -0.6066 -0.58808 0.29116 0.050503 0.0094051 0.5612 -0.31691 -0.064023 0.7569 -0.11776 -0.55222 -0.55242 -0.45229 -0.45522 -0.068992 -0.23596 0.754 0.16103 -0.47835 -0.20019 0.13263 0.5083 -0.49863 0.51129 0.48774 0.29174 -0.42513 -0.76464 -0.1995 -0.3385 -0.49859 -0.8977 -0.39643 -0.98001 -0.20488 1.6176 0.62166 -0.015789 -0.50163 0.43691 -0.61824 0.42509 0.42308 -0.48721 -0.078865 -0.13355 0.13232 0.043699 0.30891 0.39856 -0.46686 -0.0018805 -0.22598 0.41559 0.067335 0.2477 -0.66387 0.032156 0.048969 0.006366 -0.060459 -0.31139 0.2825 0.37145 0.099889 0.17049 -0.68193 -1.4912 -0.49101 0.0027455 0.45963 0.74023 0.21024 -0.45758 0.1148 0.19754 -0.28785 0.57321 0.02429 -0.4793 0.75237 1.0851 0.19577 -0.29672 -1.2049 -0.44729 -0.63839 -0.29519 0.14096
10 0.13467 0.36013 -0.46974 0.19668 -0.33352 0.31918 0.24139 -0.30895 0.10436 -0.9071 0.39032 -0.34943 -0.54993 0.59324 -0.049213 -0.31383 0.46937 -0.19481 -0.59011 -0.29233 -0.59527 0.85245 -0.44129 0.56649 -0.24987 -0.30407 -0.19883 0.053161 0.24534 0.68316 0.52747 -0.01186 -0.59089 -0.31933 -0.5323 0.56962 -0.36838 -0.089988 0.041361 -0.84279 0.22988 -0.43327 -0.26243 0.0064943 -0.056613 -0.26601 0.70523 0.378 0.83894 -0.24179 0.46652 -0.090746 0.76366 -0.086228 0.10658 0.24982 -0.33441 -0.44665 0.62923 -0.3566 0.42626 0.54909 0.062399 -0.27123 -0.4575 -0.44326 0.072043 -0.024693 0.06699 0.15995 -0.38602 0.072197 0.30429 -0.53077 0.18553 -0.14595 0.29559 -0.70059 0.026013 -0.39691 -0.33998 -0.085366 0.0036872 -0.017075 0.2798 0.19171 0.037165 -0.089492 0.48461 0.26123 -0.48972 -0.60254 0.4877 -0.29327 0.11803 -0.23956 0.30913 -0.42981 0.14189 -0.43659 0.41311 0.051154 0.21539 -0.48811 -0.074795 0.062997 0.32957 -0.38796 0.0845 0.022915 0.49038 -0.045918 0.59815 -0.23727 1.1176 0.20913 0.21147 0.5547 -0.26958 0.3116 -0.032716 0.3135 -0.29412 0.067019 -0.050491 -0.36842 -0.024649 0.31995 -0.70181 0.044567 0.26444 -0.1435 0.18243 0.20875 -0.60375 -0.21901 -0.58932 -0.059565 -0.25081 0.35726 0.42751 -0.29301 -0.49693 -0.027938 0.33269 -0.17932 0.34286 0.45538 -0.61189 -0.21857 0.084422 0.10766 -0.099177 -0.25244 0.28973 -0.24409 -0.34257 -0.24324 0.030804 -0.18279 0.66709 0.040753 0.67368 0.25046 -0.64148 -0.20485 0.043101 0.10614 0.27945 -0.074314 -0.41397 0.18882 -0.54632 0.63985 -0.29073 0.45322 0.20988 0.36666 -0.0021367 -0.28307 -0.3692 -0.4266 0.14334 -0.25291 0.23435 0.038196 0.47243 -0.00514 0.18937 -0.043585 -0.26896 -0.48843 -0.97845 -0.31069 -0.21105 0.33045 -0.72003 0.0032313 -0.30917 0.40276 1.6428 0.0065186 0.042779 -0.064022 -0.42424 0.16089 -0.0703 0.76607 -0.24285 -0.25648 -0.17214 0.36814 0.14044 0.026489 -0.24008 -0.029413 0.18139 -0.63288 -0.3242 0.012975 -0.26355 -0.35655 0.054151 0.21512 -0.18911 0.34366 -0.187 0.2379 0.27407 0.013642 0.28519 0.1993 0.2361 -0.42845 -0.3705 0.24953 0.067583 -0.20142 -0.62828 -0.50116 -0.096413 0.20421 0.22446 0.58274 -0.66134 -0.22896 -0.43381 -0.06743 0.097405 0.63138 -0.028946 0.022911 0.053046 -0.43702 -0.15751 -0.45339 -0.20472 -0.12779 -0.064911 0.032073 0.19076 -0.80218 -0.48665 -0.47528 -0.30633 0.051309 0.039619 -0.043986 0.63918 0.025409 0.27312 -0.25225 -0.33053 -0.24267 -0.14506 0.71256 -0.76882 -0.081596 0.044368 -0.47131 -0.62641 0.48339 -0.26198 0.2843 0.18239 0.26707 -0.29262 -0.051514 0.14674 0.48007 0.172 0.2357 -0.1764 0.095199 -0.036027 0.16142 0.64286 0.70002 -0.055191 0.047834
11 -0.39732 -0.31629 -0.64461 0.18759 -0.14188 0.14755 -0.34041 -0.22563 0.81304 -0.99855 -0.55939 -0.0092992 -0.083447 0.99078 0.7123 -0.16618 1.2825 0.26258 -0.47701 -0.14095 0.20473 0.13332 -0.44579 0.55792 -0.16781 -0.14963 -0.39404 -0.47752 -0.054314 0.24302 0.34817 -0.42465 -0.44259 0.40409 -0.56497 0.73257 -0.49559 0.16548 -0.0019904 -0.24599 0.049039 3.4426e-05 0.74339 -0.213 -0.04495 -0.097711 -0.27987 -0.47368 0.49769 -0.21218 0.046044 -0.25622 0.35398 0.082828 -0.09771 -0.19733 -0.19471 -0.2817 0.63303 0.1526 -0.59803 -0.096643 -0.43938 0.46118 0.7031 -0.07753 -0.20828 -0.1017 -0.027069 -0.82428 0.42483 -0.22042 -0.20139 -0.83829 0.04636 -0.19833 0.61793 0.095777 0.1363 -0.71284 -0.73136 -0.95886 0.21333 -0.05593 -0.014053 -0.5859 0.40097 -0.4088 0.40328 0.7474 -1.1513 -0.71323 0.28262 -0.42066 -0.17251 -0.26242 -0.26574 -0.61428 0.78258 -0.53602 0.0010236 -0.18366 -0.12631 -0.96632 0.62643 -0.23797 0.68499 0.3139 -0.10951 -0.51459 0.96786 0.27352 -0.60225 -0.14036 0.0646 0.79676 -0.24181 0.019535 -0.40956 -0.088975 0.13156 0.21115 -0.025952 0.4727 0.34735 0.13933 0.26927 0.58624 0.32693 0.44891 0.027745 -0.84749 -0.15999 0.89859 -0.069426 0.10159 -0.79003 0.15693 0.16281 0.34461 0.14908 -0.35902 0.034733 -0.51379 0.010894 0.78304 -0.76967 0.37527 -0.12818 -0.2742 0.32038 0.23998 -0.16764 -0.44399 -0.018006 0.10637 -0.64908 -0.28543 0.42099 0.76656 0.65764 -0.77058 -0.098311 -0.25598 0.13859 0.087302 0.14131 0.77552 0.46427 -0.3887 0.44327 0.36399 0.37886 -0.14262 0.15595 -0.17078 -0.028101 -0.26472 0.057004 -0.037535 -0.28365 0.31225 -0.1633 0.4346 -0.020379 0.11154 0.58678 -0.35986 -0.43361 -0.044531 0.12559 0.36214 -0.21568 0.10019 0.13303 -0.052222 -0.3988 0.30543 0.0067686 -0.67278 0.80413 -0.83062 0.27672 0.24699 0.26482 0.23715 -0.24006 0.46101 -0.21648 -0.084782 -0.41014 0.069631 0.18126 -0.12062 0.099351 0.25361 0.53761 -0.15177 1.0356 -0.04739 -0.50564 -0.37681 0.01433 0.12261 -0.020028 -0.28569 -0.068831 0.01188 -0.50291 0.13335 1.003 0.040349 -0.26688 -0.46569 0.57009 -0.19917 -0.26971 -0.20086 0.56307 0.67014 0.71115 0.71853 0.65651 1.0091 -0.90844 0.33215 -0.29989 -0.13677 0.45734 0.09821 -0.063224 -0.22169 0.48185 -0.22257 -0.34142 -0.33742 -0.78119 -0.36426 -0.17143 -0.10927 0.33426 -0.28337 0.050571 -0.18874 -0.46319 -0.072728 0.29758 0.94705 0.12639 0.56711 -0.021317 0.31965 -0.37996 -0.70048 -0.11937 0.5573 -0.49073 0.41558 -0.21874 -0.66534 -0.06871 0.53773 0.15077 0.28589 0.10714 1.2028 -0.13529 0.21283 0.21025 0.09277 0.4986 -0.55722 0.010281 0.19743 -0.27807 -0.29274 0.436 0.34652 -0.42666 0.51219
12 -0.011268 0.071349 -0.55449 0.25043 -0.031606 -0.17841 -0.11377 0.31465 0.053562 -0.43003 -0.54363 0.10236 0.25328 0.027329 -0.20182 0.18327 -0.42141 0.53734 0.21642 -0.13951 -0.079713 0.43991 -0.073833 0.037648 -0.27391 0.054007 -0.33473 -0.10465 0.19269 -0.17636 0.36089 0.098082 -0.12479 0.4274 -0.14371 0.49622 -0.68063 -0.1911 -0.16428 0.095882 -0.085127 -0.082549 -0.42301 -0.94182 0.63877 -0.19294 -0.32327 -0.086188 -0.035678 0.33735 0.46356 0.63278 0.35609 -0.39931 -0.018817 0.23531 -0.56427 -0.0805 0.3852 -0.32989 0.47808 0.13196 0.01057 0.69022 0.71142 -0.15887 0.22394 -0.064817 0.3379 -0.017626 0.40725 0.055012 0.21215 0.28149 0.050379 0.14674 0.25092 -0.040524 0.074593 -0.10378 -0.60474 -0.12621 0.62631 -0.15076 -0.14421 -0.19291 0.044758 0.065758 0.49675 0.048587 0.30512 0.35206 -0.083342 -0.76158 0.10937 -0.01373 -0.20635 -0.7156 0.02312 -0.68895 -0.55274 0.18777 -0.38792 -0.58719 0.11495 -0.35556 0.24585 0.071935 -0.71636 -1.0709 0.35368 0.4911 0.27702 -0.42014 -0.49952 -0.07552 -0.050023 0.35395 0.23491 -0.21304 -0.75014 -0.44674 -0.17382 0.45758 -0.082935 0.14996 -0.41833 0.29438 0.41322 -0.26378 0.7569 0.42434 0.21732 0.56771 -0.2044 0.037196 -0.23999 0.17083 -0.13957 0.40391 0.16157 0.72773 -0.11647 -0.52945 0.43358 0.6153 0.3539 0.34353 -0.00085328 0.0072919 -0.069286 0.62763 -0.54666 -0.5517 -0.1344 -0.0067789 -0.10188 -0.31946 0.37453 0.77703 -0.2356 0.35176 0.20392 -0.096709 0.0067201 0.20634 -0.28212 -0.012076 0.2727 -0.42116 -0.0091642 0.80955 0.41701 -0.039972 0.18338 0.29199 -0.61205 0.3322 0.2211 -0.39283 0.44414 -0.21021 0.55387 0.059772 -0.36971 0.012482 1.0977 0.21883 0.77053 0.2073 0.32438 -0.18447 -0.20485 0.093103 0.053206 -0.34438 -0.3274 -0.35895 0.081849 0.35887 0.227 -0.27086 0.3875 0.14832 -0.056614 0.93156 0.51533 -0.12977 -0.67931 -0.009549 -0.041536 0.34873 0.48973 -0.091341 0.36397 0.17153 0.6231 0.27541 -0.054626 -0.22317 -0.09275 0.35842 0.020016 0.21195 -0.61061 0.43347 -0.61108 0.00054018 0.21298 -0.6721 0.3819 -0.058687 0.34711 -1.0464 -0.025193 -0.29076 0.335 -0.081128 -0.83724 0.031129 0.17705 -0.30139 -0.23061 0.14928 0.19033 -0.45616 0.13096 0.098268 0.087044 0.22127 0.082999 0.32354 0.14984 -0.89502 0.58127 -0.065215 0.12118 -0.32239 0.23079 -0.1517 -0.14163 0.095389 -0.063969 0.13865 0.2055 0.35065 -0.44467 -0.017665 -0.7421 0.29458 -0.2119 -0.55077 -0.64035 -0.23903 -0.62134 -0.26798 -0.47762 -0.54254 -0.7037 -0.22683 0.48757 -0.059769 -0.26749 0.84713 -0.32288 0.29953 -0.068253 -0.36316 -0.13209 0.01084 0.30444 -0.34446 -0.095385 0.41932 -0.32163 -0.0008539 0.53033 -0.24222 -0.26401 0.40197
13 0.111925 -0.114604004 -0.1318635 -0.332335 0.086399995 -0.0756675 0.168115 0.13322 -0.43322 -0.29243404 0.123031005 -0.2507945 0.066943 0.81150997 0.35606998 -0.01474775 -0.089769855 0.317285 0.35843998 0.574565 -0.1732405 0.19441 0.097242504 0.56919 0.0117345005 0.041985005 -0.29689 -0.22339 -0.39885998 1.022615 0.878165 0.012910008 0.029754996 0.34754348 -0.511235 0.355995 0.431135 -0.10850899 0.0254035 -0.49319 -0.116539 -0.199395 0.13345 0.272464 0.16174501 -0.013664 0.40214503 0.057949997 0.45812 0.009520002 0.120640494 -0.21237351 0.321975 -0.15446255 -0.36484998 -0.292055 -0.32805502 -0.2591 0.526415 0.008129999 0.015239999 0.1861365 0.28638 0.007010013 0.1746995 0.338385 -0.197143 -0.15285 0.070048496 -0.431755 -0.2319135 -0.555465 -0.032179996 0.1052005 -0.105357006 0.17634949 0.162583 0.0435685 0.287535 -0.1920695 -0.18503 -0.44557 -0.0799855 -0.564265 0.0755835 -0.23756 -0.092819996 -0.045071498 -0.442065 0.24638 0.308625 -0.60714495 0.053129498 0.026185006 0.33563 -0.077175 0.461565 -0.095463 -0.311555 0.1895175 -0.236801 0.199244 -0.12452 0.2564295 0.1302865 -0.14363 -0.0323385 -0.383625 0.361385 -0.41919 -0.11033 -0.37318 0.090671 0.123155 0.00029949844 0.0020100027 -0.49546498 0.46416503 -0.55730003 0.45306998 0.18141 0.755955 -0.3220685 -0.2301925 0.128489 -0.033132 -0.44050997 -0.240944 0.0338459 0.40579998 -0.47279 -0.2010045 0.450355 -0.64031994 -0.751825 -0.2649185 -0.026572 0.578295 -0.266 0.579275 0.443995 0.32857502 0.3272215 -0.312675 0.8825 0.177295 -0.080169 -0.46652 -0.28195 -0.274355 0.571495 0.427795 0.35698003 -0.619225 -0.372015 -0.14418 -0.307565 0.0946555 0.13678 -0.464965 0.47869998 0.29672 -0.06501 -0.47087002 -0.22918001 -0.235196 0.205838 -0.3357845 -0.0050500035 0.38494498 -0.085845 -0.44939998 -0.72081 0.405725 0.17587301 0.411525 -0.46164 -0.521685 0.256888 -0.011645004 -0.346645 -0.018665 -0.230775 0.101874 0.60781497 0.515715 -0.366865 0.17144 -0.041609995 0.134647 -0.477965 0.20163 -0.29561 0.344285 -0.0057149976 0.31745 -0.390055 0.43014002 0.048235 -0.186724 0.40523997 -0.0064394996 -0.28328502 0.122896 0.10344501 -0.11496 -0.018240005 0.22362 -0.386175 -0.083495006 0.28035 -0.0370085 -0.0037390003 0.0028479993 -0.19015451 0.56599 -0.108385 -0.13400349 -0.29999 0.25871003 0.1360445 -0.35055 -0.462975 -0.271725 -0.5856 -0.132025 -0.202125 -0.167863 0.54376996 0.352195 0.1910034 -0.0927815 -0.08803725 -0.280112 0.31922 0.1915015 0.144705 -0.22288 -0.363575 0.0812705 -0.102317 -0.34876 -0.24408501 0.271164 -0.838145 0.26909 -0.92867005 0.1289155 -0.079761 0.641995 0.167611 -0.0686805 -0.0488785 -0.098415494 -0.0443241 0.409585 0.086663 -0.383655 0.3281445 0.047655564 -0.197285 -0.47892 0.478665 -0.371265 0.1762595 -0.25845 -0.4503475 0.62705004 -0.044080004 0.388255 -0.134275 0.480865 0.55092 -0.0454405 -0.0891215 -0.105531 -1.17355 0.152705 -0.321727 0.065696 -0.253333 -0.16194049 -0.09660749 -0.14905 0.166292 0.077091 -0.57379496 0.358085 -0.102874495 -0.119720496 0.1326399 -0.31865 -0.502835 -0.4076 0.35680002 0.30143 -0.226075 -0.019311499 -0.055143498 -0.085342005
14 0.25377336 0.03393166 0.04149416 -0.22355 0.053990003 0.34925666 -0.07750666 -0.20278333 -0.17883565 -1.2524034 0.026282333 0.028810004 0.08280001 0.28767964 0.23259 0.030415004 0.20974101 0.10885 0.050258 -0.22771335 -0.22631 -0.06392334 0.34926733 -0.32260332 0.32272068 -0.15245533 0.21497333 0.166044 0.0012933314 0.63300997 0.40720332 0.17029667 -0.12860334 0.31189334 -0.18540667 0.171113 -0.303965 -0.17941667 -0.10229868 -0.13328333 -0.15818334 -0.16803335 0.09555 -0.4554533 -0.0076833367 0.084259994 0.45517334 -0.01997567 0.286458 0.047776997 0.20787065 0.052840997 0.043184336 0.39402667 -0.103252 -0.046554 -0.017233333 0.16561301 0.13904865 0.23078667 -0.43407333 0.19280267 0.51869005 -0.102997 -0.0006433328 -0.20487632 -0.42873967 -0.52204335 0.09721234 -0.21307643 -0.08035334 -0.45396996 -0.116 -0.10648999 0.101519994 -0.09335401 0.03255133 0.33163667 -0.07533377 -0.31244332 0.065576665 -0.35678998 -0.5605467 -0.15877335 0.07748883 -0.019714335 0.12432668 0.038064994 -0.14597 0.15262 0.30277935 -0.06518 -0.13216333 -0.28690067 0.21737333 -0.20123 -0.19841166 -0.319922 -0.268469 -0.17531665 -0.117274344 0.063185334 -0.16472314 0.015455666 -0.30706334 0.10712334 0.053731006 -0.10963867 -0.06751367 -0.0015996695 -0.014381965 -0.26858068 0.17372799 0.087720335 -0.14363666 0.043645 -0.057119984 0.49967667 0.2227482 -0.18167333 -0.22789335 0.14564668 -0.3350033 0.37001333 0.061883334 -0.02832666 -0.11168001 0.005915998 0.28826532 0.11219334 -0.036320332 0.017537333 0.09301334 0.0700809 -0.3381733 -0.114611335 0.23007 0.33454666 0.15703766 0.38984334 0.24849002 0.21661334 -0.19087334 -0.5450167 0.23848669 0.1146 0.31265998 0.32906666 0.05959 -0.13164668 0.14557767 0.49103698 -0.18958001 -0.43694004 -0.27200332 0.036397997 -0.037276667 0.0029833417 -0.048964668 -0.08614466 -0.021944666 0.09300334 0.5374567 -0.10525667 0.31315666 -0.14051199 0.16203867 -0.036863666 0.109317996 0.41542366 0.102844335 0.037654657 -0.35390005 0.03341667 0.14278373 0.24902934 0.12472999 -0.03176333 0.15101567 0.031786673 -0.28397664 -0.17736666 -0.26782334 -0.0014489988 -0.19743426 0.06457666 0.117875665 -0.124819994 0.023713736 0.12100333 -0.07536233 0.5573134 -0.09518933 -0.048963327 -0.0023413326 -0.24452066 -0.58731 0.12770666 -0.1753 -0.036596674 0.48443666 -0.05125733 0.17004667 -0.0069129965 0.31553334 -0.26332334 -0.3874137 0.19927333 -0.26511368 -0.0023816724 -0.017873326 0.16729967 0.33190334 0.008503665 0.18980266 0.2928457 0.08348068 -0.048252 -0.15689068 0.16398199 0.5348897 -0.11941076 -0.122777335 -0.12668334 -0.13032666 -0.36855665 -0.21796031 0.07786 0.19788332 -0.37039003 -0.114104666 -0.16387402 -0.16053998 0.15232067 0.33242333 -0.23698668 -0.10041668 -0.18312466 -0.18011665 -0.14401999 -0.05901307 -0.07322333 -0.13387367 0.3941833 -0.47409666 -0.100159325 -0.49252665 -0.11364701 -0.106736004 0.25538066 -0.12916668 -0.17387001 0.2095 -0.24789667 0.51424664 0.19041856 -0.32916567 0.0013093352 0.043113332 0.41584 0.059223335 -0.052334335 -0.108883 -0.29432002 0.25313666 -0.039674662 -0.21756034 -0.206454 -0.24721998 0.21612799 0.13606334 0.28833267 0.059355676 -0.30631667 -0.021497466 0.47644666 -1.7048 -0.6097433 0.10363 -0.09874967 -0.11592334 0.21525002 0.10446566 -0.11534334 0.49501336 0.062218327 0.16961001 0.30563998 -0.11522297 0.15135333 -0.25321665 -0.094644666 0.08948467 0.062626 0.21817666 0.33591667 0.29932866 -0.31978667 0.15416999 -0.14568765
15 0.15819834 0.21707332 0.06142667 -0.25599533 -0.17017901 0.24189 -0.19062667 0.13161634 -0.37325 -1.07615 -0.19164734 -0.094097346 -0.109297 0.21952732 0.15112667 0.101753004 -0.006700327 0.108055 -0.22728002 0.04888332 0.3484933 0.34783468 0.5752693 0.24677669 0.113304 0.32697666 0.07230867 -0.31791332 0.49570665 0.32592934 -0.073753335 0.22001033 0.0832 -0.22519499 -0.83377665 -0.009066661 0.14332266 0.10625433 0.07101267 0.20953 0.17861168 -0.21380334 0.22032027 0.14166167 -0.29986998 -0.24156933 0.08111334 -0.4710733 0.132173 0.37605867 0.101830006 -0.113287 -0.39482665 0.46059334 0.014908001 0.19113 -0.24114001 0.13489 -0.026752999 0.040362 -0.15846333 -0.19302666 -0.08862334 -0.24116234 0.032846663 -0.011963934 -0.062018674 -0.13344367 0.21748634 0.29340336 0.0181103 0.390553 0.39265332 -0.3593267 0.17675032 -0.07483333 0.17770334 0.17597167 -0.010515 -0.22413333 -0.033486664 -0.10509667 0.09315699 0.198409 0.3262973 0.18034767 0.17255668 0.12665667 -0.17444001 0.07874967 0.047772 0.02653267 -0.29088333 0.05787 -0.18009 0.42875 -0.14308466 0.35081664 -0.057809 -0.35413668 0.10952734 0.0005196631 -0.33694664 -0.016386667 0.276059 -0.32120335 -0.25146332 -0.31397668 0.12297801 -0.027489332 0.17302167 -0.012829999 -0.228065 0.25113666 0.36903206 0.059371304 -0.10058 0.19774835 -0.26871035 -0.31932667 0.13844034 0.112863004 0.46033564 0.19979031 -0.35260963 0.24989267 -0.0647085 0.217816 -0.09730667 0.04976334 0.08826799 0.23081867 0.025564333 -0.011403327 -0.09009 0.36066332 0.38570333 0.1012171 0.13394667 0.49009332 -0.04311 0.126235 -0.28305998 -0.13666703 0.056754667 0.012219002 -0.11783334 0.31623667 0.0014270047 -0.12472267 0.38106334 -0.122988336 0.048673343 0.013755001 0.11864332 -0.150132 -0.17755 -0.16435198 -0.12204334 0.11559332 0.26153663 0.55437666 -0.12597667 -0.31691065 0.5244133 -0.19966601 0.29222667 0.25074998 -0.38296 0.16439633 0.012969665 -0.11503001 -0.50314665 0.3285233 0.31948334 -0.162688 -0.14815001 -0.010527 -0.25456 0.189252 -0.06459533 -0.2144 0.103614114 0.08288666 0.15958667 -0.01156533 -0.058219332 -0.27540198 0.22652332 -0.025223335 -0.20838167 -0.034268666 0.14563833 0.28033 -0.091084994 0.028654998 -0.20643999 -0.013996673 0.05375467 -0.17981966 0.63678 0.041146677 0.06345833 -0.115783334 0.20931001 0.32863334 -0.357739 0.21435 -0.54665667 -0.1031467 -0.13020766 0.14181334 0.21894999 -0.16307665 0.18867533 0.2165 -0.030061333 0.3423233 0.012226331 -0.17756267 -0.027160004 -0.135032 -0.099951 -0.23176134 -0.27773002 0.23217666 0.10336668 0.17050667 0.065465 -0.07459666 -0.08516001 -0.034121662 -0.24564934 -0.128418 0.33134001 0.32667768 0.5129433 0.09957733 -0.06979666 0.045662668 0.18339002 -0.32930335 -0.02267767 0.057636335 -0.52288336 -0.010510002 -0.015683329 -0.07921333 -0.32033598 0.5345177 -0.1618744 -0.18361999 -0.014916658 0.004170656 0.25067 -0.094739996 0.06582933 -0.12577234 0.019093335 0.21688335 -0.034057666 -0.166259 0.23390932 -0.0321395 0.11090999 -0.065808766 -0.024166673 -0.027840003 -0.29597768 0.015013327 0.17951667 0.023646673 0.05056333 -0.026106661 0.220307 0.26842 -1.6557335 -0.012085331 0.16668 -0.09131333 0.14378168 -0.036666673 -0.20904666 0.043635666 0.066882335 0.059617337 -0.050809335 0.16177332 -0.10614833 0.049134333 -0.043437004 -0.071055844 0.21564667 0.34164 -0.09646001 0.5166733 0.25498268 0.06160666 -0.15379333 -0.062813334
16 0.325 0.1805 0.25649 -0.060296 -0.075589 0.41723 -0.31812 0.039417 -0.51788 -1.1948 -0.72533 0.040568 0.012589 0.43265 0.17429 -0.064986 0.36919 -0.068265 -0.12695 -0.37281 -0.13442 0.16585 0.80537 0.53364 0.46545 0.17967 0.030986 -0.23941 0.48319 0.81344 0.15999 0.54998 -0.49736 -0.081975 -0.76931 -0.35355 0.34534 0.4053 0.059969 -0.25279 0.16258 -0.31699 -0.0059592 0.16885 -0.39075 -0.4461 -0.50169 -0.27183 -0.085631 0.54093 0.33313 0.021409 -0.3972 0.38484 -0.15852 0.20719 -0.38692 0.11625 0.074881 0.049096 -0.32895 -0.11897 -0.22404 -0.039237 0.17946 -0.3035 0.34006 -0.22088 0.092979 0.91525 -0.13324 0.57064 0.15624 -0.62831 -0.034779 -0.30593 0.46217 -0.054615 -0.19464 0.11524 -0.31879 -0.3432 -0.069608 0.36548 0.4129 0.43776 0.04652 0.1251 0.05559 0.28613 0.059576 -0.18675 -0.70928 0.11763 -0.32851 0.33192 -0.17134 0.17385 0.021883 -0.30847 -0.17809 -0.36151 -0.11471 -0.24399 0.077497 -0.12094 -0.12144 -0.29472 0.018934 0.042442 0.22061 -0.39434 -0.38599 -0.27117 0.75924 0.41894 -0.24139 -0.069565 -0.13135 -0.51718 0.087834 0.091939 0.51803 0.6375 -0.38549 0.55408 0.0027155 0.026878 -0.22489 0.2378 -0.41866 0.45811 0.037875 0.14303 -0.12328 -0.18637 0.15186 -0.045776 -0.11376 0.57606 -0.38862 0.18662 -0.11758 0.063551 0.030864 0.30598 -0.4284 0.33379 0.30784 0.12902 0.8751 -0.023472 -0.32318 0.11963 -0.18617 -0.12995 -0.594 0.090054 0.46026 -0.28619 -0.37528 0.58826 0.21493 -0.085202 0.34121 -0.086168 -0.15178 -0.10777 -0.25196 0.31403 -0.069541 -0.33919 -0.48127 0.1085 0.62404 -0.34799 0.20504 -0.034863 -0.53998 0.28542 0.10546 0.52601 0.44622 0.20435 0.30877 0.080433 -0.043168 -0.49929 -0.1767 0.34769 -0.25957 0.19395 0.25173 0.34489 -0.069335 -0.19984 0.18049 0.12461 0.14613 -0.26821 0.73784 -0.43846 0.074675 -0.45031 0.26061 0.24641 -0.63208 0.60303 -0.6547 -0.47832 -0.054123 0.47461 0.47346 -0.76662 0.22409 0.27493 0.052833 0.53884 0.081199 -0.059428 0.20404 0.028894 0.051369 -0.52312 -0.17763 0.19549 -0.26217 0.50998 -0.094825 -0.018256 -0.65394 -0.47055 -0.18816 -0.29871 0.11917 -0.006217 0.37613 0.10342 -0.05749 0.14023 -0.22909 -0.30063 0.19795 0.15138 -0.22529 0.21172 0.22859 -0.17106 -0.50485 0.86216 -0.012153 -0.42727 0.55782 -0.34485 0.25575 -0.17574 0.18075 0.018493 -0.44561 0.6823 -0.16479 0.29818 0.44631 0.0098615 -0.43718 -0.24199 0.2863 -0.16877 -0.7201 -0.26502 0.10156 0.46067 0.24459 0.22997 -0.016989 0.21935 -1.4502 -0.052556 0.35344 -0.33559 0.18722 0.18116 0.10385 -0.060139 0.39983 0.071362 0.062893 0.10362 -0.40076 0.21162 0.34187 -0.054249 0.21316 0.4826 0.20272 0.49339 0.071958 0.02472 -0.33424 0.10542
17 -0.019721001 0.21714 -0.350005 -0.524725 -0.50386 0.193899 -0.021792501 0.167635 0.13135 -0.209855 0.041364998 -0.004237501 0.08931 0.49679 0.51725 -0.39447 0.2096135 0.091825 -0.196295 0.096784994 0.42650497 0.26173 0.053323 0.12022 -0.055999994 0.14122 -0.20988 0.14379999 0.78854 0.431445 0.28709 -0.128225 -0.223885 0.014965013 -0.36369 0.39292502 -0.071337 0.0016350001 -0.007949993 -0.341815 -0.103157 -0.2330045 -0.18766001 -0.4343 0.02762635 -0.1447295 0.485115 -0.272715 0.22784498 0.33264 0.140895 -0.16201 -0.42493 0.174395 -0.32218 -0.4927 -0.31656 0.047414996 0.043190505 -0.32747048 0.0932475 -0.17934 -0.073966 -0.65338 0.57514 0.1183125 -0.48057002 0.04342501 -0.246085 -0.036491 -0.083362 -0.109855495 -0.08037999 -0.48661 0.74539 -0.42878002 0.145655 0.144436 -0.05245 -0.36621 -0.28115675 -0.0857005 0.152367 -0.1765475 0.0478435 0.20810056 -0.17891501 0.34304 -0.191266 0.15422 0.077345006 -0.016102001 0.039767504 -0.065685004 -0.148985 0.605565 -0.39855498 -0.1845 0.073513 -0.42879 0.09158501 0.24092351 -0.0939325 -0.213945 0.113938004 -0.584395 0.4117895 -0.193125 -0.19523 -0.42328 0.386845 0.36967 0.033340998 0.015159499 0.366965 -0.168794 -0.1316565 0.60631 0.14189 -0.0377567 0.052529998 0.05092265 0.71209 -0.1320475 -0.636195 0.20947 -0.327955 0.41473997 0.182335 -0.022489995 0.127012 0.09780001 0.0024349988 0.151349 0.054965004 0.38503498 0.32964998 0.53242505 -0.24491 0.49535 -0.087565996 -0.481135 0.3526446 -0.165574 0.65756 0.27376002 0.094649 0.1921585 -0.127205 -0.56596 -0.077215 0.111521 -0.18965 -0.90642 -0.14291 -0.467385 -0.31624 -0.31064498 -0.114020005 0.41091 0.08765499 0.280355 -0.45928 -0.019741 0.365475 0.118415 0.745095 0.22039 -0.041512497 0.116964996 -0.33436352 0.07295801 -0.2761815 0.46249 -0.050366502 0.102126494 0.136475 0.24064499 -0.2545785 0.045646504 0.101104 -0.25711 0.47073498 0.0983585 0.3719 -0.1205635 0.75234497 0.037 0.59376 -0.42485 -0.045100003 -0.071467 -0.41441002 0.098847 0.020535 0.200055 -0.206928 0.403425 -0.022992 -0.164155 0.23240499 0.086515 0.45193 0.21598999 0.56457996 -0.126185 -0.072739996 0.318505 -0.792505 -0.35635 0.25635302 0.320385 0.48606 0.24025351 0.573135 -0.0298055 0.625345 -0.015106 -0.114924 -0.009163 -0.228915 -0.135975 -0.32244 -0.013214998 -0.081809 0.48874497 -0.116514504 0.587205 0.20038 -0.073630005 -0.0006190017 -0.48926002 -0.3667705 -0.0458285 0.443915 0.32082498 -0.025882501 0.0540165 -0.423825 0.005885005 0.051069997 -0.20877084 -0.34483498 0.888515 -0.218661 0.113075495 -0.42106998 0.041837998 0.28985 0.616055 0.253775 0.245856 -0.35280952 -0.302794 -0.088525 0.15822 -0.250745 0.033650003 0.368224 -0.27155 -0.40339 -0.51133347 0.0938455 -0.182595 -0.2328035 0.05584 -0.1053525 0.3254185 0.1428525 0.25054398 0.24730201 0.083515 -0.18566999 -0.648785 -0.061104983 0.60582495 -0.818465 -0.07936001 -0.946285 -0.343185 0.0172395 -0.0189415 -0.3245505 0.201855 -0.48300502 0.481345 -0.0481345 0.36793 -0.36499 -0.25309 -0.032971 -0.46824503 0.0762285 0.30117 -0.17458628 -0.1741485 0.2029625 0.56613004 0.34996 0.21703151
18 -0.095939 0.20688 -0.48834 -0.40689 -0.81873 0.049768 -0.02878 0.21263 0.15955 0.37427 -0.19623 -0.057785 -0.01862 0.58719 0.39078 -0.19056 0.44768 0.30945 -0.0856 0.60963 0.62059 0.28587 0.054853 0.13126 0.20363 0.24358 -0.23841 -0.22644 0.78868 0.39372 0.40191 -0.45051 -0.26168 -0.35568 -0.25304 0.47475 -0.045766 0.2814 -0.41974 -0.38894 -0.097344 -0.38546 -0.24269 -0.54794 0.0055437 -0.083319 0.30865 -0.22995 0.2898 0.30468 0.59347 -0.17315 -0.99333 0.24327 -0.42078 -0.64301 -0.49224 0.30031 0.17684 -0.56797 0.069135 -0.31013 -0.11746 -0.91998 0.82132 -0.048685 -0.29304 -0.34394 -0.36627 0.025748 0.035206 0.050519 -0.62363 -0.48034 0.74475 -0.70086 0.53223 0.2728 0.05062 -0.4453 -0.56937 -0.21997 0.21146 0.062925 -0.010853 0.41499 0.23089 0.36481 -0.015462 0.15775 0.29201 0.074906 0.12755 -0.096506 -0.46405 0.45379 -0.30644 0.10541 -0.099564 -0.16977 0.60176 -0.088083 -0.054225 -0.28571 0.27965 -0.12979 0.086559 -0.51097 -0.17132 -0.47033 0.3614 0.49384 0.13494 -0.050936 0.4474 -0.065328 -0.012263 0.77502 0.11749 -0.082874 0.012003 0.11183 0.65485 0.068875 -0.8219 0.12443 -0.20451 0.30975 0.24239 -0.33537 0.014214 0.33485 -0.16308 0.035978 0.38947 0.47822 0.2863 0.67742 -0.17241 0.47428 -0.12773 -0.53283 0.0030892 -0.28255 0.85124 0.20857 0.091275 0.46496 -0.10627 -0.70927 -0.32828 0.001342 -0.17641 -0.57764 -0.12773 -0.20013 -0.47173 -0.44775 0.11139 0.59915 -0.10971 0.40904 -0.4917 -0.088123 0.32943 0.46034 0.61373 0.40173 -0.06924 -0.39641 -0.61409 -0.083964 -0.079953 0.17675 0.099577 0.068163 -0.15902 0.33984 -0.039707 0.15734 -0.013822 -0.0179 0.51284 0.22359 0.23629 -0.19656 0.50676 -0.33561 0.92487 -0.29923 0.13372 0.034736 -0.11874 0.072704 0.20579 0.2843 -0.016756 0.41767 0.031727 -0.08946 0.78532 0.36004 0.60617 0.32 0.47701 -0.46806 -0.36029 0.097 -1.0403 -0.22133 0.089046 0.24136 0.46946 0.056037 0.63751 -0.023808 0.65736 -0.049006 -0.18141 -0.066138 -0.23281 0.07718 -0.28491 -0.17091 -0.19603 0.49073 -0.030639 0.32631 -0.13861 0.15006 -0.077913 -0.64005 -0.76418 -0.17838 0.17798 0.53075 -0.13425 0.03007 -0.29174 -0.2769 -0.20996 -0.40839 -0.3118 0.95509 -0.44854 0.17601 -0.62608 0.14254 0.20658 1.0492 0.38499 -0.031818 -0.72104 -0.069458 0.11626 0.26363 -0.1869 -0.10334 0.76383 -0.30579 -0.42109 -0.012067 0.11229 -0.2358 -0.016267 0.21342 -0.038565 0.099217 0.067635 0.53168 0.053034 -0.19518 -0.11922 -0.89516 0.39647 0.67563 -0.84282 -0.53047 -0.87217 -0.36657 -0.092801 -0.021249 -0.68139 0.56155 -0.79672 0.26875 0.041251 0.62873 -0.25528 -0.12628 0.018936 -0.64837 0.21697 0.39469 -0.00013257 -0.054287 0.47813 0.59381 0.17834 0.50796
19 -0.01196 0.59971 -0.021445151 -0.294245 -0.23681949 0.28614 -0.29795 0.16213399 0.014460001 -0.738095 0.35646498 0.269465 0.10218501 -0.32104516 -0.046150003 -0.094061494 -0.13444999 -0.031794995 -0.059105 -0.381295 -0.00093500316 -0.358505 -0.50853 -0.299595 0.52046 -0.053897 -0.07315499 0.456345 0.14047 0.109803006 0.08032 0.17602201 0.26381 -0.39876 -1.8409 -0.1566175 0.21241751 -0.047574997 -0.528335 0.035203498 0.1518 -0.151685 0.064675 0.321547 0.09162 -0.0015999973 0.324175 -0.21928 -0.1392505 -0.07227501 0.040397998 0.34237498 -0.040649995 -0.26337498 -0.26219 -0.170875 -0.373635 0.35415 -0.003645001 -0.411835 0.06243001 0.22101896 -0.521485 -0.33023 0.0422415 -0.2458 -0.027716998 -0.071639985 0.33901 -0.374385 0.4633 0.0061035007 0.09371501 -0.052319 -0.406775 0.072603494 0.36502 -0.20259999 0.58402 -0.11636 0.26328498 -0.0933545 0.085668005 -0.38594 0.2711185 -0.17724499 -0.59254503 -0.25479499 0.15932499 0.2838695 -0.210475 0.43505 -0.14823025 -0.261805 0.500065 0.675895 -0.37245 0.28618002 0.091308 -1.29545 0.018666498 -0.093863 -0.06436001 -0.032260004 0.069033995 0.0007604994 0.1357805 0.13739 -0.39559498 -0.07352155 0.026034996 -0.24897999 -0.126255 0.39391002 0.038220003 -0.13623498 -0.077227004 0.29151 -0.39042 -0.079846 -0.068985246 -0.0330075 0.0580945 0.23820499 0.007905006 0.307675 -0.03372001 -0.06141001 -0.0933595 -0.15500149 -0.21499 0.27795 0.199575 0.089502946 -0.01359025 0.0998725 0.558255 -0.1260295 0.27238 0.69721 -0.245375 0.099883 0.335185 0.39508998 0.18594001 0.397105 0.11312002 -0.16068 -0.2293 -0.0978508 0.1100315 -0.155762 -0.0502 -0.55163 0.084206 -0.348555 -0.29272002 -0.07988 -0.80792 -0.26536 0.1349 0.0473925 -0.414372 -0.1427255 0.518715 0.315765 -0.17914501 0.311633 0.0806135 0.00027500093 0.11365 0.0007895003 -1.04197 0.180245 -0.2588485 -0.32384503 0.055095002 0.16320999 -0.11969035 0.56624997 0.010715008 0.205311 0.444545 0.06459501 -0.0011838201 -0.056305006 -0.1854725 -0.078480005 0.048704997 0.1671363 -0.090804994 0.39051902 0.46482003 0.0747235 -0.23094499 -0.41515502 0.0897265 0.41859502 -0.0022799969 0.2862 1.173895 0.1318205 0.1647445 -0.33951002 0.168095 -0.80152 0.040910006 0.157615 0.0393315 0.105555 0.0966265 -0.18992501 0.12801999 0.15087 -0.22023 0.007865004 -0.0976655 0.082857 -0.073478006 0.26890498 -0.19951667 -0.239885 -0.36080998 0.22009 0.10292 -0.2110365 0.1413745 0.00023500621 0.191573 0.20150499 -0.31571501 0.0588265 -0.03068 -0.258385 0.28743 0.008703001 0.23176 0.106827 0.169451 0.21627 0.19129054 0.3785515 0.124604985 -0.12398 -0.19466999 -0.42438 -0.3395364 0.308305 0.10130499 -0.036754996 0.2339305 0.2262625 -0.027335 0.1014005 -0.026145004 -0.1137835 -0.076110005 -0.029709995 -0.043550007 -0.352485 -0.727445 -0.22463998 0.054180503 0.436765 -0.083305 0.09296 -0.030559994 -0.123708494 -0.005240001 -0.019489 0.112954006 0.18164 0.032331496 0.0672815 0.095475 0.0050150007 -2.0492501 0.037455 -0.0655835 0.0355155 -0.076583505 0.29176 -0.122684985 0.1024705 -0.55881 -0.119196996 -0.32978648 0.030875 -0.378315 -0.407045 0.017815009 0.228735 -0.678955 0.028 0.107669495 -0.09260599 0.63429 -0.13960999 0.084201 -0.78562
20 -0.010770331 0.25953665 0.031293333 -0.10620666 0.06884333 0.45663333 -0.13636 -0.323629 -0.0004473341 -0.39365003 0.01674666 0.40605333 -0.23664333 -0.22472365 0.19811 0.33522335 -0.12902333 0.0072266706 0.18903 -0.43063936 -0.16668133 -0.2597933 -0.099585675 -0.09449667 0.018824002 -0.42864266 0.09795767 0.028042004 0.19702667 0.6001433 0.057059992 0.16449034 -0.27423334 0.31555668 -0.07477666 -0.029126666 -0.50915664 -0.057809997 -0.11180067 -0.38582 0.07477999 0.06513667 0.03034257 -0.25955668 -0.056029994 -0.22244667 0.47350335 0.04396334 0.16727333 0.084587336 0.16253334 -0.040123995 -0.0046190023 0.26693335 -0.17552666 0.17056601 0.010918667 0.10173301 -0.09333134 0.41967 -0.13297284 0.25751266 0.31835136 0.0031166673 0.3670567 0.068557 -0.601093 -0.09343334 0.0096309995 -0.24138667 -0.014798 -0.25897765 -0.038289 0.07005333 0.25655332 -0.017784001 0.19354999 0.18849665 -0.03497377 -0.34796667 -0.08461332 -0.39371002 -0.2612607 -0.116834335 0.066115834 -0.087866135 0.139212 -0.08416166 0.22785334 0.29061732 -0.19878066 -0.028323332 -0.098976664 0.034819346 0.18405499 -0.20704333 0.01707833 -0.16089766 0.09280334 -0.42362332 -0.11252999 0.08844 -0.19856334 0.013328006 -0.34063998 -0.006979992 0.054857668 -0.024472669 -0.18663035 -0.40828001 0.23339666 -0.05563666 0.12102201 -0.008210331 -0.26956 -0.0115479985 -0.2677833 0.35084116 0.13595453 -0.27137333 -0.31909665 -0.21205 -0.6396733 0.31452 -0.020235 0.039863333 -0.034069996 -0.15762334 0.09164867 0.22481667 -0.032974664 -0.005650004 0.08625334 0.2735256 -0.5322333 -0.049633328 0.094163336 0.032123536 0.06261867 0.18343334 0.27436998 0.39141667 -0.483716 -0.22901332 0.43170467 0.06606666 0.042921003 0.13206334 0.16727632 -0.124821335 -0.25663936 0.52049 -0.26614666 -0.33390665 -0.6094534 0.032173336 -0.24050133 0.19948001 0.0018286655 0.084341325 -0.42032 0.16383667 0.35065666 0.062199667 0.33742666 -0.041033328 0.09857767 0.38921666 -0.015469332 -0.13782966 0.07169666 -0.17292233 0.06763666 0.098172 0.029826662 -0.010384004 0.1087 0.19709265 -0.011703342 -0.24363399 -0.0047266684 -0.075563334 0.022423327 -0.24518101 -0.19397835 0.075926654 0.060824335 -0.328004 0.19358802 -0.47766337 0.34789166 0.4046 0.087789334 -0.27096668 0.0006954347 -0.060885336 -0.50756 -0.0042493395 0.018787334 -0.19292998 0.049374003 0.15224732 -0.0047856667 0.335987 0.27144 -0.268894 -0.413805 0.048450004 -0.36987165 0.08384067 0.08556666 0.36082065 0.080120005 0.023177007 -0.007204672 0.17167999 -0.14765167 0.15429868 -0.18778467 0.036856335 -0.016086966 0.1533 -0.30294332 0.13405667 -0.31507 -0.0026906729 -0.07218367 0.15973 0.01981 -0.44948664 -0.19380067 -0.132843 -0.133537 -0.06942367 0.37178335 -0.13114668 -0.09163234 -0.24551332 0.23756833 0.14171001 0.0684416 0.044763327 -0.34443036 0.39452764 -0.20929062 -0.020423999 -0.4049683 0.06542933 -0.061412733 0.79345995 0.017026663 -0.14031734 0.36717334 -0.24572335 -0.07855333 0.14599855 0.27025536 -0.20907001 -0.23689665 0.18422 -0.08649 0.29154 0.186267 -0.36098668 0.5254433 0.14295334 -0.033313353 -0.011907001 -0.263 0.5157433 0.025617203 0.23824 0.117166005 -0.16896333 0.36485586 0.33254 -1.1557533 -0.20775335 -0.08446967 -0.042512994 -0.06853467 0.10061333 -0.105268 -0.047209997 0.23264201 -0.12131833 -0.015700003 0.22347331 -0.102479994 0.16991 -0.25709668 0.10606267 0.106474064 0.17003334 0.19037133 -0.044066656 0.32359335 -0.105286665 0.09875334 0.024542337
21 -0.07964334 -0.0011536678 -0.44376 -0.34368667 -0.43346834 0.24523665 -0.10952834 0.11502167 -0.3224747 -0.49144998 0.09198133 -0.05230568 0.11593 0.033153933 0.08489567 -0.31631166 -0.0342467 -0.31618503 0.037187334 0.35598302 0.23026 0.35228333 -0.06345954 -0.109711 -0.15648167 -0.082434006 -0.20972633 0.20971 0.49439397 -0.13563578 -0.40213832 0.22654498 -0.11097 0.06107 -0.2249 0.78748673 -0.15978 0.13439567 0.06697633 0.09130299 0.31659666 -0.41051665 0.37072432 0.027289996 -0.38448 0.11136333 0.42782 -0.33024332 0.30437165 0.10128176 0.068718836 -0.47971532 -0.28729 0.29699335 -0.19345467 -0.053674337 0.32410467 0.07551666 -0.026591003 -0.38205668 0.27552 0.2632067 0.28023836 0.08713999 0.23856334 -0.26555133 -0.12189233 -0.15502234 -0.5940033 0.18451 -0.38157666 0.038384333 -0.35169205 0.054759994 0.46515 -0.09866 0.14190333 -0.14273666 0.164939 -0.049368333 -0.07234333 -0.3529987 0.055130005 0.049303334 -0.009672667 -0.18687166 0.0070033274 0.31375867 -0.046512336 0.17836334 0.15909 0.35828665 -0.40094337 0.31578866 -0.2562587 0.118411995 -0.108448334 0.09821567 -0.069126666 -0.4709967 0.55258006 0.13564734 0.14739 -0.023344332 -0.021689432 -0.42454466 0.043394703 -0.05485333 0.11579835 -0.164351 0.18524867 0.39780736 -0.26133332 0.151349 0.55826336 -0.030923337 0.171529 0.576491 0.020325333 -0.1238 -0.010944332 -0.20797767 -0.014940739 0.064457335 -0.17882401 0.11431 -0.04546867 -0.16824998 0.40290332 -0.22595 0.52717996 -0.30319333 0.04253 0.70655996 0.020078667 0.24437602 0.47842667 0.104796655 0.071655996 0.5571833 0.21270333 -0.33770335 0.302451 -0.23354566 -0.0034099917 0.013252 0.32263336 0.44374 0.325287 -0.17329633 -0.6699833 0.203 0.041193333 0.17207335 -0.100331664 -0.26974 -0.33101 -0.15444 -0.28786 0.29214334 0.58322 0.30373535 0.15825002 -0.115715005 0.3228433 -0.035460006 0.42688334 0.4619 -0.10104734 0.040550333 -0.12359766 0.46138668 -0.165093 0.543691 -0.0006079331 -0.15633668 0.108242996 0.002944668 -0.021216666 0.21378501 -0.09235666 -0.31157234 0.37869334 0.19930732 0.17076333 -0.062303666 0.27296767 -0.03094667 0.6989467 -0.17450632 0.305505 -0.099319994 -0.63052005 0.055753335 -0.5525633 0.35032535 -0.09370234 0.14731999 -0.022930332 0.052253004 0.7715424 0.45174336 0.58122665 0.15789333 0.032883335 -0.026437467 -0.29196668 0.17339331 -0.43210003 -0.05345434 -0.2077847 -0.113565676 -0.19082332 0.34814334 0.26699433 -0.08111334 -0.0021966647 -0.26577666 0.088452995 -0.22806132 0.16705556 0.109996 -0.26522434 -0.24836333 0.17306767 0.36914334 0.26777235 -0.0017233392 0.16790892 -0.002668947 0.37251213 -0.011243343 -0.40685964 -0.3554667 0.25130132 0.53644997 0.16585667 0.310451 -0.32494667 -0.28538 0.08162334 -0.4999567 -0.12859666 0.55406004 -0.51542664 -0.18655765 0.057906672 -0.27435568 -0.135235 0.507004 -0.05855599 0.3328 -0.14267434 -0.11342 0.36332667 0.42559662 -0.08287267 0.09101667 0.010167341 0.071121 -0.058740664 -0.6928067 -0.21472168 -0.19534568 -0.057163328 0.25383332 0.42935666 -0.15875399 -0.059995335 0.2889 -0.21110345 -0.39494002 0.03082334 -0.70460004 0.44428 0.052917004 -1.3846334 -0.137845 -0.81047004 -0.07022667 0.16736001 0.21647666 -0.010072996 -0.00594 -0.34368 0.37321666 0.23626767 0.26805565 -0.27301666 -0.121341325 0.036155324 0.10643333 0.50651336 0.11102473 -0.3995223 -0.22567666 0.50113666 -0.09983 0.1195349 0.029246658
22 -0.23460999 -0.175425 -0.439865 0.055729985 0.1594225 0.136543 -0.119005 0.105615005 -0.041179 -0.443855 0.2221555 -0.12847498 -0.018984996 0.122614995 -0.1266545 -0.2083995 0.29047 -0.21913499 -0.2449097 -0.2246285 0.2918235 -0.268375 -0.11148 0.679635 -0.57414496 -0.25743502 0.102014996 -0.099691495 0.28527 -0.008715004 0.143253 0.503105 -0.3651085 -0.0459555 -0.2247 0.59354496 -0.0028399997 -0.1259205 0.096955 0.328155 -0.24493745 0.13512 -0.19769001 -0.25193998 -0.12669 -0.12255649 -0.312695 -0.051502503 0.35382152 0.0029349998 0.190535 -0.202405 0.599495 0.012371998 0.3295815 0.1367645 -0.163623 0.364495 -0.37269002 -0.046605006 0.27192998 -0.6105 -0.1090582 -0.161764 -0.3271605 0.013705 -0.11641 -0.0036850013 0.2087745 -0.33884498 0.035435 0.253565 -0.122980006 -0.06570001 0.059893496 -0.0368437 -0.19026 -0.56874 -0.24575001 -0.079369 -0.1872945 0.56913996 0.124405004 0.08095385 0.1318705 0.048013 0.25204 0.059428003 0.228444 0.244285 -0.126492 0.06148 -0.308245 -0.32100502 0.204355 -0.1657865 -0.018988002 -0.175666 0.412155 -0.26292 -0.028099999 0.162215 -0.47905 -0.1571415 -0.126225 -0.019735008 -0.192607 0.05308 0.205075 0.082327 0.012364998 0.795215 0.0850095 0.069455005 -0.20814 0.6706748 -0.37673002 0.315915 -0.305055 0.106255 0.2241455 -0.30132 0.23350501 0.195694 -0.520084 0.241565 -0.211655 0.47243 -0.20622465 0.1414215 0.020310499 0.165011 0.047711 0.099961 -0.35262895 -0.25607 -0.22667 -0.40280497 0.30992106 0.141435 -0.038138 -0.20880799 -0.66062 -0.617505 0.38551998 -0.150218 0.053804994 -0.442815 0.30329 -0.12654999 -0.44256 0.068421796 -0.0275505 -0.44056502 -0.244256 0.030530002 0.1756665 -0.26498848 0.078564756 0.49693498 -0.43036002 -0.18967 -0.37119 -0.331715 0.175565 -0.010580003 -0.1213315 0.052431 0.17345999 -0.0462305 -0.26320252 0.42327002 0.248075 0.46367997 0.14349124 -0.225106 -0.425675 -0.20176 -0.2814091 -0.4011 0.28959298 -0.26484 0.24842 -0.343225 0.24820049 0.08524 0.583495 0.32458502 0.18496 -0.2880585 -0.018295005 0.69365 0.33731002 0.034045003 -0.0069424994 0.23032498 -0.06311 0.04936 0.026530001 -0.33231002 0.35434002 -0.039702497 0.2308461 -0.015064999 0.35116 -0.21809 0.018055 -0.123514 -0.0555205 0.153124 0.27561998 0.259225 0.57727003 -0.2203 -0.23331651 -0.011315003 0.14991 -0.09466001 -0.0888087 -0.101679996 -0.1245955 -0.075712 0.240479 0.1566405 0.42558503 -0.143318 0.114337504 -0.152852 -0.12356265 0.0256815 0.25510502 0.24394 0.30835 -0.16337499 0.057155 0.029936 -0.049954996 -0.0212689 0.023624986 -0.093834996 0.616925 -0.102265 0.10311501 -0.115186006 -0.50549996 -0.688605 0.012460001 0.007890001 0.0912235 0.094699994 -0.16633451 -0.4083 0.023883 -0.005359499 -0.31522 0.27717298 0.014969498 -0.446495 -0.45995003 0.28451 0.1456485 0.145985 0.05524525 0.18557 0.2530266 -0.1217475 -0.065524 -0.117935 0.0012870021 0.001462 -0.4464 0.176653 -0.06060499 0.51016 0.002640009 0.156115 -0.26676503 0.34643 -0.14467502 -0.534275 -0.1854435 -0.057744004 -0.30225497 0.25951302 0.404835 -0.34459 0.082554996 0.190375 -0.0051999986 -0.1231165 0.45433998 -0.364835 -0.112449996 -0.17039001 0.14920999 -0.16965501 0.087658 -0.032532 0.3660235 -0.54597
23 -0.08441767 0.13764466 0.0015083341 0.28631 0.28378665 0.12977 0.07780867 -0.211591 0.01606667 -1.9826666 0.03999666 -0.024119338 -0.15787308 -0.01761934 -0.06039533 0.30453667 0.07335668 -0.058074336 0.08620753 -0.33909997 0.10651457 0.07432533 -0.05317433 0.173261 0.04571333 0.26685333 -0.22238468 0.14572467 0.28211033 -0.30203 0.020747334 0.68782336 -0.14130534 -0.163501 -1.0380133 0.12651666 -0.067036666 -0.03670567 -0.008715001 -0.77738 -0.029979333 -0.56660336 0.20809567 -0.18472667 -0.17567001 -0.02258633 -0.214962 0.31380534 0.22491999 -0.0024316693 -0.136264 0.23337132 -0.056176003 0.190858 -0.09340667 -0.32828268 0.12527665 0.34491134 0.043766066 0.12050796 0.34163332 -0.20629834 0.07253667 0.25374132 0.18828 -0.4127667 -0.21359934 -0.055143327 -0.13198736 -0.1600863 -0.46782336 -0.049523 0.25425002 -0.264777 0.37357768 0.04735333 -0.39323997 -0.10042737 0.007931004 -0.089839995 0.12435433 -0.07490667 0.15224 -0.0038666676 0.088585 -0.022825332 0.006925367 -0.107696675 -0.2545656 -0.22849186 -0.25907668 0.10249066 -0.23535435 0.29094532 0.38018334 -0.153144 -0.023804665 -0.014464338 0.05778134 -0.31245002 0.31779334 -0.22873734 -0.13692532 -0.083739996 0.060749996 -0.41065 0.26230866 0.095068 -0.22108467 -0.080056004 -0.09357766 -0.073013335 -0.19669001 -0.112469494 0.34022665 -0.041818332 0.158995 -0.066716336 0.05299334 0.05615 -0.055080328 0.38421667 0.059375674 0.13922 0.27907634 -0.05497867 -0.08527633 0.088888 -0.03520367 0.13833334 0.41886997 -0.21666999 0.23462999 0.27021965 -0.056756333 -0.43478668 -0.3232 -0.07325333 0.11969667 0.39437333 0.024060002 -0.185223 0.41475335 0.43099332 -0.35346666 0.14574002 0.07540833 -0.012006998 0.13121666 0.200921 0.38750866 -0.48056665 0.28446665 -0.025550008 -0.43948665 0.26263782 -0.037383664 -0.21843 0.26722333 -0.31946668 0.17525333 -0.09393167 0.23112833 -0.213679 -0.012826666 -0.021336334 -0.08657166 -0.07720599 -0.08349734 0.4957367 -0.35216668 0.09198334 -0.8428533 0.45379004 0.056313332 -0.29444334 0.42260334 -0.35966465 -0.010862003 0.39181003 -0.045179993 -0.07002533 0.031999003 -0.11442667 -0.64216334 0.03456567 0.069189996 -0.26187 0.038987335 -0.18933666 0.115606666 0.026783327 -0.24773999 -0.06316867 -0.47049 0.50638336 0.08888667 0.218726 0.20061 0.41760734 0.15348 0.040231 0.100600004 0.033937134 -0.30655667 0.20219332 -0.17482667 -0.14512667 -0.069034 0.029324668 -0.10256366 -0.34411666 -0.16384 -0.35787666 0.5090837 0.08933767 0.19605671 0.070814334 0.6019067 0.26758668 -0.17378235 0.10181367 -0.086735666 0.16968733 0.32713667 -0.07678334 -0.32010666 0.11560824 0.18440334 0.24552739 -0.019050011 0.23027666 0.417269 -0.08807667 -0.090742804 -0.02571333 0.077971675 0.15149534 -0.45072898 0.34006667 0.043446332 0.14964134 1.1544267 -0.15202634 -0.9649233 0.020644998 0.15788434 -0.51418865 0.45042333 0.5010933 0.11164617 0.29305598 0.23601002 0.17119001 0.5238733 -0.048455 -0.15458865 -0.24109872 -0.09054334 0.26388335 -0.016607067 -0.6624267 0.045570012 -0.154948 -0.22150767 0.4891367 -0.190148 -0.07914334 -0.14238133 0.16597044 -0.143986 0.090629004 -0.028320335 -0.35028335 0.087082334 -0.11797335 -2.0561333 0.5010833 0.71668 -0.21435003 0.16779 -0.11462999 0.070048995 0.31247333 0.065003335 0.30189067 0.0029899974 0.07199734 0.015500334 9.66688e-05 0.0153966695 0.08259567 -0.027203336 -0.7169833 0.060524 -0.115974 0.014387329 -0.17278333 -0.14522399 -0.052640337
24 -0.0632515 0.157673 -0.009957999 0.13527001 0.34717 0.08292 0.08039 -0.277825 0.105684996 -1.9101 0.008679993 0.121576 -0.1025696 -0.23327401 -0.067415 0.22922501 -0.016405001 -0.1040985 0.061896298 -0.33907998 0.20878635 0.063587 -0.052738003 0.0964915 0.19670999 0.14463 -0.31267 0.19163099 0.41174 -0.27449 -0.122963995 0.727185 -0.2055795 -0.213562 -1.18615 0.08947 -0.007325001 -0.093715 -0.053775 -0.73785 -0.079739496 -0.43554503 0.18225351 -0.422165 -0.04692501 0.0185805 -0.10564299 0.464485 0.542085 0.079547495 -0.096806 0.148867 -0.071111 0.287776 -0.261665 -0.459905 -0.08093001 0.263522 0.06994 0.08487195 0.35477 -0.2964235 -0.025914997 0.35579 0.350695 -0.366705 -0.28102502 -0.02251999 -0.103106044 -0.102104455 -0.455325 -0.0585975 0.23421 -0.1019555 0.3506515 0.13093999 -0.35799497 -0.13246804 0.031500004 -0.26479 0.149759 0.032995 0.076915 -0.178595 0.098461 0.083967 0.034775548 -0.116748996 -0.19799839 -0.0405328 -0.238 0.091640994 -0.17918651 0.22097799 0.40222 -0.271365 -0.091712 -0.035485007 0.09535751 -0.355605 0.22216 -0.21484101 -0.149968 0.005279999 -0.040810004 -0.468615 0.4032 0.111626506 -0.18505701 -0.16178 -0.0980085 0.079730004 -0.011239991 -0.10300924 0.223865 -0.013219997 0.1346475 -0.14288649 -0.021855004 -0.007770002 0.0630795 0.304065 0.038788505 0.06734499 0.37208498 -0.107331 -0.139867 0.120891504 0.0620295 0.052279998 0.33418 -0.16272 0.26859 0.3073895 -0.058514997 -0.23164001 -0.19970998 -0.039095 0.170445 0.36919 -0.035135 -0.24823001 0.45666 0.39157498 -0.40818 0.146245 -0.0409925 -0.032388996 0.123245 0.1718315 0.236023 -0.37646502 0.14642 -0.187745 -0.351085 0.39528 0.0372045 -0.024224997 0.300795 -0.31364 0.09856 -0.1263745 0.1972675 -0.101023495 0.04141 0.17430049 -0.0331925 -0.008063998 -0.1302655 0.47829002 -0.30992502 -0.062144995 -0.98863 0.32680002 0.095185496 -0.29991 0.480415 -0.264237 -0.078488 0.45917 0.10997 -0.171693 0.0030350015 -0.08933 -0.60317004 0.113868505 0.26284498 -0.04242999 0.046854503 -0.20070499 0.07955 -0.110025 -0.162 -0.0495715 -0.50904 0.45933503 -0.211365 0.245659 0.18768999 0.14164099 0.33378 -0.24417351 0.134853 0.052347 -0.0048699975 0.11556499 -0.201235 -0.047335 -0.379206 -0.088948 -0.1258075 -0.19332 -0.08315 -0.256825 0.3270755 0.047156498 0.11827505 0.090476 0.39516002 0.302325 -0.3273635 0.18105449 -0.0651135 0.263019 0.25714502 -0.18879 -0.299115 0.1689545 0.17817 0.0828711 -0.21578002 0.027630001 0.33528352 -0.040555 -0.1364115 0.031460002 0.092080005 0.097678 -0.631775 0.290975 0.030158002 0.2515465 1.08939 -0.0339195 -0.93348503 -0.1400725 0.1248665 -0.460588 0.53928 0.357925 0.07302425 0.297909 0.22343501 0.08726 0.47574 -0.0437315 -0.068022996 -0.27706307 0.045115 0.23555501 -0.099955596 -0.59184504 -0.19468999 -0.123917006 -0.286885 0.55553 -0.166197 -0.2008 -0.022271998 0.15436566 -0.090139 -0.004931502 0.063714504 -0.357265 0.1186295 -0.09961501 -1.98845 0.41859 0.75276995 -0.25524503 0.141685 0.053705007 0.056374498 0.26704502 0.008165002 0.319046 0.077805005 0.0830445 0.1269955 -0.021475002 -0.081405 0.140945 -0.096090004 -0.72875 0.101555 -0.159968 0.043069996 0.06132999 -0.100531 0.0151095
25 0.16571549 -0.156728 0.1603955 0.1087495 0.154618 0.242745 0.25336465 -0.042454 -0.259815 0.20640749 -0.46148002 0.44369 0.34658998 -0.12798999 0.420445 0.43442 -0.0800815 -0.144755 -0.21130951 0.06632 0.10937051 -0.29404 -0.29910251 0.04633499 0.5566785 -0.26850998 0.093270496 -0.624735 0.112890504 -0.108685 -0.0446445 0.29614526 0.32003 -0.68351 0.44172502 -0.1436 0.006669998 0.026495002 0.56498003 -0.0956195 0.0386365 0.153015 0.17307499 -0.47487 0.32054502 0.097928494 -0.316535 0.09824015 0.5393 0.1887075 -0.153485 0.18702 0.48510498 -0.2484155 -0.2716515 -0.37183002 0.30571 0.011420004 0.576885 0.673845 0.01915795 0.25702798 -0.0962655 0.763125 -0.138475 0.109795 -0.11685 0.277835 0.2926625 0.24096999 -0.234215 -0.48764998 0.1677795 -0.02206 0.41534 -0.018824 0.051400002 -0.22224501 -0.24450399 0.68025005 0.357395 -0.49454498 0.025641 -0.54551 0.11437 -0.1567615 0.392555 -0.2989135 -0.557275 0.003804002 0.26372 -0.13043 0.83665 -0.31098 -0.51112497 -0.105881006 -0.080815494 -0.045823 0.109892 0.46928 0.150908 0.010465011 -0.3040535 0.38334 0.26716 -0.36234 0.21021 -0.24512401 -0.19848 -0.088559 -0.188135 0.4766 -0.1011112 -0.313405 -0.119375005 0.0567295 -0.33749002 0.36347002 -0.41572 0.399455 0.053664003 -0.1079635 0.27912 -0.25733426 -0.490405 -0.100292996 -0.2071773 -0.341105 0.43922502 -0.43397 0.0188135 0.036035 0.13528499 0.068 0.347805 -0.02330705 -0.39836 0.058514 -0.1539875 -0.15636 0.41177002 -0.415365 0.225065 0.195468 0.460325 -0.086365 -0.120421 -0.17149 0.46928 -0.539315 -0.22276999 -0.251245 0.37627748 -0.18607551 -0.59799004 -0.51705503 -0.564385 0.111356005 0.072432995 -0.119025 0.036359504 0.33221 -0.20676486 0.631575 -0.539235 0.019604996 -0.04210255 0.55885 0.24169499 -0.22442801 0.35466498 0.26413 0.26850998 0.44619 -0.12726101 -0.045114998 0.058650002 -0.54988 0.370795 -0.772815 -0.085655 -0.1061414 0.59524 -0.1508515 0.46885 -0.09216499 0.48618498 0.170398 -0.30814385 -0.1486045 0.24040554 -0.031449996 0.181329 0.427438 0.43342 -0.159299 0.020034501 0.165335 -0.61856496 0.009214997 -0.823145 0.1077555 0.34411502 -0.135021 0.03447 0.637215 0.40266 -0.020274997 -0.325485 0.095846504 0.03812001 0.2739845 0.09384 0.22631 -0.4691865 0.0367595 0.38681352 0.147595 -0.06508999 -0.0842531 -0.391065 0.77736 0.35583 -0.447195 0.56547 0.3078 -0.63879 0.72931504 0.273282 -0.0033319993 -0.032419503 0.272495 0.635205 -0.1322505 -0.316425 -0.0238305 0.133679 0.47505 -0.63053 -0.31204998 -0.210635 0.042864993 0.059032504 -0.31362 0.049652502 0.08451499 0.324525 -0.28744 -0.11294851 -0.04072 -0.088704504 0.15123901 0.82457 0.677135 -0.467565 0.038327 0.0074534975 -0.18752998 0.19319001 -0.209975 0.54628503 -0.21671 0.013215005 0.07330495 0.089928 -0.0337675 -0.13550751 0.03483501 -0.17771 0.01529 0.1849495 0.27217 -0.465435 0.029254995 -0.16078 0.328035 0.95283 0.300255 -0.856355 -0.13209601 0.127215 0.049380004 0.551885 0.565541 0.2507285 0.0587105 -0.0992459 -0.330665 -0.012739997 0.43226498 -0.113983005 0.21857 0.266187 -0.229379 -0.166539 -0.62434995 0.67619 0.22727999 0.28445253 0.29602998
26 0.022168498 0.0086645 0.166265 0.17513701 0.570995 0.17713499 -0.175865 -0.108587995 0.032426998 -0.50256 0.1469225 -0.2404765 -0.1019295 0.080768 -0.03136 0.48732 0.119164996 -0.03842234 -0.20273401 -0.15337 -0.071555 0.34417498 0.035605 0.55935 -0.485395 0.347525 -0.15432091 0.26481998 0.22813499 -0.20837 0.092535004 0.0212128 -0.09747499 0.28939 -0.19446549 0.46203 0.17555 0.19032 0.0040500015 -0.95633507 0.201755 -0.65132 -0.048028503 -0.2933995 -0.67198503 -0.3281705 0.08079 0.1589275 -0.054798 -0.196953 -0.16794 0.036829993 0.323585 -0.20541 -0.1418865 -0.1575245 0.3143265 0.36102498 0.238865 -0.0313734 0.40657502 -0.47342998 0.101729 -0.3018775 -0.097296 -0.052692503 -0.421515 -0.12631 -0.73293 0.21316649 -0.3132 -0.049159996 0.1783685 -0.43392003 -0.187439 0.016144998 -0.2296995 -0.21011999 -0.050805002 -0.040825002 0.120365 -0.1057455 0.041158352 -0.092931494 -0.16985229 -0.6634 -0.540075 -0.251415 -0.26201552 -0.639845 -0.32154 -0.17157 -0.15988001 0.085323 0.19038999 0.004525006 0.5073545 0.03157805 -0.22102001 -0.12503 0.190244 -0.0282714 0.35457 -0.0010700002 0.185395 -0.406045 -0.387029 -0.21096 -0.014517499 -0.25832 0.08873001 -0.32471 -0.099645 -0.30195498 -0.197345 0.19801499 -0.34211 -0.257245 -0.0496245 1.1137049 0.14101999 1.065045 0.383775 0.398435 -0.30234498 -0.285785 -0.37299502 -0.7209 -0.06751501 0.428055 0.31858 -0.36559 0.10386 0.07705 -0.119337 -0.2792 -0.222479 0.087694995 -0.38563 0.50281 0.0367245 -0.27375102 0.87006 -0.38150498 0.24478 0.070098504 -0.2772145 -0.1061475 0.31523 0.22620499 -0.55795497 0.10794251 0.395715 -0.076564 -0.75411 -0.29329 0.011874501 -0.656985 -0.36680502 -0.1913275 0.1375455 -0.52241004 0.069375 -0.721825 -0.1008938 -0.468605 0.13910656 -0.19161999 0.240165 0.69499004 0.181754 0.43549502 -0.18287049 0.62221 -0.103436 0.013435006 0.10071501 -0.24406001 -0.231855 -0.319595 -0.51094 -0.2761 -0.19980851 -0.520745 -0.24138999 0.599595 0.09523849 0.029855 0.14886451 -0.37499 0.1804415 0.337595 -0.7627 0.0681215 -0.312855 0.40761 0.12851 0.023314998 0.497265 0.611135 -0.88248 0.33843 0.136195 -0.030480249 -0.37902498 0.44682002 -0.65251005 -0.05132 0.1468925 0.20390499 -0.192036 -0.467115 -0.44702 -0.048566 -0.27819502 0.12755501 0.10785 -0.0042700022 0.14512 -0.0928844 -0.54936004 0.40840998 -0.322185 0.120911 0.1054205 0.38528 -0.52366996 0.387195 0.160855 0.221845 0.16617 0.395165 0.43464002 -0.521475 -0.1253675 -0.254235 0.27272302 0.1025466 -0.08349999 0.21639049 0.088934004 0.006081499 0.53498 -0.31440502 -1.2799 -0.098365 -0.05706045 -0.19069499 0.059765004 0.95633996 0.420565 0.409825 0.435915 0.42663997 -0.10396999 -0.11003502 0.30872 -0.71929 0.0819986 0.322105 -0.1994515 -0.42971498 0.207745 -0.40970498 -0.49819002 0.048115 -0.21911 0.19208 0.0734585 0.350975 -1.06005 -0.60316503 -0.65573 -0.057295002 0.20811 -0.42027998 -0.635545 0.48659998 0.078349 0.084120005 0.034291 -0.511825 -0.3435415 0.1860605 -0.0067149997 -0.009427004 0.06470999 -0.51045 -0.1170175 -0.192589 -0.0811195 -0.27473998 -0.54658496 -0.525085 0.0773692 -0.15617 -0.07001 0.04428 -0.0962905 -0.39520502
27 0.14996 0.28457436 0.15570466 0.050679 -0.11719666 0.28267333 0.25007668 0.057437334 0.34785 -0.8591833 -0.114039004 -0.66055 -0.27734002 0.17378467 -0.00076999766 -0.09656501 -0.12162733 0.16006278 -0.083282 -0.07695999 0.08633732 0.5753533 0.26662132 0.31453332 -0.5527733 0.02497234 -0.23932059 0.11872667 -0.14057668 -0.16329134 -0.52430665 0.16429754 0.06736667 0.09419667 -0.64699334 0.40986666 0.00045999387 0.1408192 -0.26524332 -0.47802004 -0.24991333 -0.27925834 -0.28862903 -0.16737334 -0.30847666 -0.36841333 0.03722 -0.124643326 -0.13547 0.153628 -0.30035666 0.091160856 0.38080668 -0.00952667 -0.20843 0.20320399 0.045629997 0.23787367 0.26658666 -0.0014212653 0.34186664 -0.17877333 -0.036398005 -0.027135 -0.25306267 -0.28602767 -0.45992467 0.23735666 -0.5532003 0.023787668 -0.087576665 -0.15090233 -0.4230877 -0.43867 0.089820005 -0.053006668 0.11279567 -0.18522799 -0.27496576 0.21926002 0.49139667 -0.19095302 -0.17942238 0.12783901 -0.02474566 -0.87232333 -0.113376655 -0.46869668 -0.13730334 -0.25701666 -0.08379533 0.16921334 -0.19386034 0.22067867 -0.006393343 0.66468 -0.027098665 -0.15274297 -0.11616334 -0.29189065 0.07830066 0.022395736 0.04436333 -0.1058849 0.05271 -0.17977166 -0.41759667 -0.013284336 -0.36983737 -0.054636672 0.19436 -0.015488997 0.01914333 -0.53499335 -0.109126665 0.023888996 -0.34215334 0.117709994 -0.298803 0.46436465 -0.32728633 0.65243334 0.58089334 0.10872332 -0.45606336 -0.09384233 0.088054 -0.48386335 0.092976 0.26244667 -0.054513667 0.09523333 0.27029833 0.06600732 -0.09495667 -0.0077460012 -0.14250533 0.311543 -0.19520502 0.22505426 -0.25279367 -0.11697433 0.32996666 -0.010104656 -0.11953667 -0.15342332 -0.02686067 -0.12455534 0.6361367 -0.025855666 -0.33202332 -0.049428333 0.15031333 -0.013010666 -0.44792667 -0.4690667 -0.275417 -0.5320267 -0.027683338 -0.142215 0.25322998 -0.074763335 -0.19343333 -0.18611 -0.24828666 -0.06262067 -0.05553463 0.074779995 0.12391866 0.343684 0.055383667 0.37182 -0.26787266 0.48522 -0.12867333 -0.4002967 -0.024670457 0.002303332 0.031905662 -0.25513998 -0.229787 0.13653633 -0.29607666 -0.22318934 0.14452666 0.34633335 0.60477996 -0.09012034 0.428659 -0.43823996 0.20397766 0.13086334 -0.48688665 -0.11641499 -0.21113999 -0.12155666 -0.19914667 -0.024259994 0.072560005 0.3192233 -0.10940567 0.221705 0.213618 0.17770107 -0.53117 -0.017936 -0.13681002 -0.09196333 0.0074533224 -0.08361734 0.08113266 -0.3989123 -0.16052 0.29022935 -0.14476 0.5757467 0.17475002 -0.24497001 0.21158 0.09224268 0.22166002 0.35482 0.012136668 -0.23605533 -0.36414 0.37020335 -0.17961 0.08510632 0.117456 0.089930676 0.1419 0.07687866 0.051874 -0.059375007 0.16788334 0.00100333 -0.12441798 -0.009857767 -0.46964002 0.061641667 -0.3512473 0.010019004 0.004549682 -0.26699665 -0.8402133 -0.17876534 -0.028670004 0.053860005 -0.5126467 0.305649 0.40827668 -0.039493334 0.27600536 0.28270334 -0.045699984 -0.045676667 -0.067739666 -0.51723665 0.12946907 0.14393334 0.119055666 -0.2713733 0.12417644 -0.35861 0.052452337 -0.16785 0.018363317 0.14590716 0.09265467 0.22024667 -0.51161003 -0.12678567 -0.46381 0.091693334 0.21984334 -0.124693334 -1.3020834 0.06423133 -0.57632 0.025250003 -0.011847665 0.075119995 -0.12475433 -0.270793 0.09287567 0.37015533 0.322034 -0.122229666 -0.09062933 0.18457067 -0.019739667 0.21694334 -0.43955 -0.10379666 -0.09099987 -0.234582 -0.072333 -0.22039199 -0.34353033 -0.4326333
28 -0.27165502 -0.40665 0.0623685 0.10514499 -0.1005655 0.098612204 0.0940285 -0.16744 -0.102375 -1.62305 0.22783 0.026414998 -0.317325 0.40857 0.006494999 -0.0973345 0.150028 -0.23431 0.313895 0.22146802 -0.072875 -0.103539005 -0.44387 0.31897 0.1287915 0.310367 -0.0061290003 0.048383005 0.19675 0.18525499 0.193107 0.017580003 0.1357765 0.2511875 -0.80385 0.49056 0.41705 -0.0816773 0.050950497 -0.384595 0.37867498 -0.36332 -0.095904 -0.48304 -0.051928 0.031967 -0.007819995 0.83309495 0.307285 -0.626705 -0.039864995 -0.049894996 0.1691385 -0.41533 -0.183965 0.00041999668 0.472135 -0.107435 0.116652 0.328445 0.45934 0.018014997 0.30087 -0.015644997 -0.0641203 0.16515155 0.151125 -0.11634225 -0.527935 0.11386 -0.588755 -0.44423 -0.050739996 0.007940002 0.25377035 -0.29717 -0.2038975 0.325525 0.0631925 0.126535 0.059295 -0.23206 0.1319375 -0.52792 -0.174769 -0.0513425 0.347355 -0.082035005 -0.24048501 0.336023 -0.39051 0.258187 -0.503125 0.533175 0.646305 -0.226771 -0.15885 0.080026 -0.13295999 -0.126325 -0.1089745 -0.06431 -0.0885925 -0.16476 0.35307 -0.40850502 -0.017295003 -0.0716795 -0.121615 -0.0626955 0.1631055 -0.91888 0.1707825 0.017789502 0.010504002 0.02359115 0.15597 -0.040345002 0.078002 0.506475 -0.061223503 0.621835 -0.14365 0.055731002 -0.0792665 -0.562375 -0.027189996 -0.43418 -0.0719515 -0.24811101 -0.11834951 -0.53733003 0.37767202 -0.13097 -0.19150001 -0.15543151 -0.255225 0.1851285 -0.25977498 0.365555 0.46112502 -0.074075 0.159048 -0.10258845 0.490295 -0.19231501 0.130525 -0.2704295 0.32167 0.22833145 0.43617004 -0.015217501 0.369391 0.47157001 -0.54962003 -0.015025005 -0.120008 -0.163275 -0.021875001 -0.22565499 0.49091 -0.023380011 0.0030750036 -0.48759001 -0.02076 -0.486225 0.062672 -0.2254576 -0.019373 0.36541498 -0.148845 -0.403055 -0.77343 0.50101 0.33353502 0.0797045 -0.358755 -0.77085 0.07254499 0.317395 -0.1239715 -0.02832 -0.10494749 -0.1297335 0.0150945 0.125725 -0.401195 0.19458151 -0.0274815 0.134317 -0.172585 0.212955 0.0835225 0.03566 -0.1812845 0.45291 0.020752002 0.16991 0.22784896 -0.38742 0.21845 0.18904501 0.1123775 0.217649 -0.141685 0.033239998 -0.322015 0.00987 -0.14245999 0.32959002 0.1599828 -0.328985 -0.43623 -0.35315 0.034380004 0.32702 -0.1645765 0.29207 0.16671999 -0.26968 -0.0422335 0.40389 -0.78508997 0.017274998 0.274155 -0.30563498 0.30772 -0.1062915 -0.030374996 0.13178 0.01380169 0.262625 -0.155635 -0.214592 -0.26694 0.090164505 0.16833499 0.246835 -0.128425 0.073786 0.417405 0.09073 0.3948685 -0.26216 -1.01877 0.43425 -0.18781999 0.031254992 0.13203001 0.12864399 0.03196145 0.26304498 -0.09385662 0.0709655 0.0529325 0.2557449 0.358375 -0.051733002 -0.088194996 -0.016766496 -0.3052 -0.40592998 0.21557501 -0.24840501 0.0223995 0.008239999 -0.28423 0.026089996 -0.062408 0.244556 -0.32589498 -0.2515565 0.3764925 -0.22011 -0.052794993 -0.1851725 -1.995 0.19794 0.517045 0.005774997 -0.2278115 -0.373315 -0.138392 -0.33379 0.14753 0.08292499 -0.26524502 0.33767 0.078375 -0.313265 0.009650007 -0.132587 -0.36067 0.048529502 0.25652 0.51756 -0.257615 -0.3396105 -0.35915 -0.178069
29 0.3084 0.35466 -0.96434 0.37613 0.25349 0.55333 0.08195 0.49659 0.79367 -0.81728 0.21725 -0.26773 -0.68914 -0.34286 -0.76485 -0.45509 -0.10978 0.11179 -0.10002 0.25834 -0.087155 0.42263 0.29241 -0.11044 -0.64925 -0.27944 -0.28926 0.14889 -0.45233 0.99634 0.48651 0.61729 -0.82221 -0.75433 0.92529 0.064964 0.58215 0.0198 -0.6158 -0.11002 0.011642 0.27508 0.16946 -0.14917 -0.15806 0.29581 0.12882 0.78139 0.28339 -0.57446 -0.60349 -0.58349 0.12162 -0.51835 0.48964 0.0041654 -0.053713 -0.36595 0.44249 0.24229 -0.53007 -0.13996 0.26381 0.065719 -0.55699 0.012721 0.65552 0.51438 0.17323 0.53219 -0.082087 0.18437 -0.22356 0.2879 -0.12368 0.832 -0.13798 0.67505 0.30034 -0.15585 0.12739 -0.14855 -1.0114 -0.75236 0.11315 0.46291 0.35728 -0.41582 -0.2715 -0.44224 -0.2876 -0.37849 0.30982 0.42718 0.053725 -0.12576 0.8486 -0.072328 -0.00081618 -0.38164 -0.11875 0.26138 -0.17288 -0.027751 -0.43206 0.23694 -0.072656 0.17945 0.27847 -0.031281 0.013275 -0.46719 -0.13525 0.25501 -0.32918 -0.035215 0.29876 0.89198 0.12882 1.0784 -0.64725 -0.75086 -0.31512 0.81998 -0.29914 0.43069 0.17329 0.48844 0.093827 -0.6063 -0.66695 -0.47236 0.42035 -0.0099906 0.33418 -0.45367 0.70664 0.35373 0.10307 0.2718 0.52696 -0.5457 -0.28392 -0.50013 -0.37718 -0.13697 -0.49759 -0.073211 -0.2305 -0.44367 -0.70716 -0.9021 -0.45565 -0.52189 -0.20213 0.016031 0.22343 0.77174 0.23541 0.45837 -0.69854 -0.44469 0.52774 0.96594 -0.40343 -0.48639 0.4332 0.28749 -0.25035 0.0098476 0.21518 0.19225 0.11987 1.0752 0.17552 0.82605 0.6074 -0.083036 0.1701 -0.61239 -0.10308 -0.65137 0.056447 -0.11493 -0.052841 -0.14792 0.40978 0.2116 0.20196 0.054568 0.014273 0.62255 -0.49604 -0.41989 0.0088713 0.23006 0.80383 -0.61004 0.16385 0.15419 -0.47042 -0.33233 -1.0614 -0.37921 0.30376 1.0874 -0.51974 -0.56353 -0.11854 -0.25501 0.10021 -0.18769 -0.02206 -0.67657 0.12311 0.81164 -0.32183 -0.019946 0.69014 -0.22178 0.35778 -0.20666 -0.013057 -0.083303 0.15666 0.23073 0.1766 0.25215 -0.32257 -0.03572 0.146 0.2793 0.1529 -0.080098 0.0075398 0.42546 0.049887 0.28384 0.090153 0.040163 -0.97323 0.65815 0.20167 0.45425 -1.3314 0.2624 0.65964 -0.029217 0.18941 -0.44821 0.37851 -0.47644 0.32244 -0.33024 -0.099841 0.30891 -0.055097 0.31589 -0.1581 -0.0059043 0.10899 -0.054046 -0.67685 -0.32444 -0.15861 0.089007 -0.44391 0.3151 0.31354 0.20141 0.35583 0.29786 -0.41648 0.045727 0.26487 -0.19513 -0.12726 0.19475 0.37159 0.014231 -0.79519 0.56301 0.12873 0.36575 -1.3259 -0.49606 -0.18407 -0.071251 0.38195 -0.38026 -0.39062 -0.33161 -0.06871 -0.020375 -0.072547 0.45551 -0.48408 0.50016 0.20868 -0.2166
30 -0.13666566 0.16527167 0.009832335 -0.0129466755 -0.032854002 0.12920065 0.31037998 0.09761 -0.086186 -1.3136767 0.20115 -0.11970667 0.07766366 0.22030766 0.44662103 -0.303885 -0.16864 -0.09220913 0.33162868 -0.09355999 0.24697332 0.43883333 0.071860336 0.021833336 -0.18506628 -0.148622 -0.038087998 0.14635867 0.34126 -0.12442333 0.03843467 0.088808 0.058876663 0.353174 -0.98754996 -0.06288668 -0.05621666 -0.034397993 0.15932666 0.010308336 0.39407 -0.261987 0.078289 0.08638667 -0.18446533 -0.034733336 0.15978281 -0.16450334 0.18611665 -0.052723337 0.25759333 -0.10046333 0.15445 -0.10337334 -0.40603998 0.015383338 0.035770003 0.11420999 0.032455668 -0.18963666 0.024079999 0.016512 0.41111 -0.06486667 0.061928 0.031083673 -0.03489467 0.037546664 -0.062240005 -0.055553336 -0.249853 0.14559667 0.005426685 0.056691002 0.06815133 -0.15179001 0.07047 0.28203332 0.012769997 -0.22193567 -0.16780001 -0.22785433 0.013162832 -0.21564333 -0.01627033 -0.040546667 -0.09545367 0.03878733 -0.37168667 0.16796641 -0.062443335 0.25529066 -0.309756 -0.09318999 -0.058050003 0.30721465 -0.25278667 -0.19676201 -0.0279452 -0.33185336 -0.092436336 -0.012426664 -0.127286 0.032005336 -0.03822267 -0.44249332 0.13147533 -0.011828662 -0.36343333 -0.16898932 0.11914334 -0.24802667 -0.06864666 -0.18283266 0.037741337 0.009816666 0.079143666 0.27668333 -0.141695 0.23513664 0.037026662 -0.20766401 0.29911998 -0.11488 -0.15521099 0.017639995 0.030077666 -0.07035333 0.06762266 -0.035456333 0.056936666 0.062043328 0.026667664 0.29336333 -0.048536003 0.106435 0.27644935 0.10444933 -0.19465667 0.26275632 0.15600316 -0.023987666 0.62465 -0.16127001 -0.039599 0.23210001 -0.062968336 0.01565667 0.18225999 -0.09027334 0.1890467 0.07914567 0.058751 0.062664665 0.4603583 -0.14050587 -0.64212734 0.025479004 -0.124929 -0.14154167 0.029088333 -0.11058533 -0.056994002 -0.24157333 0.145861 0.07983067 0.060043335 0.10465667 -0.044069666 0.23370333 0.14575066 -0.16420335 -0.76868993 0.42445335 -0.007442668 0.14555643 -0.12623666 0.00020133083 -0.29660234 0.46092334 -0.150102 -0.28645733 0.31198567 0.07721668 -0.129216 0.14985001 0.077299 0.022266677 0.07809933 -0.041057333 -0.20207667 0.0017333379 -0.15504666 0.13310333 -0.12160867 0.076368004 -0.089791 0.16518332 0.17317499 -0.30447966 0.7433865 0.32494 0.15177633 0.24274467 -0.03666666 0.10099867 0.18999 0.09618167 -0.27203968 -0.1962058 -0.017743329 0.03350166 -0.24153066 0.11819001 0.11818666 0.32146332 -0.10601667 0.32877 0.09639666 0.066792674 0.32802665 -0.15360166 -0.6053467 0.097877 0.029405668 0.17619301 -0.048919994 0.032058 0.19313167 -0.11818167 0.13968666 -0.15812634 -0.24930668 0.10660666 0.3865467 0.108549334 0.45867333 0.21723668 -0.43912998 0.26027334 0.05749333 -0.018996676 0.09465099 0.19862767 -0.60104334 -0.29628834 -0.07009667 -0.221268 0.086219996 0.009044002 0.061787996 0.44183 -0.30007 -0.07813077 0.06213667 0.14310001 -0.120666675 -0.30265936 0.12580268 -0.00043566772 -0.014281002 -0.7260433 -0.22896999 -0.07691366 0.3098013 0.32828233 -0.14394332 0.30673632 0.22979999 0.18490998 -0.02863343 -0.180743 0.11719667 -0.39428768 0.0033499897 0.032026332 -1.7745333 0.22052066 -0.24933334 0.074130006 -0.54583234 -0.06467701 -0.19847333 0.07274901 0.065841675 0.19777 0.10617173 0.19314933 0.15859914 -0.16722532 0.07908733 -0.22353333 -0.060450003 -0.084061 -0.014494002 0.097893335 0.12410667 0.015824 -0.114692666 -0.051900994
31 -0.20684001 0.13092498 0.11013625 -0.17759901 0.092165 0.40280002 0.3004595 0.321765 -0.28395298 -1.6164 -0.374201 -0.083675 0.22928001 0.151125 0.17515498 -0.3845375 0.0316875 -0.18342 -0.19276601 -0.72513497 0.035554998 0.10618998 0.21641049 -0.147765 0.25493652 -0.155444 -0.116960004 0.475325 0.188925 0.428525 -0.121505 0.37644 0.10726 0.47192 -0.20835501 -0.220515 -0.1729425 -0.177205 -0.20010701 -0.24706998 -0.305365 -0.39994 0.38916 -0.557025 -0.17193 -0.250655 0.245484 0.0024749972 0.323065 0.195455 0.28382 0.34601 0.19217 0.29088998 -0.18710001 -0.50176 0.06773049 0.41283 -0.33415002 0.28307298 -0.40143502 0.0979915 0.53291 0.15683499 -0.2819175 -0.2293795 -0.584835 0.22900999 -0.314549 0.05766535 0.34149998 -0.04158999 -0.30373 -0.26825 0.17312999 0.07740999 -0.0794465 -0.032665 -0.235631 -0.1003905 0.24925 -0.51218003 -0.23355 0.2087 0.317085 -0.42149 -0.096517995 -0.3511775 -0.215175 -0.068058506 0.33850002 -0.01331 0.05748999 -0.40784997 -0.23628001 -0.033950016 -0.110595 -0.0482475 -0.34086502 0.24531502 -0.0924415 0.007917501 -0.364737 -0.23383349 -0.045022503 -0.249795 0.187754 -0.1536735 -0.115018494 0.519065 -0.166255 -0.19313 -0.186308 -0.0048775002 -0.35031998 0.084240995 0.50632 -0.153505 0.24118198 -0.06204 -0.1321795 0.065699995 0.17205 0.30947 0.0747365 0.610895 0.14825499 0.0019565 0.373925 0.41847503 0.415673 0.031946 0.197085 0.33654302 0.29781002 -0.072483 0.266045 0.08612999 -0.0707945 0.462345 -0.0064700022 -0.0774675 0.69103503 -0.59462 -0.007159993 0.48381 0.21519248 0.36488998 0.034509998 -0.2077665 0.40974 0.058060497 -0.269605 -0.218645 0.0848005 0.090817 -0.252853 -0.236745 -0.067925 -0.46673 0.24006501 0.035435006 0.316365 -0.14309001 0.331895 -0.22058499 0.0546 -0.16894498 0.282996 0.89328 -0.052666 0.398125 -0.42458 0.73320997 -0.0949494 0.20385 0.32233 -0.305665 0.0951455 0.430255 -0.38717648 -0.0037550032 -0.076037 0.114295006 0.1062236 0.17947899 0.52693 -0.0374925 -0.0735429 -0.16156751 -0.027639993 0.57690406 -0.345835 -0.135328 -0.30568 0.019253999 -0.329675 -0.095227495 0.042755004 0.06826499 -0.144815 0.2381415 0.399735 0.36246002 0.022984996 -0.20341 0.45036948 -0.47344 -0.430693 -0.266745 -0.871035 0.063374996 0.47473502 -0.049585 0.272809 -0.1029365 0.308685 -0.0855515 0.39661652 0.226345 0.45613503 -0.1692975 -0.150736 0.015685 0.214074 0.083569996 -0.40936 0.26702 0.66126 -0.34605253 -0.52884 0.07698 -0.55655 0.18823001 0.3005225 0.1690675 0.120784 -0.2267535 -0.614275 0.25731 0.119273 0.29454 0.341825 0.585795 -0.44716 -0.18344499 0.24911 -0.23072 0.29334098 -0.0239605 0.1237635 0.145817 0.003969997 -0.38414502 0.43976 -0.02885501 -0.60812503 0.021506501 0.39094 0.384125 0.11360001 0.0023629502 -0.59016 -0.340225 -0.033830002 0.1628555 0.26998448 -0.193275 -0.031304 0.0354135 -0.22067001 0.277265 -0.0920204 -0.335015 -0.39659 0.1363405 -1.58015 0.132075 0.0035449937 -0.333685 -0.1691975 0.547475 0.43260002 0.263605 0.33281 0.42005497 0.379865 0.3208 0.106255 0.297475 -0.2010935 -0.058285013 0.217831 -0.151006 0.07418001 0.319015 0.155453 -0.17386499 -0.253255 -0.0876365
32 -0.355545 0.34588498 -0.15379499 -0.142084 0.111815 -0.090275005 0.3228195 0.2377705 -0.13242 -1.58015 -0.01820001 0.300385 0.17072001 -0.050220005 0.53200996 -0.349066 -0.130624 -0.2782315 -0.177486 -0.637505 0.39028 0.14280498 0.023925498 0.045355 0.2537665 -0.707825 -0.36763 0.261285 0.66923 0.087265 -0.21171351 0.30781052 0.161565 0.2033945 -0.235585 -0.213975 -0.0973275 0.08044 -0.0049349964 0.214405 0.37853 -0.078392 0.383895 -0.117135 -0.16115999 -0.334535 0.377839 0.0727365 0.2251005 0.25476 0.19389501 0.039399996 0.097725004 0.50967497 -0.052920006 -0.18272999 0.5025305 0.38146 -0.133415 0.520518 -0.1271015 -0.043428 0.37986 0.457795 -0.034776498 0.25416002 -0.698205 0.30962 -0.375565 0.25091 0.254595 -0.269395 0.18085 -0.095828 -0.099649996 0.11204499 -0.1115965 -0.2082155 -0.104036 -0.2230455 -0.16288 -0.44549 0.015434995 0.063990004 0.041854993 -0.10550745 -0.293683 -0.10809 0.02686999 0.074832 0.73079497 0.04774499 0.07980999 -0.15899998 -0.38898 -0.081980005 -0.28454497 -0.006642498 -0.204505 -0.313005 -0.48519498 0.118879505 -0.043118928 -0.334615 0.2449825 -0.58371997 0.170874 0.13064 -0.4087035 0.31197298 0.21970001 0.0025629997 -0.097950995 -0.1350535 -0.46166998 0.088879995 0.1987 -0.271385 0.16852699 -0.025030002 -0.029864501 -0.17494501 0.162105 -0.05388 -0.1156535 0.43149498 -0.13993001 -0.027012998 -0.034399997 0.61941504 0.74899 -0.10678 0.249975 0.40264 0.49104 0.080715 0.35238498 0.277095 0.120964006 0.27503 0.12891501 -0.00671 0.589115 -0.3139035 -0.060314998 0.432845 -0.106837496 0.133785 -0.30286 -0.1782165 0.407515 -0.33903 -0.41022 -0.26153 0.1819455 -0.048089996 -0.23971151 -0.0043650046 -0.07789499 -0.27126798 -0.03645 -0.0015449971 0.14904001 0.19005501 0.37410998 -0.09137999 -0.26359 0.042655 0.261784 0.430636 0.14263001 0.61458004 -0.24783751 0.853435 -0.129474 -0.38001502 0.07032001 -0.16760099 -0.009330001 0.050235003 0.17844349 -0.01782 0.040545 0.2716 0.11216405 0.120034 0.698295 0.20067249 0.29877502 -0.4190225 0.16204 0.210514 -0.004339993 0.0346125 -0.23100102 0.014501501 -0.20453 -0.2470225 0.29425502 -0.17809501 -0.23346 0.2844085 -0.020684987 0.401225 0.380815 -0.063529 0.57562 -0.40386498 -0.57105005 -0.12769501 -0.28562498 0.129145 0.17959501 -0.25339252 0.26862636 -0.231305 0.224035 0.0935835 0.55614 0.14890605 0.182585 -0.015097001 -0.35562 -0.0933425 0.0076590013 0.733135 -0.18536149 0.010250002 0.64154 -0.119462505 -0.425827 0.1621955 -0.801425 0.095575005 0.1187775 -0.022552498 -0.32029602 -0.023614 -0.2518145 0.81642497 -0.16783 0.120500006 0.21956 0.52423203 -0.37150002 -0.42746 0.201255 -0.203045 0.17307499 -0.2090465 -0.103016496 0.20909199 -0.23719001 -0.2353325 0.26632202 -0.223605 -0.221525 -0.1547175 0.25953528 -0.11907999 0.19221002 -0.11417055 -0.65597 -0.367405 0.280975 -0.181925 0.20829 -0.12481 0.45391098 -0.031282 0.03263998 0.41863 -0.0182099 -0.1466185 -0.47250003 0.4174905 -1.24755 0.651665 -0.550545 -0.2397485 0.072612494 0.74460995 0.197095 0.08776 0.126675 0.887585 0.1272025 -0.042630002 0.208206 0.13997 -0.3455335 0.141725 -0.00905 -0.55636 -0.201035 0.07327499 0.39064997 0.0791 -0.322675 -0.012875
