32 300
0 -0.51593 0.27158 -0.13378 -0.15572 -0.11783 0.23163 -0.11698 0.416 0.44011 -0.98268 -0.48796 0.70112 0.09166 0.57992 0.088415 0.083592 -0.59999 0.27947 0.042922 0.13166 -0.86919 -0.21524 0.020062 -0.64879 -0.64558 0.1955 0.040181 0.12856 -0.14453 0.44051 -0.70058 0.26194 0.010238 -0.46284 -0.42868 0.025638 0.68143 0.10807 -0.73633 -0.15714 0.0032317 0.17211 -0.04386 -0.017711 0.088597 -0.47057 -0.17337 0.24706 -0.43642 -0.26552 0.45929 -0.12502 0.58408 -0.27913 -0.013898 -0.35625 0.36267 0.28901 -0.19448 0.20896 0.46111 -0.1455 0.2388 0.74127 -0.75053 0.33907 -0.14379 1.0186 0.29935 0.35276 0.20234 -0.51399 0.048707 0.37914 -0.24952 -0.32947 0.44103 -0.46929 -0.11262 -0.17359 0.089889 0.53653 0.3045 -0.085042 0.016629 0.3316 -0.006956 0.11619 -0.22373 -0.37239 -0.028104 0.092599 0.37245 -0.77513 0.014832 -0.39737 -0.15504 -0.11769 0.86605 -0.25123 -0.21015 -0.37343 0.041076 -0.37786 -0.48829 0.7552 0.018758 0.17956 0.41254 0.22622 0.53852 -0.18567 -0.21304 -0.060884 0.0032704 -0.010464 -0.26845 0.22854 -0.46873 -0.76458 -0.046989 -0.55101 0.30611 0.28367 -0.23877 0.042013 0.042507 0.85481 -0.14951 -0.14831 -0.08438 1.0121 0.41829 0.054937 -0.52719 -0.031857 -0.29481 0.45642 -0.30139 -0.38107 0.46705 0.27195 0.12184 -0.65686 0.032277 0.50994 -0.23367 -0.33147 0.27571 0.44472 -0.43216 0.52138 0.17354 0.099088 0.50454 -0.40459 0.4346 0.025962 -0.087005 0.34749 0.19591 0.091738 0.18513 -0.073581 -0.40779 0.28872 -0.0082334 -0.063098 0.022018 -0.34123 0.20669 -0.26883 -0.050797 0.22862 -0.094337 0.57801 0.14646 -0.038089 0.56041 -0.54805 -0.32451 0.43257 -0.034017 -0.51105 0.23374 0.25253 0.31084 0.2375 0.64784 0.076681 0.07407 0.42447 0.4702 0.4692 0.12057 0.13472 0.28878 -0.1351 0.20226 -0.12257 0.00045677 0.27743 0.48214 0.067489 0.33948 -0.054015 -0.073417 -0.07853 0.21437 0.46114 -0.22167 -0.095563 -0.092288 -0.031488 0.15219 -0.0037349 0.53775 0.30689 0.0052513 0.085482 -0.12772 0.086747 -0.1126 0.47736 -0.46594 -0.68865 0.24827 0.52611 0.2738 0.18515 0.35579 0.64926 -0.23816 0.39552 -0.78205 -0.19034 0.067888 -0.2881 0.10266 -0.094301 -0.33254 -0.38967 0.50871 -0.90098 -0.37034 -0.41388 0.60204 0.23452 0.43909 -0.18733 0.41546 0.72759 -0.68366 -0.5501 0.37034 0.21849 0.13158 -0.59624 -0.17789 0.38103 -0.14785 -0.34825 -0.020797 -0.029495 0.14023 -0.061341 0.036893 0.6754 0.61444 0.47667 -0.21908 -0.29945 -0.073413 -0.19031 -0.49108 -0.09802 -0.97733 -0.44715 0.62628 -0.65604 -0.52798 -0.67438 0.010872 0.027727 -0.24662 -0.027842 0.17942 -0.026665 0.37256 0.35939 0.23091 -0.079531 -0.086945 -0.047304 0.13962 -0.038917 0.11918 -0.12672 -0.47023 -0.23382
1 0.15039067 0.104195796 -0.017334342 -0.30330333 -0.029096335 0.16246001 0.018867662 0.036939666 -0.17202331 -1.664 0.028160332 -0.6631027 -0.31446433 0.53036666 0.076223664 -0.17423666 -0.10837657 0.10237267 -0.07771133 0.12920333 -0.100338005 0.38484335 0.30601665 0.34284 -0.21149166 0.19393666 0.05113867 -0.11964501 -0.12658332 0.18080467 -0.19126134 0.42796668 -0.31461167 0.3455467 -0.541523 0.047415663 0.36581466 -0.16238867 -0.212363 -0.30490664 -0.23317333 -0.31077334 0.199008 -0.05035467 -0.19297367 -0.296581 -0.17461999 0.13926665 -0.10011234 0.145735 -0.006133663 0.084136665 0.21818666 -0.183443 -0.19486666 0.09262667 0.214824 0.033265665 -0.041174334 -0.29575667 -0.060090005 -0.05244801 0.043516 -0.080833994 -0.68229 -0.34891334 -0.11164 -0.08264799 -0.28976667 -0.0970023 0.09901 0.115546666 0.02943266 -0.28277966 0.079433 -0.14074366 0.19838367 0.121486664 -0.27644667 0.009113342 0.18955334 -0.173171 -0.13820334 0.14077534 0.17212367 -0.48637366 -0.29533574 0.042762566 -0.25460824 -0.34907332 0.025764665 0.042506337 -0.21629733 -0.07159 -0.019785067 0.09632333 -0.17788833 -0.035005067 -0.30718336 0.076646335 0.021836668 0.092929 -0.13761333 -0.21302669 -0.35959002 -0.121912666 -0.16925734 -0.095805995 -0.26255 -0.162456 0.0477239 -0.6179233 -0.53108 -0.10549 -0.00030966103 0.19222899 -0.00599567 0.25430098 0.24545668 0.24790668 -0.28586733 0.25324 -0.011446674 0.105025 -0.06931766 0.12609933 -0.03831433 0.089055665 0.19046666 0.10307666 -0.03183407 0.053096335 0.54921 -0.12608933 -0.24271333 -0.28763333 0.13326667 0.16812666 -0.062336463 0.5336933 -0.0019076666 0.07480966 0.2377428 -0.2846 -0.15391333 0.309546 0.33206335 0.018260002 -0.0031593342 -0.36053002 0.22918999 0.032599997 0.13178866 -0.0009263307 0.052220006 0.21062267 -0.24190335 -0.076016 0.15231934 -0.38542333 0.37087333 -0.036420003 0.25342998 -0.14712667 -0.26767465 -0.06826666 0.07825194 -0.49243367 -0.047067333 0.3462 -0.076693326 0.24412501 -0.5836267 0.25155166 0.020745993 0.21962006 0.16906299 -0.40526 -0.26283 -0.02256333 -0.071106665 0.014226675 -0.37919998 -0.14988466 0.08411401 -0.084646665 -0.11267667 0.034533333 0.16547333 0.029526671 -0.26527667 0.46181834 -0.6110567 -0.24287002 -0.10224367 0.3795567 -0.034835 0.035253335 0.34393334 0.2754067 0.10014 -0.04944 0.007571002 0.35622334 0.07687001 -0.0011500021 0.23049335 -0.057903662 0.20791666 -0.13879 -0.04847 -0.22057335 -0.093940325 -0.070912674 0.16782868 0.36033967 0.21414001 0.021376664 0.36965334 0.083136335 0.45431337 -0.48373997 -0.209158 -0.17788601 0.022030985 0.14121 -0.022849998 0.28046668 0.3291 0.27870002 0.16359334 0.36379668 -0.12042999 0.194538 0.034050796 0.15007667 0.26368666 0.06873967 -0.30819 0.23118167 -0.33577332 0.26343668 0.11022499 -0.032840002 -0.91005 0.215019 0.16975766 -0.31679 0.03866834 0.08388267 0.19037001 -0.052278668 0.15307926 0.021358004 0.6166833 0.20331234 -0.38349667 -0.20081668 -0.21251066 0.11652333 0.017910667 -0.4229587 -0.071934335 -0.40480033 0.11927334 -0.08889922 -0.2175907 0.07778333 0.17783166 -0.051882666 -0.56156665 0.244834 -0.32106334 0.18884766 0.0065393248 0.009974331 -1.8404332 0.18486667 0.22972 -0.29660666 -0.6009733 -0.086918674 0.22329332 0.034999665 0.015320003 0.13305335 0.33188668 -0.08633667 0.17310667 -0.12524499 0.084217936 -0.160133 -0.0007880007 -0.16064 -0.063108 0.55433005 -0.28408334 -0.5283267 -0.22322766 -0.11343568
2 -0.0094213 0.63354 -0.37749 0.24669 0.10314 0.44911 0.43333 0.33401 -0.12511 -1.1627 0.27053 -0.43928 -0.5691 -0.025394 0.12787 -0.15473 0.23247 -0.059768 -0.19759 0.5002 -0.17518 0.54642 0.26454 0.2505 -0.11956 0.11705 0.050782 -0.26387 0.23964 0.28133 -0.1 0.32603 -0.88895 -0.89163 0.18044 -0.40551 0.9432 0.28172 0.095633 -0.51032 -0.25606 -0.24582 -0.024457 -0.59162 -0.67455 0.16085 -0.2846 -0.13083 0.55663 0.29613 -0.18492 0.31902 -0.20994 -0.22486 0.22128 0.095839 0.065525 -0.086854 -0.52325 -0.2551 -0.28355 0.29705 0.94809 0.059425 -0.23377 -0.18281 0.0047758 -0.092799 0.033693 0.44838 0.034463 0.61213 0.046499 -0.20983 0.040887 -0.33239 0.3732 0.39388 0.3237 0.32129 -0.2459 -0.16302 -0.39765 -0.14701 -0.23221 -0.078091 0.26456 0.044282 -0.26734 0.13295 -0.15892 -0.20981 0.1198 0.36817 0.12703 -0.043391 0.33541 -0.068457 -0.451 -0.1782 0.50989 -0.040026 0.13141 -0.064147 -0.68147 0.27199 0.068413 -0.082276 0.080134 0.73645 -0.079535 0.22134 -0.84189 0.24375 0.20541 0.5102 0.26769 0.8483 0.21463 0.17216 -0.96506 -0.34867 -0.41149 0.72744 -0.35986 0.17287 -0.50858 0.39032 0.041553 -0.60398 0.52233 -0.20762 0.45755 0.76581 -0.25659 -0.10014 0.7113 -0.34817 -0.13322 0.80704 -0.22544 0.38565 -0.39991 -0.2484 -0.072268 -0.17041 0.32629 0.094476 -0.21523 -0.095493 -0.44519 0.019557 -0.2782 -0.081347 0.32913 -0.014387 -0.57459 0.1265 0.09191 0.074174 0.18235 0.32942 0.3814 0.10016 -0.13997 0.11994 0.64292 -0.43686 -0.28197 0.13123 0.13687 -0.3257 0.3288 0.84172 -0.00288 -0.081841 -0.025515 -0.1171 -0.0021683 -0.14087 0.20627 -0.39133 -0.33174 -0.31104 -0.31913 0.064396 0.25217 -0.2273 0.58924 -0.39774 -0.31226 0.028686 -0.20207 -0.3324 -0.14704 0.10756 0.052417 0.052376 -0.38688 0.13871 0.71706 -0.14882 -0.17291 0.046615 0.71918 0.57753 -0.28925 -0.21641 -0.16302 0.046927 0.022936 -0.16021 -0.079127 -0.38852 0.028872 -0.0838 0.32364 0.28608 0.41281 -0.31925 -0.12242 -0.073876 -0.47763 -0.66514 -0.17315 0.06703 -0.10634 0.22132 -0.12189 0.15438 0.37169 -0.011465 -0.049455 -0.31916 -0.0076186 0.20572 -0.3437 -0.19958 -0.41721 0.3977 -0.58272 0.1849 -0.10621 0.20014 -1.3165 -0.096661 0.06608 -0.083429 0.15109 0.56353 -0.3271 -0.20765 -0.12196 -0.1276 0.95322 1.0511 0.24715 -0.14066 0.10839 0.035831 0.19614 -0.54408 -0.23345 -0.34666 0.29014 0.31953 -0.031352 0.11639 -0.25758 0.2289 -0.15052 0.25019 0.074785 0.10905 0.14435 0.35485 -2.3433 0.31759 -0.3023 0.20244 -0.612 -0.025462 0.23244 0.46976 -0.76929 -0.01324 0.057803 0.1288 0.31685 -0.20744 -0.045275 -0.12195 0.040846 -0.47068 -0.11337 -0.40137 0.12027 0.03207 0.90006 -0.33036
3 -0.146016 0.2438436 0.23785357 -0.069148004 0.05033199 0.098826006 0.0620056 0.626596 0.196236 -2.0124202 0.07284999 0.065006204 0.0329886 -0.056354202 -0.122207 0.3520906 0.27080202 -0.0662974 -0.21483819 -0.16722348 0.016347598 0.0017777979 0.325162 -0.0546916 -0.42888197 -0.112712 0.0646218 0.1741212 -0.1940064 0.2760268 0.3926714 -0.196748 0.04768058 0.16935599 -0.1785768 -0.33437917 0.20726839 0.09459679 -0.22611599 -0.24398442 -0.015693597 -0.225966 0.1369398 -0.00016859919 0.0296798 -0.077011004 -0.045025207 0.23754999 -0.027916199 0.20609578 -0.043479998 -0.1369798 -0.31953597 0.0659316 0.042966 -0.042434204 -0.1162556 0.25571162 0.047738194 -0.1143208 0.015586001 0.16572925 -0.069743 0.0977828 -0.39437002 -0.18721601 0.07683801 0.30597523 0.099791996 -0.042129397 -0.1295908 -0.014686203 -0.112624004 -0.2176766 -0.10062121 0.3035232 0.1556968 0.047208805 -0.028700197 -0.13556202 0.062521994 -0.012324196 0.19341579 0.017759796 0.1621262 0.026397798 -0.40303144 0.1818654 -0.14059535 -0.08203499 -0.3072772 0.199846 -0.11560519 0.27433878 -0.067171596 0.130469 -0.1841127 0.06749859 -0.008898365 0.045613397 -0.081001 0.19286801 0.0628374 -0.1639576 0.23698 0.020121202 -0.038172 0.283108 -0.240066 0.03671801 -0.10529506 -0.28086144 0.028675985 -0.2537536 0.1921842 0.432666 -0.19717081 0.088616595 0.06488766 -0.249069 0.06440924 0.1500194 -0.0324768 -0.22484203 -0.078706004 -0.30817598 -0.059634604 -0.0601264 0.047842 0.1550092 -0.223694 -0.008055681 -0.27868998 -0.20263281 -0.0952856 -0.035472 0.1556018 -0.14679602 0.4036939 0.23635598 -0.44365042 0.36451977 -0.29687935 0.23940761 -0.331276 0.083208606 0.1024992 0.047875997 -0.400482 0.07748 0.911024 -0.103052 0.23055999 0.097880594 0.30443004 -0.267888 -0.1777834 0.2051944 0.1275956 -0.2178152 0.1639392 0.121689 0.09246722 -0.021252 -0.2485182 -0.1698658 -0.077862196 0.1808958 0.001381997 0.046604 0.20545402 0.1802602 -0.155745 0.10011599 0.008310798 0.0028461993 -0.18452981 -0.0974196 -0.050172605 0.218314 -0.1070562 -0.11514981 0.07719006 0.1565176 -0.14044721 0.041127995 -0.352384 0.28358 0.0352736 0.107378624 -0.07588854 -0.19453959 -0.13002041 0.026002 -0.00091121194 0.519416 0.0731402 -0.06962319 0.358144 0.2883494 0.67834604 0.160828 0.078786395 -0.0023580133 0.065982796 -0.23464182 0.29989403 -0.1672808 0.2085506 -0.1524766 0.23697801 0.12720762 -0.0553462 0.20355038 0.40652198 0.054102957 0.16650665 0.15749201 0.191287 0.2667938 0.42241803 -0.25366318 0.21224919 -0.11668502 -0.19720641 -0.178374 0.06879159 -0.1927 0.036066398 -0.240838 0.014730001 0.024615657 0.0587536 -0.0009425938 0.0884426 0.030585999 -0.1406208 -0.12604281 0.0741268 0.1750474 0.092711195 0.451688 0.6099694 -0.10732341 -0.0015240014 -0.24552202 0.305978 -0.3558384 0.0459912 -0.0761662 -0.02531508 -0.0623744 0.15951696 -0.131798 0.539302 -0.1510814 0.038740598 -0.14449799 -0.0496952 0.3514734 0.053545594 -0.15669402 0.072747394 0.1650702 0.023859676 -0.12627915 -0.412788 0.20701441 0.051263202 0.0498726 0.309898 -0.0250516 -0.208222 0.289718 -0.0742574 0.053957988 -2.18286 0.21470201 0.6700652 0.074414 0.27215618 -0.2185874 0.33484262 -0.028719988 0.34603602 0.07949816 -0.006523001 0.2491662 0.2904228 -0.0143325925 -0.06581918 -0.391972 -0.2531668 -0.13467056 -0.051182963 1.035772 0.072043195 -0.0555314 -0.5520946 -0.13584182
4 0.0035266678 -0.219348 -0.12242899 -0.15258801 0.17183332 -0.25132 0.035790008 0.16114333 0.15130334 -1.18755 0.14224333 -0.030073 -0.10604799 0.59974664 0.25504103 -0.23574668 0.16674334 0.32986334 0.22678699 0.44208667 -0.121083654 0.32744667 0.12592499 0.53503996 -0.117527 -0.12815101 0.09453001 -0.16055866 -0.026570002 0.51279455 0.59992 0.15415668 -0.22353667 0.25820664 -0.58943665 0.28310665 0.34620667 -0.12470267 0.09636233 0.011056666 0.49822068 -0.26669 -0.12404134 -0.14177333 0.59707665 0.14222467 0.11382901 0.32524535 0.011136673 0.06840333 -0.031147333 0.11539099 0.172327 -0.48746333 -0.24485333 -0.047030006 -0.023836 -0.51323 0.51392 -0.29249334 0.16305667 0.47355 0.12544666 0.112453334 -0.076233335 0.005517999 0.070984 0.16554333 0.23656332 0.06797334 -0.49857 -0.44993004 0.08019067 -0.10466766 0.068789326 0.15039334 0.353122 0.18367934 0.19970967 -0.019996336 -0.29661798 -0.37709665 -0.38939667 -0.4210367 -0.02919433 0.09056967 0.15139668 0.003328666 -0.27308166 0.03027 -0.19229667 -0.66374665 0.005152168 0.253472 0.4262 -0.028248005 0.4153633 0.35685802 -0.07662734 -0.068565 0.024060005 0.10998034 0.16254 -0.092842996 0.33777002 0.20786333 0.10445934 -0.13691999 0.019853333 0.023316337 0.18437667 -0.49187663 0.072832994 -0.24338998 0.26350167 0.06887177 -0.17219 0.012868713 -0.14034499 -0.066470005 0.13150133 0.253366 -0.42407668 0.03180966 0.0028390016 -0.0061973347 -0.14429666 -0.034401998 0.014036934 0.17812067 0.14051668 -0.43407 0.62078 -0.7455233 -0.34214935 -0.44695005 0.18613465 0.14883667 -0.21047668 0.44040334 0.17261733 0.14315332 0.09136534 -0.34926665 0.5034067 -0.21582766 -0.16654034 -0.31872967 -0.17369334 0.25452 0.67012334 0.23738599 0.42915666 -0.04665223 -0.29708135 0.014378334 -0.08083 0.08417367 0.26988998 -0.30051002 0.55189997 0.31929 0.18369001 -0.22128333 -0.41988 -0.2099824 0.024385333 -0.15735665 -0.34113336 -0.079993345 0.10777223 -0.40614 -0.92211 0.138335 0.21673834 0.186619 -0.25972566 -0.4640533 0.15542267 0.24414366 -0.13157 0.4529933 -0.25594333 0.12295333 0.35836998 0.22437733 -0.36588 0.12297166 0.016667001 -0.18943201 -0.23242666 -0.13130333 0.18810666 0.28474668 -0.10474033 0.1609673 -0.143406 0.10285001 0.26512334 0.11106932 0.6759767 -0.07309733 -0.13790132 0.100974 0.12235334 -0.39301667 0.013779998 0.42740667 -0.24441133 0.12644668 0.023557672 0.047198337 0.011806667 0.25432533 -0.144766 0.60776 0.072676666 0.12253001 0.06707734 0.5385 -0.390457 0.070107974 -0.30440333 -0.26524666 -0.19604065 -0.27948 -0.023486326 0.28553733 0.5145367 0.64394665 -0.023718165 -0.023947665 -0.16378917 0.009219994 -0.38731667 -0.251089 0.14429335 -0.38475332 -0.19684334 0.16884701 -0.25653002 -0.21432666 0.52821666 -0.056964133 -0.97745675 0.28232998 -0.76669 0.06903699 -0.022936672 0.53528 0.008737673 0.07389834 0.11517099 0.13424967 -0.11385467 0.24807666 0.25689334 -0.6759867 0.095435 -0.21250899 -0.075399995 -0.44300666 0.25774953 -0.38888332 0.12883233 -0.53353 -0.52999 0.40633133 -0.10823667 0.33622336 -0.28773332 -0.062203333 0.2022047 -0.09078 -0.09408667 -0.08161733 -1.4244 0.047829997 0.5554853 -0.21832602 -0.13329001 -0.5111367 -0.27104032 -0.29878 0.21655302 0.00783667 -0.45782337 0.18294267 0.21398668 0.25297633 0.22210266 -0.41258335 -0.5801633 -0.012783666 0.20516668 0.0036849976 -0.059173334 0.17871666 -0.33179036 0.05215019
5 0.01865717 -0.26948994 0.014522334 0.049361497 -0.11741999 -0.15118332 0.04229717 0.43296835 0.28765866 -1.3518215 -0.308954 0.07973867 0.0018901676 -0.114111 0.07190766 0.32737502 0.17786665 0.5739221 -0.013068001 -0.16974717 0.067706846 0.26990268 0.23220666 -0.15056434 -0.23435283 0.113556005 0.21248399 -0.11286717 -0.19301765 -0.147507 0.12401182 0.20506667 -0.3835542 -0.04454994 -0.61407465 -0.14272635 -0.0011916682 -0.049020004 -0.05947626 -0.15469772 0.5489983 -0.15506284 0.306379 0.1491772 -0.038781833 -0.1511855 -0.35403168 0.21864434 -0.088030495 0.007542173 0.0016231723 0.054871332 0.012137492 -0.027899206 0.21877332 -0.11521233 0.17537199 -0.15498066 -0.062469494 0.0076268315 0.16190498 -0.10328317 -0.27060866 0.043418664 -0.32598004 -0.33869502 0.009774049 0.07248434 0.41869292 -0.40186563 -0.068474896 -0.296005 -0.092428505 0.03807633 0.3263985 0.02241277 -0.11412517 0.23798268 -0.23644467 -0.08812183 -0.24779733 -0.25344 0.08777117 0.25812814 0.11811266 -0.10016534 0.14631695 -0.10249225 -0.12560596 0.03392667 -0.255423 -0.042918492 -0.26790717 0.4130567 -0.223315 -0.056131 -0.09038168 0.26132217 -0.04510333 -0.025359998 0.011136666 -0.66875 -0.4158367 -0.30823818 0.015466665 0.050689492 -0.07559233 0.058904994 0.025349999 -0.29667667 0.2714171 -0.2815065 -0.261715 0.12133833 -0.06426517 0.061876174 0.22983749 0.035085335 -0.31042466 -0.21922047 0.022558833 0.18474913 -0.024876332 -0.13915582 -0.0581385 -0.07789433 -0.027755335 0.4787612 0.2886953 -0.006316344 -0.11314165 -0.4174033 0.08561333 -0.39611736 0.20586501 -0.13053234 -0.072631665 -0.085919164 -0.03706672 0.20990068 0.33799234 -0.041828167 0.09278973 0.1773505 -0.20849983 0.10629866 -0.1092625 -0.12240168 -0.19572116 -0.072891496 0.52066 -0.26283333 0.37099668 0.13241135 -0.19619833 0.20912518 -0.20687999 0.007087966 0.049493 -0.043275803 0.27898166 -0.008860252 -0.028873675 0.087006666 -0.21809632 -0.09675998 0.10363984 -0.097498 -0.4002217 0.18168767 0.1189305 -0.0755325 -0.8074866 0.38928333 -0.111538835 -0.2790055 0.008480172 -0.04350667 -0.13983913 0.7047267 0.022818169 -0.14191999 0.092449285 -0.10504999 -0.30740634 -0.0816245 -0.31368336 0.12761784 0.00032667318 0.0849515 0.080033675 -0.33883098 -0.038068604 0.11053849 0.30757433 0.2290815 -0.061274763 -0.274759 -0.09095383 -0.19069834 0.35318497 0.0834525 -0.091956 -0.11770833 0.3274 0.17243767 0.099954344 -0.063216664 0.28518215 0.35848 0.24296881 0.34562168 0.0707045 0.13564432 0.10257733 0.21664482 -0.14302249 0.27740252 -0.008599003 0.3529965 -0.25985333 -0.10726833 0.229321 -0.08247 -0.13642184 0.04955299 0.15025167 -0.028728666 -0.25941 -0.014955498 -0.16669667 -0.122221164 -0.20588262 0.10133234 0.007967333 0.04268816 -0.09756998 -0.03332 -0.318559 -0.20454001 -0.19009835 0.34313166 0.83721 -0.106364004 -0.7753284 0.10872015 0.048174996 -0.18230198 0.1496011 0.2082415 -0.194125 -0.09509599 -0.09120703 -0.11193783 0.276161 -0.127214 -0.008389659 -0.46682832 -0.10937166 0.2273285 0.10962299 -0.0010666648 0.46542153 0.13457467 -0.049110506 0.008218326 -0.26484498 0.17498666 -0.1432785 0.0775832 0.049666494 0.05462967 -0.100469165 0.10682284 -0.14779733 0.31756333 -1.59275 -0.062206995 1.04437 0.006494338 -0.009693337 -0.43721768 0.23792665 -0.31411836 0.06345167 0.12787251 0.099068515 0.246328 0.094277404 -0.060489833 -0.10484266 -0.44023064 -0.08049666 -0.26660267 -0.16400068 0.7018216 -0.022214169 -0.26427165 -0.13076118 0.14803882
6 -0.13187 -0.42733 -0.21966 -0.18693 -0.21649 0.12928 0.36713 0.19067 -0.39185 -1.3515 -0.51548 0.11032 -0.9519 -0.33434 0.24677 0.30443 0.14366 0.25902 -0.10819 0.51531 -0.60306 0.47176 0.7572 0.31467 -0.67195 0.31971 -0.0055328 -0.26323 0.08607 0.070591 0.36466 0.37314 0.51433 0.10465 -0.48842 -0.014876 0.57026 -0.64883 -0.17656 -0.10998 -0.0024661 0.071005 0.084374 0.59335 0.15296 -0.25145 -0.87765 0.51799 -0.091182 0.094327 -0.25425 -0.042157 -0.34876 0.26964 -0.053638 0.11815 -0.76048 -0.51767 -0.2265 -0.22823 0.0059264 -0.38257 -0.019615 -0.014578 0.048225 -0.44953 -0.23823 0.23425 -0.087151 -0.14127 -0.21966 0.24815 0.26474 -0.054417 0.06508 0.38031 0.3814 0.23603 0.20887 0.32615 0.090855 -0.17482 -0.19864 -0.16381 0.43667 -0.14456 -0.50011 0.26055 0.029474 -0.20075 -0.26572 -0.46314 -0.27584 0.0080899 0.21137 0.29052 -0.43051 0.47755 0.23108 -0.085927 -0.025518 -0.37419 -0.37754 -0.54767 0.19044 -0.19683 -0.285 -0.6923 0.2067 -0.28958 0.14912 -0.67743 -0.027733 0.19558 0.34959 0.10719 0.32014 -0.012925 0.21067 0.17185 0.52274 -0.59883 -0.071469 -0.57899 -0.13865 -0.026534 -0.15832 -0.25802 0.089214 -0.093665 -0.17016 0.013802 0.27359 -0.77923 -0.71854 -0.51658 -0.021524 -0.22944 -0.37424 0.61744 0.060259 -0.23834 0.31246 -0.21691 -0.25324 0.304 0.12401 -0.34854 -0.10292 0.37209 0.87975 0.077179 0.14614 -0.35347 0.39273 0.079636 -0.53976 -0.41216 -0.45071 -1.0259 0.43402 0.66286 -0.48705 -0.43043 0.36097 -0.65681 -0.19064 -0.81057 -0.26617 1.112 -0.83607 -0.56961 -0.88458 0.1946 0.50375 0.035111 -0.46853 -0.71194 -0.10347 0.1364 0.17472 0.088818 -0.6505 0.24795 0.45998 -0.54724 -0.24449 0.23632 -0.33686 0.18242 0.49826 -0.46657 -0.12304 0.0049857 0.10772 0.44707 0.51948 0.16983 0.14489 -0.48148 -0.047647 -0.27205 -0.012475 -0.034345 -0.36547 -0.56977 0.23126 0.087827 0.19668 -0.30648 -0.40807 0.30765 0.42859 -0.23754 -0.37638 0.47866 -0.25862 0.58176 -0.071264 0.027741 0.39804 -0.82722 -0.82785 -0.18947 0.13037 0.66335 -0.56547 0.14867 0.75443 0.29882 -0.53317 0.14319 -0.020964 -0.048048 -0.14307 -0.83933 0.37395 -0.22637 0.13344 -0.028929 0.048955 0.17193 -0.30528 0.056974 0.084353 0.5997 -0.3823 -0.68911 -0.29958 -0.10814 0.19712 -0.18127 0.56122 -0.21285 -0.459 -0.12386 -0.36095 -0.34896 -0.061993 0.50969 0.14668 -0.40731 0.11532 -0.26906 0.42822 -0.017243 0.47897 -0.043442 0.017412 0.1918 -0.47673 0.27349 0.20992 0.16893 -0.50343 -0.0036888 -1.0097 0.43452 0.17092 0.0147 -0.64331 -0.36592 0.27095 -0.22936 0.37036 -0.13492 0.1777 0.044695 0.16021 0.0083269 0.12431 0.1765 0.074649 0.15533 -0.30205 0.51879 -0.063052 -0.17686 -0.65171 0.38447
7 -0.13503926 0.1789945 0.023586752 0.15291749 -0.057756 0.254638 0.13654324 0.32968774 0.112405755 -1.624275 0.21107048 0.25038275 -0.15286064 0.3453125 -0.12903276 0.0872975 -0.110025 0.0229175 -0.08754375 0.1673535 0.066115 0.0775125 0.187325 0.05512774 -0.393062 0.41035998 0.103862494 -0.11224125 -0.24082851 -0.28406274 -0.0070234984 0.3125025 -0.092616975 0.1672525 -0.5551175 -0.179157 0.2904075 0.046982743 -0.20647399 -0.2001 0.17346226 -0.05950775 0.25948325 0.236075 -0.13524151 -0.13717525 -0.1318175 0.4826625 -0.07699925 0.07444051 -0.040626746 -0.23158 0.016270999 0.022462998 0.05196875 0.0031747483 -0.309277 -0.15079351 0.026153997 -0.36400497 0.30199748 0.087141246 0.01121325 0.24393499 -0.3601625 -0.26635075 -0.2617875 0.102747746 0.3313425 -0.2508525 -0.13729751 -0.12489175 -0.163153 -0.115009755 0.3854245 0.13044275 -0.0465685 0.324663 0.06819847 0.2199025 0.24577 -0.27458826 0.27554172 0.23036227 0.13916525 -0.058014 -0.020946328 0.03856025 -0.22815618 0.06666325 -0.51731896 0.36393225 -0.0359055 0.1224625 -0.400725 0.028776497 -0.391545 0.01212675 0.068418995 -0.23048499 0.2817675 0.042882744 -0.1639655 0.10053751 -0.1308485 0.045482498 0.14420076 0.22342235 0.060656507 -0.09636325 0.03875293 -0.5658575 -0.1098385 -0.36001998 0.36140776 0.32496274 0.2544075 -0.18782926 -0.368925 -0.3096517 0.1920445 0.36480498 0.023893151 -0.35144526 -0.1839925 0.040073745 0.104977496 -0.13236025 0.17363651 0.42194748 0.08829 -0.05775375 0.227995 0.055909008 0.0218865 -0.11585499 0.131268 0.1053775 -0.034870956 -0.0146419965 0.13739957 0.186847 -0.1802779 0.24664675 -0.184475 -0.154655 0.14082275 -0.036613774 0.1931155 0.2462675 0.72288245 0.20814475 0.19637999 -0.02053675 0.0797585 0.20217523 -0.01844275 0.0459335 -0.030785501 -0.061077498 0.2888585 0.0272625 0.13842675 0.0327775 -0.0922 -0.28565 0.18035474 -0.1079583 -0.0722 0.37519747 0.4295775 -0.01641025 -0.550805 0.39078 -0.1046755 -0.17757225 -0.008723855 -0.22654001 -0.25977468 -0.09796125 0.008491503 0.07258147 -0.1179175 0.013751503 0.026569525 -0.2837965 -0.17103651 -0.020795502 0.060489997 0.0067582503 -0.14101875 -0.48018125 -0.43642753 0.023174498 0.2330335 -0.08585875 -0.27028874 -0.20567375 -0.05071295 -0.258745 0.12817974 0.404695 0.11646374 -0.06199725 0.011917502 -0.043974005 0.009589002 0.00721425 0.02370825 -0.076527506 0.095605 0.06895575 0.06821975 0.35319299 0.13440749 0.072302245 -0.1993025 0.48953998 -0.0902655 -0.0071182474 -0.3497225 -0.0720775 0.241649 0.049072504 -0.31173 -0.016623 0.2187175 -0.2101675 0.06774699 0.03723475 0.09678525 -0.06635124 0.0641225 0.14042525 -0.549097 -0.042461995 0.10865475 -0.07180165 -0.21817249 0.10839726 -0.08560061 -0.013777491 0.63317746 -0.1031225 -0.312774 0.2711175 0.11186001 -0.16107924 -0.0033794958 -0.1395125 0.04553275 -0.13645 0.15242605 0.015555246 0.7158525 -0.11941295 -0.0156915 0.081436425 0.110160254 0.41583002 -0.2868845 0.015017495 0.17886424 0.061040994 -0.25003377 -0.09613074 -0.26989576 0.021780498 -0.50446874 0.008190498 0.2074875 0.0513665 -0.27666998 0.4030675 -0.19490251 0.30856475 -2.076475 0.2852575 0.915765 0.37941247 -0.09757501 -0.283299 0.103845 0.0009875 -0.029471748 0.025708996 -0.040188 0.21713585 0.32912248 -0.1104375 0.1335231 -0.173375 -0.23263 0.1407925 0.11713649 0.1520145 0.1085105 -0.14015499 -0.140823 0.342701
8 0.032534 -0.12477225 -0.0946595 0.13926125 0.12892249 0.19509424 0.15490475 0.028731503 -0.075822994 -1.815575 -0.010447506 0.309908 -0.10945325 0.45574498 0.31140476 0.13878949 0.06757574 -0.08632925 0.35952276 0.13001326 0.018310498 0.240125 0.3709925 0.16546501 -0.324393 0.22471774 0.145495 0.12189999 -0.05251225 -0.12820399 0.06337425 0.010116253 0.28461498 0.42629248 -0.8979125 -0.007906247 0.19652501 0.039863247 -0.026892997 -0.09430049 0.08788651 -0.19541724 -0.041805502 0.1238475 -0.06500025 -0.059659254 -0.3194725 0.15931 -0.30488598 0.07286975 -0.1369675 0.008685496 0.06261599 -0.3086675 0.104871005 -0.10668525 0.097495496 0.10001 -0.18174925 -0.010416504 0.3035625 -0.009495251 -0.0626585 0.0075657014 -0.37462303 -0.35961 0.11697826 -0.1810085 -0.023460371 -0.144695 -0.223433 0.3063325 0.27050176 -0.101258 0.1043055 0.108843304 0.11449725 0.27679977 -0.016803252 -0.029041413 0.1562075 -0.430595 0.11919625 0.16912875 0.34963027 -0.060701743 0.24784069 0.060655996 -0.2769345 -0.033206746 -0.064656496 0.14904651 -0.22491476 -0.222959 -0.011881009 -0.07281 -0.10845925 0.09499825 -0.19166002 -0.1899675 -0.06379475 -0.048520006 -0.15514752 -0.028892497 0.03880775 0.149525 -0.08188551 -0.031549253 -0.063378 -0.18463975 -0.12116483 -0.78050506 -0.186003 -0.06975001 0.29502276 0.22856075 -0.02900502 -0.13467225 0.0786652 -0.0842625 0.0266485 0.25543252 -0.09496713 0.04848225 -0.08936626 0.0647475 -0.081548 -0.05426825 -0.2773675 0.04479725 0.037222505 0.007730753 0.44928497 -0.3109185 -0.40995497 -0.159275 0.12456475 -0.032347497 -0.2674801 0.145225 0.054777693 0.09140423 0.40583712 0.17942251 0.20466 -0.043738753 0.40764502 -0.1655325 0.045724474 0.297505 0.90838003 0.1623075 0.106088996 0.114647254 -0.12626125 0.31150022 -0.0903975 -0.0837135 -0.097678006 -0.346355 0.013292745 0.4416575 0.20092851 -0.172025 -0.23339725 -0.11222925 0.04227975 -0.11991474 -0.0130715 0.2918475 -0.1867575 -0.0773325 -0.7322325 0.09565751 -0.3266465 -0.027879003 0.08919275 -0.4165675 -0.0282375 0.22860003 0.093531504 0.06456875 -0.06367299 0.09441525 0.025450487 0.12550676 -0.3987475 -0.0062099993 -0.053635754 0.19997475 -0.118976 0.020035747 -0.106644996 -0.044070505 -0.0365765 0.1560275 0.17314401 -0.018377498 0.12749499 -0.1191 0.24317724 -0.039594743 -0.075315505 0.05909074 -0.13065276 -0.323175 -0.1081951 0.1867828 0.17440325 -0.289595 0.35856748 -0.1237 0.06405725 -0.37091202 0.1495955 0.34998724 -0.033516 -0.0448065 0.19937223 -0.029136498 0.12130125 0.047032498 -0.232286 0.138075 0.0485125 0.1576675 -0.4325825 0.108619995 0.26989248 0.012782499 0.037337497 0.2493725 0.055531748 -0.036567252 -0.05887726 0.0264775 0.268287 0.054029465 -0.387103 0.051220253 -0.0859265 0.47160375 0.491605 -0.2531375 -0.43896753 0.40718502 -0.024725005 -0.315705 0.032325 0.016023675 0.032015003 -0.2544525 0.13813695 0.080027506 0.23769726 0.047434263 -0.25464502 -0.0419945 -0.0373155 -0.1812525 -0.0692715 -0.30335554 0.049349245 0.11746475 0.26331925 -0.084315 -0.062339753 0.23203 -0.014523501 0.12887716 -0.17169997 0.2705105 -0.113221005 -0.064449996 -0.061237503 0.1304795 -1.47545 -0.050534 0.80327004 -0.49351752 -0.23711923 -0.060934503 -0.011104745 -0.2661125 0.242337 0.10265753 -0.1023075 0.28118375 0.199366 -0.21744 -0.06223025 -0.00045999885 -0.1848775 0.034294996 0.302729 0.47993726 0.07233375 -0.31243 -0.24766451 0.26586574
9 -0.15599 -0.48863 -0.095793 0.33088 -0.058741 0.19546 0.14079 -0.23351 -0.22091 -1.809 0.23999 0.23155 -0.2614 0.58763 0.14984 0.039441 0.26857 -0.35678 0.33978 -0.086884 -0.31331 0.083792 -0.45803 0.48424 -0.014717 0.53933 0.088042 0.13115 0.18257 0.107 0.48577 -0.029373 0.18012 0.47554 -0.87488 0.39149 0.53745 -0.0063546 0.060698 -0.46311 0.55727 -0.58281 -0.20869 -0.45452 -0.13888 -0.083076 -0.45609 0.88219 0.18462 -0.84753 -0.2523 0.2111 0.037397 -0.36724 0.10139 -0.11059 0.52339 0.13964 -0.012866 0.2447 0.24951 -0.17792 0.19481 -0.13235 -0.1326 0.0090331 0.11366 -0.22846 -0.55384 -0.19502 -0.69034 -0.60809 0.19883 -0.19056 0.51211 -0.11389 -0.32236 0.4768 -0.068785 0.42006 0.46125 -0.25753 0.24404 -0.24938 -0.088638 -0.050059 0.12597 -0.41955 -0.32934 -0.093084 -0.37752 -0.042846 -0.41694 0.44503 0.40834 -0.078672 -0.19077 0.10634 -0.45438 0.10417 -0.091169 -0.25406 -0.050085 -0.15111 0.19377 -0.48826 -0.32771 -0.013199 -0.12172 -0.082718 0.22685 -1.1618 0.26638 -0.095021 -0.051916 -0.0094577 0.17666 -0.10423 0.11075 0.31282 0.080793 0.9009 -0.14988 0.040196 0.087837 -0.19295 -0.17704 -0.36456 -0.10088 -0.041492 0.053511 -0.58331 0.7997 -0.16211 -0.14938 -0.37602 -0.3355 0.40658 -0.22852 0.56702 0.45796 -0.17536 0.24725 -0.20521 0.33738 -0.20325 0.46125 -0.096619 0.35503 0.458 1.1045 -0.06066 0.72095 0.26253 -0.78934 0.19634 -0.18822 -0.5945 0.1074 -0.21854 0.45644 0.26283 -0.12558 -0.5837 -0.35181 -0.77446 -0.057786 -0.45396 0.021407 0.40866 -0.19257 -0.39938 -1.1346 0.53859 0.2992 0.18479 -0.32065 -0.92896 -0.11041 0.43687 -0.22184 0.17882 -0.29285 -0.21025 0.019958 0.11018 -0.28076 0.091363 -0.043574 0.2452 -0.12323 0.24119 0.082295 0.063377 0.052041 0.67751 0.058919 0.19593 0.45511 -0.16609 0.24755 0.26625 0.16469 0.098158 -0.40091 -0.12506 -0.3074 -0.19394 0.1118 0.29548 -0.0029244 -0.37724 -0.50793 -0.37191 0.2317 0.44089 -0.25758 0.27855 0.54572 -0.14578 -0.10627 0.46546 -0.74192 -0.21909 0.21883 -0.18607 0.30635 -0.27689 0.16028 0.15592 0.00010438 0.40641 -0.11154 -0.067444 -0.21263 -0.054281 0.22308 0.1675 -0.10388 0.21529 0.44342 0.0782 0.74798 -0.36624 -1.197 0.66083 0.10179 -0.27821 0.11598 0.17297 0.061977 0.15777 -0.00025323 0.10331 0.18671 -0.0088602 0.26155 -0.12531 -0.28656 0.095677 -0.21804 -0.41513 0.49224 -0.18266 -0.064651 -0.15015 -0.35053 0.27396 -0.17054 0.45922 -0.54717 -0.079053 0.047745 -0.15922 -0.42948 -0.092585 -1.9926 0.20223 0.88295 -0.11956 -0.054063 -0.45556 -0.29706 -0.34774 0.10337 0.48005 -0.10413 0.26968 0.04454 -0.12409 -0.30056 -0.086034 -0.33568 0.018582 0.14153 0.50129 -0.24236 -0.71039 -0.44195 0.032832
10 -0.0004725 -0.181658 0.151799 0.0986595 0.37439 -0.302445 0.63122 0.11723499 -0.414375 -1.66415 0.1625655 0.46357 -0.073485 -0.20135851 0.095387 0.274585 0.004765004 -0.0706155 0.036314994 -0.076050006 0.21388 -0.421075 0.0409575 -0.124370955 -0.17274855 0.53639996 -0.29849 0.39717 -0.197665 0.37251002 0.306755 0.079845 0.173269 0.154605 -0.664235 0.139071 0.2164 0.30274 -0.19726351 -0.31008 -0.730215 0.20500785 0.15103 0.1966625 -0.30721498 -0.105758 -0.13956499 0.043124996 -0.26927 0.253179 -0.21248001 -0.253916 -0.0681325 -0.07874501 -0.18173501 0.063695 0.1791935 0.35442 -0.135163 0.13616 -0.37413448 -0.12696299 0.29578 0.065375 -0.2942675 -0.15464832 -0.088522 -0.23531899 -0.314239 -0.46476 0.031047048 0.06466499 -0.148225 0.136529 0.23646998 -0.0311135 -0.27025002 0.109798 0.006389998 -0.292165 0.42393702 -0.276932 -0.167058 0.155835 0.3538035 -0.16883 0.0352684 0.19602 -0.57991004 0.11099 -0.60928 0.583 -0.109412 -0.057223503 0.27888 -0.2725361 -0.330195 -0.23742001 0.201256 -0.3855935 0.24124348 -0.103499494 -0.15876 -0.14057499 0.0762275 -0.12612799 -0.0713511 0.301185 -0.13723 0.15389 -0.228445 -0.6069388 -0.53485 0.113712996 -0.187744 -0.32193 0.1098677 -0.44756 -0.182285 -0.0079135 0.220635 -0.0378365 -0.185971 -0.07068999 -0.20816 -0.07638 -0.315889 -0.1555195 0.17626502 0.0779925 0.54914 -0.052254997 0.24377 -0.35856998 0.033924997 0.041350007 -0.17901245 -0.036983 -0.52423 0.354645 0.0875545 -0.0023449957 0.18154499 -0.379 -0.24515998 0.43800503 0.27478498 -0.080694996 0.4032575 0.022455 0.872155 -0.05741 0.67907 0.042689994 0.128855 0.590845 0.48365498 -0.262511 -0.24597 0.12548 0.02085725 -0.223055 -0.123357 0.0800985 -0.29575002 -0.128095 0.20076999 -0.1448635 -0.06288999 0.52105 -0.1792825 0.4343535 -0.16384499 0.13654 -0.271005 0.19092 0.48051 -0.364125 -0.033395 -0.22051299 -0.0925835 -0.0509625 0.1431245 0.036036 -0.498403 -0.124455 -0.38565 -0.228057 -0.124057 -0.386345 0.085985 0.66049504 -0.54999 -0.30052 0.391495 -0.0035300106 0.057365 -0.020535499 -0.020491995 0.49693498 0.20504 0.09866999 -0.022889 0.219825 0.066778146 0.1741365 0.063646 -0.42548 0.351935 -0.156935 -0.207912 -0.34092999 -0.0447955 -0.76441 0.429285 -0.03723 0.151591 -0.040820003 -0.15705 -0.021799497 0.022835016 0.11858 0.24028501 0.36399615 0.33333802 -0.302215 -0.06508 -0.12832999 -0.21711501 -0.1261955 0.052789994 0.124151506 0.249475 -0.088579 0.29595 -0.20969196 -0.061222 -0.1408545 0.18509999 0.027255002 0.14054501 0.206181 0.359335 -0.019734979 -0.39985502 0.0018399991 0.44867998 -0.587595 0.35969502 0.218285 0.2480615 0.0688855 0.244225 -0.289395 0.089595 0.069385 -0.460815 0.25064498 0.50986 0.069966495 -0.023780003 0.077303 -0.100711495 0.199541 0.05461 0.404115 -0.24171501 0.505145 -0.0518185 -0.137614 -0.09052999 0.189969 -0.2623325 -0.266125 0.32066 0.14336699 -1.8225499 0.629475 0.70678496 -0.011125006 -0.33107498 -0.52030003 0.2130235 -0.21661499 0.20836 -0.142011 -0.2633 0.197644 -0.194805 -0.26269 -0.263903 -0.74357504 -0.552218 -0.2626905 0.411155 0.669775 -0.366855 -0.38567 -0.011389999 0.041954994
11 0.78421 0.038821 -0.51715 -0.507 0.64195 -0.087256 0.33351 -0.097453 -0.26637 -2.3458 0.32017 -0.2822 -0.43848 -0.015474 -0.12346 0.33387 -0.25904 0.24962 -0.36994 0.19812 0.054311 0.63741 0.63037 0.48128 0.48461 0.0054405 0.099987 0.57157 -0.28713 0.0049929 0.34296 0.45675 -0.29873 -0.018955 -0.68245 -0.021861 0.37953 0.017973 0.21117 0.49017 -0.52737 -0.26651 -0.29649 -0.20251 -0.63851 -0.37701 -0.88635 -0.44829 0.31853 -0.30701 -0.043028 0.11433 0.073186 -0.55199 -0.051791 0.13208 -0.05214 0.639 0.041211 -0.19379 0.088482 0.29771 0.60947 -0.63766 -0.58926 -0.40101 -0.328 0.14536 -0.15527 0.56753 -0.19511 0.29207 -0.076968 -0.23875 -0.13523 0.53686 -0.41598 -0.082264 -0.30144 0.5889 0.15952 -0.67577 0.042544 0.65432 0.6181 -0.35286 -0.29506 0.62493 0.10805 -0.62124 0.18876 0.48216 -0.051004 -0.15605 -0.62613 -0.52587 -0.99127 -0.15449 0.25544 -0.48953 -0.77982 -0.17199 -0.39137 -0.1408 0.020499 0.58306 -0.48842 0.2084 -0.69361 0.2837 0.98185 -0.97389 -0.41317 0.71583 -0.011831 0.18762 0.78959 -0.39001 0.9324 0.55102 -0.26244 -0.324 -0.13771 -0.15435 0.18779 0.051074 0.16714 -0.46158 -0.75933 -0.062854 0.46258 -0.59592 0.17131 -0.23692 -0.46087 0.114 -0.12973 0.62509 -0.16429 -0.19284 0.50038 -0.36477 1.0536 0.0059693 -0.28857 0.89603 0.23035 -0.053207 -0.32472 0.14946 0.84799 0.28925 -0.27744 0.1601 0.3361 -0.29613 0.19876 -0.65559 -0.4197 -1.0971 -0.15584 -0.54352 0.27494 -0.058869 0.15779 -0.18818 -0.56677 -0.17243 -0.1668 0.67699 0.034887 0.089113 -0.67582 -0.12187 0.54095 -0.33874 0.019207 -0.45034 0.21362 0.32826 -0.80675 -0.52704 0.027774 -0.19444 0.0057971 0.022575 0.74748 -0.074478 -0.056637 -0.19566 -0.13654 0.12433 -0.30421 -0.36748 -0.71557 0.28387 -0.20334 -0.50191 0.67712 0.83771 0.2424 0.59091 0.5491 0.23873 -0.07866 0.070184 -0.74816 0.44551 0.35052 -0.42642 -0.2006 -0.29991 0.10747 -0.20881 0.40208 1.3549 0.7774 -0.16058 0.0022458 -0.098542 0.27876 -0.04591 -0.59636 -0.16149 -0.36691 -0.49802 -0.55918 0.19277 -0.16095 -0.10847 0.12016 0.22825 0.1377 -0.23621 0.016962 -0.53679 -0.22448 -0.45134 -0.22247 0.52737 0.26005 0.14143 -0.11546 0.54133 -0.44995 -0.27751 0.058454 -0.4594 -0.37816 -0.50907 0.062499 -0.22508 -0.65914 -0.32735 -0.25722 -0.64682 -0.68002 -0.22438 -0.49769 0.62116 0.34442 0.28843 0.11686 -0.1956 0.68656 -0.032652 0.32636 0.060544 0.5178 0.03198 -0.56865 -0.27862 -0.37402 -0.15263 -0.73297 -0.10154 -1.614 0.32767 0.68274 -0.071809 -0.82181 0.13381 -0.14682 0.35942 0.092184 -0.5891 -0.036188 -0.22977 0.33596 -0.3979 -0.19968 -0.070893 -0.063727 -0.046801 0.57746 0.66394 -0.010813 -0.52146 -0.20787 -0.063546
12 0.30604 -0.20627001 -0.48378003 0.12044895 -0.05023501 -0.21650499 0.346025 0.321585 0.207645 -1.78965 0.219445 -0.018865999 -0.22969 0.06941 -0.3776805 0.131026 -0.070417196 0.2799 -0.25508 0.16190001 -0.243855 -0.011371501 0.49886 0.08866 -0.35227 0.43499 -0.1324786 0.2152215 -0.249035 0.28076002 0.3503665 0.142281 -0.22258501 -0.203695 -0.157215 -0.12584749 0.12705345 -0.302585 -0.03086999 -0.29465002 0.22036 -0.16195899 0.592005 0.18722 -0.62517 -0.12902504 -0.1530855 0.15799001 -0.0592415 -0.21414499 -0.45108998 0.0669005 0.075600006 -0.043745004 0.047192503 0.46425998 0.1229312 -0.35409 -0.102835 0.117216006 -0.16982499 0.063034 0.014943002 -0.352175 -0.55433 0.1614245 -0.329225 -0.027667 0.0329265 -0.293975 0.074969 -0.18812501 0.350225 -0.38626 -0.281275 0.302935 -0.218065 0.248976 -0.02539 0.076165006 -0.1498325 -0.4305 -0.05730501 -0.03932 0.287775 -0.093380496 -0.019964993 0.40245998 -0.82675505 -0.79444003 -0.57317 0.0403225 -0.1026725 0.49675 -0.35846502 -0.071455 -0.15678391 -0.079027 0.023595002 -0.21087651 -0.11661501 -0.40113002 -0.111966 -0.109863 0.21510501 -0.05331 -0.215265 0.0663935 -0.173611 -0.163117 0.407385 -0.515395 -0.439055 0.20729351 0.049401 0.30113 0.85836995 0.069714 -0.26283398 0.08791001 -0.094545 0.28611168 -0.25174 0.248565 -0.1585585 -0.146825 -0.054405004 -0.14159551 -0.012063501 0.23689151 0.2655 -0.20162301 0.291482 -0.3522645 0.061285503 -0.30594 -0.008595005 0.274605 0.17892 0.23762 0.215215 0.033883 0.546705 -0.39252502 0.059859 0.35746002 0.193834 0.55131 -0.19512 0.1402675 0.57993 -0.41583997 -0.032587 -0.39196002 -0.1545745 0.303705 0.233865 -0.0650149 -0.112838 -0.1432655 0.0276845 0.0459835 -0.068454996 -0.0074250028 0.0708829 -0.62864 0.0606715 -0.36609 -0.2868265 0.63614 -0.065289006 -0.034184992 -0.21842 0.66058 0.11313 -0.37826502 0.319335 0.035125002 -0.287305 -0.12893799 -0.085295 -0.29944 0.2477245 -0.27380002 -0.34131 -0.063760504 -0.236225 -0.028312448 0.347505 -0.1098215 0.11669 -0.1789945 -0.723635 0.167365 0.082709 -0.200185 0.28677002 -0.097675994 0.041321002 0.24483499 -0.148828 0.42478 0.321085 -0.158054 0.19824901 0.478865 -0.229105 -0.091529995 0.665805 0.25009 -0.0109849945 0.077705 -0.082828 -0.506125 0.194285 -0.13700101 -0.42898002 0.41690502 0.1196006 0.0599845 0.00956 -0.226755 0.00784 0.299605 0.1771205 -0.161734 -0.15816501 -0.13525051 0.1328285 -0.05187055 0.2712285 0.2508415 0.06853501 -0.0462925 -0.19848001 -0.172179 0.008925006 -0.0943375 0.33696002 0.234852 -0.078869 0.253164 0.843845 -0.148369 -1.348515 0.48181498 0.04019 -0.76463497 -0.042286 0.1949355 -0.19431001 -0.244366 0.27042502 -0.172136 0.56029 0.077905 -0.15814 -0.23493502 -0.216295 0.165627 -0.0397475 -0.32098 0.1543495 0.117888995 0.05679001 0.39846 -0.636625 0.26977 0.094625995 -0.244035 0.46962 -0.226055 -0.33122998 0.26136 -0.327005 0.17798 -1.97665 0.0701588 0.96907 0.17361 -0.14110251 -0.28284502 -0.06694999 0.1421335 -0.25781 -0.087601505 0.37331498 -0.402415 0.56527 -0.303455 -0.14577499 -0.0939905 -0.196468 -0.37036 0.085430846 0.464385 -0.064564995 0.36685002 0.072808 0.15560451
13 0.0453218 -0.1410404 -0.1774488 -0.072076 -0.060601003 0.13636999 -0.22765939 0.1896598 -0.167152 -2.07924 0.255662 0.0959784 -0.14023061 0.224388 0.0885498 -0.23249237 0.045525394 0.045501404 -0.1124738 -0.0848014 -0.20151958 0.1618776 0.41529822 -0.0228278 -0.29990602 0.399754 0.061738003 0.089409605 -0.181439 0.1974968 -0.13654281 -0.015400009 0.2473902 0.23113298 -0.931874 -0.29259962 0.32407 -0.1038482 0.012955999 0.0125103 -0.25799718 0.0545552 0.0611616 0.241276 -0.0946732 0.1262774 -0.31746203 0.25407118 -0.45771876 -0.016971925 0.17634 -0.15408659 -0.19393979 -0.1921684 -0.16980779 0.18209378 -0.2656696 0.397124 -0.037968792 -0.351556 0.407128 -0.1035918 -0.1983144 -0.2427458 -0.030754399 -0.234706 0.231372 0.0340532 0.0918525 -0.1313926 0.033843208 0.3119544 0.29893962 0.07143419 0.34993762 -0.090636596 0.25718552 -0.104999006 0.052266203 0.027789604 0.27508202 -0.335746 -0.12542799 0.20872983 0.24630821 -0.1697614 -0.07550345 0.03358399 -0.17507394 -0.30296803 -0.2165362 -0.041696798 -0.43415004 -0.041972604 0.034181993 0.07833401 -0.39049262 0.0617976 -0.11418401 0.07810881 0.1547402 -0.14577499 0.0057406025 -0.188072 -0.23755398 0.039762195 -0.12663022 -0.1094774 0.12426619 -0.0822888 0.22871375 -0.5117706 -0.27960363 -0.010468808 0.3968982 0.21348219 0.059097994 0.18291059 -0.06211599 -0.12459741 0.3079814 -0.066202 -0.10971401 -0.061565816 -0.1064526 0.29946202 -0.032442402 0.1613384 -0.037174 -0.18990101 0.011760002 -0.024269 0.28087002 -0.5059808 -0.13375324 -0.1675048 0.0990396 -0.18601 -0.23258808 -0.0547786 -0.027397443 -0.027492609 0.33470368 -0.163396 0.23643601 0.008726997 0.50518596 -0.157364 -0.23698802 -0.026178002 0.87404 0.116712 0.071369395 -0.1343804 0.115540996 0.2106762 -0.392258 0.0636342 0.03684202 -0.382946 0.3401882 0.32867798 0.11960299 -0.1586186 -0.1237607 -0.2741994 0.19843781 -0.1446462 0.073471405 0.308218 -0.1531016 -0.035659194 -0.76936793 0.014412001 -0.23562641 -0.1250432 -0.0073732017 -0.22748561 -0.249528 0.64518404 0.118336 -0.23111801 -0.25607198 0.1339592 0.1112818 -0.015275997 -0.45943403 0.016802002 0.09869 0.084734 -0.14211881 0.018046593 -0.0372928 -0.163712 0.037876602 0.02700762 0.30347902 -0.043889992 0.1635002 0.24369624 0.5237 -0.013116402 0.102677464 -0.117911994 0.058574013 0.033885993 0.08564933 0.2347728 0.21709661 -0.144636 0.27757803 -0.124108 0.22373979 -0.1171056 -0.016674198 0.111016 0.097971 0.1425924 -0.083580405 0.1278508 0.59123796 -0.33556756 -0.24157682 0.14972885 -0.0620844 0.32371578 -0.42956463 0.28677398 0.15151401 0.16401401 -0.039857797 0.1297006 0.1276484 0.2560268 0.1786548 -0.0355872 0.2732688 0.14732876 -0.14740798 -0.083815195 -0.019419998 0.2657326 0.15611842 -0.099991664 -0.14470401 0.26275063 0.17909794 -0.0971838 0.0035560012 -0.2050482 0.14367141 -0.16114339 0.19760391 -0.0022140027 0.2218492 -0.2195606 -0.586394 -0.24836 -0.1624484 0.300172 -0.0762294 -0.1428178 0.068047404 0.2465074 0.240205 -0.18372002 -0.0659738 0.116512105 -0.13431701 -0.04985441 -0.021619406 0.2516584 -0.04228601 0.2404044 -0.07301019 0.079164006 -1.71606 -0.1982548 0.649826 -0.11070001 -0.166454 -0.1656342 0.1299064 -0.17570299 0.3552644 -0.15403059 0.10100299 0.2672628 0.1856586 -0.2383374 0.084108196 -0.04304401 -0.40946203 -0.072345994 0.2475358 0.78725594 0.006784001 -0.23462501 -0.3366608 0.2984606
14 -0.228722 -0.0448036 0.0535305 0.016484994 0.1400005 0.38021252 -0.20890552 0.35619676 0.178606 -1.3151 -0.146143 -0.06570625 -0.40759748 0.023207754 0.15833075 -0.1543591 -0.1842 0.110663995 -0.0523105 0.089737505 -0.106785744 0.1586145 0.09837299 0.152583 -0.376904 0.14843892 -0.41682926 0.08690199 -0.121980004 -0.05967344 0.39051425 -0.15895274 0.13018751 0.123697005 -0.125413 0.00067374855 0.3495005 0.19303697 -0.2384125 0.023579247 0.1907925 -0.03989675 -0.058509994 0.18405075 -0.04298551 0.084725246 -0.09341 0.22579925 0.004268851 0.4013275 0.04971751 0.0490405 0.28980997 -0.1614825 -0.025774 -0.22800575 0.10136525 0.04398501 0.028892495 0.035618745 0.21842325 0.20151576 -0.28791654 -0.20695774 0.26082677 0.17199 0.13506001 0.3091 -0.44801003 0.5233025 -0.116363205 -0.050887745 -0.1493485 -0.121491775 -0.22401975 -0.031934023 -0.029457975 0.374879 0.11104575 -0.275115 0.04302425 -0.28514752 -0.31862754 -0.41693777 -0.05743675 -0.1480475 0.09999475 -0.051470026 0.084403075 0.23546499 -0.5279225 0.07559 0.250852 0.15500826 -0.16932102 -0.026861995 0.012095001 0.3197125 0.123335004 -0.05384876 0.0406465 0.051087994 -0.2681495 0.018879257 -0.2784325 0.26683497 -0.036967494 0.048514992 0.200786 0.12158826 -0.0133752525 -0.49738774 -0.11300675 -0.244145 -0.35658124 0.06495175 -0.1367655 -0.10557025 0.10004251 0.46415251 0.0867125 0.46966624 0.18981683 0.152525 0.2611675 0.17824498 -0.130358 0.21813275 -0.03779509 -0.3094875 -0.23675899 -0.34975374 -0.0710925 -0.0878275 -0.08755725 -0.11468001 -0.2668082 0.11978074 -0.33499575 0.117127255 -0.28956524 0.07861875 0.007442504 -0.12938926 -0.0838605 -0.013384994 0.073489994 0.10388776 -0.08362351 -0.13531151 0.2472 0.060422495 0.262255 -0.1156465 -0.0855 -0.10933351 -0.013262499 0.091814995 0.328055 -0.11641875 -0.335338 0.201003 0.010317504 0.17817125 -0.074667506 -0.29212752 0.07266324 -0.060851 -0.09972951 0.62339 -0.07684674 -0.029149994 -0.142985 0.55954003 0.018783301 0.0987836 -0.15893626 -0.188801 -0.0506325 0.1707075 0.011493243 -0.3646435 0.018292509 0.12757125 -0.19073999 0.10767099 -0.0378325 -0.24171901 0.046090007 -0.16144499 0.2205225 0.013530016 -0.2846225 0.0133715 0.24807999 0.01554575 0.16843176 0.43156752 -0.26200098 0.170632 -0.1128165 -0.012893245 -0.42961 -0.01658125 0.0558525 -0.093705244 -0.49296498 -0.05641025 0.5296425 0.072740495 -0.09317249 0.243767 0.27904925 -0.27195498 0.043490008 -0.11707749 0.091747746 0.5062 0.41888076 0.40162903 -0.09488249 -0.51632726 0.4147775 -0.24451852 0.2730375 -0.025020495 0.037925243 0.1971797 -0.369725 -0.16274226 -0.16123948 0.180156 -0.15896176 0.088744 -0.05968476 -0.026060004 -0.034699447 -0.256253 0.15719801 -0.0034550037 0.19786999 0.046609886 0.69662 -0.22477199 -0.890185 -0.0291605 -0.097051755 0.24451526 0.04023175 0.045601003 0.004685998 0.09935026 0.06870825 -0.46438253 -0.1746285 -0.035375006 -0.23786101 -0.16333824 -0.34542155 0.52882 0.13524075 0.1339825 0.36098433 0.04266875 -0.08199251 -0.45628 -0.006208496 0.06085925 0.182498 0.1264525 -0.114963 0.2649815 -0.054144748 0.3214415 -0.1081875 0.26307648 -1.4905674 0.2868625 0.51898754 -0.19954626 -0.055647492 0.024844352 -0.16412999 0.093989 -0.07651975 0.051619504 0.037120253 0.10134249 0.49972248 -0.023685 0.098685004 -0.251608 -0.1605275 -0.26830727 -0.2604225 0.6376325 -0.262225 0.07797875 0.137813 -0.023645002
15 0.0807615 0.00038199872 0.18365175 -0.119230755 0.029492512 -0.189522 -0.15662175 0.1357325 0.09570725 -2.1256 -0.1439075 0.1051755 0.17709175 0.3384575 0.056742497 0.2665375 0.06712775 0.023916993 0.15339026 0.02724225 0.0626425 0.012724996 0.41366 -0.018835738 -0.3165775 0.063517496 -0.013136502 0.1396085 0.030479997 0.158971 0.065611504 0.015662247 0.09694898 0.22014475 -0.49092752 0.044737995 0.20663749 0.103255995 -0.20759524 0.0639525 -0.107235014 0.0181925 -0.03065325 -0.054250002 0.083732255 -0.22357275 -0.048654806 0.26632124 -0.0942335 0.28856224 -0.026402492 -0.084828995 0.20941749 -0.090135 -0.067030445 -0.06832225 0.092913 0.24218501 -0.020491753 -0.13933575 0.12715751 0.098615 -0.32405174 -0.0733405 -0.106211245 -0.3106075 0.1766082 0.011324 0.08760999 0.11616751 -0.014924748 0.15061198 0.019582998 0.16319449 0.1361525 -0.14619699 0.065200746 0.35275298 0.021434378 -0.0188 -0.005284001 -0.3422075 0.11338 0.07118724 0.262883 -0.120742746 0.033793673 0.09745833 -0.117075674 0.054274008 -0.17231399 0.099215 -0.06780275 0.16915874 -0.026790177 -0.12549725 -0.2414275 0.22050324 -0.0030714488 0.034951754 0.085397504 -0.011754997 -0.0967625 -0.2829175 -0.11270175 -0.033567257 -0.059996754 0.077751 0.2140005 0.2642175 -0.11302357 -0.65486246 -0.234685 -0.27307248 0.28257775 0.21072175 -0.0935536 -0.11261925 -0.102205 -0.2693725 0.051055744 0.027486756 -0.0075725038 -0.022882503 0.03917325 -0.115044504 0.082685426 0.013323747 0.03734275 0.28703424 -0.054445 0.21485876 0.07993625 -0.35638875 0.035659224 -0.009058004 -0.0540775 -0.15324625 0.11105543 0.02979325 -0.09884775 0.196405 -0.031677894 0.12938425 -0.36858252 0.044216998 0.1585985 0.092132494 -0.0595995 0.12420825 0.6480575 0.08045576 0.11425799 -0.108597495 0.17741749 0.10572775 -0.030487001 -0.006278999 0.16193551 -0.0018567452 0.055540003 0.020923251 0.15653375 0.114362 -0.3157925 0.003997501 0.18369275 -0.0573905 -0.0663851 0.22491498 0.004619254 0.0784885 -0.65677273 0.13843101 -0.18358473 0.19319525 0.04753775 -0.25014502 -0.19929498 0.316949 -0.006301249 0.3733175 -0.025796251 0.17924151 0.0329145 0.06391726 -0.049175505 0.2076905 0.042985003 -0.3291675 -0.0974325 -0.012608007 -0.034838498 0.005810749 0.1657385 0.4431275 0.09044975 0.044173002 0.12028299 -0.058965 0.671595 -0.058812246 0.034317493 0.096819 -0.019620225 -0.1278425 0.074480996 0.099810004 0.35780826 -0.20192075 0.1067525 -0.016512 0.0774395 0.20012799 0.12404749 0.2056395 0.04432425 0.09715274 0.269394 0.40699473 0.13969725 -0.15884951 -0.138971 -0.048817508 -0.1213535 -0.087009996 0.096640006 -0.05845958 0.17397499 -0.18419 0.08965335 0.12904975 0.26818752 0.2102035 -0.2235035 -0.0479805 0.15041 -0.10489501 -0.287535 0.0338785 -0.20587 0.145435 0.48421252 -0.032677494 -0.479395 0.165075 0.1454725 -0.2374 0.111303255 0.13710576 -0.05404675 -0.07721001 -0.04319205 0.012310002 0.557155 -0.0881885 -0.09170901 -0.009052493 -0.17761324 0.15292001 0.020574752 -0.2117975 -0.12786075 0.03188625 0.1845515 0.026481748 -0.1091 0.08557775 -0.05884275 0.029239997 0.06048499 0.220933 -0.08646326 0.052846007 0.114310004 0.21737999 -1.7870749 0.049033996 0.86239755 -0.2599935 -0.12549198 -0.19526649 0.09061775 -0.11759175 0.390675 0.03227825 -0.09993275 0.38225248 0.2522225 -0.162316 0.0011247527 0.052147508 -0.0419005 -0.09341499 0.26101652 0.7762775 -0.0096964985 -0.40423 -0.28654826 0.15610623
16 -0.12675 0.097588 0.024441 0.58839 0.15702 0.22347 0.072646 -0.079123 -0.16317 -2.1278 0.10263 -0.31551 -0.26848 0.41369 -0.046356 0.45516 0.25288 0.033974 0.13483 -0.33914 -0.098029 0.095802 -0.054047 0.3268 -0.25628 0.5113 -0.041814 0.053912 0.022851 -0.35711 0.30817 0.6091 -0.012757 -0.063379 -0.74174 0.20061 -0.18646 0.077313 0.081405 -0.85644 0.069541 -0.82872 0.25978 0.29015 -0.43316 -0.10492 -0.4336 0.012446 -0.40941 -0.16639 -0.21518 0.40238 -0.026306 -0.002978 0.24311 -0.065038 0.53769 0.50769 -0.0085818 0.19178 0.31536 -0.026048 0.26944 0.049644 -0.13655 -0.50489 -0.078748 -0.12039 -0.18975 -0.27605 -0.49282 -0.031374 0.29433 -0.59042 0.41943 -0.11982 -0.46373 -0.036346 -0.039207 0.26006 0.073545 -0.29071 0.30289 0.34559 0.068833 -0.23641 -0.048775 -0.089592 -0.3677 -0.60441 -0.30123 0.12419 -0.34769 0.43088 0.33611 0.083298 0.11201 0.027577 -0.017371 -0.22614 0.50906 -0.25653 -0.11084 -0.26178 0.26387 -0.29472 -0.019474 0.061951 -0.29314 0.083392 -0.084716 -0.3785 -0.56759 -0.13139 0.57295 -0.099015 0.20769 0.085624 0.20269 0.18399 -0.2914 0.54452 0.10055 0.28297 0.093059 0.049726 0.023905 0.024881 -0.22967 0.31044 0.58825 -0.32457 0.16671 0.19588 -0.053239 -0.84108 -0.57018 -0.14157 0.0182 0.44474 0.14245 -0.059209 0.33094 0.50983 -0.24404 0.14473 0.30821 0.028757 0.14716 0.2591 0.69048 -0.68877 0.56056 0.29884 -0.61629 -0.0026465 -0.18656 -0.60684 0.20008 -0.33112 0.32864 -0.029046 0.29885 -0.43899 -0.1213 -0.41261 -0.19333 -0.21549 0.010039 0.53063 -0.43665 0.40024 -0.5513 0.70777 -0.021431 -0.28351 0.30698 -0.55052 0.12439 0.25709 -0.35548 0.13331 0.089927 -0.16462 -0.72015 -0.12404 -0.31812 -0.70075 0.023253 -0.1666 0.18772 0.3004 -0.41922 -0.090363 -0.39339 0.60048 0.68939 0.16486 0.22645 0.96954 -0.20712 0.60904 0.032094 -0.0028826 -0.90993 0.37545 -0.12201 -0.34071 0.55131 0.26587 -0.056076 -0.64571 -0.32522 -0.55998 0.8731 0.1737 0.35162 0.031491 1.0154 0.19811 0.13338 -0.056668 -0.12998 -0.016976 0.46712 0.14723 -0.36209 0.0089157 0.19687 0.57084 0.37441 0.63557 0.58124 -0.18312 0.0005946 -0.14006 0.049755 0.25913 -0.088637 0.43825 0.070023 -0.054169 1.2845 -0.38824 -1.0278 0.34208 0.22392 -0.62139 0.27271 0.78743 0.18889 0.28335 0.26116 0.33905 0.62014 -0.057902 -0.32772 -0.16917 -0.36186 0.32054 0.15009 -0.80359 0.52609 -0.21701 -0.090753 0.35635 -0.23805 0.16417 -0.3826 0.18918 -0.25168 0.28175 -0.21239 -0.33632 0.023988 -0.15469 -2.1915 0.66607 0.6445 -0.13256 0.22 -0.4513 0.097398 0.40333 0.17868 0.26758 -0.14664 0.049903 -0.20749 0.04324 0.209 -0.034103 0.11057 -0.69345 -0.021538 -0.027986 -0.042978 -0.64101 -0.23461 -0.18814
17 0.0048840065 -0.26468298 -0.12843075 -0.23909749 0.13796476 0.026202753 -0.080871746 0.110043496 -0.064009994 -1.6427 -0.09898049 -0.20032126 0.047834247 0.31735748 0.33454973 0.16825378 -0.12357225 -0.024140298 0.07312775 -0.0073791505 -0.260255 0.3335425 0.1108125 0.26746 -0.1055698 0.081119254 0.113036 0.089755245 -0.26664498 0.17726825 0.255704 0.3216725 -0.20003276 0.5215925 -0.43815 0.20893049 -0.0009924993 0.12069849 0.08863875 -0.17164999 -0.20724025 -0.0614025 0.04817699 0.06758626 0.13605225 -0.11287325 -0.14879501 0.25354475 -0.014796 0.14602925 -0.11381825 -0.0557245 0.070946746 -0.0911075 -0.103625 -0.062735 0.179393 0.2879975 -0.022916498 -0.124371 0.06015674 -0.13972251 0.078637 -0.1458225 0.1285055 0.129955 0.1982695 0.1443665 0.008550502 -0.11482225 -0.17024651 -0.2932275 -0.040638752 -0.0058197454 -0.0489645 -0.011587247 0.061969742 0.1315645 0.014492247 0.06871725 -0.004370995 -0.28232425 0.117606744 -0.04963001 0.18415774 -0.28027526 0.055247176 -0.108311996 0.008713324 -0.2422325 -0.06872401 0.0942125 -0.29443473 0.032517508 0.19653249 -0.08194123 0.11728625 0.17797324 0.027677745 -0.11231001 -0.08938 -0.26528376 -0.33722 -0.31472528 0.14614001 0.026139999 0.195161 -0.011408247 -0.062507495 -0.2361975 -0.13458982 -0.86559254 -0.07491225 -0.1193375 0.009212747 0.1221927 0.16352001 0.07797201 -0.21786499 0.13626751 0.23437999 0.1007625 0.14449249 0.11901275 -0.010220002 0.024939999 -0.09865999 -0.03094175 0.041179996 -0.020519001 0.039837494 -0.081635 0.34214774 -0.051598497 -0.15801625 -0.09519525 -0.30853474 -0.2840425 -0.20986009 0.15562749 0.12515016 0.05072225 0.3225871 0.18268292 -0.1084875 0.0188815 0.1708 -0.13962251 -0.3450635 0.049545996 0.418955 -0.063475 -0.14611524 0.22714451 0.012915004 0.043612752 -0.0667985 0.11694883 -0.19029799 0.1051135 0.20807299 0.1877525 -0.10189 -0.2644 -0.3050775 -0.41707 0.04656475 -0.090847746 -0.15578249 0.38473573 0.33050752 -0.020554747 -0.50874245 0.19723001 -0.050903004 0.048131496 -0.33064973 -0.36137 -0.14793 0.37317002 -0.1707235 -0.067425 0.17782123 -0.144813 0.04519275 -0.06868249 -0.3027475 -0.017739497 -0.172225 0.302299 0.21291773 0.23884875 -0.21915075 -0.08736415 -0.301074 0.2865525 0.07581125 -0.12721999 0.42393798 -0.19877401 0.27912748 -0.16544849 0.138238 0.07730775 0.122297496 0.08522925 0.021601923 0.06159975 0.013857499 0.3136075 -0.045069993 0.127265 -0.19293775 -0.403282 0.2065825 0.28965226 -0.180885 0.2206795 0.17691001 0.0957415 0.2680218 -0.52489746 -0.2772796 0.004122503 0.034495495 -0.101842254 -0.126103 0.118336 -0.029305756 0.17917325 0.048615046 0.2817375 -0.2604125 0.037623625 0.08992225 0.20182425 0.0396295 0.05164675 -0.14366 0.17123449 0.243732 0.3857925 0.43054998 0.1307015 -0.9014525 0.2924075 0.19315249 -0.30233002 -0.09891575 0.06583026 0.15003276 0.3192075 0.28143194 0.0042479998 0.419265 -0.18923825 -0.1138225 -0.010495 -0.145224 0.04438 -0.15439951 0.011382746 0.23230249 -0.041064676 -0.141046 -0.3086842 -0.056118004 0.3268275 0.14430425 0.14415075 -0.2917895 0.1361485 -0.1984805 0.038015 0.157275 -0.1517225 -1.88315 0.64619005 0.76541495 -0.106759995 -0.422845 -0.25840402 0.029358752 0.10861251 -0.11492392 0.36123452 0.07986825 0.31631652 0.2795875 -0.33326775 -0.26424402 -0.5249625 -0.2032925 0.065500244 0.23154402 0.7252675 0.096901596 -0.0650695 -0.19682075 -0.011894252
18 0.46825 -0.55791 -0.21694 0.36852 0.30092 -0.073815 0.39292 0.11097 -0.47911 -1.4872 -0.011408 0.31061 -0.23085 -0.0053886 -0.0076126 -0.17596 0.41157 0.12964 0.00030021 0.51424 -0.11738 0.16086 0.32933 -0.13945 -0.27975 1.0758 0.34122 0.34501 -0.39563 -0.25963 -0.18574 0.71166 -0.60397 0.19887 -0.70533 -0.61843 0.25505 -0.29709 -0.49259 -0.16674 0.15768 -0.44266 1.2768 -0.051522 -0.72223 -0.12049 -1.3611 0.070742 -0.51713 0.076407 -0.62929 -0.18327 -0.028035 0.23454 0.1025 -0.085464 -0.26259 -0.38159 -0.055665 -0.35684 0.59932 -0.26529 0.054769 0.14277 -0.026321 -0.5836 -0.46509 0.54682 0.57971 -0.088512 -0.42356 -0.47374 0.076958 -0.093198 0.43934 0.23574 0.026266 -0.087221 0.057707 0.12087 -0.16379 -0.067555 0.17401 0.51164 -0.0010303 -0.57396 -0.52381 -0.6062 -0.46194 0.069325 -0.71327 -0.12847 -0.35479 -0.011785 -0.27856 -0.40308 -0.53646 0.035242 -0.17038 -0.26048 0.0054961 -0.30583 -0.074808 -0.59904 -0.46618 -0.26913 -0.46729 0.35334 0.10456 0.27835 0.099602 -0.35834 0.3509 -0.070011 0.033351 -0.17721 -0.065726 0.11158 -0.7324 -0.1744 0.61891 -0.033927 -0.52072 -0.34653 0.24474 0.0060709 0.33407 -0.53069 0.12252 0.0025757 0.50608 -0.15952 0.20796 -0.12703 0.59821 -0.027963 0.35141 -0.46459 0.062243 -0.72144 0.23751 -0.18543 -0.58268 0.75007 -0.27185 -0.43476 0.28283 -0.041011 0.052542 0.62098 0.8476 0.067201 0.68928 -0.25081 -0.45035 0.27566 -0.45866 -0.25814 -0.026141 -0.15645 0.3402 0.31218 0.22949 0.034554 0.30329 0.056399 -0.43981 -0.14592 -0.054905 0.28134 0.4233 0.049197 -0.25952 -0.56587 0.031053 -0.18322 -0.29799 -0.47165 -0.21548 0.02733 0.061592 -0.44898 0.10588 0.11624 0.3488 -0.62663 0.059408 0.32991 -0.0022576 0.28104 -0.22059 -0.047712 -0.22309 0.55114 0.60464 0.22699 0.17173 -0.054808 -0.0031661 0.02127 -0.4668 0.66597 -0.24367 0.41668 0.40245 0.32754 0.10994 -0.015927 0.066472 0.38858 0.31508 0.0061121 0.042294 0.74703 -0.21334 -0.18188 -0.78082 0.87425 0.18505 0.63635 0.36912 0.11788 0.27467 -0.55037 -0.041381 -0.10738 0.48866 -0.3376 -0.0055222 0.1993 0.46088 0.19718 0.2207 0.094329 -0.42687 -0.11047 0.11806 0.05508 0.67148 0.20369 -0.59048 0.45074 0.70346 -0.080994 -0.32865 -0.0097216 0.46591 0.011039 0.23647 0.10618 -0.40463 -0.47677 0.20297 0.95125 0.40953 -0.40741 0.70288 -0.071683 -1.2386 0.46958 -0.64715 -0.045495 0.63232 0.12283 -0.12542 -0.19722 0.41021 0.16603 -0.81618 -0.40883 -0.12687 -0.1906 0.02276 0.18347 -0.32201 0.069322 -1.5981 1.0112 1.2236 0.5612 -0.34065 -0.6913 -0.0052698 0.46949 -0.077427 -0.33128 0.19593 0.61622 -0.41627 -0.14208 0.46285 0.30832 -0.18287 0.422 0.10271 0.20729 0.096571 -0.14283 -0.19467 0.65261
19 0.006765008 -0.313635 0.0057905 -0.051369995 0.11595 -0.22238499 -0.629605 0.361305 -0.22005 -2.04065 0.52872 0.431585 0.017360002 -0.075985 0.14722499 -0.159905 0.38031 0.1121345 -0.079119995 -0.19056 -0.204375 0.02231501 0.3508605 -0.17722 -0.41271502 0.723445 0.069905 0.234835 -0.207664 -0.023944989 0.010583498 -0.376215 0.280798 0.278095 -0.829275 -0.243505 0.33377498 -0.0829975 -0.020434998 0.059554998 -0.123959996 -0.22931 0.40618 0.10046001 -0.108224005 0.42296 -0.52255 -0.075876996 -0.35518 0.28996 -0.22788501 0.16312 -0.21423501 -0.151939 -0.1449275 0.15229 -0.073717 0.2964 0.1089065 -0.6093 0.45556998 -0.04124 -0.052075006 0.012999997 -0.22106099 -0.45668 0.22247499 0.2080055 0.17428601 -0.37818497 0.03953001 0.23431501 0.47662503 -0.24592751 0.26041502 0.092495 0.432795 0.062168498 0.369515 0.1063505 0.270395 0.073935 -0.408455 0.241505 0.08257501 -0.354265 0.085806504 0.124746 -0.0425825 -0.38224998 -0.681335 -0.242865 -0.461385 0.0584485 -0.1278945 -0.23586002 0.0565985 0.1388875 -0.39998 0.273502 0.28473002 -0.46287 0.03708 -0.377735 -0.259963 -0.0715285 0.0472885 -0.1454955 0.17914 0.204075 0.406655 -0.194275 -0.047435 -0.112147 0.345895 0.166333 -0.083409 0.09540351 -0.31189498 0.039174996 -0.0193705 0.27309102 0.160265 -0.0692695 -0.102433 0.025183 -0.15199201 0.14146 -0.21320501 -0.050021 0.24384502 -0.4485 0.200965 -0.68654 -0.06362 -0.35904998 0.062375 -0.3509 -0.591735 0.23074499 -0.04113 0.589255 0.70796 -0.45881498 0.423097 -0.036518 0.470535 0.15166 -0.42360502 0.0876175 1.5562501 0.41902 0.22696999 -0.26832998 0.164519 0.2656629 -0.24520999 0.14841351 0.2135275 -0.131648 0.342457 0.12828 -0.1030425 -0.25885502 -0.12039275 -0.30691 -0.032920003 -0.154115 -0.11141901 0.145825 -0.0123845 0.13139349 -1.002915 0.132335 -0.24581501 0.029992001 -0.22635 -0.40987998 -0.53574 0.41374 -0.291235 -0.16055502 0.26593947 0.281975 -0.097796 0.103055 -0.606145 0.114296496 -0.31884 -0.26523 0.128858 -0.26559502 0.165016 -0.2069625 -0.2522215 0.20619501 0.617115 0.144035 -0.010864995 0.38534498 0.4626275 0.17711851 0.33598498 -0.35582498 0.035495 0.301085 0.1372785 0.02109 0.17163 -0.43656498 0.30741 0.30111 0.145835 0.054413002 0.049140003 -0.0076950043 -0.29993498 0.081980005 0.0153399855 0.34436 0.5167065 -0.511415 -0.13828501 0.266715 0.101543 -0.03672 -0.52137953 0.295555 -0.16898999 0.041965 0.098914996 0.060380496 0.196271 -0.14156002 0.123661004 0.04461 0.105392 0.0964795 -0.0027215015 -0.02053 -0.1132855 0.2272765 0.22413 -0.38035002 -0.14678001 0.5252265 -0.20570001 -0.0737185 -0.16459002 0.150934 0.33001602 0.40711498 0.29944092 -0.2100265 0.154958 -0.450585 -0.37268 -0.71158 -0.11150999 0.44052 -0.2627115 0.0666705 0.04217 0.242799 0.2643175 -0.31777 0.136758 0.014929 0.26005 0.22354001 0.037485003 0.470335 -0.0046800002 0.13836 0.13324049 -0.16743599 -1.5157051 0.24658 0.79017997 0.0038599968 -0.11472499 -0.324085 0.15417501 -0.20583245 0.37228 -0.48753 0.137824 0.358525 0.36882 -0.2397955 -0.08948499 -0.254105 -0.271088 -0.42969 0.45322 0.61759496 0.32506502 0.133865 -0.280441 0.27356
20 -0.10695133 0.0450789 0.012065664 0.047723334 -0.18264599 -0.23875158 -0.019211335 0.119879335 -0.22210665 -1.6297334 -0.32511333 -0.020632675 0.16236234 0.137231 0.116819 -0.14264 0.22484998 -0.015085665 -0.12354267 0.26075 -0.19352 0.24110568 0.39926997 0.16085367 -0.154535 -0.002512003 0.25184003 -0.21198499 -0.072121665 0.26507798 -0.14661133 0.32352665 0.078271665 0.168932 -0.99693996 0.107783996 0.21181999 -0.09696867 0.30911335 -0.43484998 0.20862333 -0.09259567 0.272186 -0.117153 -0.53148365 -0.338101 -0.37524667 0.36905667 -0.015425966 -0.19488366 0.2508092 -0.14662367 -0.033286665 0.20218332 0.018491665 -0.38661703 0.017087335 -0.24931668 -0.064452335 0.08499333 0.16918667 -0.29682666 -0.19996734 -0.05764133 -0.4321967 -0.56746 0.090032004 -0.075238 0.200294 0.24826999 -0.23070998 -0.27120334 0.10011933 -0.11362066 0.00637267 -0.11160133 -0.20075701 -0.040749338 0.22294001 7.900099e-05 -0.16083266 -0.41383 0.12207333 0.07454299 0.142987 -0.105249666 -0.08151276 -0.1337 -0.19857824 0.041351 0.047320336 0.057099674 -0.40333998 -0.089134 -0.17431635 0.06974 -0.04113334 -0.116573334 0.102378 -0.090896666 0.08096667 -0.47868332 -0.29693332 -0.34528664 -0.107322335 0.05282333 0.029642666 -0.020474995 0.04128434 -0.24074332 0.101436906 -0.53129 -0.16153668 -0.29075667 -0.061401665 0.21023868 0.41888666 0.30174434 -0.19219567 -0.10859332 0.22107233 0.22937334 -0.027370006 0.10328332 0.27088335 0.234899 0.08188333 -0.040440995 -0.089461 0.076144 -0.12710433 0.12253807 0.16965 -0.18020801 -0.21470666 0.08111333 -0.18599667 0.05497667 0.14592654 0.35119668 -0.0049706646 0.13896933 -0.09994954 0.11502001 -0.05723547 0.022926668 0.16176234 -0.018069664 0.24252336 -0.28883666 0.6267367 0.060336664 0.08387667 0.27876934 -0.028385663 -0.21877635 -0.39682332 0.21131468 0.128656 -0.25762 0.19622166 0.09436367 -0.14177333 -0.04295667 -0.052493323 -0.109973334 -0.242827 -0.043050334 0.05086967 0.6678133 -0.16539 0.24572666 -0.86764336 0.214319 0.183366 -0.109223 -0.13700767 -0.15177667 -0.46315333 0.64303666 0.32689333 0.13837501 -0.043523 -0.18710734 0.32857066 -0.24799001 -0.110569 0.04396 0.026443338 0.122719 -0.110852 0.36301503 -0.260041 -0.073321335 -0.20852868 0.053063337 0.041604996 -0.21158333 0.047367666 -0.015930006 0.08508667 0.051581334 0.003737333 0.010819997 0.050570335 0.32980666 0.09513567 -0.035269663 0.16413434 -0.21210034 -0.18477 0.008531327 0.0029223014 -0.3436327 0.030979002 0.17074601 -0.04605933 0.51718664 0.20833333 -0.22086366 0.30659 0.044626664 -0.081444 -0.028284667 -0.17929299 0.041053325 0.065783 -0.011198997 0.32718 0.025766661 0.088399984 0.018363334 0.09985566 -0.017605335 -0.30381265 0.26300332 0.30344334 0.122153796 -0.24866502 0.122833334 0.14903332 0.30382666 0.51478 -0.011870344 -0.52421665 0.22241335 0.44285667 -0.37815353 0.13829 -0.17926 -0.23517333 -0.04776001 0.25446293 0.10201167 0.35603765 -0.099443674 -0.27508333 -0.09156666 -0.10428067 0.49295333 -0.16944067 -0.40535018 0.53848904 0.22106968 -0.16260366 0.028621664 -0.23758267 0.06563667 -0.23507833 -0.29528934 -0.45514667 0.31377736 0.053826664 0.26473567 -0.006602332 -0.13545333 -1.4077333 0.40699664 0.7325266 0.07839667 -0.29167667 -0.27160534 -0.022174666 0.040287003 0.17726 -0.096543334 0.29102668 0.52949667 -0.13251333 -0.13107501 -0.034463335 -0.114701666 0.015920004 0.025900668 -0.0033179969 0.66892666 -0.20394333 -0.35196665 -0.091535665 0.18560433
21 -0.18463 0.11656 -0.32977 0.56327 0.04476 0.1521 0.42945 0.45648 0.12148 -1.7103 0.039626 0.41826 -0.0044656 -0.02618 -0.29989 0.73766 -0.103 -0.14104 -0.089106 0.1824 0.22395 0.20887 0.37213 0.41232 -0.64664 0.97441 -0.22956 0.072517 -0.036904 -0.54672 0.17471 0.5123 0.0042781 0.62738 -0.92557 -0.30508 0.39001 -0.1386 0.016032 -0.08789 0.50747 -0.055548 0.055825 0.45024 -0.40004 -0.23166 -0.35934 0.68305 -0.27881 -0.054456 -0.28458 -0.12331 0.15379 0.32381 0.43156 -0.35304 -0.12945 -0.50057 0.019027 -0.13331 0.59696 0.38475 0.041097 0.38861 -0.72401 -0.56593 -0.24894 0.042243 0.30436 -0.19468 0.11176 -0.23354 -0.2804 0.10439 0.46366 0.46504 -0.089147 0.58401 -0.0059561 0.25037 0.55776 -0.4556 -0.030425 0.43393 0.38622 -0.087805 0.29654 0.022039 -0.20968 0.14393 -0.78985 0.071899 -0.095604 0.31748 -0.50601 0.048581 -0.30923 0.12881 -0.061849 -0.02437 0.29237 0.14342 -0.10485 0.18105 -0.55718 0.36356 0.11343 0.41834 0.038676 -0.1925 0.33632 -0.52422 -0.27657 -0.18236 0.49169 0.059331 0.18446 -0.15302 -0.10524 -0.24888 0.48553 0.9035 0.011222 -0.60599 -0.28312 -0.26414 0.36455 -0.015068 0.040926 0.5271 0.20285 -0.031995 0.19328 -0.40718 0.39883 -0.12561 0.2458 0.02291 -0.18029 -0.028098 0.47825 0.50192 -0.2567 -0.040283 -0.31268 -0.69137 0.050252 -0.10317 0.45517 0.43816 1.0579 -0.011088 0.10686 0.053845 -0.037847 0.1701 -0.15312 -0.50114 0.21957 -0.13995 0.44227 0.18679 -0.043893 0.2539 -0.54378 -0.51703 0.35069 -0.0027322 -0.17432 0.57607 0.63553 -0.11235 -0.43529 0.53673 -0.40491 -0.20113 0.20946 -0.13411 -0.0097987 0.030565 0.44126 0.30606 -0.46921 -0.12414 0.1139 0.049624 -0.84241 -0.13632 0.31509 -0.071807 -0.10454 -0.66142 -0.47229 0.22206 0.42722 -0.32445 -0.45254 -0.29089 -0.42493 -0.55975 0.093747 0.83916 0.009549 -0.34177 -0.23512 -0.38901 0.047051 0.17003 0.21131 -0.26366 0.12599 -0.15952 0.43222 0.20605 -0.21349 0.38384 -0.22398 0.58202 -0.24538 -0.12851 -0.32661 0.28392 0.17538 0.24489 -0.46767 0.063132 0.27161 -0.21616 0.23295 0.33684 0.38717 0.11193 0.51119 0.1658 -0.70377 -0.16341 0.02506 -0.38535 -0.20163 -0.17749 -0.11532 0.17905 0.869 -0.14315 -0.72176 0.62647 -0.48819 -0.029377 0.017405 -0.24554 -0.22948 -0.32002 -0.0073136 -0.18418 0.45828 0.0048512 -0.27306 0.054841 0.68222 0.22943 -0.30002 -0.28865 0.17085 0.098155 -0.054678 0.17312 -0.46647 0.016841 -0.55787 -0.1205 -0.18163 -0.050437 -0.22712 0.48709 -0.22706 -0.016891 -2.3394 0.18111 1.0619 1.0838 0.1348 -0.58733 -0.19385 -0.238 0.10982 0.15669 -0.029953 0.31542 0.38002 0.26167 0.31634 -0.15496 0.24229 0.021682 0.24722 -0.17594 0.24267 -0.60973 0.058381 0.83062
22 -0.3958725 0.0639105 0.115454994 -0.059379995 -0.096351504 0.3191182 -0.44002998 0.270185 0.38247 -0.6035685 0.21954499 0.26410633 -0.0650875 0.049592 0.17351499 -0.1227645 0.280162 0.0815355 -0.0318075 0.24656999 -0.44476002 -0.014319 0.41105002 0.201166 -0.39227498 -0.298285 -0.110980004 0.038095325 -0.443627 0.146 -0.086575 0.53101 -0.38703 -0.25276 -0.57265 -0.30009001 0.105330005 -0.41072 0.024934992 0.1105095 -0.014050007 -0.504945 0.376245 0.0259525 0.1248855 -0.1241025 -0.051379498 0.184355 0.018490002 0.150645 0.096349 -0.112028494 0.1245765 0.1401695 -0.42841 -0.1458 0.183715 -0.21196999 0.39306 0.341861 -0.1824005 0.0463145 0.616065 0.178336 0.0500265 -0.166802 0.0493095 0.45931 0.41109496 -0.363495 -0.254255 -0.17357449 -0.17765999 0.27469 -0.44586998 0.17655401 -0.038695 0.55913997 -0.134095 -0.00033500046 -0.17655501 -0.12814501 -0.1197975 -0.174175 -0.245155 -0.198235 0.053859003 -0.14395699 0.094211996 -0.101027995 -0.29347 -0.410275 0.303925 0.21309501 0.164348 -0.287468 -0.064395 -0.21104 -0.23118 0.17091501 0.089876994 -0.1763132 0.19723 -0.383515 -0.02710435 0.35276502 0.11555 -0.27092502 -0.0440205 0.23505421 0.2898 0.012309499 0.043875 -0.46855 0.397715 0.146353 0.0053384 -0.089378 0.054155007 0.255693 -0.42754 -0.09729 -0.36855 0.31479248 -0.077533 0.455265 0.057373997 0.310805 0.46349502 0.08038001 -0.374825 -0.145405 0.365325 -0.21817 -0.17517 0.1220045 -0.15847 -0.1191355 0.0826415 0.2138025 0.22428 -0.23514 0.12514271 0.11687 -0.27028748 0.44252998 -0.21636 -0.37629 -0.46941 0.16345501 0.356485 -0.41150498 0.115345 0.030931002 -0.10090914 0.117138 -0.693075 -0.21807 0.228435 -0.45008498 0.052458502 -0.161819 0.25471 0.17495501 -0.206945 0.16239999 0.29868 -0.163605 0.109680995 -0.433005 0.17563 -0.304465 -0.60146 0.42754498 0.0514915 -0.022984996 -0.36289784 -0.06533 0.10304775 1.0399101 -0.091935 0.29412502 0.00096999854 -0.1132935 0.02274999 -0.028009996 -0.080712005 0.17582 0.36119 0.2261135 -0.102223 -0.0066635013 0.2951115 0.029143002 0.027469002 -0.172379 0.33451998 -0.312375 -0.130065 0.013480999 0.883355 0.064403 -0.284575 0.414335 -0.09181 -0.021104991 0.118888505 0.30354452 -0.203615 0.152805 -0.31306 0.020392 -0.0583275 0.18578002 0.429725 0.421895 0.070986 0.270085 0.029919002 0.052789997 0.22241801 -0.33254 -0.0213715 -0.35009497 -0.022287 0.082890004 0.41172498 0.40555 0.1525305 -0.090505004 -0.209985 0.40063 0.040780008 0.702765 -0.61639 -0.21860999 -0.1762645 -0.0068150014 -0.04882415 0.029786497 -0.467565 0.40889 0.570309 0.211855 -0.32992 -0.46030587 -0.28667 -0.094451 0.19229001 0.055397 0.0360905 -0.105440006 0.079708 0.19153002 0.45356 0.049014 0.294655 0.169897 -0.1067715 -0.122612 0.011476001 -0.019660499 -0.024936497 0.15558201 -0.08897801 -0.15726501 0.211195 -0.20682749 -0.094385505 0.310945 -0.2220575 -0.177905 0.064982496 0.11078 -0.119215 0.096848495 -2.0942001 0.47447002 0.42156 0.039483 -0.16163999 -0.045839995 0.27067 0.078030005 -0.37366602 0.1150945 -0.093393 0.14023 0.32815498 0.236433 0.504875 -0.404675 -0.082679 -0.039976 -0.18915 -0.024975002 -0.077115506 -0.180345 -0.346365 -0.18372001
23 -0.184535 -0.11325 -0.363185 0.48167002 0.1870125 0.18504 0.350545 0.08147025 -0.1392395 -1.7518001 -0.18349345 0.24103999 -0.0133094005 -0.013466001 -0.1568795 0.422548 0.038436 -0.00037499517 0.110860996 -0.091900006 0.066112 0.20539501 0.34085 0.54939497 -0.103585005 0.188733 -0.17585701 0.0852525 0.108896 -0.35617 0.06903501 0.456075 0.120971 0.0296295 -0.8028 0.267873 0.257843 -0.05185955 -0.118292995 -0.40452498 0.008845009 0.040308505 0.07343001 0.105355 -0.089033 -0.14657 -0.34843504 0.437195 -0.058296002 -0.073525 -0.334165 0.181808 -0.13151601 0.182025 0.3025 -0.35296512 -0.270135 0.402615 -0.024275005 0.009584 0.19331601 -0.18201001 -0.448565 0.08190501 0.07445501 -0.13841 0.083475 -0.10632 0.018335 -0.051078998 -0.40844 0.234226 -0.26038 -0.0204499 0.40390998 0.19622235 -0.44742802 0.328385 -0.20650999 0.117479995 0.528245 -0.15191 0.07575 -0.089292 0.60636497 -0.020239994 -0.099717 0.032629997 -0.22365001 -0.1023125 -0.030359998 0.18853499 -0.30235648 0.521125 0.081045 -0.25690502 -0.135491 0.019115001 -0.0022300035 -0.211005 0.26745 -0.095725 -0.385275 0.100333 -0.031724 0.26937 -0.52219146 -0.17414 -0.026615001 -0.078958996 -0.027549997 -0.260218 -0.08379 0.297421 -0.2820495 0.1062075 0.32964998 0.113114506 0.09643 -0.266 0.283435 0.47768998 -0.126005 -0.31349 0.16008 -0.49128002 -0.024236001 -0.1332325 -0.040605 -0.273526 0.33713 -0.033575006 0.455065 -0.023295 0.229306 0.0706705 -0.039892502 0.07188 0.09447999 -0.505035 0.06554001 -0.19861001 -0.282749 0.37759 -0.55919 -0.33289498 0.024280012 -0.231655 0.18436095 0.15038 0.566535 -0.1458905 0.0160015 -0.1887 -0.23025501 0.46346003 0.090705 -0.117865 -0.233665 -0.34596002 0.20037 0.0498745 -0.2529491 0.28717 0.0640025 -0.52577496 0.26545 -0.1109815 -0.106643505 0.58774 0.059245005 -0.20773849 -0.34696 0.42222 -0.279385 -0.2844235 -0.051754497 -0.419 0.144475 0.45766002 0.325715 -0.12516999 -0.21452498 -0.05094 0.0074949935 -0.1013435 -0.0545405 -0.0960445 0.201565 -0.28439 0.1765775 -0.18996 -0.157758 -0.031362 0.258895 0.14155999 -0.037191503 0.1364505 -0.428505 -0.442075 -0.0070600063 0.104665 -0.23692 -0.371135 0.183508 -0.1242065 -0.19139501 0.147454 -0.007024996 -0.14204499 0.31355 -0.27872 0.012230009 -0.149445 -0.09894501 0.311555 0.026376499 0.24854249 0.052394502 0.27485698 0.32655 -0.083114505 -0.0016849972 -0.038085 -0.16812 0.141745 -0.107668504 -0.1562545 0.29644 0.0187685 0.027890004 -0.21622498 0.223845 0.45201 0.21564999 0.01633501 0.093818 0.0012890003 -0.26683998 0.0042649955 0.18198 0.308655 0.72668505 -0.206366 -0.80133003 0.299395 0.044932 -0.12170498 -0.107419 -0.1269 -0.18645 -0.28242552 0.30833998 0.0063849986 0.33468002 -0.25233948 -0.088287994 -0.005829 0.160465 0.41111502 0.29395166 -0.029104 0.091473 0.029099502 0.082895 -0.012979999 -0.15846899 0.00037800148 -0.28917998 -0.13209 0.357655 0.09437 -0.1866875 0.110385 0.19096002 -0.019530002 -2.2124 0.190535 0.91883504 0.06561999 -0.0928975 -0.49953502 -0.12504 -0.18293801 -0.1280995 -0.1327005 0.11034 0.1557155 0.3643925 0.029925004 -0.040845007 -0.15593 -0.087145 0.0230355 -0.1131967 0.107549995 -0.0097458 -0.27003852 -0.0799305 0.464845
24 0.029265597 -0.053624004 -0.070677 -0.0050116023 0.10943401 0.106617376 0.1504786 0.053307794 0.1584476 -1.7267059 -0.09588481 0.012124804 -0.3578586 0.09984001 -0.042864196 0.031472005 -0.05689921 0.091554 0.098182194 0.19812478 -0.169868 0.227842 0.1362308 0.057502 -0.0627262 -0.0388178 0.007287401 0.2185472 -0.35454798 0.30400878 0.3473914 0.24663499 -0.146582 -0.025106806 -0.41828513 -0.10668602 0.16630599 -0.20794721 -0.042022996 -0.031755995 -0.119838 -0.027684998 0.1286436 0.1041038 -0.0044232 -0.1376168 0.11553099 0.3411284 0.195909 0.12043579 -0.05998999 0.049175 -0.12178741 -0.22381802 -0.14984801 -0.073534206 0.2874604 0.03116704 -0.1051278 -0.0559084 -0.067117795 0.17912039 0.1986418 0.0294 -0.19818799 -0.22119987 -0.127586 -0.1422348 -0.102083996 0.070374 -0.052043002 -0.040844202 0.2145379 0.012616003 -0.0130382 -0.084722355 0.043247193 0.27320242 -0.12351199 0.0028242678 0.056835998 -0.237402 -0.056247998 -0.114304796 0.1207492 0.06347521 -0.036946658 0.04469132 -0.09782134 -0.016063 -0.3214592 0.10149801 0.1963962 0.093941055 -0.16983 -0.0641942 -0.1328474 0.044476595 -0.0003965985 -0.010703797 -0.028147995 -0.10192881 -0.42537403 -0.172335 -0.0061859963 0.27945 -0.1520292 0.261828 -0.1257534 -0.16333601 -0.016189855 -0.56065 -0.1727436 0.031717997 -0.122663796 0.13709679 0.38488597 0.19343619 0.480282 0.0658716 -0.13127173 0.2744186 -0.3802713 -0.097178996 -0.2053072 -0.008617398 -0.2575668 0.3925474 -0.050997205 -0.0834856 0.17547366 -0.0015259981 0.072129175 -0.0624286 -0.18998319 -0.0751334 0.14518401 0.12594001 -0.3266581 0.184936 0.1382808 -0.0938362 0.2709805 0.14316319 0.0025739968 -0.031084195 0.32726198 -0.010234135 -0.19498602 -0.1416116 0.47021484 0.1589624 -0.039662004 -0.045532197 -0.049620397 0.12280021 0.016126642 0.098094404 0.1776078 -0.347814 0.32572398 -0.08248459 0.3824308 0.30896398 -0.078581795 -0.32020998 0.1852726 -0.1604458 -0.141134 0.30706602 0.10541298 0.156478 -0.45560798 0.3248766 0.10510061 0.2525682 0.06816349 -0.1433128 -0.05844 0.147745 -0.32098597 0.049026996 0.1388974 -0.096578404 0.102660395 -0.0583784 0.18632141 0.028488364 -0.0033465982 0.078479394 0.0029652 0.154697 -0.287798 -0.24602643 -0.0636192 0.256202 -0.048707396 -0.450898 0.07641959 0.1433824 0.44352397 -0.036764998 -0.20002022 -0.065102 0.074726 0.1681192 -0.16621801 0.017586242 0.36009058 -0.29370397 -0.23485401 -0.060778685 -0.05505421 -0.35544562 0.2045474 0.453404 0.1306162 0.093982406 0.1253584 0.0277402 0.03450601 -0.182298 -0.13377759 -0.15943699 -0.122112796 -0.169979 -0.18710601 0.12770799 -0.019508004 -0.087131605 0.022100002 0.18642 0.022119004 -0.108988605 -0.06973119 0.1236036 -0.061712395 -0.0784664 -0.391926 -0.112359405 -0.20762202 0.55361736 0.54033625 0.079799 -0.84727 0.24501601 0.069079995 -0.19167581 0.1993908 -0.24565907 0.1529356 -0.263214 0.27644354 -0.36332798 0.382626 0.055761397 -0.18099019 -0.1273202 0.03165999 0.0027026117 -0.019258002 -0.15111287 0.00091640354 0.0563368 -0.0021486045 -0.20190802 -0.058548607 0.0051824003 0.098997 0.3102464 0.06827 -0.07982139 -0.025188405 -0.029420003 -0.11311619 -0.038188614 -1.7826799 0.0688886 0.72897005 -0.1173084 -0.35497943 -0.015941199 0.086597994 0.098089 0.0035791933 -0.18308981 -0.0922752 0.092403404 0.365596 -0.017261993 -0.1767102 -0.27334 -0.0962767 -0.023458004 0.1705632 0.6056118 0.054093193 -0.377786 -0.0377088 0.021408593
25 0.058396664 -0.321089 0.18170233 -0.17803335 0.13013034 -0.21652001 -0.061434668 0.16180547 0.09494 -1.9629666 0.79404664 0.009346664 0.16792198 0.15537466 0.5232667 0.063023 -0.064956 0.0004946664 0.043899998 -0.04846411 -0.07071667 0.059660498 0.25147334 0.539239 -0.177842 0.33131334 0.23590334 0.431914 -0.075179 -0.013681634 0.26494667 -0.32075 -0.04560333 0.65745 -0.5379 0.13561998 0.069763 -0.09298567 0.15612666 -0.18487667 0.13701333 0.25019 -0.17880933 0.51423997 -0.15922333 -0.078896 -0.38422 0.16950034 0.24871133 -0.45285666 0.030193666 0.049526665 -0.29828 -0.05239133 -0.172686 0.030470997 0.33418334 -0.19594467 -0.075858094 -0.092876665 -0.0013300081 0.36711368 0.46825996 0.010916668 -0.09263567 0.29918334 -0.102003336 0.20784499 -0.28094003 -0.055010002 -0.15891832 0.25228867 0.444438 -0.017681 -0.18445067 0.3895367 -0.08231566 0.086321 -0.037216663 0.15011734 0.08686266 -0.44938663 -0.54207 -0.06468666 0.10389333 0.24378002 0.034256667 0.3231733 -0.16302434 -0.5637134 -0.27962336 0.25497666 0.18894334 0.27195668 0.06622166 0.07741967 -0.62229997 0.40568003 0.04036333 -0.3985057 -0.23722668 0.15805666 -0.16124433 0.25155 0.051068325 -0.12976733 -0.0071639917 -0.086166 -0.435912 -0.009016666 -0.20644033 -0.6305466 -0.18748666 -0.31298634 0.116521 -0.096041 -0.22222334 0.0005630006 -0.022483034 0.48908004 0.225673 0.053993333 0.012170662 -0.676836 -0.22241001 -0.16960436 -0.30071667 -0.08101233 -0.13479 0.18013199 -0.055956665 -0.30357668 0.31920335 0.10867566 -0.22098 -0.52243334 0.20591666 0.04265733 -0.26493666 0.39495 0.22125666 -0.092429996 0.70006007 -0.21966666 0.29567668 0.30797002 0.16011201 -0.18208425 -0.069477 -0.14792234 0.7484133 0.14126001 0.36994 -0.026335338 0.099843346 0.022591002 -0.25198668 0.068622 -0.16183 -0.58071 0.11157834 0.032338332 0.12541 -0.62301 0.16966002 -0.15375601 0.16880067 -0.168469 -0.45315668 0.7693367 -0.21665998 -0.22574668 -0.79067 0.39112568 -0.29510435 0.04987334 0.06551533 -0.5393767 -0.24393468 -0.29203102 -0.05431266 -0.22916602 0.102995664 0.11552801 -0.12045001 -0.16262366 -0.30471334 0.019096663 -0.096007 -0.047358666 -0.010410001 -0.03783433 0.28065 0.21615835 -0.13326 0.36331 -0.20393467 0.21282165 -0.17993666 -0.04539932 0.40802002 -0.18211867 0.18552333 -0.067089 -0.44999668 -0.47018364 0.14758234 0.1825 0.22654335 -0.31841335 0.44981337 -0.25085333 0.12705933 -0.28625667 -0.28601936 0.18343334 -0.26921266 0.44096136 0.17386334 0.31066665 -0.166094 -0.0020433366 -0.28127265 0.04946433 0.37099335 -0.19018935 -0.31034198 -0.5971859 0.24821334 0.32217333 0.0039266646 0.3001733 -0.12554666 0.0476 -0.27095833 -0.11121335 0.15744834 -0.17916733 -0.31839 -0.017899996 0.59496 0.35937667 0.37084666 -0.29433134 -0.86414 0.135023 -0.71561 -0.42387167 0.35206532 0.094444335 -0.10120667 0.04784 -0.41682664 0.009283769 -0.019780336 0.13507666 0.122095734 -0.3008759 0.039720338 0.112474 0.28151235 -0.4047133 -0.057228997 0.028130332 0.37392572 0.11497999 -0.54119664 0.18246333 0.48781335 0.43516064 -0.37483335 0.20674002 -0.13388868 -0.23187666 -0.36669 0.117992006 -1.3355433 0.08145333 0.18630135 -0.41396868 -0.76567 -0.36043203 -0.020763338 -0.30123666 0.5948966 -0.51281065 -0.35893333 -0.02062267 0.066528164 -0.11922034 0.07203667 -0.3260433 -0.22984666 -0.028063336 0.14575666 0.41057566 -0.131512 -0.40528 -0.18086 0.16291
26 -0.009498499 0.0654495 0.063359246 0.044814996 0.015572496 -0.31142 -0.26698676 -0.20863426 0.17301801 -1.557625 0.26955074 0.027462997 0.017182 0.03801325 0.17431125 -0.124301 0.123892486 0.20293225 0.074161 0.134945 -0.1123454 0.22847842 0.06552675 0.5275425 -0.195085 0.10465751 0.33266002 -0.00060749054 -0.0063210023 -0.15289825 0.40950376 0.31122875 -0.30069023 0.29044777 -0.5881912 0.1040055 0.27757397 0.074957 -0.281418 -0.1507275 0.0631 -0.3881175 0.24112199 -0.01932501 0.016904749 0.0298165 -0.009785004 0.36760998 -0.08331099 -0.04819175 0.070424005 -0.014275748 0.032516498 -0.4037865 0.0016457532 0.020935006 0.20908432 -0.36488748 -0.14737275 -0.116695255 0.15553725 0.19446948 0.32118198 -0.06696825 -0.078061 -0.19486201 0.092848 0.19574401 -0.012337506 -0.1281636 -0.13935074 0.090093255 -0.009748001 -0.03518325 -0.166709 0.025386501 -0.11916551 0.040276498 -0.027531248 0.029631903 -0.09613925 -0.3631125 0.037537493 -0.17918375 0.07473025 0.06401725 0.20163818 0.12761125 -0.24959867 0.15028599 -0.10136175 0.097115 -0.08588849 0.19885 0.236765 0.2710775 0.08134751 0.0915175 -0.080795 -0.3928775 0.3497375 0.0035399944 -0.1366975 0.087105 0.02631375 0.039996 -0.049053013 0.0516715 -0.04778597 -0.12194999 0.14878617 -0.6643 -0.09684226 -0.14497 0.12701525 0.181767 0.014909998 0.07348325 -0.14793001 0.11600001 0.09518701 0.6290325 -0.062055502 0.011285 -0.1098475 0.114535004 0.01727999 0.111166246 0.3024625 0.017167501 -0.13068724 -0.1943145 0.039047748 -0.22312126 -0.44197223 -0.347365 0.11212996 0.26557502 -0.23392636 0.565995 -0.060059257 0.2144285 0.1236966 0.26965624 0.66817254 0.06117975 0.1698515 -0.0047200024 -0.0318095 0.3459775 0.7104775 0.00070500374 0.08464251 0.046716247 -0.07521575 0.017929675 -0.101670004 0.14835349 0.1527305 -0.35688496 0.066436395 0.21439743 0.3031675 -0.39900076 -0.14291 0.18533374 0.056136005 0.07759476 0.0929425 0.27575 0.18321425 -0.302045 -0.62612903 0.13406326 0.300197 0.09933525 0.16673376 -0.18335274 -0.14038303 0.19071925 0.048484996 0.1160325 0.19876875 -0.0049785003 0.032007508 -0.13388675 -0.4325475 0.1277095 -0.14521751 -0.025914997 -0.252625 0.0601915 -0.182902 -0.12211001 -0.027202997 0.40653002 -0.009960499 0.12144999 0.1617075 0.1872325 0.68208253 -0.0736175 -0.05148575 0.139625 -0.1382325 -0.191705 -0.06846775 0.1375275 0.045383252 0.13543501 0.08685525 -0.08157125 -0.0049857423 -0.121291995 0.1656715 0.34195724 -0.027512502 0.082319506 0.34357277 0.053599004 -0.1578325 0.28175747 -0.17241624 0.018704996 -0.08823751 -0.174135 -0.31535 -0.05553725 0.091957495 0.041227497 -0.00088850036 0.15185726 0.01211625 -0.045835253 -0.298477 0.0101225 0.14989802 -0.2630906 -0.2887525 -0.00093475124 -0.11199475 0.23827526 0.83726 -0.06605175 -1.0341924 0.29981273 -0.1607125 0.0014975071 0.17337 0.14177752 0.17482725 -0.0103225 0.24190193 -0.130425 0.30469224 0.11070424 0.10510975 -0.36539 0.17725776 -0.019779995 -0.02553175 -0.3710525 0.30896425 -0.105404 0.19975 0.03525625 -0.44262502 0.21868998 0.21516424 0.27655047 -0.2220675 0.0884555 0.001458019 0.16760999 0.125875 -0.05705 -1.419635 -0.19768475 0.90045005 -0.13867725 -0.28438 -0.1673265 0.31854874 -0.27474 0.3741125 0.088891506 -0.395075 0.16911812 0.2436125 0.14446649 0.14151849 -0.26941 -0.14656 -0.25122476 0.1248675 0.41898 0.07922325 -0.22197126 -0.16585076 0.12945324
27 -0.468935 -0.122614995 -0.122957505 0.613135 0.411375 -0.223269 0.31431502 -0.0039875004 -0.503339 -1.7581 0.1841125 0.073383 0.12786001 0.09098 0.137635 -0.075459994 0.44664 0.065726995 0.017453449 0.283615 0.100848496 0.537465 0.26493502 0.138215 -0.14219 0.34262002 0.53195 0.16244 0.004996501 -0.24484499 0.14092949 0.55467 -0.30280998 0.090237 -0.48597497 0.023552995 0.55212 0.2281245 -0.0405385 -0.1565485 0.18251 -0.44243 0.534915 -0.49830502 -0.61150503 -0.0016900003 -0.45323 0.29224998 -0.325965 -0.26776 -0.0035500005 0.1862085 0.032493003 -0.3488265 0.0742925 -0.442275 0.07828035 -0.2828395 -0.39902 0.1831145 0.55563 -0.3244 0.0011250004 -0.12257999 -0.130136 -0.309435 -0.06857501 0.38289002 0.106078 -0.042805 -0.41847 0.14621 -0.144155 -0.298315 0.40360802 -0.0011299998 -0.28338 0.31185 0.22462 0.347125 -0.023822 0.09982 0.40181 -0.36612 0.19852501 -0.334485 -0.115669996 -0.042305 -0.64324 0.0340605 -0.232105 0.023355 -0.486085 0.1772445 0.373415 -0.656335 0.44481003 -0.1118675 0.006979499 -0.428761 0.37088 -0.42202502 -0.44396 -0.29039 -0.0661185 0.106865205 -0.132795 -0.071777 -0.024970949 -0.18878001 0.19253744 -0.648975 0.30181 0.0644845 0.54596 0.112894 0.38621 0.24888 -0.44787502 -0.12090299 0.449985 0.79184496 0.09895 0.380415 0.41606498 -0.080135494 0.15149 0.018004999 0.30184498 0.0533 0.1078455 -0.138939 0.19446 0.058924995 -0.340295 -0.54698503 0.2446249 0.317855 0.0942025 0.50567997 -0.19387001 0.33202597 -0.19809599 0.044705003 0.513437 -0.161435 0.39947498 0.066535 0.341735 0.13344151 0.64642 0.0834708 -0.13183 0.023158 -0.44956 0.329335 0.117627494 -0.040480003 -0.07246 -0.193292 0.0280268 0.67488 0.16039649 -0.4914 -0.32728 -0.07595 -0.33775 -0.065475 0.359785 0.16271001 -0.081107005 -0.407585 -0.60319996 0.30702502 0.11012 -0.2117095 -0.0019499958 -0.0771655 -0.083968505 0.873245 0.33177 0.076303996 0.40829003 -0.052802 -0.268005 0.103026494 -0.320585 -0.245521 0.221985 -0.20778999 0.066585004 0.019619 -0.56106997 0.054216497 -0.1774935 0.76110005 0.0831865 0.18345 0.612805 0.19728 0.15355 0.202905 0.31443998 0.39124 -0.16909 -0.29953 0.2804445 -0.685485 0.35293502 0.433775 0.010835001 -0.08219 -0.12693998 -0.028869994 0.17378801 0.442835 -0.081725 0.46355003 0.724765 0.46271002 -0.253375 0.598405 -0.030150501 -0.094305 0.078637496 -0.53476 0.041315004 0.0768855 0.021763 0.326755 -0.042505 -0.076105505 0.18474999 0.004849 -0.17251 0.317125 -0.06037945 0.1640638 0.043794997 0.067218 0.228245 -0.0789365 1.1608 -0.18127 -1.27735 0.43697 0.528255 -0.25716 0.21292001 0.517345 -0.28829548 0.109044 0.55280995 0.38826 0.439835 0.06255 0.0410975 -0.15970601 -0.2303555 0.13576001 -0.062243998 -0.34725502 0.68826 -0.192123 0.074810006 0.17533751 -0.282763 0.530445 -0.069324 0.1946 -0.239205 0.29251334 -0.17417395 0.303625 0.047685005 -0.19578001 -1.6531999 0.2918005 1.04408 -0.28 -0.20792499 0.009160005 0.047995 -0.11829355 0.0050000027 0.0200955 0.17766 0.079568505 0.1920875 -0.13060498 -0.074637 -0.041121498 0.091989994 -0.1134385 0.10226 0.12564 -0.22654 -0.047647502 -0.1720185 0.084143
28 0.066539 0.03143267 0.19239233 -0.16664334 0.14048667 0.21527 0.017949333 0.29214332 -0.22231667 -0.95298 0.06143133 0.15229733 0.12029901 0.38526002 0.20668633 0.25687334 -0.18201065 0.14759234 0.27767032 0.030419996 -0.33057332 0.22157498 -0.00490267 0.45446002 -0.025186336 -0.161671 -0.123160005 0.120370336 0.14175601 0.113768004 0.44113198 -0.103690006 -0.00635167 0.42585668 -0.7155447 0.186814 0.29427335 0.12563133 -0.221394 -0.12877 -0.135813 -0.020319998 -0.08439734 -0.060902 0.17960532 -0.15552633 0.43980336 0.29882333 0.231674 0.12439833 -0.37646332 -0.09079 -0.13796666 -0.44388 -0.08286667 0.30838767 -0.137156 0.15608041 0.21653765 -0.12246999 0.20546333 0.0023733329 -0.23443766 -0.30044666 -0.14029567 -0.22175728 -0.28690335 0.013115336 -0.113746665 -0.20558006 -0.07972333 0.16831 -0.18215497 0.10328033 -0.188564 0.007564666 -0.030991333 0.08784167 0.17370999 -0.054676663 0.1329993 -0.054780666 0.014842662 -0.30256033 -0.07442632 -0.111329995 -0.19543242 -0.017596671 -0.017902235 0.042246666 -0.13062534 0.17968668 0.33747998 -0.053131666 -0.052053005 0.29433668 0.34233665 -0.12378833 0.26904333 -0.22557668 0.085656665 -0.25282633 -0.23248999 -0.0024499993 0.0801891 0.28717998 0.13675933 -0.274873 0.0016363338 -0.23334666 -0.08552777 -0.52469665 -0.08378667 -0.29395 0.080463 0.2542 0.06202023 -0.07051333 -0.30811 0.43149164 0.088358335 0.3693367 0.14172666 0.15777667 -0.22175665 0.21603668 -0.14449333 -0.158603 -0.08358667 0.045906667 -0.07389667 0.03345667 0.03648 -0.07360267 -0.12739666 -0.21743333 0.13650332 -0.15705033 -0.2852968 0.38448334 -0.14321433 -0.14600167 0.7241695 0.11948466 0.075857006 -0.049437 0.19685501 -0.11344013 0.016738666 0.009546332 0.63135666 0.42872334 -0.11760333 -0.3125573 0.070402205 -0.6130697 -0.0036086664 0.266618 0.043486003 0.09266666 0.42246667 -0.18422067 0.09950333 -0.22538666 -0.11865603 -0.21225 -0.105413675 -0.017492102 -0.052385658 0.13654667 -0.23317999 0.19524668 -0.95073336 0.6427234 0.107852004 0.21856034 -0.10091767 -0.28150332 -0.16049667 0.12054667 0.141465 0.34216666 0.0016279978 -0.13727266 0.137844 -0.11357067 0.11447733 -0.08932667 -0.15013933 0.07716667 -0.16496633 0.34251165 -0.36663333 -0.25619432 -0.08792001 0.22102399 -0.00025833398 0.22465001 0.18655999 0.22901332 0.55810666 -0.193981 -0.16305566 -0.081300005 0.006517004 0.21898 0.012448665 -0.1857 -0.024435664 -0.27123332 0.03476667 0.037314996 -0.51845366 -0.011231667 -0.00547427 0.13781299 0.025751337 0.119430006 0.13867669 -0.022770336 0.194974 -0.23222333 0.012185335 -0.37695336 0.07756999 0.16578667 -0.023655662 0.07788333 0.027360002 -0.120166 0.02220667 0.02273933 0.22251333 -0.35454533 -0.011279997 0.037551697 0.31347236 0.25132334 -0.41776335 0.06100334 0.04106 0.40369335 0.286769 -0.18906999 -0.47992 0.073729664 -0.1919 -0.2982433 -0.023846997 0.16969335 0.12883733 0.0061400034 0.28668228 -0.33764002 0.28972998 -0.27034435 0.19131333 -0.59097666 -0.066888 -0.13839601 -0.19063933 -0.54823 0.50774235 -0.183797 0.023569992 -0.32459 -0.25943667 0.37833667 0.10057167 0.061334 -0.26772332 -0.026059335 -0.059363335 -0.09806334 0.24448664 0.12605333 -1.6649667 0.28459 0.30498198 0.083676666 -0.33854803 -0.20325868 0.07596976 -0.27037665 0.023160001 -0.091406666 -0.41213334 0.108623326 0.027903333 -0.152374 -0.040052667 -0.10938867 -0.58740336 -0.102819614 -0.09786933 -0.011020005 0.069225 -0.0011963347 -0.045104668 -0.11599234
29 -0.037208 -0.20657 0.65493 0.66249 0.56806 0.10539 0.092735 0.63359 -0.44187 -1.2588 -0.18958 0.36822 -0.44172 -0.2356 -0.22642 0.14024 -0.071758 -0.57209 0.16475 0.27773 0.46705 -0.088129 0.1015 0.18346 -0.09706 0.48201 0.1742 -0.16163 -0.3445 0.078542 -0.38232 -0.26038 0.37451 0.55793 -0.05083 -0.33989 0.27879 -0.32726 -0.4005 0.17484 0.32866 -0.47994 0.26333 -0.027693 -0.2475 -0.162 -0.99887 0.36011 -0.54746 -0.053576 -0.1344 -0.017953 0.46019 -0.26603 -0.20959 -0.51968 -0.45739 0.069752 -0.18923 0.33782 0.42501 -0.077239 -0.41848 -0.041615 -0.20939 -0.17207 -0.40779 -0.13986 -0.025635 0.10041 -0.21359 0.084454 0.52873 -0.096216 -0.079552 0.14565 -0.38145 -0.23564 0.28548 0.22511 0.37085 -0.066206 0.37104 -0.31214 0.15916 -0.56613 0.42111 0.22357 0.016423 0.19245 -0.11019 -0.47373 -0.33951 -0.323 -0.13944 -0.56124 -0.039474 -0.15213 -0.27551 0.16937 -0.2167 -0.30342 0.068558 -0.091254 -0.54241 0.85688 -0.70814 -0.14357 -0.48919 -0.57573 0.70686 -0.75634 -0.52465 -0.026537 0.61266 0.15723 0.18041 -0.55138 0.066167 0.070348 -0.070617 0.31067 -0.25454 -0.29695 0.27535 -0.21503 -0.14877 0.1718 -0.002931 0.3906 0.24616 0.2279 -0.016499 -0.35067 0.13072 -0.24673 -0.29142 -0.14797 -0.17347 -0.012084 0.052881 -0.0060242 0.19869 -0.23652 0.0026738 -0.12562 0.34947 0.29186 0.52969 0.1289 0.21401 -0.37637 0.12699 -0.38927 -0.57497 0.48314 -0.37939 -0.20559 -0.087759 -0.507 0.045197 0.54858 -0.13751 -0.12164 0.29481 -0.19127 0.56002 -0.23824 0.23956 0.23267 -0.29602 0.30652 -0.17301 -0.059676 -0.44018 -0.38741 0.20129 -0.31549 0.15727 0.32715 0.62978 -0.21251 -0.4958 0.19492 0.50865 -0.26036 0.082078 0.23094 -0.18054 0.36765 -0.19958 0.093471 0.16648 -0.15601 0.69169 -0.11774 -0.22231 0.1341 -0.01508 0.022718 -0.90217 0.29792 -0.19768 0.19979 0.43354 -0.42664 -0.21082 -0.40629 0.64392 0.035725 -0.29481 0.050245 -0.38284 0.09134 -0.041284 -0.23582 -0.041124 1.1563 0.35205 0.54235 -0.49546 0.036416 0.43479 -0.059945 -0.51091 0.080665 -0.34598 0.43641 0.40015 -0.1966 -0.71334 0.27235 0.41546 -0.092524 -0.31836 -0.56993 0.12496 -0.13055 0.0078778 -0.0746 -0.044249 0.10205 0.77802 0.053021 -0.85722 0.49328 0.19333 -0.80926 0.22683 0.068353 -0.2016 -0.31122 1.0464 -0.39044 -0.3674 0.12129 -0.65135 -0.40262 -0.44726 -0.062016 -0.40481 0.11547 0.5951 0.027707 0.19606 -0.10349 0.35735 -0.33316 -0.16535 -0.13019 -0.27141 0.18331 -0.085133 0.36306 -0.48458 -0.031285 -0.97263 0.047624 0.71083 -0.57252 -0.33247 -0.7304 -0.38749 -0.49427 -0.083736 0.10706 0.50899 -0.4463 0.32409 -0.1681 -0.28242 0.69394 -0.76031 0.18543 0.36278 0.24922 -0.27777 -0.36252 0.57155 0.56648
30 -0.024815999 -0.24708575 -0.009623997 -0.24397351 0.0983115 0.1277375 -0.01796925 -0.0650695 -0.2070155 -1.691675 -0.13107175 0.052585497 -0.164466 0.36819002 0.35828227 0.0507925 -0.106631756 -0.0874035 0.116552755 0.051175497 0.046917498 0.075084 0.1731325 0.2135825 -0.14462051 0.025252998 -0.0578275 0.079901755 0.061390497 0.150842 0.35686424 0.40816626 -0.062285 0.344235 -0.5991575 0.14062625 -0.046109505 -0.14836401 -0.125227 -0.4168925 -0.206911 0.02976925 -0.032563 -0.015532501 -0.1095152 -0.0010682642 0.00075049885 0.3652875 -0.1618585 0.1181505 5.750358e-05 0.020033 -0.11389426 0.011379994 0.08625451 -0.075024 -0.05264075 0.1568625 -0.19741175 -0.07381751 0.021200001 0.12437975 0.146139 -0.1336175 -0.21828249 -0.14819275 -0.09344251 -0.19082925 -0.0420025 -0.058666 -0.1629315 -0.16751751 0.373747 -0.26565725 0.0038866252 0.0018198024 -0.09244676 0.457008 -0.057004 -0.09353341 -0.27747 -0.2228126 0.19153999 -0.0526195 0.14365275 0.17339225 0.07872567 0.1815425 -0.16601443 0.049597498 -0.0042265058 0.21583898 -0.0018781979 -0.104649246 -0.09031001 -0.024290003 -0.22781678 -0.17777175 0.050622504 -0.05243 -0.14866 -0.279205 -0.21102852 -0.3478525 -0.075377 0.0853885 -0.11685782 0.0688 -0.191183 -0.17398724 -0.061398827 -0.51373 -0.09569201 -0.0986945 -0.13678975 0.27446824 0.105519995 0.13660026 0.014444999 0.079612516 -0.17330849 0.24740106 -0.13438563 -0.38381028 -0.012484752 -0.08692 -0.34180748 0.18962175 -0.123267256 0.10503051 0.29642248 0.011647504 0.47895 -0.087659 -0.26624477 -0.1347025 0.024247378 -0.088385 0.0492674 0.3400175 0.046153754 0.009625502 0.4235846 0.31904674 0.032226004 -0.061029498 0.4538725 0.0017790049 -0.0954075 0.0011344962 0.81127 0.137866 0.1327575 -0.11692549 0.0395025 0.036929894 -0.069744244 0.011212494 0.029559754 -0.35224247 0.084558 -0.056530245 0.14754826 -0.1222925 -0.10328475 -0.13367149 0.0435455 -0.07226974 -0.09157974 0.523085 0.14903325 0.1135865 -0.7579175 0.3997975 0.0646825 0.06674775 -0.07393925 -0.6028275 -0.089075 0.1103375 0.021785999 0.1788125 -0.095070496 -0.061835375 -0.26491976 0.018058252 -0.06417 0.013427496 0.007854253 0.080830894 0.0355415 0.17134625 -0.1852375 -0.177908 -0.16827399 0.1609225 -0.09957625 -0.036194995 -0.008592501 -0.12627448 0.3244725 0.09240675 0.18379276 -0.2351875 0.19537976 -0.027135003 -0.089395255 -0.067901954 0.16541825 -0.2837629 0.11211 -0.0047088256 0.022789758 -0.222332 0.221459 0.17841275 0.05894775 0.2245405 0.04702475 0.07981825 0.2598575 -0.088802 -0.199617 -0.22650999 0.1526825 0.021484926 -0.113217495 -0.31175247 0.064043745 -0.288755 -0.06781001 0.060542505 -0.13166875 -0.0467125 0.18820025 0.029937506 0.025404751 0.224667 -0.47092998 0.064797744 -0.12362475 0.045240257 0.33427 -0.145199 -0.62495506 0.16711749 -0.0335275 -0.2803955 0.12416226 0.085992925 0.1119715 -0.1560875 0.32240444 0.024262503 0.3350985 -0.22795826 0.006449254 -0.061830748 0.10551425 -0.0058990195 -0.017632496 -0.11851308 0.35682926 -0.025009502 0.23578824 -0.12867999 -0.016864754 0.125806 -0.07150524 0.073488005 0.0769725 0.1966235 -0.041161 0.0415625 -0.0065960027 0.071112245 -1.848175 -0.181404 0.48377025 -0.06289 -0.27191952 -0.128325 0.33590722 -0.015368996 0.1439965 0.18441124 -0.027846249 0.29886225 0.2268125 -0.136531 -0.0016477555 -0.14179674 -0.21264675 0.037034996 0.181194 0.23448475 0.0673765 -0.3426025 -0.21161826 0.036553252
31 0.049464 -0.20100933 -0.23395331 -0.5132633 0.12806934 0.15046035 0.2364933 0.15576933 0.032456677 -1.9653 0.23635334 -0.29606 -0.45492664 0.08172767 0.009296671 -0.20773666 -0.26926997 0.0333 -0.08758033 0.1189119 -0.57076 0.23640667 0.0033043276 0.13748333 0.006548267 0.056439996 0.22273166 0.45968434 -0.5847233 0.17610633 0.32555667 0.20275332 -0.045741994 0.12322199 -0.24010824 0.034863334 0.23998667 0.045966666 0.037180007 -0.064600006 -0.33211666 0.1048254 0.09656332 0.06458367 0.004032334 -0.14796533 0.072857 0.42655668 0.17332566 0.11877666 -0.16268666 0.20705765 -0.24432868 -0.29450333 -0.35998568 0.42787334 0.6857667 0.27049002 -0.051812995 0.15323201 -0.10458067 0.026924336 0.31421003 -0.089503326 -0.22233933 0.08187 -0.33350667 0.12295133 -0.42698002 -0.07677334 0.11684468 -0.10321667 -0.014250006 0.22638567 -0.18316 0.116812 -0.12437334 0.229042 -0.22222035 0.0898 0.20545869 -0.15646233 0.051962003 -0.11822667 0.17988001 -0.080661334 -0.17348902 -0.083699636 -0.05174667 -0.54948 -0.23567002 0.20565666 -0.0056233406 -0.012886333 0.076243795 -0.11438567 -0.074378334 0.007346327 0.21362233 -0.039422 -0.021485666 0.0033306677 -0.49634334 -0.28097698 -0.03250867 0.30349666 0.12424467 0.25628734 -0.27880302 -0.10643667 -0.100797676 -0.80199003 -0.37290666 0.198076 -0.15258999 0.06786127 0.3808547 0.13830501 0.29135665 0.18184334 -0.043339666 0.17275 -0.12567665 -0.044218 -0.25043333 -0.10054567 0.030608669 0.39804998 -0.2546467 -0.025091335 0.13260907 -0.18370001 0.5303187 -0.029930005 -0.18668866 -0.094915666 0.033263672 -0.003387332 -0.50198334 0.414 0.1450762 -0.06627333 0.38166833 -0.44300666 -0.03700332 0.09165167 0.32795334 0.39905 -0.412158 0.10984666 0.46638334 0.098406665 -0.01833333 -0.122146666 0.16742599 -0.18729566 0.07152307 0.0114533305 -0.10380333 -0.08950532 0.062347326 -0.15395667 0.22443332 -0.16608334 -0.013013333 -0.62182665 0.08885766 -0.069276325 -0.45119333 0.6227267 0.15897334 0.39218998 -0.65763664 0.004897674 -0.11101001 -0.043357 -0.18887 -0.10889 -0.14842333 0.109491 -0.49469665 -0.08473333 0.101989 -0.21701498 0.054006767 -0.194634 0.32573667 -0.0151040675 0.25219333 -0.13590135 0.36075667 0.68025 -0.31118333 -0.06408334 -0.27724668 0.36744 -0.027881006 -0.32590666 0.12944598 0.20419534 0.14651 0.03143999 0.016219663 -0.054072995 -0.12149334 0.118783 -0.0499334 -0.15936033 0.39639434 0.062350005 -0.17341334 -0.17326666 -0.0071819997 -0.5646667 0.45346335 0.41125324 -0.033417672 0.29286 0.26050332 0.028231999 0.06503604 -0.26602003 -0.21817334 0.05238 0.033909667 -0.48499334 -0.16892065 0.07106333 -0.324953 0.04603067 0.23634666 0.35369667 -0.021293327 -0.06267567 0.24482667 0.03324133 -0.18766068 -0.16316998 0.035026666 -0.094804 0.007437984 0.47065 0.21704 -0.077539004 -1.2121333 0.24001001 0.13514334 -0.29049 -0.23208635 0.042974997 0.012580666 -0.111770004 0.36095 -0.42773667 0.23832302 -0.24481668 -0.30539933 -0.23010333 -0.11028334 0.240364 0.003257662 -0.050070662 -0.13105 -0.24305655 0.14697333 0.1365144 -0.093338005 0.13784067 0.0211 0.3224 -0.14752601 0.088077664 -0.3519427 0.16530666 -0.029023329 0.04040633 -1.9564 0.29757002 0.47536 -0.31555334 -0.43981 0.054543328 0.15248099 -0.065888666 0.0931941 -0.28027433 0.060930666 -0.18431433 0.23090231 -0.19805 -0.7563767 -0.21278334 -0.09322184 0.25069332 0.30564332 0.83886003 -0.06134967 -0.4406803 -0.13237266 -0.045209993
