34 300
0 0.38209 -0.1536 0.44273 0.015187 0.56423 -0.37362 -0.13583 -0.37139 0.29488 -1.8328 -0.1551 0.16571 0.32464 0.20698 0.21956 -0.1903 0.15654 0.28809 0.52535 0.43149 -0.11395 0.74353 0.42517 0.39081 -0.4496 -0.14392 0.13373 0.20721 0.30911 -0.25329 0.20917 -0.069561 -0.16529 0.049224 -0.694 0.37159 0.12804 -0.1105 -0.19188 0.50671 0.72505 -0.29587 0.070868 -0.50142 0.15374 -0.093758 -0.16142 0.030345 -0.10497 0.68282 -0.2187 0.20056 0.18579 -0.5778 0.24368 -0.49523 0.26445 -0.39865 0.12955 -0.16349 0.90405 0.34906 -0.42685 0.031078 -0.086587 -0.66496 0.40323 0.18234 0.37703 -0.20244 -0.094186 -0.019453 -0.16907 -0.027835 0.33529 -0.13946 0.18397 0.72998 -0.01333 -0.15199 -0.055586 -0.44749 -0.13255 0.23491 0.083461 -0.23842 0.23849 0.10647 -0.026978 0.086108 -0.14567 -0.30535 0.032789 0.029785 0.0015293 -0.36061 0.060396 0.61269 -0.0085348 -0.12638 -0.29993 0.23152 -0.17261 -0.4184 -0.3646 0.12271 0.088395 -0.085026 0.51075 0.50266 -0.083863 -0.38637 -0.11834 -0.1025 0.90845 0.085127 0.0099196 -0.25235 -0.20391 -0.73558 -0.25587 0.26504 -0.09187 0.14532 0.11764 0.10006 0.35823 -0.19518 0.068038 0.49121 0.16318 -0.078982 0.39171 -0.58066 -0.05172 -0.12666 -0.25401 0.1213 -0.0078879 -0.074288 -0.21411 0.38712 -0.22652 0.14897 -0.16065 0.13142 0.086618 0.2783 -0.16417 0.67368 0.36011 0.53872 0.071555 0.053932 -0.26361 0.20909 0.1724 0.11066 0.76514 -0.039877 -0.3669 0.074913 0.010857 0.068738 -0.22561 -0.20852 -0.011548 -0.13162 -0.40157 -0.42692 -0.075843 -0.047266 -1.3713 -0.099924 -0.11082 0.10544 0.2205 -0.38662 -0.25901 0.20737 0.019941 0.72469 0.035995 0.48104 0.041567 0.1403 0.1696 0.59486 -0.15791 -0.69684 -0.36688 -0.53675 0.44808 0.11949 0.2072 0.63186 0.12012 0.12257 0.081764 -0.16183 1.1213 -0.25186 0.32566 -0.17974 -0.39608 -0.592 0.2934 0.42017 0.3652 0.017067 0.065849 -0.13462 0.24798 0.52584 -0.2465 0.35111 0.054375 -0.080269 0.81721 0.55619 -0.15825 0.17229 0.23078 -0.5102 0.07441 -0.38509 -0.29376 -0.0034403 0.43207 0.25173 0.23704 -0.02809 0.55104 0.12276 -0.66769 -0.12775 0.21518 -0.15288 -0.40507 0.10323 -0.42932 0.042126 0.52622 0.03821 -0.82392 0.10323 -0.43154 0.32574 0.14739 0.045955 -0.26115 -0.59161 -0.33342 0.17789 0.29506 -0.082279 -0.010506 -0.52943 -0.041061 0.26895 -0.035653 -0.65172 -0.075259 -0.11187 0.62208 0.053527 0.18404 0.28967 -0.015554 0.37589 -0.20255 0.44544 0.1994 -0.48304 0.25626 0.39908 -1.113 0.27141 1.3189 -0.60588 0.0093421 -0.46835 -0.14627 -0.39796 0.62975 -0.12688 -0.20438 0.45566 0.59107 0.033236 -0.053375 0.47512 0.063308 0.13919 0.33986 0.30973 0.059414 -0.28622 -0.56721 0.93252
1 0.0 0.0 0.0 0.0 0.0 0.0 0.0 0.0 0.0 0.0 0.0 0.0 0.0 0.0 0.0 0.0 0.0 0.0 0.0 0.0 0.0 0.0 0.0 0.0 0.0 0.0 0.0 0.0 0.0 0.0 0.0 0.0 0.0 0.0 0.0 0.0 0.0 0.0 0.0 0.0 0.0 0.0 0.0 0.0 0.0 0.0 0.0 0.0 0.0 0.0 0.0 0.0 0.0 0.0 0.0 0.0 0.0 0.0 0.0 0.0 0.0 0.0 0.0 0.0 0.0 0.0 0.0 0.0 0.0 0.0 0.0 0.0 0.0 0.0 0.0 0.0 0.0 0.0 0.0 0.0 0.0 0.0 0.0 0.0 0.0 0.0 0.0 0.0 0.0 0.0 0.0 0.0 0.0 0.0 0.0 0.0 0.0 0.0 0.0 0.0 0.0 0.0 0.0 0.0 0.0 0.0 0.0 0.0 0.0 0.0 0.0 0.0 0.0 0.0 0.0 0.0 0.0 0.0 0.0 0.0 0.0 0.0 0.0 0.0 0.0 0.0 0.0 0.0 0.0 0.0 0.0 0.0 0.0 0.0 0.0 0.0 0.0 0.0 0.0 0.0 0.0 0.0 0.0 0.0 0.0 0.0 0.0 0.0 0.0 0.0 0.0 0.0 0.0 0.0 0.0 0.0 0.0 0.0 0.0 0.0 0.0 0.0 0.0 0.0 0.0 0.0 0.0 0.0 0.0 0.0 0.0 0.0 0.0 0.0 0.0 0.0 0.0 0.0 0.0 0.0 0.0 0.0 0.0 0.0 0.0 0.0 0.0 0.0 0.0 0.0 0.0 0.0 0.0 0.0 0.0 0.0 0.0 0.0 0.0 0.0 0.0 0.0 0.0 0.0 0.0 0.0 0.0 0.0 0.0 0.0 0.0 0.0 0.0 0.0 0.0 0.0 0.0 0.0 0.0 0.0 0.0 0.0 0.0 0.0 0.0 0.0 0.0 0.0 0.0 0.0 0.0 0.0 0.0 0.0 0.0 0.0 0.0 0.0 0.0 0.0 0.0 0.0 0.0 0.0 0.0 0.0 0.0 0.0 0.0 0.0 0.0 0.0 0.0 0.0 0.0 0.0 0.0 0.0 0.0 0.0 0.0 0.0 0.0 0.0 0.0 0.0 0.0 0.0 0.0 0.0 0.0 0.0 0.0 0.0 0.0 0.0 0.0 0.0 0.0 0.0 0.0 0.0 0.0 0.0 0.0 0.0 0.0 0.0 0.0 0.0 0.0 0.0 0.0 0.0 0.0 0.0 0.0 0.0 0.0 0.0
2 -0.0094213 0.63354 -0.37749 0.24669 0.10314 0.44911 0.43333 0.33401 -0.12511 -1.1627 0.27053 -0.43928 -0.5691 -0.025394 0.12787 -0.15473 0.23247 -0.059768 -0.19759 0.5002 -0.17518 0.54642 0.26454 0.2505 -0.11956 0.11705 0.050782 -0.26387 0.23964 0.28133 -0.1 0.32603 -0.88895 -0.89163 0.18044 -0.40551 0.9432 0.28172 0.095633 -0.51032 -0.25606 -0.24582 -0.024457 -0.59162 -0.67455 0.16085 -0.2846 -0.13083 0.55663 0.29613 -0.18492 0.31902 -0.20994 -0.22486 0.22128 0.095839 0.065525 -0.086854 -0.52325 -0.2551 -0.28355 0.29705 0.94809 0.059425 -0.23377 -0.18281 0.0047758 -0.092799 0.033693 0.44838 0.034463 0.61213 0.046499 -0.20983 0.040887 -0.33239 0.3732 0.39388 0.3237 0.32129 -0.2459 -0.16302 -0.39765 -0.14701 -0.23221 -0.078091 0.26456 0.044282 -0.26734 0.13295 -0.15892 -0.20981 0.1198 0.36817 0.12703 -0.043391 0.33541 -0.068457 -0.451 -0.1782 0.50989 -0.040026 0.13141 -0.064147 -0.68147 0.27199 0.068413 -0.082276 0.080134 0.73645 -0.079535 0.22134 -0.84189 0.24375 0.20541 0.5102 0.26769 0.8483 0.21463 0.17216 -0.96506 -0.34867 -0.41149 0.72744 -0.35986 0.17287 -0.50858 0.39032 0.041553 -0.60398 0.52233 -0.20762 0.45755 0.76581 -0.25659 -0.10014 0.7113 -0.34817 -0.13322 0.80704 -0.22544 0.38565 -0.39991 -0.2484 -0.072268 -0.17041 0.32629 0.094476 -0.21523 -0.095493 -0.44519 0.019557 -0.2782 -0.081347 0.32913 -0.014387 -0.57459 0.1265 0.09191 0.074174 0.18235 0.32942 0.3814 0.10016 -0.13997 0.11994 0.64292 -0.43686 -0.28197 0.13123 0.13687 -0.3257 0.3288 0.84172 -0.00288 -0.081841 -0.025515 -0.1171 -0.0021683 -0.14087 0.20627 -0.39133 -0.33174 -0.31104 -0.31913 0.064396 0.25217 -0.2273 0.58924 -0.39774 -0.31226 0.028686 -0.20207 -0.3324 -0.14704 0.10756 0.052417 0.052376 -0.38688 0.13871 0.71706 -0.14882 -0.17291 0.046615 0.71918 0.57753 -0.28925 -0.21641 -0.16302 0.046927 0.022936 -0.16021 -0.079127 -0.38852 0.028872 -0.0838 0.32364 0.28608 0.41281 -0.31925 -0.12242 -0.073876 -0.47763 -0.66514 -0.17315 0.06703 -0.10634 0.22132 -0.12189 0.15438 0.37169 -0.011465 -0.049455 -0.31916 -0.0076186 0.20572 -0.3437 -0.19958 -0.41721 0.3977 -0.58272 0.1849 -0.10621 0.20014 -1.3165 -0.096661 0.06608 -0.083429 0.15109 0.56353 -0.3271 -0.20765 -0.12196 -0.1276 0.95322 1.0511 0.24715 -0.14066 0.10839 0.035831 0.19614 -0.54408 -0.23345 -0.34666 0.29014 0.31953 -0.031352 0.11639 -0.25758 0.2289 -0.15052 0.25019 0.074785 0.10905 0.14435 0.35485 -2.3433 0.31759 -0.3023 0.20244 -0.612 -0.025462 0.23244 0.46976 -0.76929 -0.01324 0.057803 0.1288 0.31685 -0.20744 -0.045275 -0.12195 0.040846 -0.47068 -0.11337 -0.40137 0.12027 0.03207 0.90006 -0.33036
3 0.0 0.0 0.0 0.0 0.0 0.0 0.0 0.0 0.0 0.0 0.0 0.0 0.0 0.0 0.0 0.0 0.0 0.0 0.0 0.0 0.0 0.0 0.0 0.0 0.0 0.0 0.0 0.0 0.0 0.0 0.0 0.0 0.0 0.0 0.0 0.0 0.0 0.0 0.0 0.0 0.0 0.0 0.0 0.0 0.0 0.0 0.0 0.0 0.0 0.0 0.0 0.0 0.0 0.0 0.0 0.0 0.0 0.0 0.0 0.0 0.0 0.0 0.0 0.0 0.0 0.0 0.0 0.0 0.0 0.0 0.0 0.0 0.0 0.0 0.0 0.0 0.0 0.0 0.0 0.0 0.0 0.0 0.0 0.0 0.0 0.0 0.0 0.0 0.0 0.0 0.0 0.0 0.0 0.0 0.0 0.0 0.0 0.0 0.0 0.0 0.0 0.0 0.0 0.0 0.0 0.0 0.0 0.0 0.0 0.0 0.0 0.0 0.0 0.0 0.0 0.0 0.0 0.0 0.0 0.0 0.0 0.0 0.0 0.0 0.0 0.0 0.0 0.0 0.0 0.0 0.0 0.0 0.0 0.0 0.0 0.0 0.0 0.0 0.0 0.0 0.0 0.0 0.0 0.0 0.0 0.0 0.0 0.0 0.0 0.0 0.0 0.0 0.0 0.0 0.0 0.0 0.0 0.0 0.0 0.0 0.0 0.0 0.0 0.0 0.0 0.0 0.0 0.0 0.0 0.0 0.0 0.0 0.0 0.0 0.0 0.0 0.0 0.0 0.0 0.0 0.0 0.0 0.0 0.0 0.0 0.0 0.0 0.0 0.0 0.0 0.0 0.0 0.0 0.0 0.0 0.0 0.0 0.0 0.0 0.0 0.0 0.0 0.0 0.0 0.0 0.0 0.0 0.0 0.0 0.0 0.0 0.0 0.0 0.0 0.0 0.0 0.0 0.0 0.0 0.0 0.0 0.0 0.0 0.0 0.0 0.0 0.0 0.0 0.0 0.0 0.0 0.0 0.0 0.0 0.0 0.0 0.0 0.0 0.0 0.0 0.0 0.0 0.0 0.0 0.0 0.0 0.0 0.0 0.0 0.0 0.0 0.0 0.0 0.0 0.0 0.0 0.0 0.0 0.0 0.0 0.0 0.0 0.0 0.0 0.0 0.0 0.0 0.0 0.0 0.0 0.0 0.0 0.0 0.0 0.0 0.0 0.0 0.0 0.0 0.0 0.0 0.0 0.0 0.0 0.0 0.0 0.0 0.0 0.0 0.0 0.0 0.0 0.0 0.0 0.0 0.0 0.0 0.0 0.0 0.0
4 0.0 0.0 0.0 0.0 0.0 0.0 0.0 0.0 0.0 0.0 0.0 0.0 0.0 0.0 0.0 0.0 0.0 0.0 0.0 0.0 0.0 0.0 0.0 0.0 0.0 0.0 0.0 0.0 0.0 0.0 0.0 0.0 0.0 0.0 0.0 0.0 0.0 0.0 0.0 0.0 0.0 0.0 0.0 0.0 0.0 0.0 0.0 0.0 0.0 0.0 0.0 0.0 0.0 0.0 0.0 0.0 0.0 0.0 0.0 0.0 0.0 0.0 0.0 0.0 0.0 0.0 0.0 0.0 0.0 0.0 0.0 0.0 0.0 0.0 0.0 0.0 0.0 0.0 0.0 0.0 0.0 0.0 0.0 0.0 0.0 0.0 0.0 0.0 0.0 0.0 0.0 0.0 0.0 0.0 0.0 0.0 0.0 0.0 0.0 0.0 0.0 0.0 0.0 0.0 0.0 0.0 0.0 0.0 0.0 0.0 0.0 0.0 0.0 0.0 0.0 0.0 0.0 0.0 0.0 0.0 0.0 0.0 0.0 0.0 0.0 0.0 0.0 0.0 0.0 0.0 0.0 0.0 0.0 0.0 0.0 0.0 0.0 0.0 0.0 0.0 0.0 0.0 0.0 0.0 0.0 0.0 0.0 0.0 0.0 0.0 0.0 0.0 0.0 0.0 0.0 0.0 0.0 0.0 0.0 0.0 0.0 0.0 0.0 0.0 0.0 0.0 0.0 0.0 0.0 0.0 0.0 0.0 0.0 0.0 0.0 0.0 0.0 0.0 0.0 0.0 0.0 0.0 0.0 0.0 0.0 0.0 0.0 0.0 0.0 0.0 0.0 0.0 0.0 0.0 0.0 0.0 0.0 0.0 0.0 0.0 0.0 0.0 0.0 0.0 0.0 0.0 0.0 0.0 0.0 0.0 0.0 0.0 0.0 0.0 0.0 0.0 0.0 0.0 0.0 0.0 0.0 0.0 0.0 0.0 0.0 0.0 0.0 0.0 0.0 0.0 0.0 0.0 0.0 0.0 0.0 0.0 0.0 0.0 0.0 0.0 0.0 0.0 0.0 0.0 0.0 0.0 0.0 0.0 0.0 0.0 0.0 0.0 0.0 0.0 0.0 0.0 0.0 0.0 0.0 0.0 0.0 0.0 0.0 0.0 0.0 0.0 0.0 0.0 0.0 0.0 0.0 0.0 0.0 0.0 0.0 0.0 0.0 0.0 0.0 0.0 0.0 0.0 0.0 0.0 0.0 0.0 0.0 0.0 0.0 0.0 0.0 0.0 0.0 0.0 0.0 0.0 0.0 0.0 0.0 0.0
5 0.0 0.0 0.0 0.0 0.0 0.0 0.0 0.0 0.0 0.0 0.0 0.0 0.0 0.0 0.0 0.0 0.0 0.0 0.0 0.0 0.0 0.0 0.0 0.0 0.0 0.0 0.0 0.0 0.0 0.0 0.0 0.0 0.0 0.0 0.0 0.0 0.0 0.0 0.0 0.0 0.0 0.0 0.0 0.0 0.0 0.0 0.0 0.0 0.0 0.0 0.0 0.0 0.0 0.0 0.0 0.0 0.0 0.0 0.0 0.0 0.0 0.0 0.0 0.0 0.0 0.0 0.0 0.0 0.0 0.0 0.0 0.0 0.0 0.0 0.0 0.0 0.0 0.0 0.0 0.0 0.0 0.0 0.0 0.0 0.0 0.0 0.0 0.0 0.0 0.0 0.0 0.0 0.0 0.0 0.0 0.0 0.0 0.0 0.0 0.0 0.0 0.0 0.0 0.0 0.0 0.0 0.0 0.0 0.0 0.0 0.0 0.0 0.0 0.0 0.0 0.0 0.0 0.0 0.0 0.0 0.0 0.0 0.0 0.0 0.0 0.0 0.0 0.0 0.0 0.0 0.0 0.0 0.0 0.0 0.0 0.0 0.0 0.0 0.0 0.0 0.0 0.0 0.0 0.0 0.0 0.0 0.0 0.0 0.0 0.0 0.0 0.0 0.0 0.0 0.0 0.0 0.0 0.0 0.0 0.0 0.0 0.0 0.0 0.0 0.0 0.0 0.0 0.0 0.0 0.0 0.0 0.0 0.0 0.0 0.0 0.0 0.0 0.0 0.0 0.0 0.0 0.0 0.0 0.0 0.0 0.0 0.0 0.0 0.0 0.0 0.0 0.0 0.0 0.0 0.0 0.0 0.0 0.0 0.0 0.0 0.0 0.0 0.0 0.0 0.0 0.0 0.0 0.0 0.0 0.0 0.0 0.0 0.0 0.0 0.0 0.0 0.0 0.0 0.0 0.0 0.0 0.0 0.0 0.0 0.0 0.0 0.0 0.0 0.0 0.0 0.0 0.0 0.0 0.0 0.0 0.0 0.0 0.0 0.0 0.0 0.0 0.0 0.0 0.0 0.0 0.0 0.0 0.0 0.0 0.0 0.0 0.0 0.0 0.0 0.0 0.0 0.0 0.0 0.0 0.0 0.0 0.0 0.0 0.0 0.0 0.0 0.0 0.0 0.0 0.0 0.0 0.0 0.0 0.0 0.0 0.0 0.0 0.0 0.0 0.0 0.0 0.0 0.0 0.0 0.0 0.0 0.0 0.0 0.0 0.0 0.0 0.0 0.0 0.0 0.0 0.0 0.0 0.0 0.0 0.0
6 0.0 0.0 0.0 0.0 0.0 0.0 0.0 0.0 0.0 0.0 0.0 0.0 0.0 0.0 0.0 0.0 0.0 0.0 0.0 0.0 0.0 0.0 0.0 0.0 0.0 0.0 0.0 0.0 0.0 0.0 0.0 0.0 0.0 0.0 0.0 0.0 0.0 0.0 0.0 0.0 0.0 0.0 0.0 0.0 0.0 0.0 0.0 0.0 0.0 0.0 0.0 0.0 0.0 0.0 0.0 0.0 0.0 0.0 0.0 0.0 0.0 0.0 0.0 0.0 0.0 0.0 0.0 0.0 0.0 0.0 0.0 0.0 0.0 0.0 0.0 0.0 0.0 0.0 0.0 0.0 0.0 0.0 0.0 0.0 0.0 0.0 0.0 0.0 0.0 0.0 0.0 0.0 0.0 0.0 0.0 0.0 0.0 0.0 0.0 0.0 0.0 0.0 0.0 0.0 0.0 0.0 0.0 0.0 0.0 0.0 0.0 0.0 0.0 0.0 0.0 0.0 0.0 0.0 0.0 0.0 0.0 0.0 0.0 0.0 0.0 0.0 0.0 0.0 0.0 0.0 0.0 0.0 0.0 0.0 0.0 0.0 0.0 0.0 0.0 0.0 0.0 0.0 0.0 0.0 0.0 0.0 0.0 0.0 0.0 0.0 0.0 0.0 0.0 0.0 0.0 0.0 0.0 0.0 0.0 0.0 0.0 0.0 0.0 0.0 0.0 0.0 0.0 0.0 0.0 0.0 0.0 0.0 0.0 0.0 0.0 0.0 0.0 0.0 0.0 0.0 0.0 0.0 0.0 0.0 0.0 0.0 0.0 0.0 0.0 0.0 0.0 0.0 0.0 0.0 0.0 0.0 0.0 0.0 0.0 0.0 0.0 0.0 0.0 0.0 0.0 0.0 0.0 0.0 0.0 0.0 0.0 0.0 0.0 0.0 0.0 0.0 0.0 0.0 0.0 0.0 0.0 0.0 0.0 0.0 0.0 0.0 0.0 0.0 0.0 0.0 0.0 0.0 0.0 0.0 0.0 0.0 0.0 0.0 0.0 0.0 0.0 0.0 0.0 0.0 0.0 0.0 0.0 0.0 0.0 0.0 0.0 0.0 0.0 0.0 0.0 0.0 0.0 0.0 0.0 0.0 0.0 0.0 0.0 0.0 0.0 0.0 0.0 0.0 0.0 0.0 0.0 0.0 0.0 0.0 0.0 0.0 0.0 0.0 0.0 0.0 0.0 0.0 0.0 0.0 0.0 0.0 0.0 0.0 0.0 0.0 0.0 0.0 0.0 0.0 0.0 0.0 0.0 0.0 0.0 0.0
7 0.0 0.0 0.0 0.0 0.0 0.0 0.0 0.0 0.0 0.0 0.0 0.0 0.0 0.0 0.0 0.0 0.0 0.0 0.0 0.0 0.0 0.0 0.0 0.0 0.0 0.0 0.0 0.0 0.0 0.0 0.0 0.0 0.0 0.0 0.0 0.0 0.0 0.0 0.0 0.0 0.0 0.0 0.0 0.0 0.0 0.0 0.0 0.0 0.0 0.0 0.0 0.0 0.0 0.0 0.0 0.0 0.0 0.0 0.0 0.0 0.0 0.0 0.0 0.0 0.0 0.0 0.0 0.0 0.0 0.0 0.0 0.0 0.0 0.0 0.0 0.0 0.0 0.0 0.0 0.0 0.0 0.0 0.0 0.0 0.0 0.0 0.0 0.0 0.0 0.0 0.0 0.0 0.0 0.0 0.0 0.0 0.0 0.0 0.0 0.0 0.0 0.0 0.0 0.0 0.0 0.0 0.0 0.0 0.0 0.0 0.0 0.0 0.0 0.0 0.0 0.0 0.0 0.0 0.0 0.0 0.0 0.0 0.0 0.0 0.0 0.0 0.0 0.0 0.0 0.0 0.0 0.0 0.0 0.0 0.0 0.0 0.0 0.0 0.0 0.0 0.0 0.0 0.0 0.0 0.0 0.0 0.0 0.0 0.0 0.0 0.0 0.0 0.0 0.0 0.0 0.0 0.0 0.0 0.0 0.0 0.0 0.0 0.0 0.0 0.0 0.0 0.0 0.0 0.0 0.0 0.0 0.0 0.0 0.0 0.0 0.0 0.0 0.0 0.0 0.0 0.0 0.0 0.0 0.0 0.0 0.0 0.0 0.0 0.0 0.0 0.0 0.0 0.0 0.0 0.0 0.0 0.0 0.0 0.0 0.0 0.0 0.0 0.0 0.0 0.0 0.0 0.0 0.0 0.0 0.0 0.0 0.0 0.0 0.0 0.0 0.0 0.0 0.0 0.0 0.0 0.0 0.0 0.0 0.0 0.0 0.0 0.0 0.0 0.0 0.0 0.0 0.0 0.0 0.0 0.0 0.0 0.0 0.0 0.0 0.0 0.0 0.0 0.0 0.0 0.0 0.0 0.0 0.0 0.0 0.0 0.0 0.0 0.0 0.0 0.0 0.0 0.0 0.0 0.0 0.0 0.0 0.0 0.0 0.0 0.0 0.0 0.0 0.0 0.0 0.0 0.0 0.0 0.0 0.0 0.0 0.0 0.0 0.0 0.0 0.0 0.0 0.0 0.0 0.0 0.0 0.0 0.0 0.0 0.0 0.0 0.0 0.0 0.0 0.0 0.0 0.0 0.0 0.0 0.0 0.0
8 -0.15599 -0.48863 -0.095793 0.33088 -0.058741 0.19546 0.14079 -0.23351 -0.22091 -1.809 0.23999 0.23155 -0.2614 0.58763 0.14984 0.039441 0.26857 -0.35678 0.33978 -0.086884 -0.31331 0.083792 -0.45803 0.48424 -0.014717 0.53933 0.088042 0.13115 0.18257 0.107 0.48577 -0.029373 0.18012 0.47554 -0.87488 0.39149 0.53745 -0.0063546 0.060698 -0.46311 0.55727 -0.58281 -0.20869 -0.45452 -0.13888 -0.083076 -0.45609 0.88219 0.18462 -0.84753 -0.2523 0.2111 0.037397 -0.36724 0.10139 -0.11059 0.52339 0.13964 -0.012866 0.2447 0.24951 -0.17792 0.19481 -0.13235 -0.1326 0.0090331 0.11366 -0.22846 -0.55384 -0.19502 -0.69034 -0.60809 0.19883 -0.19056 0.51211 -0.11389 -0.32236 0.4768 -0.068785 0.42006 0.46125 -0.25753 0.24404 -0.24938 -0.088638 -0.050059 0.12597 -0.41955 -0.32934 -0.093084 -0.37752 -0.042846 -0.41694 0.44503 0.40834 -0.078672 -0.19077 0.10634 -0.45438 0.10417 -0.091169 -0.25406 -0.050085 -0.15111 0.19377 -0.48826 -0.32771 -0.013199 -0.12172 -0.082718 0.22685 -1.1618 0.26638 -0.095021 -0.051916 -0.0094577 0.17666 -0.10423 0.11075 0.31282 0.080793 0.9009 -0.14988 0.040196 0.087837 -0.19295 -0.17704 -0.36456 -0.10088 -0.041492 0.053511 -0.58331 0.7997 -0.16211 -0.14938 -0.37602 -0.3355 0.40658 -0.22852 0.56702 0.45796 -0.17536 0.24725 -0.20521 0.33738 -0.20325 0.46125 -0.096619 0.35503 0.458 1.1045 -0.06066 0.72095 0.26253 -0.78934 0.19634 -0.18822 -0.5945 0.1074 -0.21854 0.45644 0.26283 -0.12558 -0.5837 -0.35181 -0.77446 -0.057786 -0.45396 0.021407 0.40866 -0.19257 -0.39938 -1.1346 0.53859 0.2992 0.18479 -0.32065 -0.92896 -0.11041 0.43687 -0.22184 0.17882 -0.29285 -0.21025 0.019958 0.11018 -0.28076 0.091363 -0.043574 0.2452 -0.12323 0.24119 0.082295 0.063377 0.052041 0.67751 0.058919 0.19593 0.45511 -0.16609 0.24755 0.26625 0.16469 0.098158 -0.40091 -0.12506 -0.3074 -0.19394 0.1118 0.29548 -0.0029244 -0.37724 -0.50793 -0.37191 0.2317 0.44089 -0.25758 0.27855 0.54572 -0.14578 -0.10627 0.46546 -0.74192 -0.21909 0.21883 -0.18607 0.30635 -0.27689 0.16028 0.15592 0.00010438 0.40641 -0.11154 -0.067444 -0.21263 -0.054281 0.22308 0.1675 -0.10388 0.21529 0.44342 0.0782 0.74798 -0.36624 -1.197 0.66083 0.10179 -0.27821 0.11598 0.17297 0.061977 0.15777 -0.00025323 0.10331 0.18671 -0.0088602 0.26155 -0.12531 -0.28656 0.095677 -0.21804 -0.41513 0.49224 -0.18266 -0.064651 -0.15015 -0.35053 0.27396 -0.17054 0.45922 -0.54717 -0.079053 0.047745 -0.15922 -0.42948 -0.092585 -1.9926 0.20223 0.88295 -0.11956 -0.054063 -0.45556 -0.29706 -0.34774 0.10337 0.48005 -0.10413 0.26968 0.04454 -0.12409 -0.30056 -0.086034 -0.33568 0.018582 0.14153 0.50129 -0.24236 -0.71039 -0.44195 0.032832
9 0.0 0.0 0.0 0.0 0.0 0.0 0.0 0.0 0.0 0.0 0.0 0.0 0.0 0.0 0.0 0.0 0.0 0.0 0.0 0.0 0.0 0.0 0.0 0.0 0.0 0.0 0.0 0.0 0.0 0.0 0.0 0.0 0.0 0.0 0.0 0.0 0.0 0.0 0.0 0.0 0.0 0.0 0.0 0.0 0.0 0.0 0.0 0.0 0.0 0.0 0.0 0.0 0.0 0.0 0.0 0.0 0.0 0.0 0.0 0.0 0.0 0.0 0.0 0.0 0.0 0.0 0.0 0.0 0.0 0.0 0.0 0.0 0.0 0.0 0.0 0.0 0.0 0.0 0.0 0.0 0.0 0.0 0.0 0.0 0.0 0.0 0.0 0.0 0.0 0.0 0.0 0.0 0.0 0.0 0.0 0.0 0.0 0.0 0.0 0.0 0.0 0.0 0.0 0.0 0.0 0.0 0.0 0.0 0.0 0.0 0.0 0.0 0.0 0.0 0.0 0.0 0.0 0.0 0.0 0.0 0.0 0.0 0.0 0.0 0.0 0.0 0.0 0.0 0.0 0.0 0.0 0.0 0.0 0.0 0.0 0.0 0.0 0.0 0.0 0.0 0.0 0.0 0.0 0.0 0.0 0.0 0.0 0.0 0.0 0.0 0.0 0.0 0.0 0.0 0.0 0.0 0.0 0.0 0.0 0.0 0.0 0.0 0.0 0.0 0.0 0.0 0.0 0.0 0.0 0.0 0.0 0.0 0.0 0.0 0.0 0.0 0.0 0.0 0.0 0.0 0.0 0.0 0.0 0.0 0.0 0.0 0.0 0.0 0.0 0.0 0.0 0.0 0.0 0.0 0.0 0.0 0.0 0.0 0.0 0.0 0.0 0.0 0.0 0.0 0.0 0.0 0.0 0.0 0.0 0.0 0.0 0.0 0.0 0.0 0.0 0.0 0.0 0.0 0.0 0.0 0.0 0.0 0.0 0.0 0.0 0.0 0.0 0.0 0.0 0.0 0.0 0.0 0.0 0.0 0.0 0.0 0.0 0.0 0.0 0.0 0.0 0.0 0.0 0.0 0.0 0.0 0.0 0.0 0.0 0.0 0.0 0.0 0.0 0.0 0.0 0.0 0.0 0.0 0.0 0.0 0.0 0.0 0.0 0.0 0.0 0.0 0.0 0.0 0.0 0.0 0.0 0.0 0.0 0.0 0.0 0.0 0.0 0.0 0.0 0.0 0.0 0.0 0.0 0.0 0.0 0.0 0.0 0.0 0.0 0.0 0.0 0.0 0.0 0.0 0.0 0.0 0.0 0.0 0.0 0.0
10 0.78421 0.038821 -0.51715 -0.507 0.64195 -0.087256 0.33351 -0.097453 -0.26637 -2.3458 0.32017 -0.2822 -0.43848 -0.015474 -0.12346 0.33387 -0.25904 0.24962 -0.36994 0.19812 0.054311 0.63741 0.63037 0.48128 0.48461 0.0054405 0.099987 0.57157 -0.28713 0.0049929 0.34296 0.45675 -0.29873 -0.018955 -0.68245 -0.021861 0.37953 0.017973 0.21117 0.49017 -0.52737 -0.26651 -0.29649 -0.20251 -0.63851 -0.37701 -0.88635 -0.44829 0.31853 -0.30701 -0.043028 0.11433 0.073186 -0.55199 -0.051791 0.13208 -0.05214 0.639 0.041211 -0.19379 0.088482 0.29771 0.60947 -0.63766 -0.58926 -0.40101 -0.328 0.14536 -0.15527 0.56753 -0.19511 0.29207 -0.076968 -0.23875 -0.13523 0.53686 -0.41598 -0.082264 -0.30144 0.5889 0.15952 -0.67577 0.042544 0.65432 0.6181 -0.35286 -0.29506 0.62493 0.10805 -0.62124 0.18876 0.48216 -0.051004 -0.15605 -0.62613 -0.52587 -0.99127 -0.15449 0.25544 -0.48953 -0.77982 -0.17199 -0.39137 -0.1408 0.020499 0.58306 -0.48842 0.2084 -0.69361 0.2837 0.98185 -0.97389 -0.41317 0.71583 -0.011831 0.18762 0.78959 -0.39001 0.9324 0.55102 -0.26244 -0.324 -0.13771 -0.15435 0.18779 0.051074 0.16714 -0.46158 -0.75933 -0.062854 0.46258 -0.59592 0.17131 -0.23692 -0.46087 0.114 -0.12973 0.62509 -0.16429 -0.19284 0.50038 -0.36477 1.0536 0.0059693 -0.28857 0.89603 0.23035 -0.053207 -0.32472 0.14946 0.84799 0.28925 -0.27744 0.1601 0.3361 -0.29613 0.19876 -0.65559 -0.4197 -1.0971 -0.15584 -0.54352 0.27494 -0.058869 0.15779 -0.18818 -0.56677 -0.17243 -0.1668 0.67699 0.034887 0.089113 -0.67582 -0.12187 0.54095 -0.33874 0.019207 -0.45034 0.21362 0.32826 -0.80675 -0.52704 0.027774 -0.19444 0.0057971 0.022575 0.74748 -0.074478 -0.056637 -0.19566 -0.13654 0.12433 -0.30421 -0.36748 -0.71557 0.28387 -0.20334 -0.50191 0.67712 0.83771 0.2424 0.59091 0.5491 0.23873 -0.07866 0.070184 -0.74816 0.44551 0.35052 -0.42642 -0.2006 -0.29991 0.10747 -0.20881 0.40208 1.3549 0.7774 -0.16058 0.0022458 -0.098542 0.27876 -0.04591 -0.59636 -0.16149 -0.36691 -0.49802 -0.55918 0.19277 -0.16095 -0.10847 0.12016 0.22825 0.1377 -0.23621 0.016962 -0.53679 -0.22448 -0.45134 -0.22247 0.52737 0.26005 0.14143 -0.11546 0.54133 -0.44995 -0.27751 0.058454 -0.4594 -0.37816 -0.50907 0.062499 -0.22508 -0.65914 -0.32735 -0.25722 -0.64682 -0.68002 -0.22438 -0.49769 0.62116 0.34442 0.28843 0.11686 -0.1956 0.68656 -0.032652 0.32636 0.060544 0.5178 0.03198 -0.56865 -0.27862 -0.37402 -0.15263 -0.73297 -0.10154 -1.614 0.32767 0.68274 -0.071809 -0.82181 0.13381 -0.14682 0.35942 0.092184 -0.5891 -0.036188 -0.22977 0.33596 -0.3979 -0.19968 -0.070893 -0.063727 -0.046801 0.57746 0.66394 -0.010813 -0.52146 -0.20787 -0.063546
11 0.0 0.0 0.0 0.0 0.0 0.0 0.0 0.0 0.0 0.0 0.0 0.0 0.0 0.0 0.0 0.0 0.0 0.0 0.0 0.0 0.0 0.0 0.0 0.0 0.0 0.0 0.0 0.0 0.0 0.0 0.0 0.0 0.0 0.0 0.0 0.0 0.0 0.0 0.0 0.0 0.0 0.0 0.0 0.0 0.0 0.0 0.0 0.0 0.0 0.0 0.0 0.0 0.0 0.0 0.0 0.0 0.0 0.0 0.0 0.0 0.0 0.0 0.0 0.0 0.0 0.0 0.0 0.0 0.0 0.0 0.0 0.0 0.0 0.0 0.0 0.0 0.0 0.0 0.0 0.0 0.0 0.0 0.0 0.0 0.0 0.0 0.0 0.0 0.0 0.0 0.0 0.0 0.0 0.0 0.0 0.0 0.0 0.0 0.0 0.0 0.0 0.0 0.0 0.0 0.0 0.0 0.0 0.0 0.0 0.0 0.0 0.0 0.0 0.0 0.0 0.0 0.0 0.0 0.0 0.0 0.0 0.0 0.0 0.0 0.0 0.0 0.0 0.0 0.0 0.0 0.0 0.0 0.0 0.0 0.0 0.0 0.0 0.0 0.0 0.0 0.0 0.0 0.0 0.0 0.0 0.0 0.0 0.0 0.0 0.0 0.0 0.0 0.0 0.0 0.0 0.0 0.0 0.0 0.0 0.0 0.0 0.0 0.0 0.0 0.0 0.0 0.0 0.0 0.0 0.0 0.0 0.0 0.0 0.0 0.0 0.0 0.0 0.0 0.0 0.0 0.0 0.0 0.0 0.0 0.0 0.0 0.0 0.0 0.0 0.0 0.0 0.0 0.0 0.0 0.0 0.0 0.0 0.0 0.0 0.0 0.0 0.0 0.0 0.0 0.0 0.0 0.0 0.0 0.0 0.0 0.0 0.0 0.0 0.0 0.0 0.0 0.0 0.0 0.0 0.0 0.0 0.0 0.0 0.0 0.0 0.0 0.0 0.0 0.0 0.0 0.0 0.0 0.0 0.0 0.0 0.0 0.0 0.0 0.0 0.0 0.0 0.0 0.0 0.0 0.0 0.0 0.0 0.0 0.0 0.0 0.0 0.0 0.0 0.0 0.0 0.0 0.0 0.0 0.0 0.0 0.0 0.0 0.0 0.0 0.0 0.0 0.0 0.0 0.0 0.0 0.0 0.0 0.0 0.0 0.0 0.0 0.0 0.0 0.0 0.0 0.0 0.0 0.0 0.0 0.0 0.0 0.0 0.0 0.0 0.0 0.0 0.0 0.0 0.0 0.0 0.0 0.0 0.0 0.0 0.0
12 -0.68424 0.11365 0.59915 -0.0086437 -0.073828 0.18235 -0.32764 -0.027885 0.23905 -0.58206 -0.67576 -0.36087 -0.11035 0.31371 -0.19737 -0.29492 -0.00026239 -0.24713 -0.24554 -0.22856 0.0039739 0.46546 0.46632 0.20312 0.15053 0.47651 0.027995 0.32293 -0.18733 -0.17064 0.13471 0.87507 -0.62105 0.13534 -0.46267 -0.69851 0.85119 0.051789 0.53255 -0.0059473 0.36858 -0.23924 0.55178 -0.077312 -0.047109 -0.11237 0.25078 -0.01497 0.19876 -0.13862 0.21369 -0.1927 0.079315 -0.77903 -0.40255 -0.10394 0.27262 0.4083 -0.023808 -0.18308 -0.19217 -0.2084 0.35456 -0.15819 0.47879 -0.34419 0.034056 0.30662 -0.39587 0.14504 0.074408 -0.62362 -0.72078 -0.086438 0.18201 0.080602 0.26329 0.24818 -0.19555 0.17559 -0.22438 -0.41851 -0.17808 0.024456 -0.040801 -0.24202 0.10416 -0.74005 0.059183 0.27437 -0.3442 0.024433 -0.3758 -0.057521 0.64236 -0.22179 -0.074228 0.2852 -0.21123 0.16354 0.23651 -0.33213 -0.15795 0.026403 0.15945 -0.39853 0.57252 -0.53049 0.02221 -0.15279 -0.43976 -0.58357 0.44097 -0.3092 -0.35296 0.22227 0.12865 -0.04611 -0.12054 -0.19077 -0.0085934 -0.017269 0.2549 0.58715 -0.04921 0.37577 0.045461 0.18083 0.32698 0.13983 0.089288 -0.090641 0.27412 0.47006 0.054627 -0.14224 -0.37802 -0.16727 -0.036565 -0.44296 -0.50309 0.35035 -0.046321 0.5519 -0.32073 0.22815 0.44035 -0.20847 0.1942 0.61016 -0.096475 -0.309 -0.16009 0.41875 -0.052758 0.50023 -0.15023 -0.079535 0.05508 -0.25401 0.20058 -0.10542 -0.18649 0.078198 -0.15307 0.16668 0.16276 -0.38938 0.36654 0.044867 0.25398 -0.33666 -0.37777 0.8613 -0.58527 0.3416 -0.40462 0.090505 0.20473 0.87704 0.025378 -0.34996 0.17936 0.32589 0.098896 0.4434 -0.42725 -0.19384 0.20536 0.1276 0.059657 -0.24079 -0.19942 0.24148 -0.27409 0.0031861 0.0049819 -0.19178 0.048683 -0.62671 0.14396 0.31546 0.33088 0.44164 0.72563 0.13673 -0.03969 0.016188 -0.28204 0.19801 -0.849 -0.10541 -0.15152 0.20992 0.35874 0.34907 0.057671 0.26844 0.36219 0.3231 0.50298 -0.42619 0.12536 -0.35056 -0.29101 0.066112 0.56407 0.054716 -0.56738 -0.46374 -0.92409 -0.4433 -0.24861 0.69736 0.35155 0.27126 -0.20431 -0.073727 -0.26592 0.34683 -0.1024 0.17114 0.9278 0.38605 -0.69337 0.057332 0.54234 0.01432 0.27878 0.03897 -0.20423 0.60913 0.34806 -0.034436 0.61726 0.5276 -0.074406 0.47379 -0.031918 0.14555 0.0044976 -0.44324 0.16506 -0.049132 0.20578 0.20652 0.10934 -0.10855 0.08141 0.18273 -0.81582 -0.012948 -0.10534 -0.33735 0.18444 -0.499 -2.4163 0.64866 1.0294 -0.086652 -0.12457 -0.022137 0.28909 -0.12044 -0.47343 0.60354 0.65023 0.71906 0.81357 0.025642 0.18733 -0.64423 0.26798 -0.11796 -0.4253 -0.32666 -0.09582 -0.032599 -0.16299 0.048485
13 0.0 0.0 0.0 0.0 0.0 0.0 0.0 0.0 0.0 0.0 0.0 0.0 0.0 0.0 0.0 0.0 0.0 0.0 0.0 0.0 0.0 0.0 0.0 0.0 0.0 0.0 0.0 0.0 0.0 0.0 0.0 0.0 0.0 0.0 0.0 0.0 0.0 0.0 0.0 0.0 0.0 0.0 0.0 0.0 0.0 0.0 0.0 0.0 0.0 0.0 0.0 0.0 0.0 0.0 0.0 0.0 0.0 0.0 0.0 0.0 0.0 0.0 0.0 0.0 0.0 0.0 0.0 0.0 0.0 0.0 0.0 0.0 0.0 0.0 0.0 0.0 0.0 0.0 0.0 0.0 0.0 0.0 0.0 0.0 0.0 0.0 0.0 0.0 0.0 0.0 0.0 0.0 0.0 0.0 0.0 0.0 0.0 0.0 0.0 0.0 0.0 0.0 0.0 0.0 0.0 0.0 0.0 0.0 0.0 0.0 0.0 0.0 0.0 0.0 0.0 0.0 0.0 0.0 0.0 0.0 0.0 0.0 0.0 0.0 0.0 0.0 0.0 0.0 0.0 0.0 0.0 0.0 0.0 0.0 0.0 0.0 0.0 0.0 0.0 0.0 0.0 0.0 0.0 0.0 0.0 0.0 0.0 0.0 0.0 0.0 0.0 0.0 0.0 0.0 0.0 0.0 0.0 0.0 0.0 0.0 0.0 0.0 0.0 0.0 0.0 0.0 0.0 0.0 0.0 0.0 0.0 0.0 0.0 0.0 0.0 0.0 0.0 0.0 0.0 0.0 0.0 0.0 0.0 0.0 0.0 0.0 0.0 0.0 0.0 0.0 0.0 0.0 0.0 0.0 0.0 0.0 0.0 0.0 0.0 0.0 0.0 0.0 0.0 0.0 0.0 0.0 0.0 0.0 0.0 0.0 0.0 0.0 0.0 0.0 0.0 0.0 0.0 0.0 0.0 0.0 0.0 0.0 0.0 0.0 0.0 0.0 0.0 0.0 0.0 0.0 0.0 0.0 0.0 0.0 0.0 0.0 0.0 0.0 0.0 0.0 0.0 0.0 0.0 0.0 0.0 0.0 0.0 0.0 0.0 0.0 0.0 0.0 0.0 0.0 0.0 0.0 0.0 0.0 0.0 0.0 0.0 0.0 0.0 0.0 0.0 0.0 0.0 0.0 0.0 0.0 0.0 0.0 0.0 0.0 0.0 0.0 0.0 0.0 0.0 0.0 0.0 0.0 0.0 0.0 0.0 0.0 0.0 0.0 0.0 0.0 0.0 0.0 0.0 0.0 0.0 0.0 0.0 0.0 0.0 0.0
14 0.0 0.0 0.0 0.0 0.0 0.0 0.0 0.0 0.0 0.0 0.0 0.0 0.0 0.0 0.0 0.0 0.0 0.0 0.0 0.0 0.0 0.0 0.0 0.0 0.0 0.0 0.0 0.0 0.0 0.0 0.0 0.0 0.0 0.0 0.0 0.0 0.0 0.0 0.0 0.0 0.0 0.0 0.0 0.0 0.0 0.0 0.0 0.0 0.0 0.0 0.0 0.0 0.0 0.0 0.0 0.0 0.0 0.0 0.0 0.0 0.0 0.0 0.0 0.0 0.0 0.0 0.0 0.0 0.0 0.0 0.0 0.0 0.0 0.0 0.0 0.0 0.0 0.0 0.0 0.0 0.0 0.0 0.0 0.0 0.0 0.0 0.0 0.0 0.0 0.0 0.0 0.0 0.0 0.0 0.0 0.0 0.0 0.0 0.0 0.0 0.0 0.0 0.0 0.0 0.0 0.0 0.0 0.0 0.0 0.0 0.0 0.0 0.0 0.0 0.0 0.0 0.0 0.0 0.0 0.0 0.0 0.0 0.0 0.0 0.0 0.0 0.0 0.0 0.0 0.0 0.0 0.0 0.0 0.0 0.0 0.0 0.0 0.0 0.0 0.0 0.0 0.0 0.0 0.0 0.0 0.0 0.0 0.0 0.0 0.0 0.0 0.0 0.0 0.0 0.0 0.0 0.0 0.0 0.0 0.0 0.0 0.0 0.0 0.0 0.0 0.0 0.0 0.0 0.0 0.0 0.0 0.0 0.0 0.0 0.0 0.0 0.0 0.0 0.0 0.0 0.0 0.0 0.0 0.0 0.0 0.0 0.0 0.0 0.0 0.0 0.0 0.0 0.0 0.0 0.0 0.0 0.0 0.0 0.0 0.0 0.0 0.0 0.0 0.0 0.0 0.0 0.0 0.0 0.0 0.0 0.0 0.0 0.0 0.0 0.0 0.0 0.0 0.0 0.0 0.0 0.0 0.0 0.0 0.0 0.0 0.0 0.0 0.0 0.0 0.0 0.0 0.0 0.0 0.0 0.0 0.0 0.0 0.0 0.0 0.0 0.0 0.0 0.0 0.0 0.0 0.0 0.0 0.0 0.0 0.0 0.0 0.0 0.0 0.0 0.0 0.0 0.0 0.0 0.0 0.0 0.0 0.0 0.0 0.0 0.0 0.0 0.0 0.0 0.0 0.0 0.0 0.0 0.0 0.0 0.0 0.0 0.0 0.0 0.0 0.0 0.0 0.0 0.0 0.0 0.0 0.0 0.0 0.0 0.0 0.0 0.0 0.0 0.0 0.0 0.0 0.0 0.0 0.0 0.0 0.0
15 0.0 0.0 0.0 0.0 0.0 0.0 0.0 0.0 0.0 0.0 0.0 0.0 0.0 0.0 0.0 0.0 0.0 0.0 0.0 0.0 0.0 0.0 0.0 0.0 0.0 0.0 0.0 0.0 0.0 0.0 0.0 0.0 0.0 0.0 0.0 0.0 0.0 0.0 0.0 0.0 0.0 0.0 0.0 0.0 0.0 0.0 0.0 0.0 0.0 0.0 0.0 0.0 0.0 0.0 0.0 0.0 0.0 0.0 0.0 0.0 0.0 0.0 0.0 0.0 0.0 0.0 0.0 0.0 0.0 0.0 0.0 0.0 0.0 0.0 0.0 0.0 0.0 0.0 0.0 0.0 0.0 0.0 0.0 0.0 0.0 0.0 0.0 0.0 0.0 0.0 0.0 0.0 0.0 0.0 0.0 0.0 0.0 0.0 0.0 0.0 0.0 0.0 0.0 0.0 0.0 0.0 0.0 0.0 0.0 0.0 0.0 0.0 0.0 0.0 0.0 0.0 0.0 0.0 0.0 0.0 0.0 0.0 0.0 0.0 0.0 0.0 0.0 0.0 0.0 0.0 0.0 0.0 0.0 0.0 0.0 0.0 0.0 0.0 0.0 0.0 0.0 0.0 0.0 0.0 0.0 0.0 0.0 0.0 0.0 0.0 0.0 0.0 0.0 0.0 0.0 0.0 0.0 0.0 0.0 0.0 0.0 0.0 0.0 0.0 0.0 0.0 0.0 0.0 0.0 0.0 0.0 0.0 0.0 0.0 0.0 0.0 0.0 0.0 0.0 0.0 0.0 0.0 0.0 0.0 0.0 0.0 0.0 0.0 0.0 0.0 0.0 0.0 0.0 0.0 0.0 0.0 0.0 0.0 0.0 0.0 0.0 0.0 0.0 0.0 0.0 0.0 0.0 0.0 0.0 0.0 0.0 0.0 0.0 0.0 0.0 0.0 0.0 0.0 0.0 0.0 0.0 0.0 0.0 0.0 0.0 0.0 0.0 0.0 0.0 0.0 0.0 0.0 0.0 0.0 0.0 0.0 0.0 0.0 0.0 0.0 0.0 0.0 0.0 0.0 0.0 0.0 0.0 0.0 0.0 0.0 0.0 0.0 0.0 0.0 0.0 0.0 0.0 0.0 0.0 0.0 0.0 0.0 0.0 0.0 0.0 0.0 0.0 0.0 0.0 0.0 0.0 0.0 0.0 0.0 0.0 0.0 0.0 0.0 0.0 0.0 0.0 0.0 0.0 0.0 0.0 0.0 0.0 0.0 0.0 0.0 0.0 0.0 0.0 0.0 0.0 0.0 0.0 0.0 0.0 0.0
16 0.0 0.0 0.0 0.0 0.0 0.0 0.0 0.0 0.0 0.0 0.0 0.0 0.0 0.0 0.0 0.0 0.0 0.0 0.0 0.0 0.0 0.0 0.0 0.0 0.0 0.0 0.0 0.0 0.0 0.0 0.0 0.0 0.0 0.0 0.0 0.0 0.0 0.0 0.0 0.0 0.0 0.0 0.0 0.0 0.0 0.0 0.0 0.0 0.0 0.0 0.0 0.0 0.0 0.0 0.0 0.0 0.0 0.0 0.0 0.0 0.0 0.0 0.0 0.0 0.0 0.0 0.0 0.0 0.0 0.0 0.0 0.0 0.0 0.0 0.0 0.0 0.0 0.0 0.0 0.0 0.0 0.0 0.0 0.0 0.0 0.0 0.0 0.0 0.0 0.0 0.0 0.0 0.0 0.0 0.0 0.0 0.0 0.0 0.0 0.0 0.0 0.0 0.0 0.0 0.0 0.0 0.0 0.0 0.0 0.0 0.0 0.0 0.0 0.0 0.0 0.0 0.0 0.0 0.0 0.0 0.0 0.0 0.0 0.0 0.0 0.0 0.0 0.0 0.0 0.0 0.0 0.0 0.0 0.0 0.0 0.0 0.0 0.0 0.0 0.0 0.0 0.0 0.0 0.0 0.0 0.0 0.0 0.0 0.0 0.0 0.0 0.0 0.0 0.0 0.0 0.0 0.0 0.0 0.0 0.0 0.0 0.0 0.0 0.0 0.0 0.0 0.0 0.0 0.0 0.0 0.0 0.0 0.0 0.0 0.0 0.0 0.0 0.0 0.0 0.0 0.0 0.0 0.0 0.0 0.0 0.0 0.0 0.0 0.0 0.0 0.0 0.0 0.0 0.0 0.0 0.0 0.0 0.0 0.0 0.0 0.0 0.0 0.0 0.0 0.0 0.0 0.0 0.0 0.0 0.0 0.0 0.0 0.0 0.0 0.0 0.0 0.0 0.0 0.0 0.0 0.0 0.0 0.0 0.0 0.0 0.0 0.0 0.0 0.0 0.0 0.0 0.0 0.0 0.0 0.0 0.0 0.0 0.0 0.0 0.0 0.0 0.0 0.0 0.0 0.0 0.0 0.0 0.0 0.0 0.0 0.0 0.0 0.0 0.0 0.0 0.0 0.0 0.0 0.0 0.0 0.0 0.0 0.0 0.0 0.0 0.0 0.0 0.0 0.0 0.0 0.0 0.0 0.0 0.0 0.0 0.0 0.0 0.0 0.0 0.0 0.0 0.0 0.0 0.0 0.0 0.0 0.0 0.0 0.0 0.0 0.0 0.0 0.0 0.0 0.0 0.0 0.0 0.0 0.0 0.0
17 -0.12675 0.097588 0.024441 0.58839 0.15702 0.22347 0.072646 -0.079123 -0.16317 -2.1278 0.10263 -0.31551 -0.26848 0.41369 -0.046356 0.45516 0.25288 0.033974 0.13483 -0.33914 -0.098029 0.095802 -0.054047 0.3268 -0.25628 0.5113 -0.041814 0.053912 0.022851 -0.35711 0.30817 0.6091 -0.012757 -0.063379 -0.74174 0.20061 -0.18646 0.077313 0.081405 -0.85644 0.069541 -0.82872 0.25978 0.29015 -0.43316 -0.10492 -0.4336 0.012446 -0.40941 -0.16639 -0.21518 0.40238 -0.026306 -0.002978 0.24311 -0.065038 0.53769 0.50769 -0.0085818 0.19178 0.31536 -0.026048 0.26944 0.049644 -0.13655 -0.50489 -0.078748 -0.12039 -0.18975 -0.27605 -0.49282 -0.031374 0.29433 -0.59042 0.41943 -0.11982 -0.46373 -0.036346 -0.039207 0.26006 0.073545 -0.29071 0.30289 0.34559 0.068833 -0.23641 -0.048775 -0.089592 -0.3677 -0.60441 -0.30123 0.12419 -0.34769 0.43088 0.33611 0.083298 0.11201 0.027577 -0.017371 -0.22614 0.50906 -0.25653 -0.11084 -0.26178 0.26387 -0.29472 -0.019474 0.061951 -0.29314 0.083392 -0.084716 -0.3785 -0.56759 -0.13139 0.57295 -0.099015 0.20769 0.085624 0.20269 0.18399 -0.2914 0.54452 0.10055 0.28297 0.093059 0.049726 0.023905 0.024881 -0.22967 0.31044 0.58825 -0.32457 0.16671 0.19588 -0.053239 -0.84108 -0.57018 -0.14157 0.0182 0.44474 0.14245 -0.059209 0.33094 0.50983 -0.24404 0.14473 0.30821 0.028757 0.14716 0.2591 0.69048 -0.68877 0.56056 0.29884 -0.61629 -0.0026465 -0.18656 -0.60684 0.20008 -0.33112 0.32864 -0.029046 0.29885 -0.43899 -0.1213 -0.41261 -0.19333 -0.21549 0.010039 0.53063 -0.43665 0.40024 -0.5513 0.70777 -0.021431 -0.28351 0.30698 -0.55052 0.12439 0.25709 -0.35548 0.13331 0.089927 -0.16462 -0.72015 -0.12404 -0.31812 -0.70075 0.023253 -0.1666 0.18772 0.3004 -0.41922 -0.090363 -0.39339 0.60048 0.68939 0.16486 0.22645 0.96954 -0.20712 0.60904 0.032094 -0.0028826 -0.90993 0.37545 -0.12201 -0.34071 0.55131 0.26587 -0.056076 -0.64571 -0.32522 -0.55998 0.8731 0.1737 0.35162 0.031491 1.0154 0.19811 0.13338 -0.056668 -0.12998 -0.016976 0.46712 0.14723 -0.36209 0.0089157 0.19687 0.57084 0.37441 0.63557 0.58124 -0.18312 0.0005946 -0.14006 0.049755 0.25913 -0.088637 0.43825 0.070023 -0.054169 1.2845 -0.38824 -1.0278 0.34208 0.22392 -0.62139 0.27271 0.78743 0.18889 0.28335 0.26116 0.33905 0.62014 -0.057902 -0.32772 -0.16917 -0.36186 0.32054 0.15009 -0.80359 0.52609 -0.21701 -0.090753 0.35635 -0.23805 0.16417 -0.3826 0.18918 -0.25168 0.28175 -0.21239 -0.33632 0.023988 -0.15469 -2.1915 0.66607 0.6445 -0.13256 0.22 -0.4513 0.097398 0.40333 0.17868 0.26758 -0.14664 0.049903 -0.20749 0.04324 0.209 -0.034103 0.11057 -0.69345 -0.021538 -0.027986 -0.042978 -0.64101 -0.23461 -0.18814
18 0.0 0.0 0.0 0.0 0.0 0.0 0.0 0.0 0.0 0.0 0.0 0.0 0.0 0.0 0.0 0.0 0.0 0.0 0.0 0.0 0.0 0.0 0.0 0.0 0.0 0.0 0.0 0.0 0.0 0.0 0.0 0.0 0.0 0.0 0.0 0.0 0.0 0.0 0.0 0.0 0.0 0.0 0.0 0.0 0.0 0.0 0.0 0.0 0.0 0.0 0.0 0.0 0.0 0.0 0.0 0.0 0.0 0.0 0.0 0.0 0.0 0.0 0.0 0.0 0.0 0.0 0.0 0.0 0.0 0.0 0.0 0.0 0.0 0.0 0.0 0.0 0.0 0.0 0.0 0.0 0.0 0.0 0.0 0.0 0.0 0.0 0.0 0.0 0.0 0.0 0.0 0.0 0.0 0.0 0.0 0.0 0.0 0.0 0.0 0.0 0.0 0.0 0.0 0.0 0.0 0.0 0.0 0.0 0.0 0.0 0.0 0.0 0.0 0.0 0.0 0.0 0.0 0.0 0.0 0.0 0.0 0.0 0.0 0.0 0.0 0.0 0.0 0.0 0.0 0.0 0.0 0.0 0.0 0.0 0.0 0.0 0.0 0.0 0.0 0.0 0.0 0.0 0.0 0.0 0.0 0.0 0.0 0.0 0.0 0.0 0.0 0.0 0.0 0.0 0.0 0.0 0.0 0.0 0.0 0.0 0.0 0.0 0.0 0.0 0.0 0.0 0.0 0.0 0.0 0.0 0.0 0.0 0.0 0.0 0.0 0.0 0.0 0.0 0.0 0.0 0.0 0.0 0.0 0.0 0.0 0.0 0.0 0.0 0.0 0.0 0.0 0.0 0.0 0.0 0.0 0.0 0.0 0.0 0.0 0.0 0.0 0.0 0.0 0.0 0.0 0.0 0.0 0.0 0.0 0.0 0.0 0.0 0.0 0.0 0.0 0.0 0.0 0.0 0.0 0.0 0.0 0.0 0.0 0.0 0.0 0.0 0.0 0.0 0.0 0.0 0.0 0.0 0.0 0.0 0.0 0.0 0.0 0.0 0.0 0.0 0.0 0.0 0.0 0.0 0.0 0.0 0.0 0.0 0.0 0.0 0.0 0.0 0.0 0.0 0.0 0.0 0.0 0.0 0.0 0.0 0.0 0.0 0.0 0.0 0.0 0.0 0.0 0.0 0.0 0.0 0.0 0.0 0.0 0.0 0.0 0.0 0.0 0.0 0.0 0.0 0.0 0.0 0.0 0.0 0.0 0.0 0.0 0.0 0.0 0.0 0.0 0.0 0.0 0.0 0.0 0.0 0.0 0.0 0.0 0.0
19 0.46825 -0.55791 -0.21694 0.36852 0.30092 -0.073815 0.39292 0.11097 -0.47911 -1.4872 -0.011408 0.31061 -0.23085 -0.0053886 -0.0076126 -0.17596 0.41157 0.12964 0.00030021 0.51424 -0.11738 0.16086 0.32933 -0.13945 -0.27975 1.0758 0.34122 0.34501 -0.39563 -0.25963 -0.18574 0.71166 -0.60397 0.19887 -0.70533 -0.61843 0.25505 -0.29709 -0.49259 -0.16674 0.15768 -0.44266 1.2768 -0.051522 -0.72223 -0.12049 -1.3611 0.070742 -0.51713 0.076407 -0.62929 -0.18327 -0.028035 0.23454 0.1025 -0.085464 -0.26259 -0.38159 -0.055665 -0.35684 0.59932 -0.26529 0.054769 0.14277 -0.026321 -0.5836 -0.46509 0.54682 0.57971 -0.088512 -0.42356 -0.47374 0.076958 -0.093198 0.43934 0.23574 0.026266 -0.087221 0.057707 0.12087 -0.16379 -0.067555 0.17401 0.51164 -0.0010303 -0.57396 -0.52381 -0.6062 -0.46194 0.069325 -0.71327 -0.12847 -0.35479 -0.011785 -0.27856 -0.40308 -0.53646 0.035242 -0.17038 -0.26048 0.0054961 -0.30583 -0.074808 -0.59904 -0.46618 -0.26913 -0.46729 0.35334 0.10456 0.27835 0.099602 -0.35834 0.3509 -0.070011 0.033351 -0.17721 -0.065726 0.11158 -0.7324 -0.1744 0.61891 -0.033927 -0.52072 -0.34653 0.24474 0.0060709 0.33407 -0.53069 0.12252 0.0025757 0.50608 -0.15952 0.20796 -0.12703 0.59821 -0.027963 0.35141 -0.46459 0.062243 -0.72144 0.23751 -0.18543 -0.58268 0.75007 -0.27185 -0.43476 0.28283 -0.041011 0.052542 0.62098 0.8476 0.067201 0.68928 -0.25081 -0.45035 0.27566 -0.45866 -0.25814 -0.026141 -0.15645 0.3402 0.31218 0.22949 0.034554 0.30329 0.056399 -0.43981 -0.14592 -0.054905 0.28134 0.4233 0.049197 -0.25952 -0.56587 0.031053 -0.18322 -0.29799 -0.47165 -0.21548 0.02733 0.061592 -0.44898 0.10588 0.11624 0.3488 -0.62663 0.059408 0.32991 -0.0022576 0.28104 -0.22059 -0.047712 -0.22309 0.55114 0.60464 0.22699 0.17173 -0.054808 -0.0031661 0.02127 -0.4668 0.66597 -0.24367 0.41668 0.40245 0.32754 0.10994 -0.015927 0.066472 0.38858 0.31508 0.0061121 0.042294 0.74703 -0.21334 -0.18188 -0.78082 0.87425 0.18505 0.63635 0.36912 0.11788 0.27467 -0.55037 -0.041381 -0.10738 0.48866 -0.3376 -0.0055222 0.1993 0.46088 0.19718 0.2207 0.094329 -0.42687 -0.11047 0.11806 0.05508 0.67148 0.20369 -0.59048 0.45074 0.70346 -0.080994 -0.32865 -0.0097216 0.46591 0.011039 0.23647 0.10618 -0.40463 -0.47677 0.20297 0.95125 0.40953 -0.40741 0.70288 -0.071683 -1.2386 0.46958 -0.64715 -0.045495 0.63232 0.12283 -0.12542 -0.19722 0.41021 0.16603 -0.81618 -0.40883 -0.12687 -0.1906 0.02276 0.18347 -0.32201 0.069322 -1.5981 1.0112 1.2236 0.5612 -0.34065 -0.6913 -0.0052698 0.46949 -0.077427 -0.33128 0.19593 0.61622 -0.41627 -0.14208 0.46285 0.30832 -0.18287 0.422 0.10271 0.20729 0.096571 -0.14283 -0.19467 0.65261
20 0.0 0.0 0.0 0.0 0.0 0.0 0.0 0.0 0.0 0.0 0.0 0.0 0.0 0.0 0.0 0.0 0.0 0.0 0.0 0.0 0.0 0.0 0.0 0.0 0.0 0.0 0.0 0.0 0.0 0.0 0.0 0.0 0.0 0.0 0.0 0.0 0.0 0.0 0.0 0.0 0.0 0.0 0.0 0.0 0.0 0.0 0.0 0.0 0.0 0.0 0.0 0.0 0.0 0.0 0.0 0.0 0.0 0.0 0.0 0.0 0.0 0.0 0.0 0.0 0.0 0.0 0.0 0.0 0.0 0.0 0.0 0.0 0.0 0.0 0.0 0.0 0.0 0.0 0.0 0.0 0.0 0.0 0.0 0.0 0.0 0.0 0.0 0.0 0.0 0.0 0.0 0.0 0.0 0.0 0.0 0.0 0.0 0.0 0.0 0.0 0.0 0.0 0.0 0.0 0.0 0.0 0.0 0.0 0.0 0.0 0.0 0.0 0.0 0.0 0.0 0.0 0.0 0.0 0.0 0.0 0.0 0.0 0.0 0.0 0.0 0.0 0.0 0.0 0.0 0.0 0.0 0.0 0.0 0.0 0.0 0.0 0.0 0.0 0.0 0.0 0.0 0.0 0.0 0.0 0.0 0.0 0.0 0.0 0.0 0.0 0.0 0.0 0.0 0.0 0.0 0.0 0.0 0.0 0.0 0.0 0.0 0.0 0.0 0.0 0.0 0.0 0.0 0.0 0.0 0.0 0.0 0.0 0.0 0.0 0.0 0.0 0.0 0.0 0.0 0.0 0.0 0.0 0.0 0.0 0.0 0.0 0.0 0.0 0.0 0.0 0.0 0.0 0.0 0.0 0.0 0.0 0.0 0.0 0.0 0.0 0.0 0.0 0.0 0.0 0.0 0.0 0.0 0.0 0.0 0.0 0.0 0.0 0.0 0.0 0.0 0.0 0.0 0.0 0.0 0.0 0.0 0.0 0.0 0.0 0.0 0.0 0.0 0.0 0.0 0.0 0.0 0.0 0.0 0.0 0.0 0.0 0.0 0.0 0.0 0.0 0.0 0.0 0.0 0.0 0.0 0.0 0.0 0.0 0.0 0.0 0.0 0.0 0.0 0.0 0.0 0.0 0.0 0.0 0.0 0.0 0.0 0.0 0.0 0.0 0.0 0.0 0.0 0.0 0.0 0.0 0.0 0.0 0.0 0.0 0.0 0.0 0.0 0.0 0.0 0.0 0.0 0.0 0.0 0.0 0.0 0.0 0.0 0.0 0.0 0.0 0.0 0.0 0.0 0.0 0.0 0.0 0.0 0.0 0.0 0.0
21 0.0 0.0 0.0 0.0 0.0 0.0 0.0 0.0 0.0 0.0 0.0 0.0 0.0 0.0 0.0 0.0 0.0 0.0 0.0 0.0 0.0 0.0 0.0 0.0 0.0 0.0 0.0 0.0 0.0 0.0 0.0 0.0 0.0 0.0 0.0 0.0 0.0 0.0 0.0 0.0 0.0 0.0 0.0 0.0 0.0 0.0 0.0 0.0 0.0 0.0 0.0 0.0 0.0 0.0 0.0 0.0 0.0 0.0 0.0 0.0 0.0 0.0 0.0 0.0 0.0 0.0 0.0 0.0 0.0 0.0 0.0 0.0 0.0 0.0 0.0 0.0 0.0 0.0 0.0 0.0 0.0 0.0 0.0 0.0 0.0 0.0 0.0 0.0 0.0 0.0 0.0 0.0 0.0 0.0 0.0 0.0 0.0 0.0 0.0 0.0 0.0 0.0 0.0 0.0 0.0 0.0 0.0 0.0 0.0 0.0 0.0 0.0 0.0 0.0 0.0 0.0 0.0 0.0 0.0 0.0 0.0 0.0 0.0 0.0 0.0 0.0 0.0 0.0 0.0 0.0 0.0 0.0 0.0 0.0 0.0 0.0 0.0 0.0 0.0 0.0 0.0 0.0 0.0 0.0 0.0 0.0 0.0 0.0 0.0 0.0 0.0 0.0 0.0 0.0 0.0 0.0 0.0 0.0 0.0 0.0 0.0 0.0 0.0 0.0 0.0 0.0 0.0 0.0 0.0 0.0 0.0 0.0 0.0 0.0 0.0 0.0 0.0 0.0 0.0 0.0 0.0 0.0 0.0 0.0 0.0 0.0 0.0 0.0 0.0 0.0 0.0 0.0 0.0 0.0 0.0 0.0 0.0 0.0 0.0 0.0 0.0 0.0 0.0 0.0 0.0 0.0 0.0 0.0 0.0 0.0 0.0 0.0 0.0 0.0 0.0 0.0 0.0 0.0 0.0 0.0 0.0 0.0 0.0 0.0 0.0 0.0 0.0 0.0 0.0 0.0 0.0 0.0 0.0 0.0 0.0 0.0 0.0 0.0 0.0 0.0 0.0 0.0 0.0 0.0 0.0 0.0 0.0 0.0 0.0 0.0 0.0 0.0 0.0 0.0 0.0 0.0 0.0 0.0 0.0 0.0 0.0 0.0 0.0 0.0 0.0 0.0 0.0 0.0 0.0 0.0 0.0 0.0 0.0 0.0 0.0 0.0 0.0 0.0 0.0 0.0 0.0 0.0 0.0 0.0 0.0 0.0 0.0 0.0 0.0 0.0 0.0 0.0 0.0 0.0 0.0 0.0 0.0 0.0 0.0 0.0
22 -0.18463 0.11656 -0.32977 0.56327 0.04476 0.1521 0.42945 0.45648 0.12148 -1.7103 0.039626 0.41826 -0.0044656 -0.02618 -0.29989 0.73766 -0.103 -0.14104 -0.089106 0.1824 0.22395 0.20887 0.37213 0.41232 -0.64664 0.97441 -0.22956 0.072517 -0.036904 -0.54672 0.17471 0.5123 0.0042781 0.62738 -0.92557 -0.30508 0.39001 -0.1386 0.016032 -0.08789 0.50747 -0.055548 0.055825 0.45024 -0.40004 -0.23166 -0.35934 0.68305 -0.27881 -0.054456 -0.28458 -0.12331 0.15379 0.32381 0.43156 -0.35304 -0.12945 -0.50057 0.019027 -0.13331 0.59696 0.38475 0.041097 0.38861 -0.72401 -0.56593 -0.24894 0.042243 0.30436 -0.19468 0.11176 -0.23354 -0.2804 0.10439 0.46366 0.46504 -0.089147 0.58401 -0.0059561 0.25037 0.55776 -0.4556 -0.030425 0.43393 0.38622 -0.087805 0.29654 0.022039 -0.20968 0.14393 -0.78985 0.071899 -0.095604 0.31748 -0.50601 0.048581 -0.30923 0.12881 -0.061849 -0.02437 0.29237 0.14342 -0.10485 0.18105 -0.55718 0.36356 0.11343 0.41834 0.038676 -0.1925 0.33632 -0.52422 -0.27657 -0.18236 0.49169 0.059331 0.18446 -0.15302 -0.10524 -0.24888 0.48553 0.9035 0.011222 -0.60599 -0.28312 -0.26414 0.36455 -0.015068 0.040926 0.5271 0.20285 -0.031995 0.19328 -0.40718 0.39883 -0.12561 0.2458 0.02291 -0.18029 -0.028098 0.47825 0.50192 -0.2567 -0.040283 -0.31268 -0.69137 0.050252 -0.10317 0.45517 0.43816 1.0579 -0.011088 0.10686 0.053845 -0.037847 0.1701 -0.15312 -0.50114 0.21957 -0.13995 0.44227 0.18679 -0.043893 0.2539 -0.54378 -0.51703 0.35069 -0.0027322 -0.17432 0.57607 0.63553 -0.11235 -0.43529 0.53673 -0.40491 -0.20113 0.20946 -0.13411 -0.0097987 0.030565 0.44126 0.30606 -0.46921 -0.12414 0.1139 0.049624 -0.84241 -0.13632 0.31509 -0.071807 -0.10454 -0.66142 -0.47229 0.22206 0.42722 -0.32445 -0.45254 -0.29089 -0.42493 -0.55975 0.093747 0.83916 0.009549 -0.34177 -0.23512 -0.38901 0.047051 0.17003 0.21131 -0.26366 0.12599 -0.15952 0.43222 0.20605 -0.21349 0.38384 -0.22398 0.58202 -0.24538 -0.12851 -0.32661 0.28392 0.17538 0.24489 -0.46767 0.063132 0.27161 -0.21616 0.23295 0.33684 0.38717 0.11193 0.51119 0.1658 -0.70377 -0.16341 0.02506 -0.38535 -0.20163 -0.17749 -0.11532 0.17905 0.869 -0.14315 -0.72176 0.62647 -0.48819 -0.029377 0.017405 -0.24554 -0.22948 -0.32002 -0.0073136 -0.18418 0.45828 0.0048512 -0.27306 0.054841 0.68222 0.22943 -0.30002 -0.28865 0.17085 0.098155 -0.054678 0.17312 -0.46647 0.016841 -0.55787 -0.1205 -0.18163 -0.050437 -0.22712 0.48709 -0.22706 -0.016891 -2.3394 0.18111 1.0619 1.0838 0.1348 -0.58733 -0.19385 -0.238 0.10982 0.15669 -0.029953 0.31542 0.38002 0.26167 0.31634 -0.15496 0.24229 0.021682 0.24722 -0.17594 0.24267 -0.60973 0.058381 0.83062
23 0.0 0.0 0.0 0.0 0.0 0.0 0.0 0.0 0.0 0.0 0.0 0.0 0.0 0.0 0.0 0.0 0.0 0.0 0.0 0.0 0.0 0.0 0.0 0.0 0.0 0.0 0.0 0.0 0.0 0.0 0.0 0.0 0.0 0.0 0.0 0.0 0.0 0.0 0.0 0.0 0.0 0.0 0.0 0.0 0.0 0.0 0.0 0.0 0.0 0.0 0.0 0.0 0.0 0.0 0.0 0.0 0.0 0.0 0.0 0.0 0.0 0.0 0.0 0.0 0.0 0.0 0.0 0.0 0.0 0.0 0.0 0.0 0.0 0.0 0.0 0.0 0.0 0.0 0.0 0.0 0.0 0.0 0.0 0.0 0.0 0.0 0.0 0.0 0.0 0.0 0.0 0.0 0.0 0.0 0.0 0.0 0.0 0.0 0.0 0.0 0.0 0.0 0.0 0.0 0.0 0.0 0.0 0.0 0.0 0.0 0.0 0.0 0.0 0.0 0.0 0.0 0.0 0.0 0.0 0.0 0.0 0.0 0.0 0.0 0.0 0.0 0.0 0.0 0.0 0.0 0.0 0.0 0.0 0.0 0.0 0.0 0.0 0.0 0.0 0.0 0.0 0.0 0.0 0.0 0.0 0.0 0.0 0.0 0.0 0.0 0.0 0.0 0.0 0.0 0.0 0.0 0.0 0.0 0.0 0.0 0.0 0.0 0.0 0.0 0.0 0.0 0.0 0.0 0.0 0.0 0.0 0.0 0.0 0.0 0.0 0.0 0.0 0.0 0.0 0.0 0.0 0.0 0.0 0.0 0.0 0.0 0.0 0.0 0.0 0.0 0.0 0.0 0.0 0.0 0.0 0.0 0.0 0.0 0.0 0.0 0.0 0.0 0.0 0.0 0.0 0.0 0.0 0.0 0.0 0.0 0.0 0.0 0.0 0.0 0.0 0.0 0.0 0.0 0.0 0.0 0.0 0.0 0.0 0.0 0.0 0.0 0.0 0.0 0.0 0.0 0.0 0.0 0.0 0.0 0.0 0.0 0.0 0.0 0.0 0.0 0.0 0.0 0.0 0.0 0.0 0.0 0.0 0.0 0.0 0.0 0.0 0.0 0.0 0.0 0.0 0.0 0.0 0.0 0.0 0.0 0.0 0.0 0.0 0.0 0.0 0.0 0.0 0.0 0.0 0.0 0.0 0.0 0.0 0.0 0.0 0.0 0.0 0.0 0.0 0.0 0.0 0.0 0.0 0.0 0.0 0.0 0.0 0.0 0.0 0.0 0.0 0.0 0.0 0.0 0.0 0.0 0.0 0.0 0.0 0.0
24 0.0 0.0 0.0 0.0 0.0 0.0 0.0 0.0 0.0 0.0 0.0 0.0 0.0 0.0 0.0 0.0 0.0 0.0 0.0 0.0 0.0 0.0 0.0 0.0 0.0 0.0 0.0 0.0 0.0 0.0 0.0 0.0 0.0 0.0 0.0 0.0 0.0 0.0 0.0 0.0 0.0 0.0 0.0 0.0 0.0 0.0 0.0 0.0 0.0 0.0 0.0 0.0 0.0 0.0 0.0 0.0 0.0 0.0 0.0 0.0 0.0 0.0 0.0 0.0 0.0 0.0 0.0 0.0 0.0 0.0 0.0 0.0 0.0 0.0 0.0 0.0 0.0 0.0 0.0 0.0 0.0 0.0 0.0 0.0 0.0 0.0 0.0 0.0 0.0 0.0 0.0 0.0 0.0 0.0 0.0 0.0 0.0 0.0 0.0 0.0 0.0 0.0 0.0 0.0 0.0 0.0 0.0 0.0 0.0 0.0 0.0 0.0 0.0 0.0 0.0 0.0 0.0 0.0 0.0 0.0 0.0 0.0 0.0 0.0 0.0 0.0 0.0 0.0 0.0 0.0 0.0 0.0 0.0 0.0 0.0 0.0 0.0 0.0 0.0 0.0 0.0 0.0 0.0 0.0 0.0 0.0 0.0 0.0 0.0 0.0 0.0 0.0 0.0 0.0 0.0 0.0 0.0 0.0 0.0 0.0 0.0 0.0 0.0 0.0 0.0 0.0 0.0 0.0 0.0 0.0 0.0 0.0 0.0 0.0 0.0 0.0 0.0 0.0 0.0 0.0 0.0 0.0 0.0 0.0 0.0 0.0 0.0 0.0 0.0 0.0 0.0 0.0 0.0 0.0 0.0 0.0 0.0 0.0 0.0 0.0 0.0 0.0 0.0 0.0 0.0 0.0 0.0 0.0 0.0 0.0 0.0 0.0 0.0 0.0 0.0 0.0 0.0 0.0 0.0 0.0 0.0 0.0 0.0 0.0 0.0 0.0 0.0 0.0 0.0 0.0 0.0 0.0 0.0 0.0 0.0 0.0 0.0 0.0 0.0 0.0 0.0 0.0 0.0 0.0 0.0 0.0 0.0 0.0 0.0 0.0 0.0 0.0 0.0 0.0 0.0 0.0 0.0 0.0 0.0 0.0 0.0 0.0 0.0 0.0 0.0 0.0 0.0 0.0 0.0 0.0 0.0 0.0 0.0 0.0 0.0 0.0 0.0 0.0 0.0 0.0 0.0 0.0 0.0 0.0 0.0 0.0 0.0 0.0 0.0 0.0 0.0 0.0 0.0 0.0 0.0 0.0 0.0 0.0 0.0 0.0
25 0.0 0.0 0.0 0.0 0.0 0.0 0.0 0.0 0.0 0.0 0.0 0.0 0.0 0.0 0.0 0.0 0.0 0.0 0.0 0.0 0.0 0.0 0.0 0.0 0.0 0.0 0.0 0.0 0.0 0.0 0.0 0.0 0.0 0.0 0.0 0.0 0.0 0.0 0.0 0.0 0.0 0.0 0.0 0.0 0.0 0.0 0.0 0.0 0.0 0.0 0.0 0.0 0.0 0.0 0.0 0.0 0.0 0.0 0.0 0.0 0.0 0.0 0.0 0.0 0.0 0.0 0.0 0.0 0.0 0.0 0.0 0.0 0.0 0.0 0.0 0.0 0.0 0.0 0.0 0.0 0.0 0.0 0.0 0.0 0.0 0.0 0.0 0.0 0.0 0.0 0.0 0.0 0.0 0.0 0.0 0.0 0.0 0.0 0.0 0.0 0.0 0.0 0.0 0.0 0.0 0.0 0.0 0.0 0.0 0.0 0.0 0.0 0.0 0.0 0.0 0.0 0.0 0.0 0.0 0.0 0.0 0.0 0.0 0.0 0.0 0.0 0.0 0.0 0.0 0.0 0.0 0.0 0.0 0.0 0.0 0.0 0.0 0.0 0.0 0.0 0.0 0.0 0.0 0.0 0.0 0.0 0.0 0.0 0.0 0.0 0.0 0.0 0.0 0.0 0.0 0.0 0.0 0.0 0.0 0.0 0.0 0.0 0.0 0.0 0.0 0.0 0.0 0.0 0.0 0.0 0.0 0.0 0.0 0.0 0.0 0.0 0.0 0.0 0.0 0.0 0.0 0.0 0.0 0.0 0.0 0.0 0.0 0.0 0.0 0.0 0.0 0.0 0.0 0.0 0.0 0.0 0.0 0.0 0.0 0.0 0.0 0.0 0.0 0.0 0.0 0.0 0.0 0.0 0.0 0.0 0.0 0.0 0.0 0.0 0.0 0.0 0.0 0.0 0.0 0.0 0.0 0.0 0.0 0.0 0.0 0.0 0.0 0.0 0.0 0.0 0.0 0.0 0.0 0.0 0.0 0.0 0.0 0.0 0.0 0.0 0.0 0.0 0.0 0.0 0.0 0.0 0.0 0.0 0.0 0.0 0.0 0.0 0.0 0.0 0.0 0.0 0.0 0.0 0.0 0.0 0.0 0.0 0.0 0.0 0.0 0.0 0.0 0.0 0.0 0.0 0.0 0.0 0.0 0.0 0.0 0.0 0.0 0.0 0.0 0.0 0.0 0.0 0.0 0.0 0.0 0.0 0.0 0.0 0.0 0.0 0.0 0.0 0.0 0.0 0.0 0.0 0.0 0.0 0.0 0.0
26 0.0 0.0 0.0 0.0 0.0 0.0 0.0 0.0 0.0 0.0 0.0 0.0 0.0 0.0 0.0 0.0 0.0 0.0 0.0 0.0 0.0 0.0 0.0 0.0 0.0 0.0 0.0 0.0 0.0 0.0 0.0 0.0 0.0 0.0 0.0 0.0 0.0 0.0 0.0 0.0 0.0 0.0 0.0 0.0 0.0 0.0 0.0 0.0 0.0 0.0 0.0 0.0 0.0 0.0 0.0 0.0 0.0 0.0 0.0 0.0 0.0 0.0 0.0 0.0 0.0 0.0 0.0 0.0 0.0 0.0 0.0 0.0 0.0 0.0 0.0 0.0 0.0 0.0 0.0 0.0 0.0 0.0 0.0 0.0 0.0 0.0 0.0 0.0 0.0 0.0 0.0 0.0 0.0 0.0 0.0 0.0 0.0 0.0 0.0 0.0 0.0 0.0 0.0 0.0 0.0 0.0 0.0 0.0 0.0 0.0 0.0 0.0 0.0 0.0 0.0 0.0 0.0 0.0 0.0 0.0 0.0 0.0 0.0 0.0 0.0 0.0 0.0 0.0 0.0 0.0 0.0 0.0 0.0 0.0 0.0 0.0 0.0 0.0 0.0 0.0 0.0 0.0 0.0 0.0 0.0 0.0 0.0 0.0 0.0 0.0 0.0 0.0 0.0 0.0 0.0 0.0 0.0 0.0 0.0 0.0 0.0 0.0 0.0 0.0 0.0 0.0 0.0 0.0 0.0 0.0 0.0 0.0 0.0 0.0 0.0 0.0 0.0 0.0 0.0 0.0 0.0 0.0 0.0 0.0 0.0 0.0 0.0 0.0 0.0 0.0 0.0 0.0 0.0 0.0 0.0 0.0 0.0 0.0 0.0 0.0 0.0 0.0 0.0 0.0 0.0 0.0 0.0 0.0 0.0 0.0 0.0 0.0 0.0 0.0 0.0 0.0 0.0 0.0 0.0 0.0 0.0 0.0 0.0 0.0 0.0 0.0 0.0 0.0 0.0 0.0 0.0 0.0 0.0 0.0 0.0 0.0 0.0 0.0 0.0 0.0 0.0 0.0 0.0 0.0 0.0 0.0 0.0 0.0 0.0 0.0 0.0 0.0 0.0 0.0 0.0 0.0 0.0 0.0 0.0 0.0 0.0 0.0 0.0 0.0 0.0 0.0 0.0 0.0 0.0 0.0 0.0 0.0 0.0 0.0 0.0 0.0 0.0 0.0 0.0 0.0 0.0 0.0 0.0 0.0 0.0 0.0 0.0 0.0 0.0 0.0 0.0 0.0 0.0 0.0 0.0 0.0 0.0 0.0 0.0 0.0
27 0.0 0.0 0.0 0.0 0.0 0.0 0.0 0.0 0.0 0.0 0.0 0.0 0.0 0.0 0.0 0.0 0.0 0.0 0.0 0.0 0.0 0.0 0.0 0.0 0.0 0.0 0.0 0.0 0.0 0.0 0.0 0.0 0.0 0.0 0.0 0.0 0.0 0.0 0.0 0.0 0.0 0.0 0.0 0.0 0.0 0.0 0.0 0.0 0.0 0.0 0.0 0.0 0.0 0.0 0.0 0.0 0.0 0.0 0.0 0.0 0.0 0.0 0.0 0.0 0.0 0.0 0.0 0.0 0.0 0.0 0.0 0.0 0.0 0.0 0.0 0.0 0.0 0.0 0.0 0.0 0.0 0.0 0.0 0.0 0.0 0.0 0.0 0.0 0.0 0.0 0.0 0.0 0.0 0.0 0.0 0.0 0.0 0.0 0.0 0.0 0.0 0.0 0.0 0.0 0.0 0.0 0.0 0.0 0.0 0.0 0.0 0.0 0.0 0.0 0.0 0.0 0.0 0.0 0.0 0.0 0.0 0.0 0.0 0.0 0.0 0.0 0.0 0.0 0.0 0.0 0.0 0.0 0.0 0.0 0.0 0.0 0.0 0.0 0.0 0.0 0.0 0.0 0.0 0.0 0.0 0.0 0.0 0.0 0.0 0.0 0.0 0.0 0.0 0.0 0.0 0.0 0.0 0.0 0.0 0.0 0.0 0.0 0.0 0.0 0.0 0.0 0.0 0.0 0.0 0.0 0.0 0.0 0.0 0.0 0.0 0.0 0.0 0.0 0.0 0.0 0.0 0.0 0.0 0.0 0.0 0.0 0.0 0.0 0.0 0.0 0.0 0.0 0.0 0.0 0.0 0.0 0.0 0.0 0.0 0.0 0.0 0.0 0.0 0.0 0.0 0.0 0.0 0.0 0.0 0.0 0.0 0.0 0.0 0.0 0.0 0.0 0.0 0.0 0.0 0.0 0.0 0.0 0.0 0.0 0.0 0.0 0.0 0.0 0.0 0.0 0.0 0.0 0.0 0.0 0.0 0.0 0.0 0.0 0.0 0.0 0.0 0.0 0.0 0.0 0.0 0.0 0.0 0.0 0.0 0.0 0.0 0.0 0.0 0.0 0.0 0.0 0.0 0.0 0.0 0.0 0.0 0.0 0.0 0.0 0.0 0.0 0.0 0.0 0.0 0.0 0.0 0.0 0.0 0.0 0.0 0.0 0.0 0.0 0.0 0.0 0.0 0.0 0.0 0.0 0.0 0.0 0.0 0.0 0.0 0.0 0.0 0.0 0.0 0.0 0.0 0.0 0.0 0.0 0.0 0.0
28 0.0 0.0 0.0 0.0 0.0 0.0 0.0 0.0 0.0 0.0 0.0 0.0 0.0 0.0 0.0 0.0 0.0 0.0 0.0 0.0 0.0 0.0 0.0 0.0 0.0 0.0 0.0 0.0 0.0 0.0 0.0 0.0 0.0 0.0 0.0 0.0 0.0 0.0 0.0 0.0 0.0 0.0 0.0 0.0 0.0 0.0 0.0 0.0 0.0 0.0 0.0 0.0 0.0 0.0 0.0 0.0 0.0 0.0 0.0 0.0 0.0 0.0 0.0 0.0 0.0 0.0 0.0 0.0 0.0 0.0 0.0 0.0 0.0 0.0 0.0 0.0 0.0 0.0 0.0 0.0 0.0 0.0 0.0 0.0 0.0 0.0 0.0 0.0 0.0 0.0 0.0 0.0 0.0 0.0 0.0 0.0 0.0 0.0 0.0 0.0 0.0 0.0 0.0 0.0 0.0 0.0 0.0 0.0 0.0 0.0 0.0 0.0 0.0 0.0 0.0 0.0 0.0 0.0 0.0 0.0 0.0 0.0 0.0 0.0 0.0 0.0 0.0 0.0 0.0 0.0 0.0 0.0 0.0 0.0 0.0 0.0 0.0 0.0 0.0 0.0 0.0 0.0 0.0 0.0 0.0 0.0 0.0 0.0 0.0 0.0 0.0 0.0 0.0 0.0 0.0 0.0 0.0 0.0 0.0 0.0 0.0 0.0 0.0 0.0 0.0 0.0 0.0 0.0 0.0 0.0 0.0 0.0 0.0 0.0 0.0 0.0 0.0 0.0 0.0 0.0 0.0 0.0 0.0 0.0 0.0 0.0 0.0 0.0 0.0 0.0 0.0 0.0 0.0 0.0 0.0 0.0 0.0 0.0 0.0 0.0 0.0 0.0 0.0 0.0 0.0 0.0 0.0 0.0 0.0 0.0 0.0 0.0 0.0 0.0 0.0 0.0 0.0 0.0 0.0 0.0 0.0 0.0 0.0 0.0 0.0 0.0 0.0 0.0 0.0 0.0 0.0 0.0 0.0 0.0 0.0 0.0 0.0 0.0 0.0 0.0 0.0 0.0 0.0 0.0 0.0 0.0 0.0 0.0 0.0 0.0 0.0 0.0 0.0 0.0 0.0 0.0 0.0 0.0 0.0 0.0 0.0 0.0 0.0 0.0 0.0 0.0 0.0 0.0 0.0 0.0 0.0 0.0 0.0 0.0 0.0 0.0 0.0 0.0 0.0 0.0 0.0 0.0 0.0 0.0 0.0 0.0 0.0 0.0 0.0 0.0 0.0 0.0 0.0 0.0 0.0 0.0 0.0 0.0 0.0 0.0
29 0.0 0.0 0.0 0.0 0.0 0.0 0.0 0.0 0.0 0.0 0.0 0.0 0.0 0.0 0.0 0.0 0.0 0.0 0.0 0.0 0.0 0.0 0.0 0.0 0.0 0.0 0.0 0.0 0.0 0.0 0.0 0.0 0.0 0.0 0.0 0.0 0.0 0.0 0.0 0.0 0.0 0.0 0.0 0.0 0.0 0.0 0.0 0.0 0.0 0.0 0.0 0.0 0.0 0.0 0.0 0.0 0.0 0.0 0.0 0.0 0.0 0.0 0.0 0.0 0.0 0.0 0.0 0.0 0.0 0.0 0.0 0.0 0.0 0.0 0.0 0.0 0.0 0.0 0.0 0.0 0.0 0.0 0.0 0.0 0.0 0.0 0.0 0.0 0.0 0.0 0.0 0.0 0.0 0.0 0.0 0.0 0.0 0.0 0.0 0.0 0.0 0.0 0.0 0.0 0.0 0.0 0.0 0.0 0.0 0.0 0.0 0.0 0.0 0.0 0.0 0.0 0.0 0.0 0.0 0.0 0.0 0.0 0.0 0.0 0.0 0.0 0.0 0.0 0.0 0.0 0.0 0.0 0.0 0.0 0.0 0.0 0.0 0.0 0.0 0.0 0.0 0.0 0.0 0.0 0.0 0.0 0.0 0.0 0.0 0.0 0.0 0.0 0.0 0.0 0.0 0.0 0.0 0.0 0.0 0.0 0.0 0.0 0.0 0.0 0.0 0.0 0.0 0.0 0.0 0.0 0.0 0.0 0.0 0.0 0.0 0.0 0.0 0.0 0.0 0.0 0.0 0.0 0.0 0.0 0.0 0.0 0.0 0.0 0.0 0.0 0.0 0.0 0.0 0.0 0.0 0.0 0.0 0.0 0.0 0.0 0.0 0.0 0.0 0.0 0.0 0.0 0.0 0.0 0.0 0.0 0.0 0.0 0.0 0.0 0.0 0.0 0.0 0.0 0.0 0.0 0.0 0.0 0.0 0.0 0.0 0.0 0.0 0.0 0.0 0.0 0.0 0.0 0.0 0.0 0.0 0.0 0.0 0.0 0.0 0.0 0.0 0.0 0.0 0.0 0.0 0.0 0.0 0.0 0.0 0.0 0.0 0.0 0.0 0.0 0.0 0.0 0.0 0.0 0.0 0.0 0.0 0.0 0.0 0.0 0.0 0.0 0.0 0.0 0.0 0.0 0.0 0.0 0.0 0.0 0.0 0.0 0.0 0.0 0.0 0.0 0.0 0.0 0.0 0.0 0.0 0.0 0.0 0.0 0.0 0.0 0.0 0.0 0.0 0.0 0.0 0.0 0.0 0.0 0.0 0.0
30 -0.037208 -0.20657 0.65493 0.66249 0.56806 0.10539 0.092735 0.63359 -0.44187 -1.2588 -0.18958 0.36822 -0.44172 -0.2356 -0.22642 0.14024 -0.071758 -0.57209 0.16475 0.27773 0.46705 -0.088129 0.1015 0.18346 -0.09706 0.48201 0.1742 -0.16163 -0.3445 0.078542 -0.38232 -0.26038 0.37451 0.55793 -0.05083 -0.33989 0.27879 -0.32726 -0.4005 0.17484 0.32866 -0.47994 0.26333 -0.027693 -0.2475 -0.162 -0.99887 0.36011 -0.54746 -0.053576 -0.1344 -0.017953 0.46019 -0.26603 -0.20959 -0.51968 -0.45739 0.069752 -0.18923 0.33782 0.42501 -0.077239 -0.41848 -0.041615 -0.20939 -0.17207 -0.40779 -0.13986 -0.025635 0.10041 -0.21359 0.084454 0.52873 -0.096216 -0.079552 0.14565 -0.38145 -0.23564 0.28548 0.22511 0.37085 -0.066206 0.37104 -0.31214 0.15916 -0.56613 0.42111 0.22357 0.016423 0.19245 -0.11019 -0.47373 -0.33951 -0.323 -0.13944 -0.56124 -0.039474 -0.15213 -0.27551 0.16937 -0.2167 -0.30342 0.068558 -0.091254 -0.54241 0.85688 -0.70814 -0.14357 -0.48919 -0.57573 0.70686 -0.75634 -0.52465 -0.026537 0.61266 0.15723 0.18041 -0.55138 0.066167 0.070348 -0.070617 0.31067 -0.25454 -0.29695 0.27535 -0.21503 -0.14877 0.1718 -0.002931 0.3906 0.24616 0.2279 -0.016499 -0.35067 0.13072 -0.24673 -0.29142 -0.14797 -0.17347 -0.012084 0.052881 -0.0060242 0.19869 -0.23652 0.0026738 -0.12562 0.34947 0.29186 0.52969 0.1289 0.21401 -0.37637 0.12699 -0.38927 -0.57497 0.48314 -0.37939 -0.20559 -0.087759 -0.507 0.045197 0.54858 -0.13751 -0.12164 0.29481 -0.19127 0.56002 -0.23824 0.23956 0.23267 -0.29602 0.30652 -0.17301 -0.059676 -0.44018 -0.38741 0.20129 -0.31549 0.15727 0.32715 0.62978 -0.21251 -0.4958 0.19492 0.50865 -0.26036 0.082078 0.23094 -0.18054 0.36765 -0.19958 0.093471 0.16648 -0.15601 0.69169 -0.11774 -0.22231 0.1341 -0.01508 0.022718 -0.90217 0.29792 -0.19768 0.19979 0.43354 -0.42664 -0.21082 -0.40629 0.64392 0.035725 -0.29481 0.050245 -0.38284 0.09134 -0.041284 -0.23582 -0.041124 1.1563 0.35205 0.54235 -0.49546 0.036416 0.43479 -0.059945 -0.51091 0.080665 -0.34598 0.43641 0.40015 -0.1966 -0.71334 0.27235 0.41546 -0.092524 -0.31836 -0.56993 0.12496 -0.13055 0.0078778 -0.0746 -0.044249 0.10205 0.77802 0.053021 -0.85722 0.49328 0.19333 -0.80926 0.22683 0.068353 -0.2016 -0.31122 1.0464 -0.39044 -0.3674 0.12129 -0.65135 -0.40262 -0.44726 -0.062016 -0.40481 0.11547 0.5951 0.027707 0.19606 -0.10349 0.35735 -0.33316 -0.16535 -0.13019 -0.27141 0.18331 -0.085133 0.36306 -0.48458 -0.031285 -0.97263 0.047624 0.71083 -0.57252 -0.33247 -0.7304 -0.38749 -0.49427 -0.083736 0.10706 0.50899 -0.4463 0.32409 -0.1681 -0.28242 0.69394 -0.76031 0.18543 0.36278 0.24922 -0.27777 -0.36252 0.57155 0.56648
31 0.0 0.0 0.0 0.0 0.0 0.0 0.0 0.0 0.0 0.0 0.0 0.0 0.0 0.0 0.0 0.0 0.0 0.0 0.0 0.0 0.0 0.0 0.0 0.0 0.0 0.0 0.0 0.0 0.0 0.0 0.0 0.0 0.0 0.0 0.0 0.0 0.0 0.0 0.0 0.0 0.0 0.0 0.0 0.0 0.0 0.0 0.0 0.0 0.0 0.0 0.0 0.0 0.0 0.0 0.0 0.0 0.0 0.0 0.0 0.0 0.0 0.0 0.0 0.0 0.0 0.0 0.0 0.0 0.0 0.0 0.0 0.0 0.0 0.0 0.0 0.0 0.0 0.0 0.0 0.0 0.0 0.0 0.0 0.0 0.0 0.0 0.0 0.0 0.0 0.0 0.0 0.0 0.0 0.0 0.0 0.0 0.0 0.0 0.0 0.0 0.0 0.0 0.0 0.0 0.0 0.0 0.0 0.0 0.0 0.0 0.0 0.0 0.0 0.0 0.0 0.0 0.0 0.0 0.0 0.0 0.0 0.0 0.0 0.0 0.0 0.0 0.0 0.0 0.0 0.0 0.0 0.0 0.0 0.0 0.0 0.0 0.0 0.0 0.0 0.0 0.0 0.0 0.0 0.0 0.0 0.0 0.0 0.0 0.0 0.0 0.0 0.0 0.0 0.0 0.0 0.0 0.0 0.0 0.0 0.0 0.0 0.0 0.0 0.0 0.0 0.0 0.0 0.0 0.0 0.0 0.0 0.0 0.0 0.0 0.0 0.0 0.0 0.0 0.0 0.0 0.0 0.0 0.0 0.0 0.0 0.0 0.0 0.0 0.0 0.0 0.0 0.0 0.0 0.0 0.0 0.0 0.0 0.0 0.0 0.0 0.0 0.0 0.0 0.0 0.0 0.0 0.0 0.0 0.0 0.0 0.0 0.0 0.0 0.0 0.0 0.0 0.0 0.0 0.0 0.0 0.0 0.0 0.0 0.0 0.0 0.0 0.0 0.0 0.0 0.0 0.0 0.0 0.0 0.0 0.0 0.0 0.0 0.0 0.0 0.0 0.0 0.0 0.0 0.0 0.0 0.0 0.0 0.0 0.0 0.0 0.0 0.0 0.0 0.0 0.0 0.0 0.0 0.0 0.0 0.0 0.0 0.0 0.0 0.0 0.0 0.0 0.0 0.0 0.0 0.0 0.0 0.0 0.0 0.0 0.0 0.0 0.0 0.0 0.0 0.0 0.0 0.0 0.0 0.0 0.0 0.0 0.0 0.0 0.0 0.0 0.0 0.0 0.0 0.0 0.0 0.0 0.0 0.0 0.0 0.0
32 0.0 0.0 0.0 0.0 0.0 0.0 0.0 0.0 0.0 0.0 0.0 0.0 0.0 0.0 0.0 0.0 0.0 0.0 0.0 0.0 0.0 0.0 0.0 0.0 0.0 0.0 0.0 0.0 0.0 0.0 0.0 0.0 0.0 0.0 0.0 0.0 0.0 0.0 0.0 0.0 0.0 0.0 0.0 0.0 0.0 0.0 0.0 0.0 0.0 0.0 0.0 0.0 0.0 0.0 0.0 0.0 0.0 0.0 0.0 0.0 0.0 0.0 0.0 0.0 0.0 0.0 0.0 0.0 0.0 0.0 0.0 0.0 0.0 0.0 0.0 0.0 0.0 0.0 0.0 0.0 0.0 0.0 0.0 0.0 0.0 0.0 0.0 0.0 0.0 0.0 0.0 0.0 0.0 0.0 0.0 0.0 0.0 0.0 0.0 0.0 0.0 0.0 0.0 0.0 0.0 0.0 0.0 0.0 0.0 0.0 0.0 0.0 0.0 0.0 0.0 0.0 0.0 0.0 0.0 0.0 0.0 0.0 0.0 0.0 0.0 0.0 0.0 0.0 0.0 0.0 0.0 0.0 0.0 0.0 0.0 0.0 0.0 0.0 0.0 0.0 0.0 0.0 0.0 0.0 0.0 0.0 0.0 0.0 0.0 0.0 0.0 0.0 0.0 0.0 0.0 0.0 0.0 0.0 0.0 0.0 0.0 0.0 0.0 0.0 0.0 0.0 0.0 0.0 0.0 0.0 0.0 0.0 0.0 0.0 0.0 0.0 0.0 0.0 0.0 0.0 0.0 0.0 0.0 0.0 0.0 0.0 0.0 0.0 0.0 0.0 0.0 0.0 0.0 0.0 0.0 0.0 0.0 0.0 0.0 0.0 0.0 0.0 0.0 0.0 0.0 0.0 0.0 0.0 0.0 0.0 0.0 0.0 0.0 0.0 0.0 0.0 0.0 0.0 0.0 0.0 0.0 0.0 0.0 0.0 0.0 0.0 0.0 0.0 0.0 0.0 0.0 0.0 0.0 0.0 0.0 0.0 0.0 0.0 0.0 0.0 0.0 0.0 0.0 0.0 0.0 0.0 0.0 0.0 0.0 0.0 0.0 0.0 0.0 0.0 0.0 0.0 0.0 0.0 0.0 0.0 0.0 0.0 0.0 0.0 0.0 0.0 0.0 0.0 0.0 0.0 0.0 0.0 0.0 0.0 0.0 0.0 0.0 0.0 0.0 0.0 0.0 0.0 0.0 0.0 0.0 0.0 0.0 0.0 0.0 0.0 0.0 0.0 0.0 0.0 0.0 0.0 0.0 0.0 0.0 0.0
unknown 0.0 0.0 0.0 0.0 0.0 0.0 0.0 0.0 0.0 0.0 0.0 0.0 0.0 0.0 0.0 0.0 0.0 0.0 0.0 0.0 0.0 0.0 0.0 0.0 0.0 0.0 0.0 0.0 0.0 0.0 0.0 0.0 0.0 0.0 0.0 0.0 0.0 0.0 0.0 0.0 0.0 0.0 0.0 0.0 0.0 0.0 0.0 0.0 0.0 0.0 0.0 0.0 0.0 0.0 0.0 0.0 0.0 0.0 0.0 0.0 0.0 0.0 0.0 0.0 0.0 0.0 0.0 0.0 0.0 0.0 0.0 0.0 0.0 0.0 0.0 0.0 0.0 0.0 0.0 0.0 0.0 0.0 0.0 0.0 0.0 0.0 0.0 0.0 0.0 0.0 0.0 0.0 0.0 0.0 0.0 0.0 0.0 0.0 0.0 0.0 0.0 0.0 0.0 0.0 0.0 0.0 0.0 0.0 0.0 0.0 0.0 0.0 0.0 0.0 0.0 0.0 0.0 0.0 0.0 0.0 0.0 0.0 0.0 0.0 0.0 0.0 0.0 0.0 0.0 0.0 0.0 0.0 0.0 0.0 0.0 0.0 0.0 0.0 0.0 0.0 0.0 0.0 0.0 0.0 0.0 0.0 0.0 0.0 0.0 0.0 0.0 0.0 0.0 0.0 0.0 0.0 0.0 0.0 0.0 0.0 0.0 0.0 0.0 0.0 0.0 0.0 0.0 0.0 0.0 0.0 0.0 0.0 0.0 0.0 0.0 0.0 0.0 0.0 0.0 0.0 0.0 0.0 0.0 0.0 0.0 0.0 0.0 0.0 0.0 0.0 0.0 0.0 0.0 0.0 0.0 0.0 0.0 0.0 0.0 0.0 0.0 0.0 0.0 0.0 0.0 0.0 0.0 0.0 0.0 0.0 0.0 0.0 0.0 0.0 0.0 0.0 0.0 0.0 0.0 0.0 0.0 0.0 0.0 0.0 0.0 0.0 0.0 0.0 0.0 0.0 0.0 0.0 0.0 0.0 0.0 0.0 0.0 0.0 0.0 0.0 0.0 0.0 0.0 0.0 0.0 0.0 0.0 0.0 0.0 0.0 0.0 0.0 0.0 0.0 0.0 0.0 0.0 0.0 0.0 0.0 0.0 0.0 0.0 0.0 0.0 0.0 0.0 0.0 0.0 0.0 0.0 0.0 0.0 0.0 0.0 0.0 0.0 0.0 0.0 0.0 0.0 0.0 0.0 0.0 0.0 0.0 0.0 0.0 0.0 0.0 0.0 0.0 0.0 0.0 0.0 0.0 0.0 0.0 0.0 0.0
