881 384
0 0.022253627 -0.0067038056 -0.018721314 -0.024020694 -0.00640819 0.0678487 0.02491489 0.001600093 -0.01816929 0.019295692 -0.02912412 0.10684674 0.017610794 -0.013506818 0.055627506 0.039734025 0.040265504 -0.052879237 -0.06613004 0.11969397 0.1071638 -0.0114004435 -0.029819543 0.07034401 0.011167471 -0.014475234 -0.011867121 -0.0033569005 -0.07977068 -0.0007755609 -0.0027903083 0.02148056 0.046301648 0.05845931 -0.029573305 -0.0036808937 0.0062082657 -0.022221424 0.049300183 -0.013642076 -0.011680921 -0.019098459 -0.05320216 0.014844426 -0.061361987 0.04758713 0.034647204 -0.036093835 -0.048075285 0.021158937 -0.07099999 0.063360676 -0.0060798503 0.07067819 0.10879617 -0.048168436 -0.008622155 0.00074666546 0.03503743 -0.017385865 0.0016762764 -0.068460174 -0.005116179 0.033374667 0.032753203 -0.023095187 -0.033882312 0.0023305905 -0.053554893 -0.0498571 -0.01563453 0.05054589 0.020065432 0.023048714 0.00021902699 -0.10676022 0.06878987 0.118774146 0.09593061 -0.07000829 3.5058554e-05 0.032499775 -0.011915905 -0.04969688 -0.00542312 -0.05698882 -0.071734585 0.014567807 0.028880754 -0.022729257 -0.059091706 -0.024608862 0.036141664 -0.0052315015 -0.0078481175 0.000982863 0.05528498 0.017924314 0.0036863526 0.011949309 -0.0035076442 -0.020490743 -0.07856304 -0.02505624 -0.07602366 -0.046863846 -0.041568246 -0.013016854 -0.02648491 -0.010875633 -0.02024283 0.0074506425 0.005864581 0.06106579 0.022570081 0.037104115 0.04127731 0.006264066 0.0068303985 0.021941014 -0.01926441 -0.029450113 -0.004042685 -0.020386461 0.024703344 -0.07553559 -0.037283204 -7.0380616e-33 -0.050707612 -0.08528379 -0.0479767 0.07361636 0.010203216 -0.02738636 -0.033108916 -0.079725556 0.04016866 -0.08384136 0.09649762 -0.04575968 0.07053984 0.045641005 0.05198308 -0.036696196 -0.1918936 0.10868139 -0.009269046 0.030865004 0.017665703 0.047180273 0.011155206 0.021339774 0.022003138 -0.05293269 0.017101265 -0.022767235 -0.023586415 0.026723374 0.019995047 0.05565524 0.033153206 0.012201869 -0.011201591 0.106504224 0.010726363 0.007203172 -0.037603416 -0.032770824 0.009017736 -0.009195587 0.013280618 0.026339738 0.060130425 -0.0026747286 -0.03501162 -0.0040848814 -0.079480335 -0.0083322 0.027249638 0.017706117 0.08970548 -0.10767563 0.0031140852 -0.026597762 -0.0765224 -0.052938994 -0.072598994 -0.050273463 -0.012232825 0.04786436 -0.019368993 0.040782135 -0.1087793 0.03672436 -0.095205426 0.08039297 0.051628787 -0.039990433 0.067593895 -0.008554761 0.006438316 0.042402 -0.12386308 0.071332015 -0.007949747 -0.008558852 0.03000562 -0.0058717523 -0.10216871 -0.009131437 0.07639448 -0.011378303 0.04449144 -0.013235187 0.03230394 -0.007215623 0.04936171 0.0007911106 -0.08481367 -0.042057842 -0.015115964 0.01643229 0.07000057 -6.366802e-34 -0.024478268 -0.004278333 -0.019109992 0.043755807 0.048355374 0.026821943 -0.0068056593 -0.1081696 0.10410319 -0.0057535497 -0.13091254 -0.041046325 -0.014964349 0.073124595 0.008341306 -0.04196827 0.004866374 -0.0711339 -0.02363669 0.02077689 0.015557918 0.028140942 -0.09377647 0.041290723 -0.0049269414 -0.042440563 0.0009275546 -0.099997 0.061189786 -0.045653436 -0.04732807 -0.025569366 -0.11252397 -0.013308786 -0.058215775 0.054760765 0.05456444 -0.059892558 0.012947394 -0.08227631 0.11210347 -0.07661645 0.012743751 0.045175634 -0.08586075 -0.05218764 0.003334848 -0.0033905557 -0.098874785 -0.043850172 -0.02813113 -0.022212293 0.082672976 -0.026605897 -0.03861711 0.014603674 0.016043205 -0.015656672 0.056223523 0.052220948 -0.0111269215 0.060037564 -0.063862525 -0.015682915 -0.04367953 0.026216498 -0.12520118 -0.0591313 0.083091296 -0.00016717329 0.05429315 -0.080574736 -0.1318419 0.05266266 0.05720541 0.050629795 -0.0068596182 0.0026248198 -0.06870272 0.027747134 0.07904333 -0.040395673 -0.050561957 0.015149721 0.0146350395 -0.0054554413 -0.019336179 0.009451136 -0.0020652933 -0.014133374 -0.09338359 -0.10124745 -0.009546924 -0.05455708 -0.07030022 -2.8839361e-08 0.040556215 0.010872816 0.06328629 0.03823746 -0.03461355 0.0011664085 0.062223524 -0.030256605 -0.025664913 0.058534462 0.06372837 0.02264608 -0.020356253 -0.08412585 0.04441201 -0.024076052 0.02658348 0.016333526 -0.026521446 0.045580853 -0.0045099813 -0.053713523 -0.042964663 0.076898284 0.018443724 0.08632441 0.04971743 0.051992994 -0.003582205 -0.037261184 -0.059807904 0.08272964 -0.076303974 0.0018901284 0.0067685377 -0.0132558 -0.027533827 -0.043168344 0.0688819 -0.13126631 0.0012833198 0.06759446 0.04904306 0.03233711 0.058714934 0.027314765 -0.11987162 0.05021544 0.024198407 0.024816211 -0.057216782 -0.002974184 0.015134762 -0.01168007 -0.005503582 0.071608976 -0.018886372 0.0033001965 0.0027093382 -0.047864217 0.08622866 0.084762625 0.082845576 -0.005037502
1 0.042066112 -0.026967088 -0.02633619 0.032170165 0.0150505975 0.053203072 -0.018203298 -0.05584407 -0.071029976 -0.0058319727 0.07544964 0.05630784 -0.012968712 -0.03451276 0.0018981076 0.02506567 0.11230866 -0.012633567 -0.05620157 0.0071708835 0.083629265 0.048711218 -0.0041664415 0.029996248 -0.005183523 -0.0012193698 0.004433317 -0.03697443 -0.111186534 -0.0030050718 -0.0030396634 0.033885315 0.07101505 0.05596983 -0.012610998 0.031902064 0.107457265 -0.07604714 0.041013826 -0.031336218 -0.03727083 -0.08333299 -0.03353844 0.0077206604 -0.051370434 0.054110672 -0.012860157 -0.04693123 0.0012117613 0.012952765 -0.030386604 0.05927048 -0.013846966 0.004326159 0.12689239 -0.027745377 -0.008218692 0.0002483674 -0.020871239 0.01918782 0.023726651 -0.08354493 -0.009852926 0.017551323 0.078856796 -0.052135848 -0.06662473 0.01199973 -0.103039704 -0.067000896 0.010247658 -0.007720628 -0.0033304414 0.0010446385 -0.027673949 -0.04927704 0.04169609 0.060638696 0.088027515 -0.091949426 -0.009563733 0.043801624 -0.014842034 -0.06897151 -0.040984094 -0.054374546 -0.07628803 0.027829055 0.04001617 -0.008489885 -0.0141074825 -0.10228154 0.021028176 0.032460462 0.0013623424 0.0402211 -0.01105002 -0.128501 -0.009581744 -0.0061400956 0.014138619 -0.029865906 -0.038183972 -0.042238895 -0.060464658 -0.0108309435 -0.10989922 0.017134856 -0.006386762 0.076681755 -0.046293154 0.063006185 -0.03937727 0.07458002 -0.035895094 0.014920983 0.0696175 -0.07050048 0.039488416 -0.045281284 -0.058426432 -0.000856057 -0.03038386 -0.0041688886 0.0671713 -0.048426278 -0.009137708 -7.64133e-33 -0.08373649 -0.07314471 0.027293509 0.013927093 0.029754687 -0.04160988 -0.0014691056 -0.03344392 0.07904475 -0.08156041 0.018857485 -0.07006909 0.031871308 0.07021629 0.04919406 -0.06543538 -0.13356611 0.08308754 0.055107877 0.046404816 -0.06207005 -0.024494085 0.0014028939 0.04927108 0.035212178 -0.041525755 0.037020687 -0.058084022 0.021883927 0.014866141 0.06503489 0.009671008 0.006396921 -0.020530608 0.0035727073 0.06064693 0.017120281 0.008628542 -0.06979248 0.05189528 0.040699046 0.0051191743 0.100145124 0.047519162 0.051382236 0.006466605 0.010152367 0.06144954 -0.052325986 -0.02747469 0.027189907 0.0019895018 0.07201129 -0.13977137 0.022648713 -0.045885 -0.052726805 -0.056242704 -0.079860166 -0.045094807 -0.040961772 0.07446611 -0.026930049 -0.013528983 -0.112024024 0.046612635 -0.09520952 0.037179466 0.018891353 0.0746219 0.06266351 -0.059047394 -0.008179508 0.019429494 -0.07463215 0.055136245 0.0056621456 0.0043471907 0.034384515 -0.0066091684 -0.026016975 -0.029227667 0.029335313 0.029578002 -0.07932156 0.04294484 -0.035364743 0.0026723652 0.12410202 -0.004039255 -0.08041925 0.016310252 -0.01250547 -0.016230213 0.08940476 1.4565785e-33 -0.04680299 0.037418827 0.0049723717 0.07458253 0.040121622 -0.051642258 -0.019609997 -0.058380138 0.09183184 -0.06799486 -0.09550421 0.04677812 -0.002874995 0.037872538 -0.03363219 0.05091806 -0.021181654 -0.0006677459 -0.025011355 -0.016553203 -0.06986312 0.028205734 -0.025383327 0.0250715 -0.036750656 0.0060736686 -0.027987048 -0.005425492 0.016265715 -0.08784385 0.0065074177 -0.08268518 -0.043842405 -0.01903811 -0.06379607 0.051449403 0.021715708 -0.08893623 -0.002291046 -0.026205322 0.13414147 -0.042767007 -0.030819971 0.10875069 -0.08286513 -0.047393978 0.014722871 -0.0052372315 -0.04158731 0.028332572 0.0037987162 0.0037541776 0.043465815 -0.044199903 -0.04698747 0.04145538 0.036378007 0.017044133 0.023237132 0.011764559 -0.018101983 0.116757534 -0.0071225455 0.0028237298 0.03301874 -0.014190997 -0.05143256 -0.046721496 0.06896978 -0.013512048 0.0032754946 -0.068344176 -0.038080435 0.041027084 -0.007507308 0.062220395 0.020708714 0.0011307633 -0.05512549 0.016146397 0.0536713 -0.06360581 -0.01596821 0.045859862 0.03208225 0.011457714 -0.048519958 -0.0113004595 0.027964944 0.08879174 -0.14905514 -0.09338006 0.02006791 -0.011417902 -0.020817624 -2.5341965e-08 0.07745038 -0.019477861 0.019727184 0.04861698 0.008414421 -0.027363235 0.034996394 -0.005381521 0.021572452 0.11107899 -0.044864487 0.13989665 -0.05244471 -0.014675902 0.010283737 -0.014482951 0.052828196 0.017063951 -0.047152057 0.04217185 -0.013828973 -0.004305938 -0.07894627 0.01947002 0.0126354955 0.03989871 0.016349426 0.055141762 0.06824146 0.0052267895 -0.014428615 0.0605742 -0.088109784 -0.0106287785 -0.003656751 -0.050790396 -0.071991675 -0.0252908 0.066694155 -0.13042523 -0.019875074 0.056727678 0.015366714 0.03068613 0.018676873 0.025361208 -0.10540668 0.047659844 0.0055771833 0.07310706 -0.060819328 0.019678894 0.043857727 -0.026653895 -0.014584445 0.03847961 0.007100474 -0.07008007 0.08106226 -0.05958716 0.05101762 0.038172375 0.056649532 -0.021807902
2 0.043044053 0.002787687 0.054755185 0.050938427 -0.023952443 0.045113385 -0.016004357 -0.03119701 -0.00807598 0.06977213 0.032831285 0.053999107 -0.037543405 0.068966806 0.02056785 0.06223325 0.06843744 -0.019820472 -0.022624211 0.110345654 0.05648823 0.03162832 0.03733133 0.07590334 -0.07656736 -0.041031692 -0.074494295 -0.025576157 -0.06467973 0.014959847 -0.044717964 0.0026651593 0.052678276 0.04871721 -0.02345363 -0.014768091 0.07016001 -0.049753416 0.072057 0.054640383 -0.018392416 -0.063061036 -0.036851294 0.016655985 -0.0645939 0.040782653 -0.048089813 -0.027556274 0.02069503 -0.006401526 -0.06023267 0.017575732 -0.019048106 0.029760823 0.037659083 -0.07883468 -0.042735804 -0.03510731 0.008843913 -0.05467299 0.042838387 -0.007949526 0.039106 0.054335855 0.026523476 -0.015804777 -0.07208531 0.0007224416 -0.02674463 -0.061514758 0.049575545 0.01367375 0.0265093 -0.0087364325 -0.034092713 -0.037656605 0.05167491 0.095747225 0.14293604 -0.098568946 -0.011158149 -0.004387871 0.008094413 -0.032940175 0.07475961 -0.022836227 -0.057836164 0.017658878 -0.08037702 0.008844958 -0.05609731 -0.07889179 0.056384567 -0.02928186 0.00575024 0.028331801 0.037534196 -0.015191186 0.013097649 -0.0007218452 -0.037327603 -0.03146084 -0.04441828 -0.06590229 -0.009460506 -0.01733031 -0.085373946 0.011966074 0.026624156 0.061921876 -0.07269142 0.042319957 0.018689075 0.12563577 0.024701618 0.07487401 -0.0075586513 -0.054763578 0.06552739 -0.046376903 -0.020928185 -0.049978834 0.011043537 -0.024312068 0.0953919 -0.062152125 -0.031809416 -6.642531e-33 -0.0050665126 -0.12896027 -0.035505548 -0.0074029937 0.023528501 -0.018185928 -0.026668074 -0.03428435 0.03431463 -0.037661407 0.010705656 -0.026942156 0.06637511 0.055065654 0.031354528 -0.04905647 -0.103104174 0.06718352 0.061746992 -0.03728451 -0.012187958 0.020561358 0.016907718 0.041112073 0.026803112 -0.056730762 -0.033669192 -0.0772138 -0.030451616 0.030355427 -0.009684397 -0.064360425 0.018779801 -0.013215598 -0.033841487 0.050541714 0.018692251 -0.069566734 -0.05430763 0.024203539 0.09506654 -0.013276366 0.06513767 0.01786329 0.06837684 0.035464097 -0.04341196 0.018614039 -0.07752724 -0.01145307 0.019409532 0.057462163 0.07057587 -0.15305014 -0.012329495 0.00497594 -0.0047247736 -0.059195146 -0.10746969 -0.023430645 -0.025970474 0.09399719 0.0011353757 -0.004608917 -0.013012334 -0.06141775 -0.098166294 0.06329216 0.010889723 -0.00663671 0.05986723 -0.0059226393 0.0067691393 -0.09108214 -0.10538006 0.03092581 0.040031925 -0.0045769536 0.01712274 -0.08712698 -0.05028022 0.04166224 0.035977148 0.084478974 0.031532492 0.03382456 0.056920752 0.002580111 0.06589835 -0.007920275 -0.040292032 -0.03802599 -0.04126507 -0.079617664 0.08878165 1.5566245e-33 -0.05067886 -0.003782517 0.029398672 0.041722834 -0.028634382 -0.005050355 -0.009991841 -0.030260937 0.10989158 -0.00039637697 -0.12659094 0.0030274205 0.03041568 0.034191657 0.030395256 -0.018378017 -0.036658376 -0.07864655 0.01989732 -0.0782899 -0.055203363 -0.004615335 -0.013205648 0.0542915 -0.016243929 0.03204255 -0.03795492 -0.04882348 0.07475261 -0.119458675 -0.039269224 -0.011891091 -0.06114203 0.0022230798 -0.043424156 0.029569779 0.026630249 -0.057726447 -0.018256225 -0.07466882 0.1171427 -0.036801305 -0.06742598 0.038343634 -0.02839838 0.01786697 0.015717782 0.012607362 -0.088936925 0.00620556 0.004469477 -0.0007561511 0.046275847 -0.09085361 -0.019396713 0.009109191 0.018219104 -0.04152282 0.06766739 -0.0028871105 0.020044351 0.08836977 -0.04884976 0.021997148 -0.052260064 -0.0077824825 -0.084983975 -0.045820504 0.059880003 -0.04401717 0.07862166 -0.0014424676 -0.10490102 0.0049945894 0.04983144 0.08906285 0.04598816 -0.02714523 0.010728886 0.047231082 0.037341695 -0.06889081 -0.017628584 0.037447467 0.037173364 -0.028610485 -0.07133822 0.05604922 0.017596653 0.047517225 -0.094295494 -0.05265298 -0.012324829 -0.022290548 -0.05954849 -2.4024812e-08 0.004485189 0.058157943 0.043189757 0.01709068 0.035108835 0.012254618 0.005926873 -0.03709441 -0.008037157 0.08652463 0.06990919 0.023390064 -0.025571853 0.0153865665 0.019309409 0.0010883717 0.07123628 0.0009569746 -0.022463242 0.08029859 -0.10401084 -0.0070612384 -0.0673161 0.010611855 -0.010620199 -0.0029461188 0.023681605 0.043473125 0.0061128647 0.017769275 -0.07734076 0.0738295 -0.081118524 -0.009618124 0.04397625 -0.07521012 -0.0472525 -0.046251114 0.087858185 -0.11898989 0.008521265 0.12180585 0.014953521 0.041615058 0.07979141 -0.017088948 -0.054285724 0.045643836 0.03283797 -0.013343304 -0.10576626 -0.0074025956 -0.018712582 -0.020321814 -0.04487862 0.04910927 -0.0011834016 -0.072750464 0.029158099 -0.0403385 0.09469999 0.037990186 0.05805747 0.027278893
3 0.03345997 0.019696398 -0.016469462 0.001680535 0.03076486 0.081544876 0.054943956 -0.028582608 -0.037233252 -0.0071908087 -0.031865787 0.077025294 0.11513631 0.012807275 0.04563273 -0.0073208325 0.041721378 -0.06333984 -0.05411086 0.07986758 0.056561437 0.012564351 0.0053613726 0.033549152 -0.060121477 -0.044411037 0.017940745 0.004362172 -0.11537031 -0.0054288674 0.0129522225 0.015921691 0.05748663 0.08274025 -0.03403726 -0.005904138 0.0656982 -0.033804525 0.012658309 0.006644503 -0.028307805 -0.05690194 0.031018626 0.06184765 -0.048983168 0.057844788 -0.0015226826 -0.06996591 0.0019135679 0.039797604 -0.04439238 0.01986297 -0.050781447 0.053407922 0.0999723 -0.029860755 -0.012054924 -0.072599046 0.056440786 -0.0029406203 0.021926498 -0.038866337 -0.023175202 -0.0045961277 0.06500374 -0.042713746 0.023942446 -0.017006038 -0.033612724 -0.035405107 -0.0046442267 0.08692981 -0.023652941 0.006636579 -0.019651905 -0.037188053 0.08362335 0.10318024 0.11491519 -0.11280302 0.01661318 0.06731116 0.009704054 -0.058389455 0.05628523 -0.03372153 -0.0495869 -0.013654855 0.015452807 0.022648966 -0.06784513 -0.050313607 0.02823821 0.012151683 0.045947544 0.06163457 0.031929646 -0.012245148 -0.1148752 -0.024212275 0.067362644 -0.023516318 -0.08480018 -0.02256622 -0.11056265 0.046764757 -0.004167163 -0.02834201 -0.047072485 0.002406353 0.039544445 0.021120613 -0.032122593 0.0229599 -0.012283397 0.035429236 0.002258776 -0.003488635 0.02826974 0.029211815 0.007441219 -0.010457406 0.017906107 -0.010546469 0.009381488 -0.053937923 -0.032826956 -6.23399e-33 -0.06598058 -0.06964009 -0.04851148 0.051492978 0.0072576893 -0.09221234 -0.028372006 -0.041041028 0.026535299 0.0009295203 0.010109268 -0.013157804 0.06788624 0.06520731 0.07464925 -0.01787526 -0.15361993 0.09315755 0.06275524 0.028640132 0.03747477 -0.0020619854 -0.0038923954 0.009394253 0.11888655 -0.06613853 -0.044464648 0.035977047 -0.018504756 0.021800175 -0.03113461 0.07093046 0.029359361 -0.041960526 0.046676207 -0.0129019525 0.03268354 0.02997281 -0.052785065 -0.04215257 0.012680628 0.017520024 -0.020126855 0.03947932 0.10278318 -0.01687442 -0.037769835 0.03359807 -0.077819556 -0.065164395 -0.012642983 0.046042565 0.04617149 -0.101816036 -0.012137528 -0.022831967 -0.068086445 0.028098747 -0.07298785 -0.03082227 -0.054132067 0.05462162 0.040433828 0.0068442896 -0.033447538 0.019891737 -0.07926258 0.1168468 0.034088954 -0.018958768 -0.011347577 -0.013010054 0.04756054 -0.0224772 -0.12465901 0.045422688 0.0026289707 0.035707694 0.06205897 -0.035159342 -0.11250692 0.05042303 0.060273882 0.0866686 0.010825362 0.0057230913 0.033759836 -0.030538728 -0.013233512 -0.022855151 -0.05474268 -0.04139681 0.009791173 -0.019707534 0.037125234 3.5463473e-34 -0.020402009 0.04683891 -0.07247631 -0.0036559396 0.0017695862 -0.02872911 -0.027315702 -0.020481639 0.02020156 0.011046986 -0.065996 -0.054498177 0.007466665 0.060340762 0.008272279 -0.039120026 -0.0045891325 -0.013874022 -0.026976723 -0.016594544 0.07505232 0.00033211903 -0.010022273 -0.021557955 0.062085856 -0.010740941 -0.015540756 0.00867056 0.028301928 -0.014503628 0.015904106 -0.0562526 -0.054367725 -0.009742414 -0.049185865 0.013100386 0.081357926 -0.0808017 0.0050736964 -0.04137781 0.11116487 0.0031270164 0.012433481 0.03389027 -0.103156984 -0.04967809 0.03502744 0.015397951 -0.13186485 -0.061360683 -0.014193423 -0.054459937 0.015348487 -0.04462869 -0.048003096 0.021686744 0.024518311 -0.006471307 0.09906324 0.058435433 -0.020559026 0.066715315 -0.05481032 -0.011316787 -0.028646898 0.009515528 -0.112114504 0.05831855 0.027381316 0.03321091 0.03944688 -0.065242946 -0.023430604 0.041096162 0.03322281 0.027064415 0.05112442 -0.07539737 -0.09845381 0.022827664 0.06739438 -0.042609107 -0.14066786 0.039448876 -0.005717843 0.070319965 -0.0025074254 -0.0033232258 0.03879531 0.001970589 -0.17556141 -0.14139847 -0.037800215 -0.03903785 -0.07646362 -2.6822809e-08 0.04763153 0.064065084 0.03507226 0.016913947 -0.043326277 -0.022262815 0.020628115 -0.07608214 -0.012115839 0.03749962 0.05456222 0.030916046 -0.0044788783 -0.08341744 -0.02461435 -0.027159764 -0.011209721 -0.024121113 -0.060153343 -0.025280735 0.009700233 -0.06382718 -0.060555093 0.07174215 0.0013539955 0.12427771 -0.0016908917 -0.03338006 -0.0058030174 0.06197245 -0.06871943 0.042618502 -0.04639339 0.02446117 0.036958806 0.012675303 0.008074627 -0.07733911 0.05967645 -0.15149805 -0.014121829 0.066781364 0.07035874 0.045602184 0.0049999175 0.0055516656 -0.0986903 -0.010865154 0.02216192 0.05373492 -0.034722067 -0.027485915 -0.033085566 0.07531545 -0.013638944 0.091442786 0.008379612 -0.010493788 0.019548692 0.012499245 0.032240324 0.03797335 0.048424494 -0.008003076
4 0.096899964 0.005988341 -0.046660427 -0.013685243 -0.048425708 0.10709338 -0.02928655 -0.10408621 0.029137053 0.0058779214 -0.04131121 0.080043115 0.029796632 -0.0059653977 0.029642044 0.07059916 0.026314871 -0.019573316 -0.034648556 0.068905436 0.05730931 0.032322176 0.010181926 0.06455984 0.050036244 -0.007949402 0.019286549 -0.019977864 -0.043473925 -0.01058933 -0.020588959 0.036532223 0.015688032 0.05134104 -0.04768219 0.04760808 0.06646858 -0.007584032 0.049671054 -0.00704636 -0.023307933 0.002741021 -0.027500462 -0.0076851 -0.05090493 0.037850104 -0.054734796 0.0074552563 -0.064861216 0.034588493 -0.042782247 0.04240415 0.0036815896 0.062192883 0.093454294 -0.047101345 -0.03576146 0.012426885 0.010442805 -0.013541442 -0.005146557 -0.05897149 0.035327155 0.052468248 0.0072624567 -0.016076947 -0.0666976 0.02864309 -0.08421186 -0.101650506 -0.0064462367 0.019507203 0.03892864 0.024174819 -0.0037211196 -0.09640381 0.005168989 0.0225875 0.008548977 -0.10671853 0.04180965 -0.014040398 -0.031430878 -0.051557086 -0.007890571 -0.0294369 -0.086456776 0.04941877 0.013581089 0.016064443 -0.04073775 -0.043998566 -0.004379351 -0.025397304 0.0313866 0.023167206 0.010769752 -0.029121343 0.0017831606 0.049692973 0.0008876862 0.023754513 -0.028956134 -0.0372075 -0.038258664 -0.041709535 -0.040371273 0.015071626 -0.0589935 0.0006042192 0.016143957 0.026474034 -0.047023047 0.06945541 0.09332344 0.04707212 0.062230065 -0.017340193 0.033192687 -0.05330016 -0.059711374 -0.037550904 0.0023200847 0.02806699 0.0045937947 -0.109556384 -0.073028825 -6.4793866e-33 -0.005332764 -0.06498542 -0.036090195 0.059043996 0.018720932 -0.054113187 0.01330683 -0.06407782 0.022560574 -0.11155006 0.12138699 0.0047379415 0.024577059 0.093742624 0.035519343 -0.043229807 -0.1511026 0.09086285 -0.003036057 -0.025260665 -0.0055237426 0.0450327 -0.008487281 0.021971948 -0.021144751 -0.053584732 0.032331314 -0.022779537 -0.025751201 0.030277474 -0.022438558 0.042757746 0.054788597 -0.018426348 0.041096717 0.06226384 0.031661034 -0.014935095 0.0082038045 -0.0062990645 0.005711607 0.0136447875 0.009210868 0.087233074 0.03590375 0.07236797 0.011950085 -0.01464544 -0.05876008 0.052218907 0.001158562 0.053858545 0.08769525 -0.13880172 -0.004293192 -0.026926305 -0.0854537 -0.014164543 -0.05577499 -0.09728659 -0.070280455 0.056290753 -0.034274753 0.01787534 -0.10215802 0.02465393 -0.09831247 0.06645687 0.07546039 -0.03079852 0.029259853 -0.023359975 0.005226838 0.0072074896 -0.07906133 0.10942621 -0.025781024 -0.071174614 0.05326925 -0.03041858 -0.093041174 0.05395617 0.04652645 0.008863842 0.030965265 0.021693423 0.0992961 -0.023146981 0.042234313 -0.020213468 -0.029394107 -0.018575951 0.014260187 -0.037645116 0.052081667 8.516938e-34 0.009332376 -0.040226486 -0.02440087 0.031770345 0.044807956 -0.036959104 -0.043728057 0.017996786 0.12091243 -0.035169978 -0.036481977 -0.031653676 -0.007338661 0.08927018 -0.027743561 -0.06858054 0.006808039 -0.020571059 -0.0356835 0.038907643 0.01011939 0.05787382 -0.0877785 -0.0047495128 -0.05799928 0.014194665 -0.07378296 -0.08770353 0.04567751 -0.02236295 -0.00528367 -0.015467184 -0.049936738 0.0124675855 -0.04889431 0.027981995 0.08587769 -0.026228584 -0.00036028665 -0.07736451 0.09691004 -0.05577591 -0.009540625 0.10929691 -0.09012432 -0.0065640784 -0.043184664 0.03486491 -0.12093761 -0.041970417 -0.056029633 -0.035188075 0.040330693 -0.074291974 0.014672684 0.0050793905 -0.016117005 -0.029336557 0.004553172 0.09559653 0.015174269 0.109583244 -0.071954 -0.046858884 0.005939392 -0.0081408555 -0.09600259 0.047077496 0.033908866 0.03825753 0.038809787 -0.029921507 -0.097287394 0.026293488 0.025583364 0.06651236 0.067929976 -0.016756367 -0.013235269 0.044599567 0.037644137 -0.04202303 -0.122090206 0.017418087 0.036007367 0.03098306 -0.08458666 0.034427356 -0.013002002 0.0040222183 -0.0996341 -0.10191754 0.015291075 -0.05562051 -0.052715916 -2.76847e-08 -0.0043871766 -6.721774e-05 0.04619471 0.036688 -0.039652713 0.03509314 0.064398445 -0.04132792 -0.023053756 0.0650063 0.009696641 0.016500156 -0.019515574 -0.041901805 -0.028602585 -0.06538086 0.013807561 0.020614896 0.0006742484 0.0037813631 0.017765163 -0.031187097 0.034536827 0.009303062 -0.026877133 0.06419892 -0.003484477 0.041346706 -0.024383655 0.047044035 -0.046365354 0.06593765 -0.14380619 0.0068654944 0.010465436 -0.04900037 -0.09095794 -0.039167244 0.0926692 -0.09926299 0.03132114 0.021626825 0.08738914 0.020149319 0.08394572 0.0025751097 -0.059244256 0.073893085 0.029849753 0.06497125 -0.06901168 -0.03977039 -0.0066106473 -0.048039004 -0.0003298889 0.04789161 0.009018822 0.06606942 0.013156547 -0.08221795 0.09345148 0.0609769 0.06696794 -0.016609674
5 0.059026487 0.056736775 -0.037658405 -0.024411997 -0.019064428 0.1329152 0.004403443 -0.06780148 -0.047694076 -0.008135909 -0.0071805688 0.0741763 0.0031278068 -0.042536546 0.06649953 0.03541411 0.053049326 0.007747111 -0.097547725 0.07704491 -0.021211313 -0.032712147 -0.02685174 0.047426503 -0.065325245 -0.044838335 0.02956695 -0.02318427 -0.019489659 -0.003915638 -0.022417685 0.029051488 0.077656925 0.061205715 -0.049567714 -0.00022551959 0.013713364 0.009899141 0.06448864 -0.0307724 -0.075767934 -0.024297522 -0.028547045 0.037868313 -0.04392193 0.0054225167 0.051324733 -0.051199753 -0.05662131 0.0045078727 0.020443724 0.10092105 -0.04354522 0.07034857 -0.008465765 -0.083719835 -0.060996536 -0.039032277 0.0305798 0.011548055 -0.0055588344 -0.09085087 -0.026326222 0.056746498 -0.002739318 -0.026813086 0.0014672312 -0.017384697 -0.04422912 -0.05993415 0.029685501 0.08692719 0.03422277 0.011970172 0.043817732 -0.044890236 0.06762026 0.05944455 0.05702114 -0.075802736 0.034505058 0.050896753 -0.045129064 -0.020971132 -0.0010908924 -0.054428466 -0.07011977 0.023596179 -0.07342835 -0.0450609 -0.0463755 0.033864494 0.059002027 -0.066321075 0.06272394 -0.030584244 0.045460954 -0.035197716 -0.009757512 -0.0029321501 0.026736965 -0.0150563205 -0.018215472 -0.028775003 -0.052508526 -0.071410105 -0.027489526 -0.03502697 -0.09130861 0.019628689 0.011641413 -0.02763189 0.0011521061 0.05110093 0.06927864 -0.07333859 0.060266133 -0.0031100914 0.027618626 0.045019265 -0.09480332 -0.008372511 -0.04965955 -0.015113828 0.026356228 -0.013969151 -0.052456945 -6.393428e-33 -0.044899907 -0.0815249 -0.05076941 0.041695334 0.03680913 -0.015319508 -0.041876134 -0.036660455 -0.009486796 0.0012276287 0.07791682 -0.034508556 0.05516466 -0.007378044 -0.001037625 -0.02435133 -0.17340046 0.049659908 -0.031661075 -0.027769964 -0.01897411 0.05274602 -0.0025731432 0.05421186 -0.024287213 -0.08320904 0.018806353 -0.042473443 -0.017667457 0.021052351 -0.031126361 0.08309473 0.04648656 -0.00819732 0.058585927 0.101858415 0.038887758 0.05982298 -0.03721075 -0.0155102275 -0.068376556 0.0151264295 0.0014533516 -0.051101815 0.11050152 -0.0029170946 -0.0016936945 -0.012213874 -0.033349562 0.009457953 -0.01469627 0.0056799934 -0.05241728 -0.07157015 0.006763302 -0.02656255 -0.08143815 -0.0087657515 -0.02880514 -0.024400791 -0.022119064 0.0874609 -0.038167987 -0.026100935 -0.05502774 0.007126225 -0.05993159 0.05051402 0.011993749 -0.026940534 0.07148859 -0.036311153 0.011797273 0.022032011 -0.06270493 0.10522709 0.052184768 0.022340698 0.13247652 -0.089678824 -0.11157075 0.005023139 0.06806399 0.0054923133 -0.018707568 -0.046013493 0.055873446 -0.025928387 0.054756247 -0.045231134 -0.053154703 -0.01756413 -0.012387244 -0.0056421584 0.019227747 -1.0735212e-33 -0.09386912 -0.0499196 -0.0719495 0.042483278 0.005008831 0.020596294 0.010868835 -0.046504125 0.10217069 0.005327876 -0.06384187 -0.01846789 -0.041100644 0.095842786 -0.03900963 -0.038374595 0.010574659 0.005210792 0.0091724275 0.0786634 0.00089405384 0.04999354 -0.0039589475 0.04495657 0.052655697 -0.039483536 -0.052108772 -0.09797099 0.084932975 -0.027214615 -0.024613759 -0.049148 -0.09047461 -0.016662003 -0.105266966 -0.089044504 0.04903453 -0.024737446 0.021764692 -0.05207385 0.12236596 -0.039232414 -0.053192854 0.0202381 -0.05326693 0.006041134 0.048639677 0.029564109 -0.06321546 -0.0404055 -0.06659158 -0.061344903 0.12341248 0.054818552 0.032382887 0.006578505 0.07646331 -0.066062815 0.06005781 0.10206417 -0.032633867 0.09467468 -0.05920425 -0.06182695 0.04726651 0.008895862 -0.09786028 -0.025539687 0.032625373 0.02455385 0.05785937 -0.06863719 -0.061173994 -0.06611286 0.002699364 0.0570735 -0.0137859965 0.005705242 -0.07592312 0.03650452 0.112272106 -0.03702049 -0.07718382 0.027383458 -0.062834926 0.05692753 -0.014795879 0.0024373066 0.037574444 -0.0146030765 -0.08875888 -0.007095707 -0.031468917 -0.027097605 0.0034935388 -2.901486e-08 0.018345047 0.059989855 0.021625947 0.019801732 -0.032927606 0.06515488 0.009112815 -0.02019159 0.0297548 0.11751475 0.0011373933 0.002369099 -0.043562774 -0.037472 0.009592123 -0.021559669 0.050468612 -0.075861715 0.033702813 0.04658583 -0.015915139 -0.0527615 0.052002255 0.02099699 -0.0051490753 0.046907194 -0.011840036 -0.030380908 -0.023440402 0.0164462 -0.07563373 0.07960015 -0.08099725 -0.015179263 0.016023943 0.01962862 -0.02365098 0.011481314 0.07554949 -0.105619945 -0.003571797 0.028470147 0.031708393 -0.018136712 0.024570199 -0.0016218962 -0.09305391 0.06038724 -0.005629563 0.05794317 -0.044300362 -0.01217874 0.03846466 0.036718957 0.042922024 0.083117016 0.041014086 -0.027013725 -0.0003483712 -0.084821455 0.102589175 0.105004266 0.012942581 -0.000326625
6 0.029672472 -0.055878375 -0.0428522 -0.019278418 0.015218219 0.057583652 0.04105138 0.013036144 -0.04714649 -0.012146361 0.026398845 0.08934977 -0.0020762759 0.014239669 0.044891685 0.01155215 0.07954367 -0.009370512 -0.062802464 0.046124488 0.091298565 0.022903647 -0.052046284 0.06667195 -0.05898661 -0.0013942617 -0.03974244 -0.085214555 -0.06587014 -0.03484096 -0.028424114 0.03912728 0.052401714 0.08845685 -0.0033337336 -0.034565188 0.0608957 -0.08184726 0.07455486 -0.04324461 0.020081367 -0.061394032 -0.10856161 0.03983767 -0.03260037 0.021600293 0.05524319 -0.020238109 -0.027468203 0.056719225 -0.06868156 0.082265824 -0.04138143 0.060982965 0.056417707 -0.004442745 0.026373595 -0.0035910022 0.010197285 -0.031957664 -0.0036935962 -0.098339535 -0.0062388317 0.007892042 0.059466507 -0.049865756 -0.063652195 0.012028679 -0.12843944 -0.03453663 0.04187669 0.009481878 -0.0049440484 0.05558177 -0.0003588328 -0.09306306 0.11366627 0.056697037 0.03183924 -0.044582345 0.003062685 0.053415388 -0.061967425 -0.044238478 -0.041935932 -0.06570314 -0.0796633 -0.023001177 0.012776921 -0.04684232 -0.023283964 -0.06915233 -0.007857849 -0.036900386 -0.033085722 -0.0075893435 0.036091145 0.024491131 0.07216425 -0.02061856 0.07610555 0.020766085 -0.051709592 -0.04429647 -0.119726986 -0.013249018 -0.07122709 0.0628966 0.015547439 0.025073133 -0.08600293 -0.008233143 0.005977054 0.057459854 -0.0071633393 0.014376702 0.00849572 0.010569118 0.056463826 -0.0041493783 -0.01785777 0.025652329 0.02089665 -0.037058845 -0.028499683 -0.004305437 -0.0022287571 -7.2806175e-33 -0.1187362 -0.061741814 -0.06842245 0.002399596 0.01722684 -0.023514902 -0.010759925 -0.052769165 -0.031514727 -0.030938433 0.018377805 -0.008692904 0.011150471 0.10581539 0.053110946 -0.031454973 -0.12943316 0.07683496 0.08164923 0.0033851687 0.03003373 0.012287368 0.008893049 0.038659703 0.0045134705 -0.04737659 -0.005015066 0.00699298 0.051009983 0.02528801 0.089055575 0.0573734 0.06381857 0.04846706 -0.07034269 0.0852812 -0.009235995 -0.0041936813 0.010911286 -0.079915285 -0.062299196 0.013997007 0.02533522 0.09116482 -0.0022895099 0.036782667 -0.055560075 -0.0027474384 -0.036721338 -0.026403813 -0.02600896 0.012966208 0.09203215 -0.1340835 -0.0103995 -0.06266009 -0.049861405 -0.07763161 -0.048892982 -0.03907484 -0.02143379 0.06095427 -0.027974693 0.032389384 -0.108834416 0.03593389 -0.038720153 0.048083115 -0.0048250603 -0.02415778 0.042890705 0.046066187 0.028558273 0.021670444 -0.041814864 0.09059197 0.026916219 0.024214854 0.02058027 -0.06582727 -0.1567249 -0.026957262 0.090265475 0.04548085 -0.015612897 -0.0036115705 -0.0029454196 0.008081735 0.042063653 -0.010261168 -0.06429757 -0.010399508 -0.025275076 0.046554804 0.11958115 6.1638516e-34 0.0063652736 0.031243127 -0.009789915 0.07689425 -0.012101726 0.006261352 -0.03718432 -0.07178807 0.07176396 -0.0321501 -0.11444936 0.009149648 -0.03900122 0.080842525 0.015941802 -0.030315423 0.071159445 0.0030759205 0.0037662794 -0.008118396 0.0128430035 0.020383373 -0.0806336 0.008333648 -0.032213166 -0.041305732 -0.05332882 -0.09128618 0.066316605 -0.040472124 -0.012303295 -0.023186801 -0.04974497 0.017728856 -0.09566785 0.012905122 0.0337277 -0.034474492 0.04366403 -0.036726464 0.08203688 -0.03365136 0.002265021 0.08506865 -0.05377097 -0.042704817 0.028019046 -0.031489637 0.006305734 -0.00513342 -0.036955837 0.037909243 0.049242433 -0.07938769 -0.081476934 0.089672394 0.090323985 0.0016630696 0.017422942 0.01811258 0.0010823348 0.10705181 -0.028370282 -0.009530233 -0.025508253 0.011019995 -0.023974717 -0.02778206 0.115943566 -0.04671661 0.07474409 -0.06534693 -0.083611555 0.03619834 0.008875722 0.034764938 0.0011946609 0.020988144 -0.077260695 0.026172291 0.06434007 -0.004079567 -0.018975427 -0.0020416917 0.04421791 -0.033053484 -0.02203173 -0.039705463 0.011000836 -0.02996956 -0.13482527 -0.07575193 -0.004407313 -0.06565609 -0.091943815 -2.819302e-08 0.015192063 -0.015569162 0.05456997 0.112082064 -0.04864285 -0.00019551882 0.050978895 0.04607019 -0.069274485 0.07487187 0.012170665 0.015118522 -0.071186095 -0.04849976 0.022904888 -0.003496343 0.028187057 0.0077010714 -0.015026196 0.028359618 0.009484275 0.008090935 0.010088544 0.055047076 -0.018850727 0.05966337 0.067686245 0.015145941 0.02050874 -0.037215408 -0.055269137 0.07999424 -0.055547073 -0.00036221772 0.0075004627 -0.031526208 -0.021180032 -0.017472725 0.04302388 -0.10818655 -0.034800213 0.011646611 0.0070506525 0.025704114 0.11586416 0.0011546095 -0.1074096 0.0062999055 0.073074155 0.020695643 -0.021271504 -0.004283027 0.025113035 -0.07000299 0.004959941 0.011060573 -0.0014211169 -0.025532285 -0.0040755346 -0.040556043 0.0695191 0.042273525 0.110831395 -0.026304519
7 0.015960265 0.010677064 -0.04219503 -0.020592807 0.024893124 0.09059625 0.026524307 -0.001985701 -0.027115395 0.024312414 0.07646412 0.059376705 0.062233992 0.0023447007 0.057672217 -0.0029296768 0.1034902 -0.024970999 -0.044123057 0.101107605 0.06617239 -0.03406829 0.013610626 0.01957456 -0.074329145 0.011729765 -0.046587538 -0.014104798 -0.096574046 -0.0007865286 -0.024462275 0.035378035 0.08639539 0.1389216 -0.03161516 -0.08267031 0.061670125 -0.053201865 0.060196936 0.02378176 0.00095429196 -0.034733623 -0.04289378 0.06370831 -0.104993634 -0.028365575 0.0022668515 0.0109266965 -0.018412532 -0.018812075 -0.052883893 0.060248673 -0.029903721 0.091846034 0.06796248 -0.054971647 7.352163e-05 0.039652314 0.04038666 -0.03282018 0.02826703 -0.008663447 0.012342437 0.029757235 0.039518707 -0.06087489 -0.047225367 -8.5248714e-05 0.025224239 -0.0162234 -0.042863805 0.05274895 -0.0013836821 0.024915732 -0.015033046 -0.04871059 0.033126798 0.08343325 0.046865873 -0.09144697 0.0011954898 -0.024448818 -0.036063597 -0.03712697 -0.0068535777 -0.052007202 -0.116716824 0.033607062 -0.0041258056 -0.0748038 -0.017403977 -0.010806338 0.005818738 -0.058778297 -0.0021546313 0.007848885 0.00913773 0.018654794 -0.014945872 -0.020183504 -0.0004738625 -0.018775458 -0.07541441 -0.037985828 -0.032135975 -0.01937 -0.015842741 0.009960286 -0.05706004 0.0103590675 0.052396186 0.0021207996 0.009062729 0.048449494 0.071072556 0.07387299 0.0021298882 0.049454674 -0.019381896 0.02240114 0.0019744805 0.020201268 -0.017343001 -0.004507125 -0.010460512 -0.059524253 -0.051659096 -7.235306e-33 -0.035243656 -0.041253034 -0.089262106 0.027016366 0.027722016 -0.06262105 -0.047452845 -0.031508848 0.04910557 -0.0046960684 0.017106375 -0.09143838 0.050456624 0.07104015 0.07089344 0.0046210294 -0.11543028 0.051219005 0.00041378688 0.028408676 0.03875017 0.02045256 -0.0060480447 0.05298181 -0.028934179 -0.03399519 -0.005927481 -0.0412004 -0.0012060873 0.009080397 0.019692129 0.123753995 0.08178272 0.03460087 0.024752486 0.088789076 0.005493076 0.011153964 -0.056783654 -0.01000544 -0.035752296 -0.023110557 0.02058395 -0.0048059 0.081922136 -0.018470086 -0.103680916 -0.036183406 -0.09412764 -0.029731806 -0.00090852083 -0.029830577 0.043692302 -0.06151988 -0.072604015 0.068190716 -0.10287483 -0.030436441 -0.025577094 0.035640117 -0.03527103 0.10488207 -0.009101727 0.011611769 -0.07492499 -0.028788298 -0.027091958 0.06848368 0.0492841 -0.028744377 0.0076577943 0.04388853 0.019940369 0.038049154 -0.077377096 0.0149309095 -0.004094038 -0.033529997 0.038126253 -0.030966379 -0.13097963 -0.016739469 0.06607581 0.004493522 0.028611733 -0.00031570712 0.04229119 -0.014993963 0.025635028 0.037947375 -0.047392163 -0.085586235 -0.01927514 0.036051452 0.07278132 3.6804505e-34 -0.01778737 -0.030297542 -0.056731984 0.000109365385 -0.012286673 -0.0074938745 -0.04345737 -0.070430934 0.07150568 0.00433206 -0.13207965 -0.036540955 0.021265194 0.06737248 0.040283237 -0.038996793 0.02039634 -0.04682648 -0.059062026 0.035859894 0.031592168 -0.031764954 -0.05775502 -0.0022276002 0.016192267 -0.051889434 0.019520396 -0.05004366 0.012944064 0.027379552 -0.051388472 0.001989003 -0.05321752 0.00055628753 -0.094732314 0.036063384 0.11746362 -0.101228476 -0.007036559 -0.10569716 0.060514294 -0.0071705147 -0.014476267 -0.0015817321 -0.11941451 -0.023658175 0.030146819 0.04795142 -0.13508251 -0.035979997 -0.01949155 0.0017504375 0.039610133 -0.021700636 -0.022983568 0.053303786 0.053237207 -0.008601023 0.049057625 0.06012267 0.00015515149 0.11880651 -0.09299052 0.028532086 0.031636097 0.026623538 -0.13493532 -0.02036982 0.061482854 -0.022076245 0.043749504 -0.05780084 -0.06719355 0.027102208 -0.0011166347 -0.0066089337 -0.0071119512 -0.011955817 -0.09307048 0.028617654 0.08137692 -0.06495192 -0.09031997 0.08430596 0.010875864 0.013567964 0.0114006065 0.012943987 0.020912468 0.0035202964 -0.13744786 -0.09446415 -0.026056472 -0.051200703 -0.069475845 -2.707196e-08 0.0075594434 0.06306562 0.042918675 0.043687318 0.008985295 0.05244062 0.051691417 -0.0031527122 -0.050252464 0.031269893 0.07867953 0.019563258 -0.028732961 -0.08831863 0.004449812 -0.030063959 0.06757185 -0.0043013943 -0.01635707 0.043377366 -0.016707702 -0.036331505 -0.015462804 0.08681787 0.025973182 0.062131517 0.020535532 0.03539951 0.00079310156 0.043601785 -0.10882607 0.03929741 -0.05405155 0.010755509 0.01437359 -0.034109414 0.0032949734 -0.03479321 0.060895994 -0.12935443 0.001265849 -0.0031634353 0.040892627 0.020639285 0.08368196 -0.024394773 -0.08716002 0.023599941 0.107745744 0.024352487 -0.033836257 -0.057471022 -0.028930278 0.017163448 0.0039401962 0.076669216 0.011504301 -0.000555664 -0.012112727 -0.043298464 0.08037218 0.103248596 0.09726504 -0.055407465
8 0.060330056 -0.04546557 -0.0888353 0.026497334 0.019373942 0.06549109 -0.0013674439 0.014307062 0.02253178 0.025111215 -0.04661447 0.09619704 -0.033533037 -0.073197134 0.032314252 -0.004848855 0.015762176 -0.0076685697 0.00092283613 0.09728658 0.08177453 -0.005399416 -0.00557028 0.05956191 0.059596475 -0.02300462 0.01679491 -0.0054441793 -0.06966531 -0.03709951 0.0009442596 0.007276777 0.12901603 0.02912083 0.022308884 0.011467389 0.037514456 -0.0029839473 0.029410088 0.015415909 -0.009368286 -0.025424108 -0.03559304 -0.013789026 -0.038484093 -0.002165905 0.102898866 0.01779152 -0.030783473 0.023998424 -0.047430616 0.057506453 -0.0003973148 0.029503506 0.102949545 0.019133411 -0.006050326 -0.004167042 0.02544412 -0.003239655 0.019164652 -0.078236364 -0.025197042 0.020408915 0.103737146 -0.0032436114 0.036280073 -0.017476933 -0.07098711 -0.03463896 0.030647004 0.010436955 -0.042300668 -0.051864184 -0.010130675 -0.055827223 0.10139756 0.11106154 0.08639433 -0.062102318 0.025723215 -0.02402195 -0.050178565 -0.07094026 -0.02497122 -0.05101899 -0.027292613 -0.023394706 0.041514795 -0.0189485 -0.0024195334 -0.03568517 0.00089349557 -0.014713855 -0.0123548 0.036954306 -0.0035588362 -0.026740966 0.0545587 0.016313473 0.012519039 -0.0040172115 -0.019473331 0.027644467 -0.026232582 -0.021541642 0.017800828 0.063383654 0.03269886 0.017416615 -0.00022223902 -0.025032487 0.016265653 0.025771543 -0.02093332 0.0040224837 0.016595561 -0.06685511 0.069606535 0.0052527613 0.012587739 -0.00060553016 -0.0065736733 -0.010602848 -0.006996059 -0.069009736 -0.0971325 -6.643699e-33 -0.059525624 -0.05704319 0.00395038 -0.012215998 -0.03575899 0.0175963 -0.055461794 -0.076046824 0.025347928 -0.054890584 0.06416912 -0.0092167035 0.054453827 0.05428353 0.029331205 -0.058889505 -0.14187454 0.13084126 0.061136816 0.029252414 0.033600375 0.038836848 0.012579268 -0.012833766 0.020375263 -0.083332516 -0.0075126966 -0.055194598 0.08728637 0.022485549 0.054687552 0.070316136 0.03517728 0.0006246843 -0.078804895 0.04913774 -0.021803116 0.026387276 -0.0025929757 0.009656178 0.027123662 -0.032326 0.016955411 0.058153678 0.0026541557 -0.0026900852 -0.047417562 0.058461223 -0.06435085 -0.038951214 -0.033800967 0.040407557 -0.008734483 -0.14695466 -0.04151418 -0.01287257 -0.07229991 -0.098903745 -0.103287384 -0.091353245 -0.04910402 0.050274957 -0.007770239 0.005716259 -0.1444501 0.10185649 -0.07097547 0.061472766 0.032686476 0.01883622 0.02255896 0.010049159 -0.0054467847 0.03695243 -0.03189631 0.06639732 0.004805817 -0.00022595887 0.062683664 -0.002112141 -0.10932254 -0.049447186 0.017346254 0.05349785 0.017272878 0.031774763 0.024606206 0.048085745 0.10393163 -0.034992453 -0.093420945 -0.026863398 -0.035213158 -0.024912111 0.09028611 -2.4786596e-34 -0.03811116 0.056916475 0.0031518603 -0.017110648 0.0022038864 0.04055667 -0.031115219 -0.08067185 0.08021529 0.011172585 -0.104990914 -0.027342033 -0.028851544 0.0834241 -0.04595219 -0.043147888 -0.008080754 -0.072555944 -0.031882457 -0.047785304 -0.013387651 0.03211501 -0.015285993 0.019542996 0.024815334 -0.061079886 -0.06349194 -0.06421077 0.042196155 -0.00916776 -0.04149504 -0.008710692 -0.07484781 0.02861704 -0.12023962 0.07516487 0.020822313 -0.06446383 -0.011850865 -0.05834334 0.10126695 -0.08672681 0.024049148 0.0010242494 -0.005956037 -0.04528388 -0.009886773 -0.0020668746 -0.054307204 -0.0001285927 0.007934391 0.04065871 0.04527429 -0.008336162 -0.107147776 0.042354487 0.0736731 -0.03950485 0.039165433 0.04425466 -0.034112826 0.096429616 -0.048218425 0.08923402 -0.029315274 -0.077245586 -0.06710844 -0.10627753 0.069183685 -0.086315334 0.012076402 -0.07638501 -0.043969516 0.06468816 0.044330813 0.18332422 -0.033265296 0.0039985827 0.014778589 0.042282794 0.07071908 0.032875452 -0.013822859 -0.032797497 0.0064653275 -0.037178267 0.022336775 -0.041629925 -0.04229189 -0.008964961 -0.12003542 -0.07912179 0.040790763 -0.07527865 -0.0802551 -2.6986847e-08 -0.020016 -0.013477652 0.04180792 0.05861967 -0.008067638 -0.030322645 0.043858916 -0.03462025 -0.048831895 0.040441643 0.046673413 0.09473752 -0.04434509 -0.006986652 -0.049349077 -0.03196659 -0.03679662 -0.0062931646 -0.014806645 -0.025064152 -0.0111026345 0.0009428975 -0.023957942 0.0791507 0.025785718 0.07517205 0.065744534 0.056991883 -0.011254627 -0.025865125 -0.047529653 0.06969611 -0.05460187 -0.01743978 0.0030725023 0.016066939 -0.002197782 0.0024541658 0.045496758 -0.05789492 -0.0015500102 -0.0064572473 -0.023842847 -0.015896901 0.11367135 -0.001214141 -0.08678794 0.01575222 0.056755386 -0.062412873 -0.029340632 0.0017193273 0.04214303 -0.04310012 -0.026930595 0.02405681 -0.055387348 0.01869763 -0.05506207 -0.08761259 0.09218202 0.027074784 0.061537214 -0.0282101
9 0.058729604 0.04780581 -0.025778577 0.05758595 0.0017927554 0.0728941 -0.026979502 -0.018761609 0.0014687706 0.08350629 0.054085515 0.16439804 0.021675969 -0.00371348 0.007771761 0.036822945 0.008154076 -0.017558385 -0.03772976 0.014761775 0.09157215 0.051951464 -0.0062252977 0.05761087 0.035047382 0.021351848 0.013595293 -0.08127158 -0.07980941 -0.019532455 0.024576074 0.0005290765 0.041036494 0.038097166 -0.019167345 0.005057345 0.07951887 0.017586073 0.01953331 -0.013970566 -0.03418873 -0.016991135 -0.06837048 0.03516794 0.0052153706 0.029848993 -0.023744462 -0.05715781 -0.033066045 0.024922488 -0.094932035 -0.008915281 0.0038909838 0.027653169 0.03814419 0.029910777 -0.023575604 0.015742375 -0.010887149 -0.026711587 -0.04424726 -0.08275271 -0.0021314346 0.050297327 0.012767669 -0.043430496 -0.047924437 -0.017611036 -0.030012293 -0.012097413 0.027595475 0.0635697 0.04137567 0.015159599 0.046092607 -0.07308073 0.05381167 0.08655651 0.067245916 -0.07805058 0.040392093 0.026046397 -0.03350666 -0.08560882 0.0029486944 -0.0563828 -0.016938213 0.025416473 0.01925851 -0.048395913 -0.034608968 -0.07162692 -0.0012105086 0.05351464 0.031210493 -0.029603785 0.032890413 -0.03247274 -0.010621261 0.0047951946 -0.035625238 -0.033794824 -0.048486385 -0.00018865574 -0.0500549 0.013715627 -0.0008934533 0.0046559223 -0.013602464 -0.054253783 -0.023350127 0.01887235 -0.028774569 0.105690956 0.07063814 0.04402417 0.07460603 0.00704362 0.014093231 0.024533825 -0.03294896 -0.0463341 -0.011089307 -0.03185635 -0.0056069307 -0.13993713 -0.031447064 -7.7250146e-33 -0.00486478 -0.01292354 -0.047649074 0.063361734 0.014180971 -0.05099415 0.04107835 -0.041803237 0.0347447 -0.07352559 0.121145144 -0.031385336 0.08210725 0.11204677 0.08666189 -0.013083749 -0.18691893 0.11250061 0.003439644 0.05742094 0.017608589 -0.010107665 0.012556989 -0.07836006 -0.014176376 -0.07105433 0.016165182 0.004386343 0.0008004922 -0.0051850607 0.021029234 0.0011483951 -0.018118815 0.004151694 -0.012234575 0.043988183 0.047834676 0.016444255 -0.048213255 -0.054972634 0.0824609 -0.013324287 0.039621618 0.012377746 0.044206098 0.010627522 -0.013347929 -0.028863335 -0.07763357 0.01919531 -0.036850665 -0.011429518 -0.0015375398 -0.15676202 0.016744003 0.046419084 -0.036695626 -0.0062714526 -0.08604353 -0.048705008 -0.09327859 0.06379046 -0.008450315 -0.006444321 -0.07724994 0.058174387 -0.07781817 0.06485896 0.12730305 -0.08806221 0.010968851 -0.04734749 -0.039934877 0.056941845 -0.07690154 0.029209957 -0.02040314 -0.06449115 0.06750243 -0.023236595 -0.0031439965 -0.0075876615 0.08129448 -0.0436434 0.03988691 0.021450957 0.03351638 -0.0044532325 0.08439187 -0.015968908 -0.046945415 -0.081915826 -0.05203493 0.04217033 0.084705085 6.0435135e-34 0.008820311 0.059128996 -0.06542541 0.057563018 0.036476277 0.023900922 0.041676417 -0.019680593 0.044139422 -0.05698427 -0.063483804 -0.026044132 -0.051221393 0.086188294 -0.03810843 -0.047856342 -0.015783917 -0.04315608 0.0056891623 0.0036714107 -0.02238738 0.006772723 -0.07351858 0.03518293 0.020574821 -0.060059562 -0.034297798 -0.035985123 0.024528677 0.050543793 0.02342299 -0.03754302 -0.05916013 0.029713364 -0.08071923 0.06491188 0.05247148 0.016647207 -0.047264192 -0.0029265864 0.074710414 -0.060346268 -0.04316997 0.013352542 -0.06214989 0.025632203 0.022952912 0.0024379857 -0.09264346 0.038422853 -0.043185286 -0.047900613 0.04025973 -0.059176356 0.015847532 -0.018290602 0.05618764 0.009237105 0.037329856 0.038505584 0.030076396 0.03187114 -0.06965986 -0.023653494 0.0068836887 -0.027334584 -0.0945755 0.03897359 0.029734947 -0.0025311764 0.09689158 -0.025988095 -0.08827128 -0.048031744 0.035634372 0.062280625 0.019433089 0.01097747 -0.09540424 0.056466904 0.06525426 -0.055752464 -0.018183408 0.0158646 -0.016705174 -0.0008975694 -0.01625771 -0.0028996363 0.012617818 -0.019356964 -0.06201248 -0.073942475 -0.010418713 -0.0912662 -0.08511962 -2.6237837e-08 0.0036700394 -0.016547984 0.038733445 0.009959503 0.015986491 -0.0018901913 0.023182407 -0.01052864 -0.0032767728 0.10451807 -0.02109713 0.041901555 0.0075897793 -0.08094356 0.036451407 0.03982682 0.0028139977 0.03378877 -0.000842539 0.046931256 0.025371693 -0.06090226 -0.003179572 0.043002885 0.014263471 0.08619703 0.076478474 0.03663631 -0.06956752 0.026020652 -0.050807275 0.01799748 -0.079334624 -0.057381537 0.018991912 -0.033154186 -0.03379538 -0.017660031 0.10383285 -0.098451935 -0.048542235 0.008383343 0.07868242 2.0306039e-05 0.07566055 0.008499054 -0.1419577 0.07627638 -0.001462527 0.06628819 -0.074538514 -0.03827631 -0.03524197 -0.13064042 0.040800463 0.013602888 -0.037695277 -0.0842784 -0.029397476 -0.05378465 0.10228984 0.08445732 0.09212758 0.0002940158
10 0.026339455 0.014993442 0.020875372 0.039357368 0.029890163 0.0058416612 0.025177857 0.025979163 -0.03404323 0.049940985 -0.003760772 0.09955323 0.053769257 0.023185777 0.043796733 0.007909958 0.09006921 -0.06608736 -0.05904229 0.07280495 0.093626186 0.004481198 -0.024386229 0.046491794 -0.012819495 -0.0028278094 0.0021761886 0.048188824 -0.08766075 -0.02772143 0.051233552 -0.029039724 0.064362444 -0.030743351 0.025755618 0.0966838 0.033054553 0.0024023815 -0.007716128 0.027861428 -0.031347428 -0.020849958 -0.0565394 0.019688832 -0.060725138 0.06375962 -0.001895035 -0.038298212 -0.008551669 0.043329317 0.010405171 0.04741959 -0.04681082 0.02084642 0.09129321 -0.0079141725 0.028719451 -0.05342178 -0.03305706 -0.061553568 -0.049559195 -0.06004648 0.033541564 -0.0032369127 -0.005789313 -0.02561904 -0.00557154 -0.011797595 -0.008413955 -0.07169586 -0.017775128 0.0052666026 0.029013503 0.028025286 -0.020527257 -0.044894997 0.08893074 0.10733012 0.07647697 -0.014495304 0.033193156 -0.037605423 0.012141711 -0.040356882 -0.014136461 0.0015205904 -0.09004098 0.023649517 0.0353311 0.05143491 -0.017551215 -0.053426433 0.094229415 0.0022198022 0.032388005 0.017817924 0.046316627 -0.041690595 -0.042112045 -0.035362143 0.051281042 -0.020535108 -0.023066811 -0.04280072 -0.02310309 -0.083285615 -0.07143274 -0.03683477 0.03680794 -0.031356603 0.04824428 0.014103327 0.032413542 -0.0011077193 0.025502719 0.015988002 -0.04976655 -0.019001488 0.060493074 0.052731164 -0.046170633 -0.02694214 -0.00702388 -0.029164547 0.034871615 0.015318493 0.031458452 -6.315548e-33 0.00091165956 -0.06098106 -0.06668348 0.06484167 0.075907744 -0.07099174 -0.048482686 -0.07038753 0.09719283 -0.08576058 0.041497678 -0.030677158 0.115952946 0.04313442 -0.013178565 -0.06986279 -0.11409403 0.104485735 -0.0388738 -0.047755353 -0.047351923 0.0059879483 -0.008926722 0.009465998 0.05674634 -0.030869251 0.008922598 0.005753406 0.072798595 0.0155972 -0.016356476 0.07025784 0.01290928 -0.017050417 -0.02635812 0.11196038 -0.04520156 0.023223702 -0.05958866 -0.057272267 -0.055410728 0.022612615 0.006823831 0.049618933 0.03674896 -0.059101816 -0.0031048548 -0.0105684865 -0.017237093 -0.099080026 -0.035107907 0.00018550313 0.023327487 -0.124006286 -0.052955408 0.014065809 0.005585552 -0.019930463 -0.02107729 -0.04445269 -0.021773152 0.07756528 -0.009921226 0.04592503 0.013874532 0.0003366773 -0.035358656 0.010470218 0.07067916 0.0049066464 0.03378685 -0.017481629 0.060276143 -0.004020434 -0.12486536 0.023402901 0.036809534 -0.011817464 -0.0013762154 -0.04270715 -0.0336887 -0.034590326 0.10480032 0.1026127 0.08564909 -0.03011795 -0.024341533 0.04568871 -0.04742557 0.05302379 -0.08075412 0.0024827656 0.033314344 0.04666821 0.06909778 1.2544318e-33 0.040305693 0.009879604 -0.0302123 -0.0030008461 0.05143002 -0.002393448 -0.06650212 -0.059828267 0.0103838 0.0035733876 -0.14695244 -0.03602546 -0.020636665 0.04858004 -0.007929031 -0.055221185 0.0061889254 -0.0681618 -0.06185972 0.030717263 -0.0059139733 -0.017869228 -0.0604789 0.030517405 -0.018615989 0.047710497 -0.027550021 -0.021709906 -0.0067424616 -0.06565103 -0.059245203 -0.055586647 -0.056645043 0.04754969 -0.07419241 0.051666126 0.036706194 -0.07041676 -0.04658796 -0.036255773 0.119326234 -0.018227428 0.01091353 0.05654298 -0.035777073 -0.004871513 0.05215102 -0.04237814 -0.12876956 -0.013214363 -0.078839585 -0.09864194 0.020593973 0.01313803 -0.030143673 -0.022918086 0.028664473 -0.077525884 -0.029286135 -0.0012039773 0.03535433 0.07652418 -0.028096287 0.019312939 -0.060402386 -0.030504445 -0.08972843 -0.09650166 0.010525195 -0.012843478 0.095233135 -0.029736169 -0.079486735 0.036088753 0.07064392 0.059016775 -0.03730864 -0.025796607 -0.110846266 -0.0150966775 0.046673004 -0.010715517 -0.10914414 0.072288215 0.029031267 -0.01615166 0.056469772 -0.012524965 0.016407434 0.018100474 -0.1226547 -0.052740782 -0.015560599 -0.003649034 -0.049251925 -2.7249511e-08 -0.0022749163 0.044046454 0.056142133 -0.01943552 -0.00042134276 -0.08759013 0.07709991 -0.009377476 -0.03630097 0.07641528 0.06173046 0.0654415 -0.004367665 0.009473072 0.02605086 -0.048286118 0.079193726 0.023138938 -0.033467412 0.0546296 -0.0588762 -0.023316404 -0.013592687 0.014028316 0.118750006 0.11875514 0.0016634788 0.051998217 -0.014933005 0.048050895 -0.10071246 0.021982646 -0.044225622 0.0342475 -0.0099565415 0.026875332 0.069868796 -0.06415605 0.04406963 -0.1517998 0.0113977045 0.023246124 0.052701227 0.04389609 0.05345639 -0.03103842 -0.098147325 0.03914281 0.024584297 -0.05542814 -0.048399452 -0.072965175 0.030399613 0.026605336 0.033435542 0.048632685 -0.030094123 -0.05847734 0.04626253 -0.014457307 0.08396354 0.09818188 -0.018562462 -0.042844094
11 -0.007919763 0.037143722 0.021607617 0.08330651 0.012788011 0.007008874 -0.011397412 -0.014580917 -0.01060822 -0.008387065 -0.040364716 0.060705554 0.011244358 -0.015218076 0.0494977 0.03500188 0.09570386 -0.036590822 -0.07267213 0.051788434 0.15122582 -0.0031862124 0.03941638 0.040692728 0.0734663 0.038088985 -0.017217314 0.051331088 -0.061132625 0.029369602 -0.02861979 -0.023200642 -0.008970622 0.033443242 0.034888685 0.06103387 0.006551308 0.02264981 0.053249694 0.022758814 -0.067276426 -0.08171968 -0.016760698 0.006111573 -0.08187747 0.047854666 0.008244384 -0.05440069 -0.03156748 0.0094965175 -0.008463848 0.03655672 -0.01473361 0.071758494 0.10017262 -0.023578823 0.027211642 -0.043603454 0.05158515 -0.00084376894 0.0028500834 -0.10143994 -0.040443845 0.020628516 0.0699273 -0.018860191 -0.019354418 0.007141505 -0.045362525 -0.09656413 0.0073401686 -0.0139711695 0.008578859 -0.04522804 -0.028613864 -0.07830985 0.088716574 0.08237776 0.103939585 -0.051465154 0.020359699 -0.007567084 -0.028732289 -0.06581723 0.05442568 -0.014599894 -0.000719982 0.026251927 0.011745636 0.014845975 -0.08907059 -0.022322267 0.056807436 0.007226446 0.03825264 0.0659679 0.009111434 -0.03107267 -0.028761627 -0.023210999 0.040954027 0.025294935 -0.05048785 -0.003574277 -0.045041803 -0.052751046 -0.07557289 0.087269396 0.0493393 -0.005439049 0.018240884 0.007392527 -0.0056562717 0.02741107 -0.046857037 -0.0028375296 0.07748064 -0.046453264 0.054673545 0.009326234 -0.008267802 -0.025491804 0.019693654 0.014237965 0.048807666 -0.06533056 -0.02223878 -7.017671e-33 -0.10367283 -0.047029268 0.01827961 0.02146367 0.017104598 -0.02296241 -0.08440482 -0.05980007 0.035732817 -0.07965456 0.061341275 -0.0007879769 0.09213057 0.12821372 0.002965924 -0.10470691 -0.11067594 0.06847621 0.05704117 -0.029916648 0.009097333 0.04026914 0.06971842 0.032995135 0.013215248 -0.05483758 0.03642779 -0.049356796 -0.02723796 0.025599293 0.0110580465 0.0435491 0.0030019402 0.005064108 -0.07376265 0.09425975 0.058631234 -0.0081849955 -0.05223273 -0.021859262 0.026944058 0.051100027 0.01686573 0.017516993 0.05429678 0.02367945 0.022069028 0.010837106 -0.0973378 -0.026019279 -0.020226855 0.040871322 0.038325507 -0.08367257 0.026755786 -0.034062527 -0.031776853 -0.066848986 -0.027152967 -0.04689283 -0.0776034 0.11479385 -0.0175012 0.011794692 -0.073348135 0.024356175 -0.09160255 0.052636433 -0.04396923 0.004017417 0.06128438 -0.01934223 0.030124785 0.0036373695 -0.042542968 0.062303696 -0.022575988 0.020898063 -0.031455006 -0.025045587 -0.091050744 -0.057318475 0.091620035 -0.0063560926 0.006255991 -0.085682146 -0.020317176 -0.0072812415 0.011765812 0.012399004 -0.055213287 -0.022708924 0.054499693 0.030888777 0.035502285 1.6987087e-33 -0.02259532 0.043066498 -0.039473664 0.030479936 0.048184197 -0.00295591 -0.0574216 -0.11403238 0.054259337 -0.009142699 -0.069219604 -0.037375078 -0.04969701 0.036883418 0.035063993 -0.00028023496 -0.017565021 -0.03560086 -0.02873301 -0.0059339018 0.008016964 0.0043607336 -0.07127093 0.04891691 -0.026995292 0.013418451 0.0011879819 -0.06442909 0.062900685 -0.030336225 -0.08982849 0.02311559 -0.09768783 0.025391795 -0.07454705 0.06603753 0.047594078 -0.023333961 -0.010336226 -0.02920806 0.123852655 -0.0362769 0.01502181 0.06476035 -0.101897374 -0.06832826 0.00050628703 -0.018517086 -0.12362539 -0.023830594 0.041665375 -0.04568091 -0.008147853 -0.02127472 -0.073220156 0.011458449 0.09583734 0.017540174 -0.0023285435 -0.0053959647 0.042113606 0.03357466 0.026087202 0.006471982 -0.037619047 0.015303397 -0.083045915 -0.036799908 0.08621368 -0.056852687 0.031072596 -0.06687942 -0.102010086 0.021513125 0.04329453 0.064806946 0.06752664 -0.039942767 -0.07703395 0.006714614 0.017749542 0.009861621 -0.042785477 -0.068114236 0.060137577 -0.07617531 -0.013491178 -0.080345325 -0.017393759 0.051369987 -0.10032603 -0.05798631 -0.031307478 -0.02586158 -0.08347728 -2.5327237e-08 0.021299751 0.016756825 0.07989272 0.0012278494 -0.041447215 -0.01159775 0.066410415 0.0027245602 0.005352874 0.06814282 0.11303624 0.023848535 0.07645762 -0.028173719 -0.0073619164 -0.018114913 0.0121915545 0.025380319 -0.035477966 0.021388885 -0.020174986 -0.008181511 -0.064607956 0.07581618 0.059460074 0.089808434 0.06408345 0.048839606 0.021261469 -0.001326956 -0.09903126 0.06258526 -0.05024185 -0.052340556 -0.0153368795 -0.057279363 -0.022466851 -0.046421655 0.034757834 -0.08915188 -0.02544986 0.030898944 -0.0072695203 0.032512195 0.024759019 -0.020579489 -0.1509124 0.04871388 0.056148198 0.1013694 -0.021642016 -0.0032727288 0.004850566 -0.037404917 -0.026803168 0.07542094 -0.06798881 -0.021993635 -0.015063346 -0.090140074 0.1399546 0.0253786 0.017250547 0.015691146
12 0.011223443 0.06927272 0.0716323 0.007108801 0.06365064 0.045867283 0.005724709 -0.008040927 -0.05296034 0.033933617 -0.01690107 0.06269676 0.020330563 0.004030726 0.0022584228 0.06105189 0.027633807 -0.021919042 -0.08094659 0.06598147 0.074883215 0.037583925 -0.0035457292 0.037240308 -0.066190325 0.018824587 -0.026432376 0.025979271 -0.048912928 0.019492853 0.002335874 0.011202671 0.048507553 0.035623465 -0.0047694263 0.030337822 0.021683866 -0.05815917 0.029679786 0.0018392056 -0.09388026 -0.025385438 -0.07817184 -0.024192292 -0.0966438 0.03020799 0.053183883 -0.04215717 -0.040341265 -0.015202831 -0.0012973343 0.08790087 -0.050828863 0.036948767 0.05943347 -0.09473307 -0.0314903 -0.04773353 -0.01758522 -0.021301944 0.03851848 -0.10092096 -0.061753895 0.034865174 0.063382655 -0.0033396292 -0.10501121 0.036841422 0.013384883 -0.04690534 -0.011346928 0.036230855 0.016916363 -0.023510652 -0.0016867584 -0.0044411058 0.047172368 0.08786814 0.097505815 -0.09308048 0.037103973 -0.01297703 0.02252383 -0.06633603 0.028992422 0.0029678019 -0.054777198 0.00044305346 0.0033965104 0.004536246 -0.03624887 -0.0695674 0.07326344 0.022004677 -0.03864906 0.04123356 0.033495538 -0.024216056 -0.0024731902 -0.010863641 0.054397993 -0.030170746 -0.08832496 -0.059002917 -0.045601368 -0.05456829 -0.004251136 -0.006128584 0.015903154 0.0105630765 -0.0233771 -0.000622565 -0.005178057 0.07164558 -0.020781264 0.05725436 0.076153286 -0.06385549 0.08555564 -0.031955857 0.012132076 -0.04033599 0.03188927 -0.0061337845 0.07626072 -0.03826663 -0.007779256 -6.920809e-33 -0.051135983 -0.0421371 -0.008243935 -0.026966542 0.025486652 -0.01747584 -0.00802356 -0.067468956 0.013603076 -0.04481097 0.05157521 -0.05022898 0.0034284722 0.08024404 0.041633744 -0.049473893 -0.16004029 0.05271483 0.028155757 -0.034199905 -0.0015104512 -0.021060608 -0.003117516 0.08832523 0.046842027 -0.114766344 0.043603066 -0.027160695 -0.016360426 0.04075503 0.051190626 0.0751894 0.0031299014 0.042052206 0.023047768 0.12160381 -0.037141338 0.0323367 -0.064802565 0.0183605 -0.030628368 -0.015551271 0.05822511 0.027474284 0.11222532 -0.058647692 -0.023670558 0.009369123 -0.056668982 -0.05474877 -0.018349933 0.055663552 0.03661955 -0.12875035 -0.010704228 -0.03357247 0.0019367766 -0.062750965 -0.065261416 -0.0014469808 -0.091816455 0.12094731 -0.017113568 0.011551037 -0.05790772 0.008937173 -0.028572323 0.06771701 -0.009195561 -0.041022856 0.02218139 -0.009536756 0.028620858 0.029722549 -0.12089671 0.02694706 0.00054051896 0.02187716 0.02638319 -0.018796181 -0.11094523 -0.025993682 0.046661615 0.0054224115 -0.012094971 -0.04274126 0.033506684 0.04485057 0.07426067 -0.008697451 0.013587139 -0.005291904 0.0028314462 -0.027895803 0.027608741 7.775169e-34 0.018304866 -0.0038828787 0.025738198 -0.017469803 -0.003991284 -0.030472338 -0.065730095 -0.03321441 0.08301701 -0.024923205 -0.10689903 0.078553945 0.010634472 0.058453426 0.029992368 -0.038542014 -0.04786384 -0.017724812 -0.032527827 -0.051473252 -0.020662496 0.008139933 -0.028043242 0.10032978 -0.07977347 -0.02381005 -0.013779422 -0.074145004 0.13271374 -0.022255413 -0.084377505 0.03951886 -0.09755127 0.02236495 -0.06505454 0.004519355 0.04031883 -0.063672476 -0.018277874 -0.049560234 0.120893486 -0.07028696 0.0029588903 0.021472368 -0.05944526 -0.02108001 -0.009168936 0.00053640804 -0.055364978 -0.009071389 0.022044621 0.02018569 0.027224123 -0.044328243 0.017880669 0.008864301 0.10571042 -0.025587609 0.017117236 0.05727585 0.055119768 0.11713772 -0.041388154 -0.012825869 -0.013823773 0.034850992 -0.08771235 0.014807373 0.056581505 -0.021541635 0.017485704 -0.070827425 -0.10542 -0.029714942 0.028402606 0.0008427276 -0.028926594 0.011639022 -0.11108502 0.075652204 0.078575306 0.011763746 -0.09114186 0.02180295 0.105287865 -0.05791932 -0.05704011 -0.07310129 0.004563304 0.062704235 -0.121240996 -0.06466304 -0.11268575 -0.0025965022 -0.063286684 -2.6043816e-08 0.045352694 0.030688828 0.057339948 0.022947408 -0.032493036 -0.013905347 0.05079586 0.026225166 -0.018581616 0.065949194 0.050705172 0.02728451 0.027377373 -0.018393712 -0.0067059253 -0.070965 0.047881547 -0.02659706 -0.061805993 0.024195872 -0.029942924 -0.033904504 -0.04304228 0.08379418 0.027166119 0.07018354 0.055744857 0.012554183 0.024895826 0.0075048436 -0.048750818 0.089849524 -0.08833159 0.008334293 -0.0016509965 -0.039071918 -0.017318329 -0.024097964 -0.0014876389 -0.079182655 -0.06861759 0.060002465 0.02421728 0.05138304 0.10377128 -0.012356657 -0.09009872 0.033215962 0.058349706 0.040782575 -0.016018897 -0.07110755 0.027509194 0.027466001 -0.032456692 0.046990562 -0.02670419 0.002507417 0.017851502 -0.07653691 0.06015359 0.03990873 0.088982284 0.03414207
13 -0.018199705 0.008920811 -0.04376305 -0.019126229 -0.03245602 0.078748226 0.028050805 0.018527027 -0.017687036 -0.010818685 0.0649712 0.07404463 0.04138794 -0.041429695 0.024309007 0.072051205 0.056175865 -0.024153406 -0.0767744 0.07602896 0.07012385 -0.020383013 0.017817784 0.06660812 0.015790448 0.042504236 -0.03355294 -0.013722862 -0.07004751 0.022495955 0.045009453 -0.021503761 0.08452278 0.06466154 -0.0107542435 0.034180615 0.03759117 0.0169185 0.042170655 -0.008158056 -0.016456684 0.027385604 0.02419393 -0.037823834 -0.04794362 0.021156695 0.0043259216 -0.022020625 0.014062186 0.06122856 -0.040887278 -0.008305103 0.024969887 0.06371989 0.13349341 0.0352764 -0.03257218 0.0066770036 0.0026036073 0.01963141 -0.007880512 -0.043372978 -0.052106746 0.00090092554 -0.02418064 -0.0025004763 0.00043594156 -0.031162573 0.009479652 -0.0459573 -0.068852805 0.098753266 -0.020155955 0.08790382 -0.044452783 -0.022607347 0.08129243 0.09115206 0.039355636 -0.076924354 -0.05952459 0.015173681 -0.032047193 -0.054669768 -0.0178358 -0.017159635 -0.0674784 -0.010518017 0.0018537104 0.023304496 -0.08151257 -0.045266174 0.077716276 -0.05576213 -0.035108104 0.00137717 0.050062675 -0.024658617 -0.06681997 0.011118359 -0.0024470133 -0.04270638 -0.009798749 0.019804312 -0.07348261 -0.033593733 -0.026432069 -0.0034273656 -0.053064775 0.0057010204 -0.045103632 -0.0050719655 -0.023186931 0.04785898 -0.023481835 -0.010484063 0.055330068 0.00024017788 0.01093695 -0.01765528 -0.005288178 0.015292486 -0.02869209 -0.025249308 0.0052581504 -0.058889326 -0.029418847 -6.322761e-33 -0.07861812 -0.021503149 -0.056897223 0.065758556 0.042391874 -0.043491818 -0.016101314 -0.029765168 0.051928304 -0.0520556 0.0952818 -0.07092482 0.049206153 0.03813555 -0.034471076 0.008159801 -0.20077933 0.11516727 -0.007180551 0.04607416 0.022116354 0.09021319 0.011198079 0.016110139 -0.038234603 -0.09952143 0.04452759 -0.0059408518 -0.09160234 0.021693764 -0.0039728507 0.057485398 0.06340262 -0.056292646 0.0025327355 0.07228184 0.061433215 -0.0071362653 -0.015843185 -0.014354351 -0.037137832 -0.043436732 0.049290445 0.060986508 0.03393555 -0.015211133 0.01546625 -0.04874753 -0.07357498 0.028018454 -0.026818195 -0.0028204175 -0.0060502444 -0.062331792 -0.02447053 0.0015278816 -0.024301538 -0.029586798 -0.04926604 -0.028549299 -0.00094278855 -0.02959963 -0.014805703 0.042186625 -0.112704754 0.025332846 -0.026702497 0.09677479 0.059452802 -0.0048720557 0.06322774 -0.019349404 0.0005631954 -0.013923674 -0.10430791 0.09890584 0.0072153504 -0.0103713665 0.0056384928 -0.041309427 -0.07126732 0.06771037 0.13481393 0.024779553 0.04281145 -0.056395177 0.043518387 0.028871482 -0.002508393 0.029506817 -0.072662905 -0.06337983 0.045762263 -0.014425406 0.051819813 1.2942536e-35 -0.026456414 -0.0022958734 0.014949968 -0.051336545 0.07154512 -0.06056954 -0.008028159 -0.073770344 0.107160285 0.019608743 -0.12151437 -0.0017232252 0.027082965 0.049703367 -0.06794627 -0.042338047 -0.0036097837 -0.08334707 0.05928704 -0.04048308 -0.00070438953 0.027480835 -0.037652574 0.03259499 0.025652206 -0.050648995 -0.058699135 -0.009366618 0.020313611 -0.03687378 -0.0483956 -0.013205743 0.022083124 0.012409165 0.03847372 0.058109812 0.0066967634 0.001474071 -0.03251255 -0.08176022 0.113022916 -0.042302415 -0.00393667 0.060224105 -0.062261693 0.020839358 -0.005732165 -0.031202454 -0.08229076 0.007385023 -0.060537837 -0.039680194 0.09356412 0.02580069 -0.014600564 -0.010486262 0.058069732 -0.0381325 0.00093308324 0.042155113 -0.050253175 0.0352169 -0.07658186 0.011784466 -0.033786725 -0.018625982 -0.18763103 -0.06758184 0.065812275 0.068648465 0.025178324 -0.16073665 -0.06497908 -0.010421098 0.010714751 0.044310138 -0.02326056 0.022434628 -0.0614113 0.056125276 0.016869824 -0.04955427 -0.023151996 -0.021621738 0.03134604 -0.048033234 -0.007210446 -0.0063378555 0.013796919 0.036722496 -0.038829323 -0.08750615 0.011759864 -0.072711654 -0.07008062 -2.54227e-08 0.09395557 0.018527623 0.057227656 -0.013769066 -0.015640536 -0.054718394 0.06713864 0.027461497 -0.05553112 0.10275607 -0.001042713 0.029260961 0.03519476 -0.09605778 0.025171455 -0.05271871 0.033447202 0.01401999 -0.026060982 0.041219722 0.028292587 -0.025812555 0.0039234236 0.08294042 -0.009900571 0.06768989 0.06548469 0.02734857 -0.050995346 0.0251247 -0.0390287 0.060744967 -0.11374938 0.002892324 -0.01131706 -0.041447777 -0.05354527 -0.002822924 0.043677874 -0.084608726 0.010232932 0.035593618 -0.0038934976 0.011425065 0.06032395 0.034157526 -0.07541652 0.067425676 -0.0041146385 0.05205213 -0.08480983 0.0022841473 -0.082769856 -0.06885321 -0.0028595363 0.06616208 0.008591811 0.01953527 0.021019699 -0.05402322 0.11443903 0.10728539 0.12078773 -0.014782151
14 0.046514146 -0.040867794 -0.08924642 0.03049884 -0.010533023 0.035656475 -0.006623803 0.017170796 0.0157055 -0.035370708 -0.042537346 0.063187994 -0.00405457 -0.026819829 0.020440284 -0.02449224 0.0129482085 -0.032083526 -0.03328523 0.11169833 0.05570047 -0.020569948 -0.009851859 0.04091775 0.041927062 -0.014868604 -0.006535301 0.008166716 -0.091571935 -0.024592763 -0.012939277 0.054069463 0.095574245 0.021974027 0.02627586 0.028788775 0.037856363 0.03242808 0.070762664 -0.0018565548 -0.048484847 -0.04897355 -0.01058052 -0.0044827913 -0.029837407 -0.010933432 0.041643072 -0.00011453705 -0.004707732 0.061650485 -0.08617041 0.07518021 -0.0010756019 0.06882635 0.097102575 0.036285326 0.028059807 -0.025162974 0.029043406 -0.006797237 0.0006352325 -0.060134016 0.029034635 0.018009774 0.063777916 0.019432371 -0.02192225 0.022692211 -0.07255135 -0.026293524 0.018724475 -0.05620053 -0.042233884 -0.016492503 -0.0178786 -0.054734845 0.08424803 0.14909448 0.077638194 -0.059093095 0.029987548 -0.0038796933 -0.060700975 -0.064216234 -0.055000346 -0.026171258 -0.034223 -0.022640435 -0.01887087 -0.008566456 -0.01869331 -0.035055306 0.01745768 -0.02447601 0.011005511 0.013654551 -0.01584527 -0.051752437 0.0290527 -0.021864785 0.06257316 -0.035369772 -0.029548109 0.0027203981 -0.079759635 -0.032576546 0.04151247 0.09772387 0.042612378 -0.039310347 0.005172362 0.040317368 -0.029719766 -0.011527226 -0.034739524 0.031701073 0.019894214 -0.035757244 0.06735253 0.04509186 -0.0133011965 0.017204504 -0.062368438 -0.029015664 0.009640746 -0.069796495 -0.10855261 -7.496849e-33 -0.054721378 -0.07410662 -0.02236748 0.019609354 -0.02216988 0.009712133 -0.042923722 -0.04774464 -0.021646282 -0.061342973 0.061522003 -0.020946464 0.018968811 0.00059920957 0.03940783 -0.060526233 -0.15418977 0.08278769 0.055257957 -0.011927375 0.02201429 0.058504008 0.04952642 -0.04223405 0.06019342 -0.083823726 -0.01749045 -0.061819255 0.028784813 0.043413717 0.017790241 0.065386154 0.027005695 -0.002823465 -0.06264449 0.080108285 -0.004962369 0.030176412 -0.0549879 -0.016487123 -0.020240838 -0.013281472 0.0076495106 0.0045943195 0.012189202 0.061117873 -0.02177315 0.050832786 -0.07336124 -0.05252409 -0.037324466 0.045921106 0.049686875 -0.15737154 -0.0038695803 -0.011841188 -0.06183825 -0.09396118 -0.12280399 -0.0640973 -0.05670129 0.01811391 -0.04049426 -0.008383879 -0.17223176 0.09618136 -0.045334645 0.09667281 0.0076154033 0.026167754 0.008591477 -0.010673929 0.01080496 0.06796907 -0.05266875 0.0764392 -0.0136209205 0.020560637 0.044755977 0.026422372 -0.0968866 -0.013260586 0.041433766 0.06260731 0.048554152 0.031386722 0.056131527 0.004956103 0.09625233 -0.038808525 -0.10616986 -0.05940173 0.02133045 0.00539822 0.11881879 -2.432311e-34 -0.0061822343 0.030801682 -0.0139375925 0.0008849923 -0.02576726 0.029282661 -0.016158903 -0.06786166 0.0675256 0.024872188 -0.10647751 0.0108625945 -0.06388338 0.052897956 -0.059983067 -0.053833794 -0.020252468 -0.085098386 0.018947521 -0.031901993 0.025696317 0.0120965885 0.008385783 0.019440005 0.020496802 -0.025942797 -0.06716157 -0.034726065 0.043046243 -0.010643142 -0.005405734 0.0067157606 -0.056423552 -0.0138721205 -0.082181394 0.022008564 0.026088197 -0.06185944 -0.017027624 -0.04582048 0.12875132 -0.08635335 0.00973806 0.019312613 -0.021578012 -0.078305565 0.034540106 0.01308079 -0.03945566 -0.03932267 -0.010451642 -0.022791421 0.07502298 0.016218884 -0.07619294 0.081545204 0.064505085 -0.0011821438 0.020816058 0.073467396 -0.015103545 0.08930789 -0.023850815 0.047455892 -0.039680082 -0.035526283 -0.097524844 -0.0768153 0.0446263 -0.014916145 0.041705698 -0.08263825 -0.049883414 0.08096812 0.017775737 0.13682711 -0.035038028 -0.05835558 -0.06438389 0.057244483 0.102173954 0.02896049 -0.04009434 0.038365606 -0.019117134 0.000497027 0.029844554 -0.03271281 0.009402925 -0.038949087 -0.12159886 -0.05939962 -0.01938559 -0.040723152 -0.11017049 -2.7990053e-08 -0.017108636 -0.019547446 0.017731678 0.02040036 -0.0074053137 -0.028517434 0.016785197 -0.021627402 -0.021829454 0.07831937 0.06844766 0.04895911 -0.05629638 -0.05416935 -0.045289375 -0.045661677 -0.027912643 0.01893943 0.016372776 0.012614696 0.048967283 -0.023526125 -0.022649042 0.059320588 0.036494475 0.030091383 0.06845666 0.05559397 0.031053552 -0.048814937 -0.06471073 0.05419108 -0.044538967 -0.022315416 -0.02207391 0.014649488 0.010706697 -0.03175914 0.05613899 -0.10173034 0.013551975 0.006918686 0.012905667 -0.003158541 0.067496255 0.000614847 -0.09055319 0.04384296 0.082837045 -0.0483267 -0.0559522 0.0018353408 0.031282347 0.0031028152 -0.006182225 0.046397697 -0.058623992 -0.0017320198 -0.028883513 -0.11746326 0.101687886 0.031939134 0.088428594 -0.015658462
15 0.023236904 -0.093592934 -0.062214736 0.0029050824 0.006617073 0.03633851 0.024392752 0.0413022 -0.028463876 -0.028382448 -0.045572363 0.06932525 -0.022815356 0.050986934 -0.022285817 0.03278859 0.0009685484 -0.024934866 -0.042319268 0.06831567 0.056253992 -0.03693201 0.0046091 0.017770639 0.040631108 -0.03485298 0.014363504 -0.04754234 -0.044787712 0.0074471724 -0.029549371 0.04812467 0.038416076 0.054022677 0.024727907 0.0038288485 0.044642583 -0.004223781 0.09465107 -0.029825281 0.022202572 -0.031319328 0.038323127 -0.0103606945 -0.05423103 0.007091151 0.04047418 -0.0027632024 -0.0011487721 0.087908685 -0.064717814 0.10241461 -0.031210078 0.014726247 0.09177999 0.043698557 0.0258318 -0.034117922 0.024059692 0.010072623 0.010300639 -0.06276586 0.023275899 0.027131151 0.045167204 -0.06165761 -0.011032663 0.01592499 -0.0984062 -0.03573774 -0.0032536401 0.00043619575 -0.057725694 0.02422342 -0.009191507 -0.08299455 0.113534816 0.07263087 0.03349569 -0.072741374 0.0075343098 0.075474784 -0.0283038 -0.13106933 0.0034291889 -0.049852178 -0.03189075 -0.0043504494 0.0010605569 0.024733974 -0.016971488 -0.10334369 0.014855639 0.016545922 -0.009370747 0.027945176 0.045620017 0.02048163 -0.0046885125 -0.0010442822 0.089636095 -0.037986483 -0.06371693 0.023230925 -0.10647057 0.003059966 -0.037430476 0.030601297 0.0018385134 0.023993181 -0.07866234 0.019700868 -0.056650843 0.009990279 -0.06698285 0.030662913 0.047875024 -0.059696734 0.04244321 -0.009506671 0.008994642 0.0051110215 -0.023905909 -0.037948232 -0.067929156 -0.045085877 -0.08233071 -5.481504e-33 -0.07682509 -0.06783141 -0.048744 0.019439401 -0.057738453 0.013801334 -0.02685469 -0.016324855 -0.031027216 -0.04081342 -0.022450954 0.0023064911 0.01045284 0.08755936 0.04160777 -0.022626275 -0.10442009 0.08276076 0.1013316 0.029790172 0.08556263 -0.0028521765 0.05472938 0.01265396 0.07002558 -0.047872312 -0.028059069 -0.066332765 0.015554933 0.04007857 -0.008563219 0.06075869 0.046556197 0.016159272 -0.07989005 0.09123466 -0.01491815 0.01355389 -0.070905745 -0.011237417 0.013558825 0.03739051 -0.017676396 0.049236167 0.049986415 0.023806643 -0.035174955 0.061218817 -0.04635345 -0.017950866 -0.04182026 0.029069226 0.0028309496 -0.1726679 -0.012711801 -0.008255372 -0.08652956 -0.0669117 -0.08353524 -0.07011889 -0.06255798 0.006308179 -0.026990201 0.05811271 -0.117060065 0.11828931 -0.079987906 0.036765013 -0.013740622 -0.022111824 -0.011801022 0.015673878 0.06517793 0.038781248 -0.060819183 0.08673102 -0.006599017 0.031705108 0.082898945 -0.043765966 -0.116124585 6.485522e-05 0.06712507 0.09120171 -0.03590471 0.034957536 0.01534937 -0.0024455762 0.10493805 -0.014550043 -0.095963195 -0.034926277 0.00076292176 -0.049675927 0.11298787 -6.4256103e-34 -0.007159499 0.032926954 -0.017743548 -0.036434814 -0.004879279 0.024391241 -0.007902331 0.006830974 0.048290163 -0.0045771697 -0.06402403 -0.031767398 0.00853343 0.09099408 -0.027340636 -0.039755344 0.02943739 -0.034179676 0.002146859 -0.02368111 0.055124626 0.04277584 -0.012479248 0.010428377 0.017199054 -0.041287046 -0.010828973 -0.07614953 0.04723968 0.019360917 0.0028565216 0.060808677 -0.055118542 0.014313784 -0.10316972 0.054366045 -0.0004298484 -0.040443458 -0.008263639 -0.041488364 0.105824225 -0.042689234 0.020922385 0.05467571 -0.09201708 -0.04445644 -0.012041397 0.00819136 -0.03968715 -0.057230704 -0.027320996 0.031169135 0.025067186 -0.030076388 -0.10016038 0.06269538 0.04249285 -0.019307565 0.071138255 -0.0065514976 -0.045441043 0.11196573 -0.030572483 0.017444555 -0.015671905 -0.019807914 -0.038590662 -0.06441148 0.125399 -0.02901512 0.085291274 -0.051609054 -0.08011552 0.076840654 0.086000115 0.06583637 -0.02763085 -0.050772123 -0.031570077 0.045419235 0.08312868 -0.020021647 -0.016207805 0.025721058 0.04381473 -0.02988022 -0.030969488 0.009599878 0.015326783 -0.033671096 -0.11661269 -0.039692253 -0.04711717 -0.089990795 -0.07404447 -2.5646774e-08 -0.040845152 -0.044244613 0.00046448485 0.09240321 -0.10109765 -0.016713826 -0.010721517 0.023607448 -0.035691272 0.07897571 0.04784196 0.052437015 -0.036034994 -0.06320247 -0.074372776 -0.015349406 -0.00962636 0.08523203 0.0025204814 0.009181178 -0.0013899254 0.0088925185 0.003253523 0.024653383 0.03154463 0.048965365 0.018436221 0.031277183 0.024484638 -0.058864214 -0.05417632 0.105885655 -0.049425572 -0.00995005 -0.021490237 0.018391095 0.050427537 -0.053201936 0.02214931 -0.10584677 -0.027627623 0.0460794 -0.0036434662 -0.0070623197 0.076237686 -0.025451712 -0.10361481 -0.034400318 0.10164197 -0.029526798 -0.04224831 0.01970938 0.0404285 -0.02407718 0.029466916 0.07759525 -0.07193793 -0.004728597 -0.0036781481 -0.04985986 0.008143429 0.024322135 0.06153418 -0.0294627
16 0.087171346 -0.060948785 0.016078122 0.007271946 -0.024915861 0.033126306 -0.025519647 -0.021800142 -0.015585315 0.027566487 -0.04098018 0.04585293 -0.00010847962 0.0046596206 0.028160617 0.04633012 0.056264345 0.0072081587 -0.024068497 0.072578676 0.10580987 -0.019274797 0.020676762 0.06587729 -0.017592657 -0.02971089 -0.016316418 -0.004772793 -0.086289145 -0.016548073 -0.008833502 0.056751326 0.06876839 0.06797585 -0.008052452 0.017186392 0.0054797106 0.0035445436 0.050409712 0.004052143 -0.048051096 -0.021689428 -0.010490806 0.039335143 -0.054228056 0.056743797 0.06947623 0.019864488 -0.030981231 0.05469092 0.0074088997 0.03728959 -0.026253214 0.056745153 0.061670274 -0.019734735 -0.0053086826 -0.017646305 0.023565197 0.0026914733 0.022130102 -0.05903078 -0.03040652 0.023189625 0.06451287 -0.018466113 -0.08456397 0.000553172 -0.041919876 -0.09000022 0.04317425 0.027762067 -0.027959647 0.018588256 0.023980586 -0.0473514 -0.003108457 0.11849099 0.052539796 -0.09970296 0.03801515 0.10764883 0.046365038 -0.051074293 0.010503666 -0.04262376 -0.032119807 0.03370361 0.005704471 -0.029257257 -0.0036521624 -0.027696468 0.06680575 -0.03883462 -0.03979811 0.026850525 0.009013044 -0.041945677 0.02965692 -0.0062922672 0.025221994 -0.04669489 -0.050707918 -0.023756947 -0.06131908 -0.017583534 -0.042476106 0.014477294 -0.024800073 0.046714015 -0.020951463 0.011083974 -0.049598284 0.052785676 -0.0005896767 -0.019611761 0.051542755 0.024037948 0.035722997 -0.02032756 -0.09598124 -0.054470796 -0.02486241 -0.03234517 0.056111738 -0.024307631 -0.057654485 -7.80837e-33 -0.00065290544 -0.09231433 -0.040831972 0.107922904 -0.020565554 0.0053670877 0.01068187 -0.08079506 0.031983245 -0.040596105 0.079581775 -0.012330056 0.084481694 0.08555487 0.10770961 -0.045137856 -0.1135443 0.07531435 -0.016410267 0.038202457 -0.019094449 0.05154957 0.0066436143 0.020965628 0.047304608 -0.04469925 -0.042900387 -0.012986812 -0.090317845 0.04247249 -0.006389264 0.0040415246 0.034988683 0.007907426 0.014681923 0.1178752 -0.012599782 -0.027966138 -0.04876432 -0.022979748 -0.022502262 -0.02000387 0.0030603139 0.041439645 0.06585113 0.00053851854 -0.007905117 0.046050362 0.0110041285 0.0030590382 0.0012920494 0.034500036 0.07719258 -0.15640868 0.026471306 -0.009430068 -0.053601626 -0.07233069 -0.012920036 -0.004006624 -0.0005624697 0.0859151 -0.04557278 0.018404676 -0.08790961 -0.03490747 -0.095781505 0.06179553 0.05466416 -0.037865166 0.044876132 -0.00070121273 0.049812164 0.08504267 -0.12248014 0.03169539 -0.029026331 -0.021242442 0.02424915 -0.018199217 -0.11064312 -0.013119178 -0.017240576 0.03167706 0.05517473 -0.035865042 0.07636125 -0.020372747 -0.0025762455 -0.03506031 -0.09510123 -0.022857945 -0.0296666 0.008577268 0.05327176 6.0831314e-34 -0.034855016 -0.044026364 0.015322596 -0.035363387 -0.040230952 -0.015475263 -0.03406241 -0.07071558 0.06029064 -0.025708897 -0.1778894 -0.020133773 -0.0028697224 0.06532709 -0.0039997194 -0.022013815 -0.039014284 -0.06103917 -0.013111615 0.009963582 0.000813465 0.021738444 -0.010635907 0.033400714 -0.024503477 -0.058268156 -0.017404689 -0.09538255 0.0669501 -0.024628887 -0.07851639 -0.06666723 -0.07173065 0.0043571736 -0.09979839 0.0021184671 0.051764086 -0.08111757 0.012056336 -0.07755246 0.13031325 -0.03808871 0.0498768 0.06286025 -0.09585596 0.0052302354 -0.01219141 0.06865139 -0.13597155 -0.03542783 -0.052539267 0.0076659657 0.04311757 0.039702002 0.02541563 0.050710592 0.00969944 -0.0029849526 0.090177365 0.024079418 0.0036569603 0.097603865 -0.05589317 0.03499143 0.014593828 -0.007175083 -0.086096585 -0.010171715 0.0456022 0.0375713 0.0399738 -0.08762993 -0.12947251 0.005594416 0.011807571 0.07554869 0.013641596 0.005014935 -0.083563104 0.021593997 0.07152951 -0.0062147123 -0.072062165 0.008480824 0.099336766 0.027477399 -0.011413001 -0.045211043 0.014992623 0.038072232 -0.10305755 -0.06384885 -0.058943123 -0.040295023 -0.08769648 -3.1792613e-08 0.021995394 0.024425313 0.027400393 0.019434016 -0.046167158 -0.041180585 0.05181965 0.04376964 -0.042351913 0.09968073 0.06897871 0.0397423 -0.045556743 -0.07411985 0.041724015 -0.05649946 0.019774143 0.038088042 -0.039703265 0.061426304 -0.033943627 -0.038732395 -0.051252466 0.039138053 0.02109342 0.076244645 0.035517424 0.015980648 0.0046418426 -0.03968315 -0.010349431 0.04508666 -0.08196363 0.01516962 0.030049028 -0.02108503 -0.05618733 -0.026480546 0.049854394 -0.11471145 -0.0274884 0.016442003 0.036532167 0.05201723 0.09092086 0.009628677 -0.07604765 0.053556975 0.034117147 -0.014306608 -0.12748358 -0.040846173 -0.045080204 0.009458166 0.02146357 0.066798195 0.017056415 -0.03760027 0.032899395 -0.039313644 0.041663107 0.09658293 -0.0022616738 -0.045891378
17 0.008691304 -0.063730195 -0.0044596256 -0.021090915 -0.06795378 0.02459919 0.040935207 -0.008303852 -0.029882807 0.02925613 -0.02474748 0.10437039 0.014273379 -0.002216414 0.0476869 0.05488482 0.052217647 -0.0243322 -0.08528821 0.089002594 0.1318322 -0.024913764 -0.04775296 0.08381831 0.032492504 -0.0028198396 -0.08207078 -0.006895355 -0.08626875 -0.028080432 -0.014872413 0.024278248 0.066439755 0.05700479 -0.00060401735 0.037163813 0.04675165 -0.0473064 0.08208425 -0.017753575 -0.008695928 -0.038673867 -0.022283355 0.012473189 -0.088065445 0.056587536 0.05417799 -0.03288296 -0.009990784 -0.001957196 -0.04753814 0.074844 -0.040434532 0.061980546 0.10225482 -0.020347273 0.015699992 -0.014440064 0.03887101 -0.045596886 -0.00321967 -0.063600235 0.026667362 0.03671137 0.0016550139 -0.026615895 -0.040089455 -0.04448539 -0.026563406 -0.09127521 -0.0009753175 0.018574411 -0.002747 0.017070226 -0.0063760574 -0.08418063 0.08118414 0.11306708 0.08255107 -0.07890804 0.04552872 0.029815575 -0.0062781316 -0.02865433 -0.021747768 -0.061580382 -0.06296663 0.020823453 0.02112469 -0.015819091 -0.042159136 -0.027690696 0.021142798 -0.0291478 0.003207418 0.025785819 0.03190934 -0.021612454 -0.011844311 0.02526417 0.021651346 -0.004527486 -0.07067474 -0.07200162 -0.09206495 -0.008673721 -0.062492635 -0.0037749675 -0.028887752 -0.021076513 0.0052990764 0.017668504 -0.013816121 0.030400632 -0.018157365 0.042031437 0.030795567 0.018102098 0.014613018 -0.020826874 -0.033117346 -0.02968319 -0.0025516935 -0.025203954 0.019211022 -0.048492305 -0.02096157 -7.367825e-33 -0.062155616 -0.10657138 -0.048792668 0.10045783 0.025290921 -0.022540126 -0.052129082 -0.06996141 0.04821642 -0.05782185 0.048547283 -0.01192922 0.0589327 0.04658771 0.07138161 -0.053490374 -0.13676856 0.07725939 0.025832657 0.029850278 0.027828962 0.023924705 -0.024389563 0.017558923 0.10042647 -0.04286038 -0.003385092 -0.03347023 -0.028882885 0.02540446 -0.0024612835 0.08235656 0.03381815 0.011704034 0.001408554 0.12852691 0.0077251256 -0.014325098 -0.010657055 -0.026174385 -0.015264049 -0.0051666587 -0.036939062 0.046361353 0.030824061 0.02639799 -0.042009097 0.027862916 -0.017423052 -0.031039588 0.025831869 0.020728206 0.06628001 -0.10526587 0.0012975507 -0.01463048 -0.034013994 -0.07221694 -0.036058817 -0.012420764 -0.015791195 0.020719685 -0.038686313 0.050514385 -0.09792226 -0.0034298226 -0.10059985 0.07690608 0.051111154 -0.024262004 0.036832158 -0.01052162 0.033754684 0.021185614 -0.09830897 0.06923588 -0.02302574 -0.01567325 -0.00015955632 -0.008480078 -0.07148629 0.003809032 0.10457447 0.0061766207 0.071515135 -0.0046230005 0.05248205 -0.0053327833 0.04818695 0.012672559 -0.10660741 -0.03790878 -0.01972908 0.011250619 0.07146053 -5.8041635e-35 -0.02578771 0.006269332 -0.028036525 -0.010705434 0.0063427845 0.040477026 -0.029285818 -0.1240855 0.09047879 -0.017692383 -0.13228348 -0.008514602 -0.033755876 0.05125156 4.433433e-05 -0.058592767 -0.0076426123 -0.059801757 -0.014104327 0.026431266 -0.0028706698 0.032101437 -0.082624525 0.017840255 0.006840175 -0.04061297 -0.041965403 -0.08104797 0.11459999 -0.004497808 -0.050462518 -0.05240941 -0.07445077 0.0034935754 -0.06419807 0.07063261 0.060029365 -0.0443211 0.03482342 -0.09275589 0.09924576 -0.08833406 0.012845588 0.06415434 -0.1073927 -0.049840916 -0.026163438 0.008034125 -0.14618883 -0.042743567 -0.05307301 -0.016474297 0.030499259 -0.028883237 -0.0336406 0.08675931 0.01693025 0.011057549 0.031209052 0.05449654 0.011163371 0.0840225 -0.047637798 -0.0072139213 -0.047684893 0.034694925 -0.088830695 -0.09063772 0.06399882 0.0067313784 0.06617015 -0.08548255 -0.11064206 0.041391507 0.06328095 0.037038684 -0.024201732 -0.008777883 -0.072526865 0.067438856 0.09576379 -0.0066593 -0.03943917 0.016460918 -0.0034073126 0.0221674 0.026545713 0.027358761 -0.0054416475 -0.015840665 -0.120268926 -0.08383346 -0.01620431 -0.045816574 -0.039379828 -2.9801523e-08 0.00925267 0.031695105 0.051209237 0.015351514 -0.026476562 -0.025420884 0.07653928 -0.004627186 -0.05022966 0.027019033 0.083457306 0.027386421 -0.04378042 -0.064618394 0.014998695 -0.009825878 -0.012003415 0.030071342 -0.023352478 0.035845544 -0.010874143 -0.05313752 -0.041230284 0.08100616 0.021769434 0.10103975 0.032054894 0.04615331 0.012489353 0.00895792 -0.036130715 0.055941954 -0.061502036 0.045106035 0.008581651 0.0056121335 -0.029604334 -0.04557782 0.061267585 -0.15114391 -0.019008156 0.046608664 0.078801975 0.054400966 0.08087405 0.02888277 -0.09969218 0.006913546 0.060766168 -0.032224413 -0.024300933 -0.008817672 -0.033104904 0.013580547 -0.01652134 0.071009025 -0.028326524 0.010544756 0.020980436 -0.03876468 0.01965911 0.06529549 0.082073115 -0.030070007
18 0.045982454 0.04614478 -0.010940321 0.006876917 -0.01919824 0.08695393 -0.0008593294 0.034291644 -0.060863625 0.022922417 0.0018135365 0.11346456 -0.018461425 -0.03076517 0.042257123 -0.0074528903 0.07738636 -0.030026728 -0.075387895 0.15881659 0.05881127 0.07921471 0.044360153 0.10029893 -0.0154338805 -0.004888236 -0.01057701 -0.04668728 -0.060101777 0.028507683 0.033648692 -0.0073882993 0.06105651 0.012798239 -0.023786234 -0.005991331 0.03537182 -0.002046554 -0.019940501 0.001983199 -0.034201138 -0.037726425 -0.05196345 0.059914213 -0.012855104 0.034910128 -0.01913053 -0.0016133876 0.024726596 0.06187633 -0.09190494 0.030798255 0.020378113 0.09218403 0.12797578 -0.072115004 -0.0457792 -0.06807283 -0.076495044 0.012874185 0.0053528575 -0.068045646 0.027912304 0.049148537 0.029606171 -0.011060317 -0.0115308035 -0.023090046 -0.030517384 -0.04410128 -0.059812006 -0.0017921844 0.010501302 0.05922271 0.016222762 -0.038573276 0.029963855 0.04786466 0.10756101 -0.069675215 0.0049970946 0.026276631 0.06028772 -0.0041003623 0.006037735 -0.050983645 -0.046614468 0.015094778 -0.041971803 -0.011053254 -0.06365506 -0.03315593 0.016959686 -0.010180901 0.0057251775 0.027266141 -0.0025385057 -0.025274003 -0.016064893 0.007220059 -0.035449386 -0.057605892 -0.040276177 -0.005632165 -0.0651652 -0.03505545 -0.057833575 -0.0077836094 0.011191893 0.019523058 -0.018814104 0.03003514 0.029217362 0.031937737 0.010061057 0.045701176 0.047077373 -0.052627392 0.022781681 -0.0026171927 -0.017547077 -0.07712149 -0.0060748076 -0.01764832 0.043551445 -0.042134427 -0.0024335224 -8.694938e-33 -0.023006696 -0.07620367 0.049702212 0.06272846 0.04412864 -0.03378442 -0.013943943 -0.11201989 0.05535673 -0.10187227 0.058912896 -0.09060905 0.067203194 0.06582262 -0.016100852 -0.059162814 -0.17767203 0.11441923 -0.027430914 0.031078463 0.0070348405 -0.017057754 0.012289951 0.048575282 -0.029278312 -0.010239181 0.008015114 -0.040809322 -0.007189274 0.009107139 -0.0040158555 0.050249286 0.028289018 -0.050398268 0.0029224623 0.083857134 0.002584927 0.023213893 -0.09141793 -0.003238456 0.05094684 -0.017102351 0.048476245 0.029341813 0.109097406 -0.005750555 -0.07972304 -0.026084738 -0.096778646 -0.04760182 -0.020658841 0.03632221 0.060977083 -0.12560539 0.0060823597 -0.023084465 -0.027258659 -0.04610812 -0.11199109 0.0016926603 0.0042101205 0.07046495 -0.03402528 -0.001558196 -0.12559086 0.01298893 -0.057784837 0.005005333 0.00730257 -0.021068512 0.06006847 0.031190375 -0.024065442 -0.0009713889 -0.114170015 0.05168269 -0.027667465 -0.03573344 0.024523487 -0.0361656 -0.05320468 0.0009183729 0.04554261 0.07053556 0.03256644 -0.0039735613 0.0047946987 0.015839227 0.023821268 -0.028462425 -0.08999545 -0.0063342056 0.047331434 0.011388692 0.06206179 9.721335e-34 -0.01876883 -0.0029790197 -0.009513542 0.031564377 0.07678064 0.016945085 -0.02121781 -0.06996795 0.11521707 0.0114678 -0.030819524 -0.022648599 -0.0052381004 0.05248059 0.0031096316 0.045447893 -0.001326722 -0.082578495 -0.038983613 0.031911418 0.010690702 0.027088962 -0.038692705 0.063441955 -0.022378802 0.0124768615 -0.0249799 -0.019885212 0.08790271 -0.0901646 -0.062897004 0.040134043 -0.08997823 -0.026563104 -0.06609515 0.026573122 -0.0025365513 -0.057644885 -0.003477101 -0.0572684 0.17862411 -0.06368791 -0.025904898 0.053644624 -0.05003771 -0.03207528 0.012462882 -0.0059430054 -0.10694078 -0.010245582 0.007487729 -0.036011066 0.032820504 0.005131477 -0.043663267 0.0068738223 -0.0018452805 -0.082176 -0.004164567 0.017410498 -0.011874192 0.06937159 -0.087303735 -0.030485379 -0.03604231 -0.021525586 -0.062015705 -0.037684925 0.06707211 -0.02205076 0.011181386 -0.091642395 -0.082588926 0.00087608775 0.05475441 0.037978973 -0.008928819 -0.014926882 -0.06637511 0.042986665 0.03551246 -0.109504156 -0.048042882 -0.00034708044 -0.009397758 -0.011744976 -0.029780265 -0.022552244 -0.0012848112 0.05672257 -0.11840182 -0.049470864 -0.06694604 -0.059906576 -0.088144615 -2.7713426e-08 0.08088272 0.021731367 0.07443581 -0.012361541 -0.050128397 -0.024789708 0.01688977 0.037976686 0.013972998 0.100865975 0.038952462 0.09666416 0.029645175 -0.058127288 0.022053141 -0.021391166 -0.018340714 0.038578838 -0.03581208 0.017749878 -0.04634643 -0.055494018 0.006138865 0.068858564 -0.01014178 0.060969334 0.03840914 0.018502336 -0.012747525 -0.028106142 -0.021704255 0.07872652 -0.09074923 0.013051127 -0.035122015 -0.08262128 0.013089289 -0.04208118 0.050102364 -0.11288567 0.016498694 0.093127206 0.046385847 0.04482491 0.057507936 -0.03906347 -0.07861208 0.0690943 0.036542285 -0.007116797 -0.039503194 0.017647242 0.047776174 -0.033574548 -0.031265266 0.10136698 0.004237192 -0.01575503 -0.0076613636 -0.08395609 0.091854684 0.03749226 0.07067945 0.018241614
19 0.047235172 -0.02913925 0.010385361 0.045769654 -0.029985415 0.044552375 -0.026563065 -0.055598713 -0.084104076 0.012599692 0.03067694 0.029909234 0.0038198165 0.0060981847 0.043166593 0.07642476 0.02059464 0.014666729 0.0036093874 0.06916396 0.062260896 0.0039798124 -0.016927598 0.02687262 0.038714733 0.028568536 0.021207947 0.016612545 -0.0031449338 0.02986817 0.058117587 0.016922314 0.08852937 -0.004428326 0.023471959 0.031704467 0.06637183 -0.001602137 0.057535097 -0.009240374 -0.021067169 -0.01325726 0.004676969 0.00697656 -0.08855077 0.06305136 0.038009774 -0.08012398 -0.037396986 -0.01907595 -0.008473107 0.09058001 0.00066616526 0.030582778 0.09364228 0.04046533 -0.017335884 -0.019209048 0.054809466 -0.049790315 0.06440739 -0.07342617 -0.016455606 0.0107175745 0.07438585 -0.050928216 -0.034711532 0.011571788 -0.0330306 -0.088875405 -0.012769373 0.02767441 0.005279193 0.008884256 0.041907392 -0.04862675 0.008854146 0.07473074 0.0826348 -0.031970326 0.017740859 0.024631968 -0.07151709 -0.030903464 -0.09765942 -0.0016476334 -0.013618199 0.00082099816 -0.030601567 -0.026986934 -0.0058607883 0.019088114 -0.018214887 0.014122923 -0.03221782 -0.025545139 -0.023378149 -0.086688764 -0.0058159498 0.047648545 -0.03654345 -0.05675504 -0.022973768 -0.063935526 -0.04128292 -0.053924616 -0.018153215 0.035844173 -0.041239683 0.033716667 0.003839998 -0.03904453 -0.03201763 0.08425187 0.04711704 0.01420514 0.039312184 -0.047060892 0.046794992 0.008067394 0.02881379 -0.041449662 -0.031666886 -0.045523144 0.022053747 -0.06826492 -0.0551587 -6.9181935e-33 0.023518475 -0.0043323548 -0.09053455 0.09541479 0.020680558 -0.056277655 -0.016515894 -0.014931892 0.050684147 -0.09071036 0.10270061 -0.065337576 0.011313976 0.052915942 0.038245082 -0.041091014 -0.15807311 0.06664586 -0.00087752333 0.06980699 0.04530846 0.07850607 -0.014862977 0.011533998 0.019593539 -0.09505586 0.025700089 -0.021800557 -0.06877624 0.015968146 0.0011293645 0.07134 0.011035879 -0.010463632 -0.017294481 0.10851238 -0.0012683993 0.016451914 -0.10654825 -0.04094054 -0.010351514 -0.048404004 0.016086232 -0.002150183 0.12522466 0.007716011 -0.013242517 -0.025394756 -0.082391165 0.01324833 0.008808346 0.0048336578 -0.06244914 -0.05228293 -0.0017068172 -0.008847368 -0.061789777 -0.06488537 -0.021211809 -0.05082793 -0.03558074 0.011174707 -0.01680433 6.718096e-05 -0.093123004 -0.024427682 0.0058548036 0.08917624 0.09088006 -0.032438748 0.064041406 -0.032937758 -0.009930044 0.04766323 -0.062001273 0.03714796 -0.10761506 0.02034498 0.034263644 0.0108928075 -0.034472287 0.038548235 0.0049992376 0.027623793 0.09211146 -0.019934855 0.040881995 0.049187686 0.035325766 -0.049201727 -0.06663121 -0.03340448 -0.008425935 -0.010819958 0.074611716 7.63892e-34 -0.06609418 0.012653835 -0.061077505 0.0029948556 -0.025022373 -0.0072077583 -0.054533366 -0.08996403 0.1001098 -0.01575417 -0.09478369 -0.050149605 0.028851531 0.0892477 -0.080804974 0.0025687288 -0.0025903992 -0.092309 0.031475082 0.046187308 0.016740238 0.029995665 -0.10082079 0.016506905 0.042799562 -0.035339795 -0.041906748 -0.041994702 0.055792823 -0.02482284 -0.08573649 -0.0047000884 -0.08908026 0.026229067 -0.072107404 0.042615842 0.05265383 -0.077186264 -0.049846925 -0.07689059 0.13365662 -0.0394785 0.043672368 0.047961168 -0.057502113 0.0029602167 0.029874574 -0.018952291 -0.1259471 0.0013453334 0.036996014 0.01719042 0.037167333 -0.06891523 -0.0033881168 -0.002742637 0.11565738 0.027255377 0.020817194 0.12933806 -0.009461889 0.0724574 -0.03607047 0.037330773 -0.014596414 -0.014502315 -0.12488918 -0.11431318 0.03021025 0.026812725 0.012714199 -0.12152437 -0.09576819 -0.011671542 0.001981717 0.017781915 0.02270917 0.049596313 -0.077906 0.0034831534 0.023741288 -0.019360015 -0.05736214 0.01989359 0.05629341 -0.05666463 -0.04756017 -0.009462719 0.0014701695 0.10658761 -0.12960239 -0.0020045838 -0.037184417 -0.051400162 -0.059684258 -2.7266474e-08 0.07801033 0.039557364 -0.002067222 0.0017224519 0.0063254335 0.01982706 0.027257914 0.028710578 0.011384883 0.10052133 0.028936205 0.07910305 -0.01334462 -0.015110956 -0.021822704 0.0033422925 0.030012418 -0.007494543 -0.03794303 0.02079599 0.040073078 -0.01620764 -0.050782237 0.065067634 -0.004917961 0.01324022 0.009170902 0.010145022 -0.0037940755 -0.07078561 -0.0072592446 0.10909653 -0.08546427 -0.011137303 0.013762146 0.03852326 0.054627616 -0.02048587 0.10416514 -0.116419725 -0.020162348 0.025386866 -0.00018136085 -0.04452834 0.043248296 0.0025282449 -0.08609603 0.025058327 0.02078713 -0.0504451 -0.058356013 -0.059084184 -0.028626295 -0.017476615 0.03841159 0.04760498 -0.013600962 -0.0019822884 0.058170788 -0.09200318 0.05053304 0.11406018 0.049846724 -0.006896093
20 0.048221894 -0.0068044597 -0.03431278 -0.013607719 0.017109463 0.053197216 0.036302086 -0.04027692 -0.022325696 -0.0043005203 0.02659455 0.06536072 0.024322748 -0.01112669 0.042423215 0.060713876 0.052394982 -0.07088183 -0.03942105 0.058508076 0.061214592 -0.018565549 -0.067004226 0.039222416 0.031097133 0.003862029 -0.0252767 0.0098062 -0.03153109 0.010927326 -3.2670632e-05 0.0706534 0.0034344562 0.121864505 -0.039464135 -0.036293965 0.07223705 -0.052739557 0.06767128 -0.009024139 0.0030163836 0.006656145 -0.030105656 0.04015064 -0.018280549 0.04285531 0.018529292 -0.04445137 -0.01756929 0.027385866 -0.070081815 0.06851685 0.019260379 0.08077992 0.10539764 0.028481947 0.03167626 -0.04114627 0.004565579 -0.008338612 0.02457504 -0.052708086 0.023963414 0.040061444 0.007816982 -0.05176891 -0.08617711 -0.026803521 0.009998797 -0.045411598 -0.034822322 0.07114278 -0.043818604 0.057370365 0.027096419 -0.11841531 0.0018099956 0.0995278 0.023149733 -0.044282366 -0.008623451 0.01735947 -0.06281736 -0.087432064 -0.03225463 -0.062321205 -0.070593074 0.015038195 -0.022433449 0.02157314 -0.04146513 -0.014732326 0.058438923 -0.029713297 -0.004440502 -0.04014763 0.04266326 -0.007143322 -0.0055630365 -0.019699106 0.011539033 -0.022128724 -0.062409785 -0.017400617 -0.09723253 -0.025822593 -0.04032295 -0.019589618 -0.003767937 0.0025921636 0.0061617736 -0.04485698 -0.035793435 0.0904849 0.011366733 0.019912073 0.04309953 0.015996603 0.011779316 0.023643615 0.003325055 0.01602833 -0.04378442 -0.07164313 -0.028978486 -0.08287144 -0.034801114 -6.080988e-33 -0.04324482 -0.027680483 -0.067579105 0.048870604 0.035139233 -0.08369494 -0.04191215 -0.012333704 0.07655365 -0.081884906 0.028797703 -0.10243834 0.06344861 0.07059221 0.022105398 -0.013502074 -0.17580883 0.117741205 0.0017238562 0.09046972 0.124608375 -0.016158124 -0.021010417 0.045711245 0.008112038 -0.030197263 -0.035434775 -0.08519154 -0.01731037 0.023894595 -0.07325165 0.083897024 0.09876941 0.01322228 -0.02539672 0.097188115 0.054931678 -0.007879511 -0.049857624 -0.009042731 -0.004389156 0.0011971714 0.05718218 0.075075805 0.08594874 -0.0006547263 -0.028114352 0.018487075 -0.030715244 -0.006623415 -0.027447423 -0.03127079 0.06619575 -0.112788685 0.011412866 -0.016983574 -0.047766596 0.012012184 -0.080878444 -0.019419728 -0.0614933 0.025129354 -0.061463844 0.06609837 -0.06285596 -0.0019366436 -0.060409926 0.08767022 -0.011803215 -0.04166682 0.029310038 0.01947651 -0.013031119 0.026844444 -0.09475125 0.0427113 -0.025832977 0.0015161509 0.055629358 -0.04512219 -0.10085511 0.007115175 -0.009530666 -0.012790141 0.039105054 0.016551837 0.04039272 0.026150815 0.068980776 0.021637095 -0.02842377 -0.010424515 0.01736025 -0.019746467 0.04715041 -4.013555e-34 -0.034809157 0.0031731958 -0.011301815 0.024240116 0.06352328 0.020718502 0.01846718 -0.018067498 0.08597099 -0.027461192 -0.11395396 -0.035048332 0.023587137 0.092450954 -0.065167844 -0.041970637 0.028786793 -0.029857263 -0.014754263 0.04156377 0.0058307764 0.0085134795 -0.02588208 0.0025401816 0.03769098 -0.04532186 0.0059991996 -0.07155478 0.044152293 -0.06594002 -0.03377244 -0.023304041 -0.095860384 0.0028837642 -0.073365115 0.07807058 0.058838744 0.004490338 -0.0074723866 -0.03818295 0.049511362 -0.039179627 -0.03477096 0.037721917 -0.10405362 0.05151384 0.011329807 0.023372898 -0.087576516 -0.021763999 -0.031378742 0.014499187 0.059964143 -0.019957157 -0.038631972 -0.016151538 0.02720791 -0.015957758 0.07066712 0.02608173 -0.03156294 0.05836363 -0.026766334 -0.02138757 -0.007106272 -0.015811807 -0.08510876 0.0043880227 0.08312487 0.024769358 0.087232344 -0.109917045 -0.09785505 0.047983784 0.032516383 -0.002249027 0.009390507 -0.026006047 -0.057761032 -0.0020239502 0.047933824 -0.0333068 -0.049039073 0.02026967 0.0714442 -0.054281566 -0.047057204 0.006269596 0.04921896 0.03372138 -0.12522759 -0.07131144 -0.05078554 -0.09243079 -0.10060099 -2.6439595e-08 0.01957619 0.00961002 0.030150529 0.0036443667 -0.018959442 0.04334514 0.019831723 0.015628772 0.0019984648 0.048013393 0.0016586501 0.05114794 -0.0170341 -0.06758998 -0.0043389774 0.014176059 0.08189434 0.013134552 -0.0144833485 0.013027198 -0.070987225 -0.040914938 -0.03226728 0.050677232 0.025381396 0.108709015 -0.010255512 0.04805848 0.03722862 -0.044895373 -0.08718641 0.081217036 -0.10367461 0.027720163 0.0030600769 -0.0277251 -0.003619434 -0.03244947 0.0794853 -0.15159142 0.008278368 0.083805375 -0.02020995 0.009831608 0.039387025 -0.055205107 -0.13867295 0.030099558 -0.0030296675 0.051652774 -0.044039227 -0.053531222 -0.0068807187 0.033527642 0.042299263 0.05696842 -0.036071125 -0.013622281 0.07585409 -0.010619091 0.062325917 0.12449675 0.11970924 -0.0009747076
