35 384
0 -0.020961678 0.008501475 -0.026860556 0.019437585 0.03397375 0.028288634 0.08429209 0.0052944804 -0.026564455 0.01702256 -0.020052707 0.009264815 -0.021852586 -0.0071073403 -0.033354405 0.013142412 -0.07952011 -0.058584414 -0.11764372 0.008588143 -0.05151645 0.0036619182 -0.032845046 0.04334871 0.013889235 0.061700717 -0.055653434 0.006855599 -0.025463982 -0.108799785 -0.0021549962 0.015330654 0.016589312 0.01997807 -0.014043509 0.026839245 0.016034612 0.00054694386 0.048105054 -0.03625179 0.019641383 -0.042757735 -0.04797223 -0.045227658 -0.024099136 0.04120089 0.045771625 0.020920746 -0.029547885 -0.03403121 -0.00018754884 0.034511365 -0.02129637 0.028075302 0.048319835 -0.1115388 -0.040892895 0.07308324 -0.0027737587 -0.012607758 0.06294096 -0.033417583 -0.07544445 0.043166663 0.034658372 0.031295557 -0.041308407 0.053275514 -0.04370481 -0.048502546 0.016809037 -0.035643626 0.03004626 -0.009211628 0.04161948 -0.06766851 0.0467961 0.08929424 0.117366314 -0.054759786 0.065627314 -0.018987898 -0.07030754 0.054508023 0.042200126 -0.034157313 -0.026476098 -0.02507298 -0.015140145 -0.008864816 -0.054529857 -0.017002048 0.083175965 0.02751377 -0.07110298 0.018416211 0.044001006 -0.00954323 -0.021661084 0.2616899 -0.055266935 0.010438066 -0.074017234 0.045941908 0.04756201 -0.03462817 -0.086983256 0.009782503 -0.034584347 0.012368301 -0.0383371 0.058408495 0.029898783 0.021575488 0.036215 0.010338378 0.053211764 -0.013238461 -0.015286202 0.013995079 -0.07160639 -0.03186576 -0.06117523 0.01755477 0.0067336136 -0.08093695 -0.027953068 -5.0874723e-33 -0.02311509 -0.14531624 -0.009412353 0.102946065 -0.022325758 0.059182532 -0.015916912 -0.048681743 0.0047751586 0.04081064 0.0591467 0.13153428 0.02280857 -0.0341916 0.13975666 0.012750236 -0.11840961 0.068601355 -0.014762967 0.028458834 -0.028928729 0.061793678 0.021236733 0.0352717 0.066392295 0.019815855 0.040900454 -0.04694937 0.04618531 0.03663948 -0.008232399 0.04923573 -0.0033528535 -0.021067165 -0.00644611 0.016152715 -0.0035267535 -0.030464493 0.033286564 -0.061367262 -0.0320523 0.016344504 -0.020233842 0.014447797 0.027913643 0.009267341 0.08062297 -5.3635604e-06 -0.071440995 0.043590188 -0.0075683584 -0.010720351 0.09318104 -0.016144563 0.029457262 -0.043629702 -0.0282614 -0.019552318 -0.037169173 -0.048560806 0.054207988 0.041623514 -0.0053237923 -0.0018082556 -0.02033482 -0.04022821 -0.09277223 -0.03301988 0.09098244 -0.05795245 0.027556548 -0.0050903116 -0.00779851 0.030186867 -0.030285176 0.05845308 0.05006557 -0.017299801 -0.07730423 0.046345077 -0.04429128 -0.016064383 0.080615304 -0.016518475 0.051799875 0.031636138 -0.029591752 -0.06530455 0.09274105 0.010803815 -0.15862215 -0.026475811 0.029138934 0.023327101 -0.06756809 3.5027965e-33 -0.05330837 -0.054045133 -0.038718663 0.06684547 0.06398893 0.025459608 0.033104315 -0.08885144 0.07806385 0.068146326 -0.10295614 -0.06026513 0.072278306 0.052871812 0.03149362 -0.08445676 0.056742568 0.002529322 -0.03384756 0.0029798087 -0.01758365 0.069093816 -0.091824256 0.014405111 -0.06038673 0.03680734 0.029559214 -0.11915391 0.011957534 -0.030961264 0.0034487478 0.02959696 -0.07640952 -0.010853266 -0.011429708 0.08892689 -0.022843847 -0.06126272 0.06505091 -0.034750056 0.046281632 -0.08099291 0.035067793 0.059220936 -0.10295549 -0.017005574 0.0054834215 0.081840225 -0.027119204 0.002688905 -0.051161867 0.051136162 0.043440834 0.037406486 0.010256765 -0.016578894 -0.120874785 0.06240596 0.018748598 0.09901158 0.03626973 0.015055426 -0.03811622 -0.016870845 -0.14180394 0.0499452 -0.046154883 -0.07567604 0.08562975 0.010398499 0.0519309 0.018024487 -0.14273837 0.08834237 -0.024775237 0.051150676 -0.06076486 0.06732346 0.012010955 -0.0073908237 0.02624305 -0.041491535 -0.039880577 -0.042560678 -0.062460344 0.042348932 0.066268295 0.016965922 0.004190027 -0.082921684 0.009455466 -0.06725612 -0.0051926808 -0.0071832547 0.012301741 -1.3742664e-08 0.07740987 -0.036671054 0.026379125 -0.050552115 -0.040499296 0.016896341 0.014253118 -0.00704309 0.013120779 0.02876781 0.04594131 0.034376767 0.0072129476 -0.030473726 0.041715182 -0.027303874 0.0051588505 0.047541056 -0.027636828 -0.006440918 -0.00053217105 -0.030915808 0.015229941 0.07020102 0.02356214 0.012056829 5.6571138e-05 0.033971865 -0.00921233 -0.049862567 0.024518788 0.060011547 -0.030345293 -0.0005910949 -0.02803854 0.0053016706 -0.04163358 -0.040920086 0.050814778 -0.038232412 -0.018606614 0.07108349 0.08811709 -0.016795246 -0.07422856 -0.0022155012 0.015917467 0.05700828 0.001217605 -0.033044364 -0.042119656 0.03640573 0.020444151 9.2493065e-05 0.03317231 -0.021003647 0.023833536 0.0448538 -0.02640263 0.037829593 0.10625603 0.025830818 0.07127667 0.03778389
1 0.024427325 0.04279862 -0.00782326 0.06606423 0.04612327 0.030801637 0.0070599117 -0.13780226 -0.06694437 -0.013393087 0.13452555 -0.07212098 -0.055502288 -0.02315897 0.009576715 -0.037864015 0.05475663 -0.00033644764 -0.047072653 -0.13336544 -0.03546054 0.029272018 -0.014102682 -0.07142211 0.013206306 0.031016767 0.013127033 -0.057094313 -0.06924053 -0.0424172 0.030834667 0.0596133 0.07692611 0.043029785 -0.047332715 0.07223596 0.14805886 -0.069672085 0.028799322 -0.014121976 -0.01019747 -0.09372081 0.038554713 -0.03572823 0.02105544 0.0179389 -0.011236222 -0.025570871 0.028872123 -0.01969343 0.033995334 0.033484727 -0.07120185 -0.046799213 0.070148535 -0.004776669 -0.03963457 0.010581363 -0.031501293 0.01844914 0.031886324 -0.023056138 -0.044271257 0.041656293 0.10065106 -0.079977706 -0.08614561 0.066631354 -0.13687749 -0.03369246 0.04911713 -0.06322091 0.0033730767 -0.03331076 -0.03608431 -0.03737819 -0.015139897 -0.030014645 0.05197997 -0.073857956 0.033576883 0.02311006 -0.035386987 -0.014228955 -0.019316498 0.013801759 -0.036962323 -0.012597774 0.019172613 -0.0053776195 0.023707215 -0.12044361 0.02626507 0.057762694 -0.004254986 0.030989556 -0.02314095 -0.16250446 -0.021664111 0.10310088 0.022176225 -0.03322448 0.00040833533 -0.0026962936 -0.03599588 -0.02406152 -0.11157064 0.020837048 -0.020519383 0.07014286 -0.07400474 0.10131604 -0.08432514 0.05039905 -0.0066103972 -0.04013623 0.05394084 -0.08213101 0.00028853933 -0.05929013 -0.024233932 0.02945113 -0.03777042 0.00096493127 -0.003926693 -0.030335125 0.01643574 -3.5900097e-33 -0.07048591 -0.10701283 0.04376646 0.027007835 -0.01838286 0.023825224 0.0146356365 -0.022023872 0.058363944 -0.025182245 -0.015395872 -0.016615452 0.010056828 0.04087544 0.11738284 -0.050826058 -0.042108096 0.048944794 0.08152898 0.059648935 -0.06379775 -0.038214106 0.021356363 0.039619274 0.0753275 -0.014268994 0.04929775 -0.09079816 0.043362115 0.00039796773 0.063740425 0.017857095 -0.059691157 -0.06654987 -0.027380235 0.0003358109 -0.018349888 -0.018229451 -0.020808473 0.064830795 0.027198585 -0.022926733 0.08208452 0.002787038 0.010148995 0.04397672 0.07882876 0.082582906 -0.043186326 0.023255711 -0.017828472 -0.027173603 0.025662418 -0.08788158 0.045368347 -0.0065661063 -0.005557322 0.011437567 -0.030112559 -0.017675975 -0.023305805 0.035901394 0.014335307 -0.0485722 0.02700011 0.019006485 -0.026350731 -0.008983158 0.023638146 0.06867086 -0.03472526 -0.06394522 0.018661533 0.018062517 -0.026943326 0.033357173 0.01889589 -0.022298403 -0.03330033 0.04820056 0.044341475 0.0011046655 -0.0034256277 0.0044479314 -0.053015597 0.08377229 -0.062037226 -0.07732738 0.105818324 0.011132328 -0.10138934 0.0139591005 0.018106561 -0.032439675 0.020062568 1.8305187e-33 -0.046075936 0.03559331 -0.03320336 0.0795054 0.03271294 -0.0836639 -0.0022418902 -0.04764238 0.028144322 0.011524633 -0.078906074 0.033707462 0.07770893 -0.012272637 -0.047664475 0.049200658 0.008742294 0.062870175 -0.016683886 0.013997017 -0.07716665 0.07098861 0.0012695552 -0.038703453 -0.063570164 0.08194672 -0.0756059 0.028335877 -0.100868486 -0.030017594 0.06987342 -0.056356512 0.01917402 -0.017446129 -0.031901915 0.0283918 0.016381867 -0.08296223 -0.024945047 0.0676199 0.114595555 0.020434856 -0.0004688062 0.11865854 -0.070475444 -0.010447923 0.0042641414 0.024140742 0.035718247 -0.0075553576 0.046657648 0.03848411 -0.0063744634 -0.04252144 0.047840383 0.021240741 0.019443054 0.02143058 -0.016108615 -0.0026588868 -0.031774405 0.11841499 0.024323722 0.06479638 0.05039462 0.026725674 0.017311754 -0.013426079 0.026656032 -0.0034704113 -0.033522874 0.018290093 0.022246918 0.0034106344 -0.08955405 0.074384384 -0.01747566 0.03398984 0.045026567 -0.009858079 0.008457574 -0.09563139 0.04038165 -0.002568824 -0.033904407 0.037780236 -0.03170378 -0.05823425 0.06868682 0.05958538 -0.13931555 -0.04772467 0.05304887 0.043854736 0.011551194 -1.3935703e-08 0.07244896 -0.039731484 -0.010966335 0.016159056 -0.0039238427 -0.011216642 0.09101268 0.014852971 0.04812729 0.12126409 -0.14735739 0.13113822 -0.016283661 0.06293479 0.02675921 -0.021071883 0.03831707 -0.012000814 -0.06448857 0.009935746 0.045852795 0.016870005 -0.04785882 -0.01776507 0.0021239985 -0.021262301 -0.0033024 0.05765517 0.09902584 0.07376863 0.035192717 -0.028333092 -0.025661211 -0.008751968 0.008999387 -0.04261317 -0.042720813 -0.039675917 0.031265985 -0.09321328 -0.015768325 0.032138027 -0.01590521 -0.02220167 -0.049669433 -0.007855195 -0.04377211 0.015968597 -0.024515988 -0.00018006952 -0.07260223 0.037380304 0.06776989 -0.013841676 0.02994817 -0.01974101 0.036702834 -0.04712083 0.06634116 0.02781506 0.013362615 -0.017768534 0.040267747 -0.019967323
2 -0.0071971114 0.013334248 0.03772391 0.10129561 -0.05435728 -0.020972177 0.050801545 -0.05449123 0.06698701 0.060031764 0.017002765 -0.06936907 -0.024861604 0.043123282 -0.011764459 0.032162454 -0.046817053 -0.020396505 -0.042090576 -0.022031808 -0.083227195 0.016291201 -0.0060571954 0.026836928 -0.092117436 0.044471864 -0.08823136 -0.015794087 -0.0274171 -0.0492083 -0.031171504 -0.01877839 0.055381488 0.02525622 -0.047550585 0.016216967 0.040059257 -0.025181657 0.1061053 0.03816275 0.015715497 -0.08885878 0.017284822 -0.04026497 -0.022656329 0.000722934 -0.0702546 -0.018624987 0.057980366 -0.009085091 -0.018025937 -0.02434275 -0.111295566 0.034905713 -0.03155278 -0.06438555 -0.060517903 -0.055027865 0.030304832 -0.062312234 0.09182742 0.0024198415 0.035814922 0.06966139 0.010396592 0.018726978 -0.039969385 0.058025565 0.0127608655 -0.03856683 0.038980428 -0.016567623 0.048344627 -0.03828976 -0.028114447 -0.021678269 -0.006236298 -0.005756855 0.08201831 -0.07709731 -0.019586124 -0.08808607 -0.03279834 0.0037098497 0.13983352 0.01565915 0.020469334 -0.008773893 -0.11439047 -0.008692721 -0.05464935 -0.08124692 0.052553706 -0.0068109958 -0.015741508 -0.002170436 0.024351515 -0.08497307 0.023395766 0.19808306 -0.0013720226 -0.019608043 0.0036170622 -0.016801998 0.0691877 -0.0045463643 -0.1119773 0.024370342 0.026205746 0.048472747 -0.06919878 0.051401865 -0.03994969 0.119397506 0.02230089 0.009804189 -0.019858299 -0.040784482 0.012346766 -0.026656434 0.016526993 0.03914796 0.02187681 -0.055891454 0.04697902 -0.06209004 -0.043369886 -5.8452044e-33 0.06280385 -0.13573356 -0.01227705 -0.04628997 0.0024041156 0.022446316 -0.017264131 0.0022492772 -0.002312877 0.033418037 -0.08224751 0.022158049 0.0024121362 0.009933269 0.1398068 -0.060826536 0.02296143 -0.0072650025 0.042669248 -0.015851948 -0.069275744 0.0811705 0.03836181 0.049143534 0.027802134 -0.045630656 -0.05621686 -0.08681832 -0.03477289 0.022105431 0.05873171 -0.07074131 -0.00041151958 0.019654829 -0.07651073 -0.053511508 0.014960633 -0.1037697 -0.010938174 -0.006081311 0.0987 -0.039588153 0.04875555 -0.017654434 0.005408866 0.053447153 -0.012946537 0.025310183 -0.062255308 0.03914275 -0.0018612707 0.023411613 -0.026637511 -0.039199 0.031663243 0.047404062 0.0003955911 -0.009809692 -0.098028794 0.014977983 0.044987157 0.08695886 0.009437181 -0.06716092 0.13919836 -0.073750205 -0.020816268 0.044730358 -0.013470656 0.0032446007 -0.017791508 0.0024447879 0.029594623 -0.12683937 -0.035454825 -0.0070341188 0.08901836 -0.02750293 -0.06910848 -0.008035531 0.010230303 0.044862375 -0.017058976 0.046191156 -0.035531595 0.0656198 0.005953358 -0.06567993 0.061443157 0.00015592993 -0.05927709 -0.010041655 0.009523092 -0.07451423 0.04127992 3.5017327e-33 -0.030431736 0.025554437 -0.017962784 0.0795428 -0.028710423 0.008060774 -0.003045862 0.03621493 0.012181198 0.060002837 -0.113241196 0.0109874355 0.07978742 -0.01233622 0.020296546 -0.052297354 0.025482489 -0.016163802 0.11426224 -0.086987056 -0.09599296 -0.004173381 0.0249046 -0.0063446607 0.02321546 0.09110691 -0.04624139 -0.034910657 -0.01782905 -0.07279048 0.01592538 0.0061052097 0.0062782364 -0.007469218 0.06275534 0.05669986 0.01018839 0.002173087 -0.022125868 -0.032291535 0.11314937 -0.0008592276 -0.05469088 0.06396918 -0.032504532 0.06261271 0.020726327 0.018111143 -0.019385932 0.028520742 -0.016612113 0.016539674 -0.020518072 -0.103154786 0.02237425 -0.03780316 -0.01747527 -0.028096339 0.10527948 -0.008295591 0.024603216 0.073963314 -0.022792928 0.07352464 -0.12462188 -0.009882554 -0.062400103 -0.02891845 0.03273308 -0.056918755 0.094532244 0.07032049 -0.028177813 -0.05150294 -0.018169796 0.07371286 -0.034986384 -0.011953468 0.096824065 -0.0009630188 0.0046905624 -0.02917068 0.017450454 0.08672887 -0.036431096 -0.005283152 -0.010969779 0.056032274 0.029952483 0.009942254 -0.005612153 0.025759611 0.06271551 0.017424356 -0.036005635 -1.4242955e-08 0.0027251064 0.008466684 -0.0051524276 0.000810635 0.07233818 0.02020811 -0.01254608 0.005952322 0.0053004753 0.046998348 0.05424545 -0.021289546 0.009108097 0.05857484 0.046230033 0.009322169 0.009347126 -0.055502776 0.022871735 0.045043178 -0.09414593 0.02503085 -0.029809484 0.0091595445 -0.05222462 -0.05525851 -0.010657559 0.019730693 -0.004599474 0.06790086 -0.03967585 0.057115924 -0.008017975 -0.04116857 0.06296025 -0.057699155 0.020528937 -0.079586096 0.0441758 -0.02004126 -0.0031060565 0.102030486 0.033580657 -0.043723017 0.03669782 -0.03373196 0.026725175 -0.033849575 -0.03556358 -0.06167391 -0.14850342 -0.0048611662 0.02885658 0.037374984 -0.068580404 -0.05809018 -0.020862296 -0.038112573 -0.027330976 0.08244037 0.053845573 0.054490138 0.07339177 0.07451585
3 0.020252565 0.024308654 0.00091764657 0.0019967663 0.07487119 0.0744166 0.08215885 -0.066031046 -0.024603978 0.01815234 -0.037210863 0.013880932 0.08435715 0.04038726 -0.006816176 -0.066863395 -0.03496229 -0.049347606 -0.031055745 -0.040221773 -0.054394588 -0.0011125964 0.031337086 -0.03414766 -0.054728273 -0.030098293 0.008917143 0.0062429258 -0.06329632 -0.04407876 0.047515076 -0.028288458 0.054902468 0.08389808 -0.03214522 0.012987856 0.10473746 -0.03229096 -0.02517555 -0.02066665 0.0028975557 -0.10080995 0.07191375 0.03368226 0.028203897 0.06197531 -0.012570065 -0.03353984 0.007390279 0.006995912 0.053474918 -0.040389266 -0.07705156 0.015802419 0.029914672 -0.047404096 -0.0034658364 -0.07880828 0.04437417 0.02237914 0.01072557 0.01114291 -0.057602365 0.007221638 0.102356136 -0.050458606 0.049697474 0.020527901 -0.015647857 -0.03091007 0.03569095 0.02106354 -0.0025245056 -0.041594822 -0.001553749 0.020970002 0.05040046 0.07540543 0.10092856 -0.12254124 0.035515983 0.047726948 0.021208862 -0.008797143 0.058650818 -0.0006489091 -0.038960453 -0.05466792 0.0071195303 0.03628753 -0.039117027 -0.070033334 0.107497126 0.018336104 0.05585666 0.081988834 0.0136653595 -0.0032534627 -0.14643814 0.034147106 0.057658765 -0.008281205 -0.06953777 -0.027976045 -0.07065345 0.055993333 0.0028881957 -0.044692166 -0.026734725 0.0053993994 0.057611614 0.043255575 -0.04177239 -0.011790028 -0.008800628 0.0035417387 -0.02446876 0.0047714845 0.02758163 0.032970086 0.007131541 0.012000312 -0.02404392 -0.015614607 -0.015094216 -0.01253598 -0.052558742 -2.6350655e-33 -0.051971134 -0.044999927 0.008460016 0.034838054 -0.021289939 -0.077451624 -0.018011618 -0.013517366 -0.00327664 0.08198146 -0.03235626 0.108302124 0.0562949 0.007244715 0.126083 0.011897938 -0.07150953 0.059322037 0.06652982 0.046653006 0.0107475715 0.014068806 -0.0073945695 -0.012771948 0.1546536 -0.039921876 -0.07793807 0.06770847 0.03848051 0.0090879 -0.0276883 0.073266245 -0.0022994832 -0.062973395 0.06992976 -0.122040264 0.035502758 -0.0030712874 -0.034801535 -0.061367035 -0.020584159 0.035494328 -0.031709105 0.07661741 0.08357739 -0.011961363 0.013841005 0.05313577 -0.038884416 -0.036927022 -0.034660514 0.04674892 -0.01039031 -0.058662836 -0.0008584397 -0.0069839084 -0.015387062 0.08214736 -0.048645537 -0.043417905 -0.01979873 0.03617666 0.056477692 -0.027508985 0.065447226 0.0017557087 -0.024361545 0.069956556 0.04884081 -0.01910244 -0.08763415 0.016565684 0.08496174 -0.041634552 -0.06853909 0.0051411707 0.038087916 0.03775629 0.027359588 -0.013535099 -0.06911218 0.08260972 0.029512295 0.105887525 0.030594356 0.034407813 -0.0048032007 -0.07339962 -0.031976584 -0.05420975 -0.11023941 -0.03827584 0.036205474 -0.017823646 -0.039956737 8.913544e-34 -0.02708931 0.029352607 -0.10044451 0.002191082 -0.0051433514 -0.03305128 -0.0056333584 -0.0016603727 -0.047667958 0.054031752 0.002498165 -0.06037107 0.06405795 0.044655535 0.008780249 -0.076345675 0.041496173 0.03298609 -0.03060744 -0.024748141 0.06976184 0.019052904 0.036092643 -0.022683207 0.05964527 0.059021946 -0.033999965 0.034575876 -0.06017646 0.004649984 0.08595453 -0.048383325 -0.0042210724 0.024812594 -0.0401539 -0.020100707 0.07932922 -0.07038591 -0.013663104 0.012593966 0.058818653 0.045266643 0.032348283 0.05011169 -0.092874676 -0.0061244695 -0.0012529617 0.07688923 -0.08131077 -0.06295001 -0.020583598 -0.021930274 -0.08226065 -0.0109454775 -0.024107708 0.016925508 -0.025917264 -0.0125518525 0.06707757 0.037155695 -0.02090372 0.049657077 -0.0344576 0.005769344 -0.02895132 0.0040688673 -0.047709353 0.10663879 -0.016596293 0.02086056 0.024480322 -0.005132577 0.04396841 0.006759887 -0.011442334 0.010784879 0.059191026 -0.082763895 -0.07388437 -0.010442765 0.009796389 -0.05663431 -0.1578316 0.05047265 -0.05793779 0.14415902 0.058209483 -0.042469297 0.06790439 -0.008402571 -0.14287406 -0.10164226 -0.0068634218 -0.0016352496 -0.008979305 -1.472168e-08 0.07333197 0.07989634 -0.027363762 0.022425793 -0.049532723 -0.041876473 -0.0550638 -0.10942963 0.029652724 -0.0047640875 0.032738827 0.031552825 -0.00019584868 -0.08108209 -0.035969604 -0.01774922 -0.05099784 -0.029584011 -0.080665916 -0.074083015 0.027625585 -0.0107347295 -0.031664953 0.019735236 -0.025934646 0.084718995 -0.026859766 -0.07154726 -0.0019708227 0.14665647 -0.005864442 -0.025720457 -0.0053212787 0.016186474 0.06788467 -0.005842971 0.022559945 -0.07412231 0.03579379 -0.11352936 -0.024533153 0.045287028 0.069665864 0.04999878 -0.06435277 -0.0060758726 -0.018628346 -0.028481266 0.01271072 -0.020564523 -0.0055638384 -0.0045171236 -0.026551222 0.11045588 0.006857125 0.019722931 0.0497852 0.020000532 -0.022204624 0.08493666 -0.0055649267 -0.07073419 0.03050714 0.03019249
4 0.090554886 0.037723996 -0.06719925 0.017136322 -0.06925063 0.034990493 0.009560738 -0.1331561 0.118196726 -0.026854483 -0.01537349 0.0034395794 -0.005684498 -0.009204837 0.006900444 0.012211192 -0.05874845 0.0268092 0.009108198 -0.049382117 -0.0630043 -0.011743364 -0.009396664 -0.008126324 0.04548677 0.012729317 0.0742429 -0.019052457 0.02785965 -0.021778693 -0.07024953 0.038943823 -0.02724559 -0.007178185 -0.03792011 0.12262958 0.002310686 0.046531443 0.047937088 0.03421783 -0.009708244 0.045495287 -0.015643777 -0.080822885 0.051644653 0.02649963 -0.06308907 0.03553795 -0.046046562 0.009466296 0.0070266994 0.0029706669 -0.008006838 0.016985297 0.010734819 -0.059944723 -0.0007767427 0.012862736 0.00928227 0.02845377 0.011676127 0.004447111 0.045561034 0.07647417 0.0054479996 0.019045709 -0.055946026 0.085505985 -0.11940502 -0.1222907 0.003162772 -0.09955808 0.03594031 0.024944881 0.008740185 -0.03940836 -0.08879242 -0.10689233 -0.093276694 -0.068945035 0.0519256 -0.04492273 0.004902692 -0.0051041585 0.016473455 0.07588188 -0.03116488 0.048528984 0.031771977 0.048023224 0.021427127 0.014146372 -0.06303743 0.0010226336 0.07724136 0.0074416124 0.010069762 -0.045889024 -0.046789166 0.10506338 0.003001899 0.089514054 0.04877384 -0.0008049028 0.051603153 -0.049514726 -0.052067533 0.0131388875 -0.03696609 -0.008882913 0.007889807 0.050255127 -0.09651725 0.018128194 0.10210081 0.04188527 0.04394183 -0.045003407 -0.02922568 -0.06981461 -0.025066758 -0.012203692 0.008039439 0.023565222 -0.033325505 -0.05641925 -0.10742997 -9.418813e-34 0.02263552 -0.02267347 0.058333352 -0.026203273 0.01641525 -0.04631658 0.038469158 -0.05645075 -0.018827694 -0.06567597 0.06033657 0.030015303 -0.046633642 0.025716307 0.03738115 -0.0021192525 -0.032317225 0.010442376 0.008461279 0.004219549 -0.030962588 0.033141132 -0.03801699 0.00749789 -0.050253082 0.034389403 0.025091674 -0.01686422 0.021659872 0.032705937 -0.028547402 0.039767925 0.043460526 -0.0765701 0.010932136 -0.009021086 0.01816943 -0.038860682 0.04924191 0.009311571 0.033048533 -0.019670922 -0.019147903 0.03705358 -0.018393345 0.13132879 0.0959791 -0.08850668 -0.060967315 0.12557922 0.003424364 0.07706846 0.044652894 -0.028740082 0.03680376 -0.020059865 -0.0044453004 0.058484904 0.0026812998 -0.08093594 -0.033493426 0.0256188 -0.011957815 0.045234535 0.023229808 0.027088918 0.014408434 -0.055004522 0.0703357 -0.032243785 -0.03271961 0.0024774955 -0.008276855 0.007190724 0.0068241986 -0.03251875 -0.033267826 -0.085198514 0.003426902 0.048434533 -0.039302893 0.044396352 -0.038422693 -0.024848828 0.0120101115 0.071795985 0.07361049 -0.015525406 -0.0007593886 0.008674617 0.034803215 0.006354374 0.03493418 -0.04316805 -0.010781167 1.2366644e-33 0.031083075 -0.07491252 -0.028570054 0.039832946 0.029574616 -0.0477291 -0.038965736 0.10419275 0.045030817 0.014065188 0.09563376 -0.04288428 -0.020569727 0.036279388 -0.0012852927 -0.13209558 0.053559903 0.09284885 -0.04412932 0.020849029 0.059126772 0.0696586 -0.037217867 -0.095109664 -0.09284426 0.106068105 -0.114999615 -0.01254832 -0.054724813 0.015502953 0.050459146 -0.010439302 0.062269274 -0.0121869035 0.005251015 -0.032223288 0.07195929 0.021448283 -0.015070864 -0.0059734215 0.02382177 0.0112648355 -0.043234963 0.12528796 -0.03652391 0.040699966 -0.018273149 0.08576631 0.013214157 -0.061407108 -0.07172924 -0.057093956 0.038098652 -0.1262706 0.08216163 -0.0219665 -0.015484458 -0.05303659 -0.12595658 0.092032485 0.06408216 0.059847735 -0.024811937 -0.026115246 -0.022065632 0.05485584 0.016258424 0.10904525 -0.03107089 0.012275551 0.016931841 0.08644778 -0.029518168 0.054495145 -0.054849446 0.05637806 0.07371216 0.005889682 0.08966887 -0.009304435 -0.06986375 -0.06313832 -0.10747424 0.0025114107 0.038164202 0.01396221 -0.070941664 -0.020769574 -0.010711144 -0.0159037 -0.033589628 -0.045607407 0.025758054 -0.042416994 -0.020725468 -1.2235178e-08 -0.03034149 -0.03188554 0.037365668 -0.004047814 0.010460801 0.066397876 0.05910189 -0.03930084 -0.04324828 0.010842636 -0.014539408 0.025323853 0.007579103 0.06918607 -0.049298707 -0.07668184 0.061354857 -0.0058745216 0.036319986 -0.02658761 0.10258229 0.003951765 0.079155095 -0.09811233 -0.074639864 -0.0019195349 -0.056064706 0.023907894 -0.08130251 0.023049118 -0.011105014 0.004888665 -0.05952209 0.018078221 -0.019686515 -0.056032814 -0.058937036 -0.0564509 -0.016997784 -0.0025758937 0.08487583 -0.04516064 0.10384523 -0.029520972 0.008679222 0.030438203 0.07528513 0.073002525 0.025249153 0.03656648 -0.06724536 0.008794645 0.045206618 -0.05997721 -0.039043404 -0.040090755 0.006298095 0.1123414 -0.04332213 -0.01935562 0.028477669 0.008929634 0.06867164 0.007329272
5 0.009938484 0.08018357 -0.060673855 -0.03409697 0.015115416 0.15408404 0.02210429 -0.123374596 -0.027814275 0.009791999 -0.009467684 0.043029442 -0.041505475 -0.055002682 0.051685344 0.026895728 0.022012977 0.050222304 -0.10578545 0.022719493 -0.11130211 -0.03288953 -0.026739374 0.040562067 -0.07705196 -0.017080663 0.045722276 -0.048916213 0.025635509 -0.03737409 -0.02034659 -0.013673304 0.03849425 0.06138072 -0.03230607 0.022206075 0.02083249 0.0017071957 0.04830568 -0.043017436 -0.041634526 -0.07599391 0.008163661 0.01720767 0.029469766 -0.005435422 0.07396159 -0.041938465 -0.05698867 -0.013189517 0.10335024 0.08121869 -0.04215701 0.03403798 -0.07203274 -0.12839803 -0.052395344 -0.046075836 0.03161818 0.03889105 -0.012036612 -0.031248098 -0.04250524 0.08371549 -0.027651628 -0.0022883252 0.043906387 0.0024333175 -0.012127964 -0.043190196 0.037334636 0.0720244 0.0335116 -0.018261023 0.05054504 -0.03634657 0.05043332 0.011621836 0.037096206 -0.06734968 0.043376703 0.003158713 -0.040176973 0.022277338 0.0008443762 -0.025520053 -0.03782369 0.019944005 -0.07598446 -0.048815776 -0.007075588 0.036644433 0.09859911 -0.06504811 0.08356773 -0.062158868 0.049029313 -0.06848149 -0.0181309 0.029015124 0.015187255 0.012941395 -0.01689724 -0.018492665 -0.009939926 -0.07895993 -0.011389336 -0.037151616 -0.09015113 0.051094044 0.044539716 -0.041415296 0.0012616891 0.04053008 0.08631436 -0.1262348 0.044055283 0.0070470246 0.0009942015 0.032173716 -0.13595349 0.019299598 -0.06695974 -0.019767202 0.020609444 -0.026121153 -0.05251793 -3.3062472e-33 -0.06283331 -0.07133839 -0.02101106 0.0057218676 0.023974335 -0.012543479 -0.018669097 -0.006296366 -0.025411591 0.07179095 0.025710106 0.027077628 0.038037468 -0.073935054 -0.024709722 0.008734027 -0.11295296 0.0028080784 -0.027554771 -0.033914406 -0.02966233 0.052158274 0.0076383306 0.06440394 -0.037113976 -0.055893946 0.012462955 -0.032978944 0.008499064 0.015424072 -0.045228988 0.094924785 0.033424124 0.002495578 0.10998211 0.04005385 0.034427132 0.053383883 0.0038037063 -0.025738152 -0.07042598 0.03187625 0.002983598 -0.070690334 0.11797602 -0.011211728 0.027346153 -0.010417428 0.006236573 0.03850521 0.00018102558 0.011016303 -0.11631025 -0.02716928 -0.0009640773 -0.03785268 -0.07991303 0.058217756 -0.0057093003 -0.009031108 0.0039795283 0.08528588 -0.01949421 -0.057432946 0.02120128 -0.0029900046 -0.023494355 -0.0008567789 0.031379975 -0.037240025 0.07488724 -0.0355421 0.020953437 0.019082524 -0.0007691368 0.058796946 0.07780766 0.009463785 0.115673736 -0.07329294 -0.06456024 0.011863023 0.079816245 0.01419104 -0.011257577 -0.05529359 0.02356466 -0.04275002 0.065797605 -0.060105473 -0.061475378 0.02561765 0.0046009305 -0.044704203 -0.05422486 -2.6819266e-34 -0.11173969 -0.0970076 -0.07460491 0.049756046 -0.010280881 0.008606081 0.018522238 -0.044178475 0.06557045 0.022221323 -0.013263082 -0.016662873 -0.028361289 0.055228937 0.0016785286 -0.05468836 0.041084796 0.023621364 0.008890005 0.07417773 -0.0044735614 0.06431474 0.037398033 0.040469892 0.0389898 0.011445474 -0.046893556 -0.09872562 0.059747554 -0.019738782 0.039841246 -0.045557994 -0.07500789 0.01080983 -0.10303381 -0.17501192 0.056485664 0.024195576 0.009354726 -0.013221698 0.07905108 0.021202043 -0.07358362 0.007861953 -0.029688185 0.047743198 0.050939865 0.065655306 -0.018938974 -0.020733701 -0.090781316 -0.05236468 0.06462316 0.09521629 0.06199725 -0.01974122 0.060390297 -0.06342591 0.03226774 0.08426495 -0.012312644 0.084824555 -0.039807994 -0.06708774 0.07768088 0.022212898 -0.054082554 -0.0074682483 0.013206074 0.02263034 0.031369057 -0.035443533 -0.032150835 -0.13008326 -0.041196126 0.04036521 0.00048011227 0.04199418 -0.039226778 0.038522698 0.0793503 -0.03285705 -0.11016444 0.035580065 -0.102317266 0.10593036 0.020828055 -0.043150295 0.052907508 -0.004483894 -0.037984487 0.061285228 -0.0023388609 0.027440907 0.056175727 -1.5476106e-08 0.02387165 0.055707168 -0.051525667 0.020320205 -0.048587047 0.07772407 -0.0557028 -0.03774243 0.045108043 0.084954545 0.001349622 -0.003947222 -0.01719845 0.006819236 -0.03997905 -0.019811697 0.068605706 -0.11164637 0.035422064 0.036246702 -0.016404172 -0.015580519 0.08057224 -0.031066963 -0.016134862 -0.009676011 -0.042622644 -0.08613125 0.0040354803 0.0753077 -0.033180658 0.06510156 -0.048799977 -0.00045990152 0.02591478 -0.035339065 -0.006338752 0.027959745 0.057274006 -0.050993312 0.01307526 0.046012826 0.015271441 -0.01808155 -0.004111085 -0.0013761168 -0.012143214 0.03613624 -0.011621192 0.028823929 -0.028454734 -0.0016427215 0.043549832 0.017368583 0.08700833 0.048129834 0.0937091 -0.017124362 -0.012377486 -0.037009716 0.034645822 0.020671377 -0.015018078 0.0008550095
6 -0.022891048 -0.015741272 -0.03796004 -0.0073861405 0.036965095 -0.00087589544 0.14479922 -0.0016223572 -0.024688005 -0.037742097 0.068460934 -0.03375376 -0.030395098 0.0051656733 -0.00935214 -0.030569682 0.03827273 0.0020652718 -0.06117303 -0.06884722 -0.044279814 0.005229254 -0.036642738 0.020476807 -0.06935347 0.056957502 -0.030898739 -0.058798242 -0.029413091 -0.13371986 -0.0028741895 0.050793704 0.06312978 0.047044694 -0.04046189 -0.05680759 0.04778677 -0.055796534 0.06489743 -0.03270529 -0.017459063 -0.093598 -0.085659094 0.005502617 0.047143348 -0.00055773056 0.03697637 0.02477882 -0.0017715672 0.055923134 -0.037992608 0.015718056 -0.098803274 0.02859273 -0.02099702 0.023319867 0.01841538 0.0019769217 0.030796312 -0.08258241 0.035615277 -0.049394373 -0.016494056 0.032907676 0.07911999 0.0042935912 -0.073661365 0.08450074 -0.112057395 -0.024062304 0.09772222 -0.07719149 -0.050562225 0.058500305 0.06383974 -0.06636448 0.08973863 -0.0143925715 0.027753843 0.0074411216 0.0050313063 0.029075656 -0.12858519 0.017748779 -0.024502464 -0.048518576 -0.019187592 -0.01749017 0.00747277 -0.070869565 0.01571764 -0.034769755 -0.019328164 0.020086655 -0.07616806 -0.022240952 0.008537623 -0.017017297 0.09610889 0.20585658 0.073718555 0.05158908 -0.022192292 -0.0072466386 -0.07263404 -0.038540512 -0.02888615 0.08055428 0.03795837 0.03943614 -0.100576095 -0.009976391 -0.030574443 -0.00037644166 -0.02138044 0.027281577 -0.011950563 0.05080759 0.08165978 0.015444523 -0.00060979923 0.08125833 -0.040704217 -0.0689735 -0.10720007 -0.044822432 0.0066209617 -4.7205825e-33 -0.09104023 -0.024365898 -0.02128249 -0.021524653 0.0022524886 0.021736795 0.0040537827 -0.036887832 -0.102248095 0.10491686 -0.03762627 0.047281258 -0.030759659 0.055615515 0.08983389 0.039537944 -0.010620543 0.0743836 0.09147334 -0.03025705 -0.00586829 0.026129352 0.0058753914 0.01125599 -0.010921279 0.009076509 0.0010812024 0.023343382 0.13187699 0.033385757 0.10127787 0.031186175 0.0008278188 0.015011309 -0.072104715 -0.032167017 -0.034509525 -0.08150427 0.06577753 -0.08511785 -0.10246259 0.023057757 0.005217448 0.07267153 -0.050434656 0.076524675 0.0015526487 0.020499626 0.030122433 0.01603168 -0.0662245 -0.020150855 0.033063114 -0.035992604 0.00086259097 -0.053108152 0.0052939234 -0.025965337 -0.023319777 -0.02390243 0.07485475 0.06516232 -0.074591406 -0.008300951 -0.059212398 -0.031607684 -0.015544731 -0.048221584 0.03759792 -0.025581488 -0.060812928 0.04529314 0.061022334 0.023257922 0.004199308 0.06454387 0.048271246 0.09040392 -0.04318938 -0.021976205 -0.121696346 -0.0040059346 0.0444624 0.077281706 0.0073550646 0.050227445 -0.028230727 -0.04714493 0.019052703 0.00027263866 -0.07603574 0.01870179 0.025735062 0.080851346 0.034841936 2.749383e-33 -0.04653328 -0.0150457835 -0.051383197 0.13993882 -0.01911894 -0.0016835298 -0.0039402544 -0.028337426 0.018515995 0.017935405 -0.061017856 -0.026306363 0.057428084 0.04548832 0.031139614 -0.022889381 0.14339949 -0.008848678 -0.012697419 0.028445063 0.011733595 0.013882568 -0.05260952 -0.049908694 -0.03934535 0.026246697 -0.05252235 -0.05155229 -0.027453922 0.01658148 0.030233102 -0.024794051 0.010897387 0.04914431 -0.06108658 -0.037623968 0.00041121242 0.015279337 0.008029735 0.035801683 0.05136887 -0.011010477 -0.0020114225 0.101984486 -0.007996473 -0.060135532 0.012698645 0.015626252 0.14143117 -0.021892045 -0.07735627 0.09765668 0.009996266 -0.06568079 -0.038603745 0.10770157 0.016199144 0.019511407 -0.04445393 0.044577233 0.014617877 0.0779551 0.018719673 0.036371335 -0.025832633 0.03693977 0.044598952 0.013714054 0.066603035 -0.052578382 0.068585455 0.03713762 -0.028302284 -0.008081191 -0.06205466 -0.012644112 -0.03514568 0.034351226 -0.011118763 0.012000899 -0.0039372537 -0.023671096 0.008760178 0.041067842 0.005039149 -0.03409598 0.018968817 -0.03477389 0.015668062 -0.11986955 -0.08254344 0.0011803015 0.023908801 -0.039908 -0.05026951 -1.2677555e-08 -0.014529796 -0.07132214 0.034566354 0.047358837 0.0099308025 0.022603583 0.019295728 0.09414121 -0.054630607 0.06301867 -0.052927643 -0.021413438 -0.10091142 0.03416362 0.010661696 -0.0119057875 0.04070594 -0.042818476 -0.006004235 -0.0022303965 0.04407585 0.039281428 0.048951827 0.037082206 -0.061392117 -0.0036402857 0.09984736 0.026415665 0.010656206 -0.0147229945 0.0066453395 0.059559304 0.013764303 -0.045683216 -0.017727995 -0.03456677 0.032558177 0.019609576 -0.007856052 -0.022680024 -0.045018617 -0.037407964 -0.018558532 -0.0046420153 0.087684594 -0.0011508757 -0.032053992 -0.07909209 0.023774704 -0.021396285 -0.032565117 0.014778382 0.042073093 -0.04291772 0.029808646 -0.05399092 0.018217497 -0.055021863 -0.05493239 0.039831582 0.089387044 -0.08949102 0.077192806 -0.020487443
7 -0.018243667 0.042235818 -0.04878578 -0.013734241 0.05426125 0.089751825 0.06541778 -0.0182672 -0.043202467 0.042445503 0.12141534 -0.024737785 0.011792849 0.0014736372 0.007734762 -0.05288395 0.036242522 -0.0042844894 -0.032205913 -0.033275302 -0.034084536 0.010503269 0.029475624 -0.042158544 -0.06276646 0.04743125 -0.07134005 -0.0014881025 -0.037956577 -0.059930954 0.0013134785 0.008901475 0.115414776 0.12201002 -0.050778437 -0.0734331 0.08643348 -0.035835877 0.063863315 0.01344371 0.050678268 -0.08135294 -0.028086504 0.019927809 -0.045709625 -0.04609382 0.038830508 0.037252657 0.019600164 -0.063821 0.025289267 0.018919352 -0.029472958 0.055967156 -0.016903536 -0.0618659 -0.0005481459 0.09889073 0.012315746 -0.017159525 0.04148598 0.035855904 -0.016550967 0.0789902 0.08966724 -0.062380243 -0.055650134 0.06820066 0.058535643 -0.015276374 -0.014892797 -0.030092007 0.02043217 0.0149448775 0.051543742 -0.035274018 -0.00054650276 0.017109659 0.046120733 -0.10929495 0.032565027 -0.10397927 -0.088037476 0.04379974 -0.034985635 -0.0522003 -0.09027993 0.010423806 -0.020408055 -0.093430325 0.021248158 -0.04143293 0.051737018 -0.06660239 -0.03178536 0.051288426 -0.038022727 -0.023298401 -8.231419e-05 0.06754705 -0.037546117 0.023639688 -0.059452023 0.007882749 0.051213756 -0.01135581 -0.035182085 0.01723007 -0.04458639 0.04057139 0.07880973 0.033945333 -0.005170648 0.032590203 0.08478034 0.06423531 -0.0012861852 0.08446554 -0.027481452 0.010981617 -0.030645365 0.03304477 -0.04142495 0.009099424 -0.070109755 -0.07653053 -0.051792588 -4.0636134e-33 -0.0077190604 -0.024003187 -0.05353961 0.031063726 0.0007997367 -0.0051642144 -0.028294396 -0.00023617028 0.024508141 0.10450307 -0.009905225 0.011288381 -0.00060190057 0.042074688 0.13706946 0.049008902 -0.034105375 0.025181886 0.006131472 0.06018206 -0.0019455452 0.032022364 -0.019682448 0.035094768 -0.013337993 0.0033364017 0.013454984 -0.050879464 0.08437486 0.006636249 0.03870286 0.15455541 0.057521418 0.029399747 0.02337249 0.014459994 -0.048242338 -0.030697735 -0.02663105 -0.041557677 -0.0706406 -0.015295895 -0.004835678 0.007624049 0.018594136 -0.0073507247 -0.028551618 -0.01677402 -0.074789226 0.009639037 -0.03204844 -0.069274776 0.02227882 0.029338516 -0.045281116 0.10352886 -0.03833818 -0.034415487 -0.0048150066 0.047803335 -0.0042393063 0.13279986 -0.004941551 -0.041257817 0.014022615 -0.07726378 0.007679478 -0.024288192 0.07701154 -0.029034916 -0.058048163 0.09019937 0.07062248 0.01863735 0.030291777 0.007192944 0.04366813 -0.045010656 -0.02057188 0.020671263 -0.092259295 -0.002460927 0.0291779 0.01805218 0.08533116 0.04161681 0.010734629 -0.06147308 0.0214449 0.030135274 -0.11296042 -0.08578493 0.009533058 0.046985857 0.015040733 1.5245034e-33 -0.033173636 -0.07696418 -0.071608 0.032171816 -0.01696811 -0.04082023 -0.026084939 -0.035203476 0.029793806 0.052255772 -0.11938815 -0.06603045 0.091911726 0.061003417 0.06023012 -0.0711253 0.06531737 -0.020350717 -0.10144252 0.019110965 0.049376678 -0.006459012 -0.018681614 -0.018997056 0.0008182803 0.0023195485 -0.012130803 -0.05957231 -0.05174246 0.048629615 0.022313854 0.038780548 0.0057139634 0.045422655 -0.124612406 0.018903557 0.11407534 -0.06510811 -0.046902362 -0.05334611 0.011940191 0.013253731 -0.010423193 0.025761582 -0.09601708 0.002484814 -0.009382563 0.13987055 -0.10353246 -0.048603315 -0.03263296 0.01786121 -0.03162807 0.012700668 0.009489533 0.051303633 -0.008529446 0.016131027 -0.03813095 0.034407772 0.06222305 0.125674 -0.07272952 0.08829901 0.02406645 0.04244463 -0.08305135 0.021782033 0.03985911 -0.037075166 0.076280214 0.007778897 -0.021103898 -0.006439388 -0.08530508 -0.038380884 -0.044849288 0.022291755 -0.016388228 0.0004949605 0.028131131 -0.06543545 -0.11552306 0.094989106 -0.058398947 0.040364187 0.046437293 -0.046955645 0.014161272 -0.028857987 -0.101016164 -0.00079872884 -0.049174443 -0.02212285 -0.03832546 -1.4873122e-08 0.02185982 0.060441628 0.003892648 0.0005731232 0.010678576 0.09240582 0.023237213 0.016049676 -0.002181829 0.018072726 0.036035404 0.013653653 -0.027410965 -0.05509461 -0.025545776 -0.034345392 0.09259747 -0.03347345 -0.030012991 0.0143208075 -0.009355941 0.022394747 0.015180974 0.040226936 -0.015837062 -0.03851907 0.019700315 0.038818534 0.016575089 0.10867658 -0.06540537 -0.025888352 -0.01601505 -0.019458512 0.004665661 -0.10363176 0.010034248 -0.06424687 0.03352197 -0.09316837 -0.005507518 -0.0076425397 0.024119861 0.0070349346 0.030663002 -0.0431255 0.0026400173 0.010445793 0.093810916 -0.049358588 -0.033013742 -0.04074939 -0.031125613 0.049476363 0.040247064 -0.0051602796 0.059093926 0.014022385 -0.09529391 0.03077993 0.102438055 0.006633591 0.09520794 -0.051103327
8 0.04873453 -0.017327446 -0.08505776 0.050759036 0.071988784 0.04976714 0.019850636 -0.0051096915 0.017860621 0.07092998 0.012942816 0.045882434 -0.105261855 -0.06968784 -0.0100814225 -0.042572405 -0.056841284 0.0031451576 0.009840768 0.033936292 -0.00672372 -0.04267042 -0.004373168 -0.021258414 0.051270932 -0.0026126823 0.032289278 0.017142314 -0.037683878 -0.06768204 0.011083378 -0.018698495 0.11972768 0.014711139 0.05756369 0.037391685 0.06317161 0.02174862 0.017352499 0.015966551 0.0005058854 -0.08065873 -0.016296234 -0.0331952 0.010972233 -0.0345208 0.11545096 0.036995463 -0.037483774 -0.029356563 0.011339854 0.020085184 -0.017759832 -0.04915991 0.049672205 0.017240204 -0.00433217 0.026791656 0.02126989 -0.0018281197 0.014586227 -0.022214582 -0.055245534 0.029883463 0.1550851 0.00823719 0.051894635 0.02106643 -0.056014545 0.01416446 0.071501836 -0.06951059 -0.0570828 -0.109764054 0.012032276 -0.060882356 0.04862573 0.10430627 0.06467477 -0.030019647 0.043792646 -0.09646392 -0.07040327 -0.045559656 -0.052360203 -0.004872797 0.01634175 -0.058526747 0.07562388 -0.012927146 0.031011842 -0.03252465 0.031326625 0.01207593 0.012608099 0.04311755 -0.041843124 -0.032859948 0.055032358 0.12236554 -0.016086834 0.009266995 -0.02728361 0.05862791 0.024248207 -0.045882225 0.033499353 0.035688035 0.051628016 0.011855589 0.015059869 -0.008236817 0.026877515 0.0046960018 0.0022476004 -0.03293472 -0.021004185 -0.061402395 0.04681576 -0.0039891074 0.015443358 0.00013129869 -0.047887865 -0.023668695 -0.034550678 -0.062482428 -0.10360837 -4.9319287e-33 -0.043416843 -0.015097906 0.05526919 -0.060278703 -0.06141385 0.06498512 -0.061568573 -0.043579333 -0.0056665265 0.026260942 0.039080586 0.038056668 0.03385905 -0.00913167 0.03834047 -0.03418004 -0.047070235 0.096903265 0.07172919 0.054016203 0.02751789 0.047334634 0.038102258 -0.047516204 0.018175753 -0.0615281 -0.007402168 -0.032082386 0.16587779 0.019768137 0.066322304 0.08058243 0.007047757 0.0022528656 -0.079068996 -0.046322852 -0.06070775 0.0024573489 -0.0014967299 -0.002537581 6.147272e-06 -0.028365187 -0.011624673 0.07183789 -0.026948893 0.0064385408 0.027765468 0.067346394 -0.037706755 -0.022411719 -0.029150607 0.038986895 -0.093576804 -0.110268936 -0.01959713 -0.004768456 -0.032246273 -0.03897503 -0.088436045 -0.11858043 -0.0018946269 0.011703305 -0.004308974 -0.021783847 -0.09423814 0.113960855 -0.03778064 0.010446894 0.032569535 0.015966136 -0.024157006 0.02581383 -0.02604698 0.039696176 0.046194147 0.013499932 0.013854373 0.027649833 0.024608064 0.027654346 -0.067280166 -0.056666162 -0.012055113 0.050138183 0.045995377 0.06320621 0.004478655 0.01684088 0.13062459 -0.015575656 -0.12336894 -0.010148612 -0.03386989 -0.03164357 0.03650978 1.1942572e-33 -0.047416456 0.039622586 -0.020643022 -0.028063323 -0.031782065 0.055445682 -0.017128114 -0.10109269 0.05260816 0.06411622 -0.0623091 -0.036116496 0.040670257 0.09034072 -0.045645528 -0.06762838 0.026431268 -0.05441504 -0.037277605 -0.030031443 -0.029565774 0.039422818 0.037840653 0.024856878 0.01081545 -0.017804438 -0.08809399 -0.04904105 -0.066588245 -0.006292368 0.0051465444 0.022378072 -0.028167699 0.03439425 -0.1107575 0.026554141 -0.0026225362 -0.056135118 -0.02567281 0.010384517 0.02447357 -0.049219795 0.038200308 -0.03326179 0.03440355 -0.02641815 -0.02834364 0.040278528 0.03394113 0.010387087 0.017519927 0.07682647 0.022527017 0.015523967 -0.08349524 0.027234966 0.06267721 -0.06912026 0.0135861905 0.057715915 -0.034175172 0.09834316 -0.027163142 0.13608222 -0.039230227 -0.08047347 -0.021531539 -0.107857645 0.05760894 -0.11760533 -0.020761842 -0.027817616 -0.021646347 0.04334805 0.0031863316 0.20258905 -0.06530802 0.04083317 0.08333518 0.02778281 -0.0037279155 0.040832918 -0.013601269 -0.06351652 -0.038907204 -0.033748172 0.07975228 -0.10234904 -0.03995411 -0.038455136 -0.061236367 -0.0019628159 0.10545623 -0.022922505 -0.026076697 -1.4631188e-08 -0.038125094 -0.03782416 0.011782956 0.04113332 0.021332303 -0.012700233 0.0022922966 -0.062843986 -0.03275696 0.014919431 0.007259249 0.11080999 -0.05302218 0.07911062 -0.06833429 -0.017651124 -0.038180985 -0.024667695 -0.030645698 -0.04045665 0.018850833 0.04519731 0.013174436 0.050692372 0.020788867 0.038969554 0.05682921 0.048879817 -0.019970447 0.04495991 -0.008894905 0.039774 -0.00028866596 -0.04133726 -0.016483063 0.017492676 0.045735512 0.05036248 0.0052382983 0.006410509 0.020891614 -0.029362531 -0.0642175 -0.041147362 0.07886671 -0.03058812 -0.018199924 -0.017301267 0.04563602 -0.114725724 0.0035193441 0.008213238 0.065372564 -0.038693856 0.0053859046 -0.023831952 -0.026579687 0.026537374 -0.13999063 -0.058384694 0.053192265 -0.05740843 0.06631589 -0.021166557
9 0.030874351 0.09993649 -0.020642996 0.07698147 -0.015606989 0.019744232 0.06858688 -0.014702976 0.016985476 0.08566077 0.058149662 0.0002935236 -0.009104525 -0.0050777583 -0.036118273 -0.022485897 -0.048373174 -0.041000683 -0.08303205 -0.11757213 -0.031098157 0.074827105 0.007927656 0.018706813 -0.0076302025 0.07094078 0.02743182 -0.067351826 -0.0025948342 -0.09258039 0.055698503 -0.0025730464 0.055754017 0.020363629 -0.014827976 0.104460984 0.07272814 0.012908199 0.051851362 -0.051853403 -0.013868538 -0.042113435 -0.03466015 -0.039464287 0.07972375 -0.024873396 0.016445247 -0.04288403 0.01025623 0.0015840896 -0.042540245 -0.044015557 -0.021015575 -0.048878726 -0.021045933 0.042490676 -0.03356824 0.034970924 -0.012971251 -0.033908136 0.016426014 -0.016429175 -0.044750042 0.060656276 0.056665186 -0.03867766 -0.03504637 0.09398502 -0.043460395 -0.020543646 0.049362455 0.0066709537 0.010874441 0.010608251 0.113066785 -0.05439042 0.015172997 0.037051 0.0914493 -0.060278233 0.073248036 -0.008375242 -0.056420133 0.026413972 0.015253718 -0.017778121 0.026437555 0.03183871 -0.009087181 -0.009056712 -0.007808097 -0.07718616 0.018510895 0.057519045 0.014468456 0.002233412 -0.0051819757 -0.07832085 -0.034320164 0.25202408 -0.04023215 0.00091691816 -0.03599637 0.072905764 -0.04543941 -0.006936326 -0.014384799 0.037321158 0.00077513105 -0.03323006 -0.03199169 0.046679355 -0.07592965 0.07108189 0.048126556 0.05991616 0.07834853 0.03169104 0.02992355 0.0312518 -0.026123563 0.01900979 -0.05422567 -0.004427412 -0.029040605 -0.17667781 -0.05230946 -3.860606e-33 0.05339381 -0.04630048 0.029072845 0.06319122 -0.052042436 0.017764281 0.05613972 0.001441651 -0.027077442 0.051727775 0.018043548 0.06840666 0.0062098927 0.08523166 0.15310894 0.040713996 -0.089424945 0.097196974 0.06134688 0.0241697 -0.008299119 0.0030434553 -0.010652793 -0.029842481 -0.040089972 -0.014549375 0.005490224 -0.029846765 0.050260257 -0.009995259 0.0106596425 0.04127824 -0.09645734 -0.07115559 0.02458998 -0.04180852 0.034782305 -0.08747078 0.0097299265 -0.06627345 0.05048045 -0.01040427 0.021700168 0.012550902 0.0015867905 0.054535497 0.05603999 0.009285496 -0.050003592 0.045728706 -0.064843945 -0.04581465 -0.046138007 -0.09844974 0.05199125 0.049387347 0.029931553 0.044953916 -0.004556288 -0.035808 -0.009449001 0.0667556 -0.011852006 -0.010017937 0.024705183 0.016519994 0.013282763 -0.009636272 0.1659348 -0.11945828 -0.094582036 -0.022485916 -0.021919934 0.023835858 -0.025390236 -0.03161524 -0.014547836 -0.04380118 0.03926995 0.06676401 0.0586337 -0.017837808 0.024759602 -0.040216595 0.12603132 0.027834143 -0.015719883 -0.073463626 0.056850787 0.0009820001 -0.04820483 -0.0705761 -0.0054553375 0.07534477 0.009342686 2.9032218e-33 -0.017851027 0.03262022 -0.11960855 0.114443645 0.05458878 0.016092535 0.079889074 -0.00714941 0.006854111 0.029921476 -0.04981004 -0.035795182 0.047986105 0.07939182 -0.0020510403 -0.039445203 0.046401408 -0.014685692 -0.026167773 -0.0123015195 -0.055037946 0.028442524 -0.022745686 0.005842695 -0.054586828 -0.0018305716 -0.04894693 0.019407092 -0.067610435 0.076355875 0.08594066 -0.035223216 -0.0038530282 0.040149465 -0.04473688 0.058376927 0.03323383 0.03631328 -0.06559634 0.052832786 0.053030983 -0.05603563 -0.054543275 0.065997116 -0.070817895 0.026477637 -0.00025084495 0.0579064 0.04339909 0.035713684 -0.040543802 -0.0053936956 0.012663475 -0.05706493 0.009870641 -0.038265545 0.019080253 -0.009000769 0.004521827 -0.0031112304 0.06737313 0.014947359 -0.056721687 0.08897938 -0.070405364 0.01687808 -0.03967747 0.058537245 -0.021852968 0.0033896645 0.10661151 0.046148248 -0.03359797 -0.04331359 -0.048904657 0.037445445 -0.034842696 0.053243246 -0.016123142 -0.0055085025 -0.011206884 -0.08021933 0.00039357445 0.017573638 -0.06080167 0.012824014 0.068582214 -0.05555712 0.024168614 -0.09897563 -0.048905145 0.0032195433 -0.055780165 -0.021216296 -0.03663511 -1.3368668e-08 -0.01591674 -0.06907116 -0.002279556 -0.072314985 0.0001199318 0.057358976 -0.017102558 0.011034472 0.014776081 0.06618361 -0.07892203 0.03734347 0.011928399 -0.025611596 0.038497813 0.05468048 0.023927173 0.037227064 -0.01184928 0.031692024 0.051636327 -0.026650378 0.004581313 0.00064347853 -0.01811245 -0.02963081 0.045535743 0.04855277 -0.059249084 0.08837773 -0.015019209 -0.030268688 0.009723188 -0.0808844 0.026064012 -0.04654858 0.0042362357 -0.03904504 0.06250129 -0.05284524 -0.050504833 0.008241954 0.07322296 -0.027320448 0.018263377 0.03563464 -0.06259976 0.040377017 -0.009359635 0.006758249 -0.041203808 -0.03947346 -0.02726238 -0.07039604 0.051986318 -0.08018686 -0.016784156 -0.07306307 -0.074673116 0.020988123 0.11523332 0.0029489205 0.059590954 0.0063267923
10 0.0040957117 0.037235968 0.016336026 0.06800968 0.029289952 -0.034797296 0.07201809 0.026234627 -0.011474599 0.070454516 0.025040412 -0.016163362 0.03452095 0.039485887 -0.013656478 -0.023588141 0.017734814 -0.058596227 -0.045900475 -0.058169045 0.007958512 0.033174828 -0.010297742 -0.020241134 -0.05173389 0.02754567 0.005866511 0.06107577 -0.03743544 -0.07119915 0.07529726 -0.04717067 0.070111945 -0.055095706 0.00598646 0.11832405 0.040566765 0.022035541 -0.011096612 0.020560227 -0.019607008 -0.03650588 -0.023595333 -0.0252919 -0.0013703348 0.07698401 -0.03341915 -0.011078153 0.037036754 -0.0071067424 0.087898225 0.01469195 -0.05235587 0.002720953 0.029298918 -0.038978014 0.021450689 -0.02829805 -0.05432334 -0.088498645 -0.042925127 0.0079471925 0.011778162 -0.0024868075 -0.018308282 -0.023662584 0.0071718893 0.033285595 0.08163878 -0.061746553 0.024976827 -0.054862965 0.038273517 0.018592224 -0.03384836 -0.021412104 0.06148767 0.0024157674 0.06809015 0.04100179 0.05754837 -0.07511183 0.006870651 0.019013278 0.01559468 0.0454589 -0.03109026 0.05018665 0.023368 0.049498256 0.007998054 -0.06175725 0.11548689 0.037266664 0.046406575 -0.013126058 0.013632675 -0.06108567 -0.083845295 0.104502045 0.037600078 -0.0031709333 -0.013852979 -0.024824968 0.035511512 -0.078414574 -0.029501688 -0.047765628 0.03922543 -0.02886542 0.030838408 0.030459838 0.018062247 -0.047295887 0.009578708 -0.02222203 -0.055653386 0.006239382 0.004997952 0.08853255 -0.024788378 -0.0029953092 -0.035748623 -0.026349295 0.019263007 0.00058097567 0.05755445 -2.4832796e-33 0.030014616 -0.026359472 -0.032389704 0.044157986 0.07038256 0.004697392 -0.055681605 -0.01045313 0.10563053 -0.020742115 0.0052587655 0.020572005 0.09424445 -0.03401235 0.02187171 -0.051457617 -0.02128632 0.076616585 -0.049517326 -0.04385023 -0.09813643 -0.02499802 -0.01289476 -0.0100718 0.057024855 0.02290549 0.0055036903 0.01823117 0.14648265 0.0006482347 -0.016183475 0.059539467 -0.03317193 -0.03417792 -0.03193818 0.04692522 -0.06773241 -0.008877871 -0.0125424275 -0.08795064 -0.07344893 0.004527221 0.01666802 0.06858664 0.0076865726 -0.04057547 0.026209356 -0.005297779 0.029690009 -0.04914048 -0.06207346 -0.042512685 -0.037648596 -0.050508432 -0.039656583 0.0500686 0.081605196 0.024174727 0.046496015 -0.005435796 0.02678059 0.088020794 -0.026053492 0.041665748 0.11311757 -0.058667738 0.02920745 -0.043922335 0.11385532 -0.0057537076 -0.02546468 -0.025116127 0.081514865 0.031198125 -0.0847822 -0.016352477 0.063328974 0.0013249367 -0.07976803 -0.020468237 0.009255457 -0.045033365 0.067775555 0.10471025 0.094517365 -0.01789859 -0.08012407 0.04519592 -0.09845508 0.08095808 -0.0945995 0.02179751 0.034834668 0.0760542 -0.0007104195 2.3730266e-33 0.06721479 -0.0043258527 -0.072671846 0.026426507 0.07137862 -0.014593152 -0.0275962 -0.025718855 -0.065698095 0.042164803 -0.10065124 -0.050707832 0.056214657 0.028352473 0.023752458 -0.042782377 0.041548938 -0.013562497 -0.09847038 0.07243606 -0.036315516 -0.03354772 -0.035563376 -0.005290461 -0.055211715 0.13233006 -0.017741736 7.528538e-05 -0.112034686 -0.044948038 -0.035493158 -0.0665112 0.020137368 0.075742215 -0.09123539 0.040367212 0.043809626 -0.0119323665 -0.08509754 0.018503796 0.051766902 0.022914743 0.029988617 0.06850472 0.016805628 0.016039336 0.042984515 0.011712243 -0.07786515 -0.008438847 -0.0975481 -0.09827744 -0.07199548 0.042817123 0.027462918 -0.040346786 -0.023253744 -0.087727524 -0.097206645 -0.041474473 0.053345557 0.020796014 -0.009392023 0.09057172 -0.062216483 -0.028711015 -0.030513149 -0.11469625 -0.025129732 -0.017455494 0.09827754 0.05835737 -0.0458455 0.007428993 0.026825469 0.0004965596 -0.07369589 -0.01730947 -0.05873908 -0.058056176 -0.017485937 -0.03259773 -0.10821462 0.11789312 -0.01478181 -0.024416447 0.13562568 -0.034645468 0.0030925272 -0.019373162 -0.059073165 0.028663376 0.018148992 0.04039645 0.004571474 -1.2814217e-08 -0.046557914 0.016962899 0.011852809 -0.075935565 -0.0075152814 -0.092454486 0.015120389 -0.008321737 -0.015193897 0.037932627 0.010858202 0.045040578 0.019257838 0.061964493 0.059338268 -0.03773876 0.076791085 -0.000365951 -0.03693868 0.02673922 -0.03627063 -0.0021061036 0.008267304 -0.005363149 0.13869396 0.06559399 -0.008137929 0.03584153 -0.013069522 0.10211438 -0.054066807 -0.014782045 -0.0018557829 0.04351861 -0.027338373 0.039833903 0.1278187 -0.04331803 0.015082654 -0.07324703 -0.017983975 -0.04770506 0.026923768 0.034213573 0.0015054125 -0.033324324 -0.003354763 0.01612127 -0.0009920188 -0.100402795 0.012913785 -0.055158034 0.04540107 0.055032507 0.04367299 -0.0060934736 -0.02185919 -0.062672414 0.012572023 0.069520496 0.068707414 0.055404693 -0.08584559 -0.046292555
11 -0.03539453 0.09909575 -0.010701131 0.14239544 0.029748695 -0.014692783 0.13192558 -0.029108174 0.052319482 0.010370664 -0.01434274 -0.06606657 -0.071432464 -0.009318444 0.010563874 -0.013075227 0.049845524 0.0021092477 -0.1623708 -0.036616784 0.05386933 -0.024182426 0.032887228 0.038837507 0.051655453 0.09337717 -0.054885127 0.103241675 0.047666557 -0.075787485 0.0032252325 -0.03211592 -0.0097291265 -0.00093589246 0.004108521 0.11729723 -0.017817574 0.04814915 -0.002017382 -0.010407736 -0.11187805 -0.10656523 0.07253995 -0.003005198 -0.056473687 -0.039669294 -0.000989225 -0.046762533 0.034100648 0.018818244 0.023651049 -0.056230966 -0.040699583 0.06834 0.07376683 0.030763103 0.03017339 0.0015682749 0.029339382 -0.008004123 0.034232583 -0.068746835 -0.066840746 0.032832358 0.096760675 -0.023916908 0.043730173 0.04417114 -0.047243457 -0.051684503 0.028471338 -0.036767032 -0.0058859773 -0.097355835 0.022911182 -0.07349498 0.014615191 0.017495245 0.12113108 0.014075215 0.041930307 -0.05056443 -0.07978228 0.009421779 0.064780325 0.030895948 0.07765993 0.034746505 0.010034565 0.023400947 -0.07125298 -0.012024394 0.017121077 0.03285508 0.027639959 0.011607182 -0.025893224 -0.101629026 -0.04572331 0.17843585 -0.018482909 0.0833606 -0.032122474 0.06032666 0.0033480437 -0.056057546 -0.05770575 0.11384123 0.0706244 0.06756654 0.009132083 0.029804999 -0.010921551 0.0610135 -0.052819718 -0.028183596 0.0513178 -0.01986315 0.012772063 0.028710023 0.019751398 -0.004039651 0.006417773 0.00697554 -0.06450229 -0.11943137 0.004679709 -4.4700208e-33 -0.07372336 -0.06259813 0.117298745 0.015560658 0.02242653 -0.02519974 -0.12256812 -0.03593264 0.0056327325 -0.02695297 -0.023614032 0.06322685 0.06638938 0.090243645 0.010412645 -0.056631733 0.0024635429 0.040628638 0.03820954 -0.041191928 -0.016812118 0.03672926 0.07762271 0.033480868 0.0032398587 0.019408347 -0.0017250354 -0.051618844 -0.04631051 0.013782474 -0.02732402 0.0065732105 -0.03414016 -0.014311218 -0.06174226 -0.01564279 0.05708144 -0.037462056 0.0060632145 -0.020549001 -0.021852719 0.04310667 0.012694828 0.001179005 0.048896104 0.0066698305 0.14550228 0.017838081 -0.10455415 0.03602547 0.006724117 -0.019056058 -0.006861712 -0.008725593 0.038105387 -0.028669694 0.033142254 0.023647103 -0.0071452893 -0.023196645 0.023268826 0.07030047 0.048868664 -0.008449705 0.024918608 -0.046030566 -0.024515064 -0.027836608 -0.015985707 0.0048056785 -0.04916346 -0.03542724 0.07713619 -0.049425807 0.09464388 0.02585641 -0.039881054 -0.012693761 -0.13323146 0.021457085 -0.043588392 -0.0356919 0.03453907 -0.033947706 -0.040875778 -0.042807538 -0.07126692 -0.06313696 0.019311137 0.055340808 -0.0308133 -0.029303916 0.06409371 0.003361367 -0.05798678 3.6913865e-33 -0.039025232 0.009441351 -0.090598874 0.07049913 0.053036157 -0.026725572 -0.05718826 -0.09814204 -0.053090937 0.02282104 0.012291212 -0.052538514 -0.029346872 0.003279467 0.024498137 0.023676889 0.043821555 0.01615516 -0.0051498646 0.048857123 -0.00407082 0.060688827 -0.034287233 -0.0038218647 -0.0076810406 0.091601335 0.011321605 -0.06490049 0.006962584 -0.011176504 -0.021454202 0.0055635935 -0.04140554 0.035333153 -0.044609126 0.10977411 0.084874205 0.020859346 -0.023006313 0.014327892 0.077912584 0.03760661 0.03825666 0.12578565 -0.043661967 -0.050402794 -0.0070012985 0.0069414536 -0.07161705 0.0094041815 0.06872352 -0.035498403 -0.07403262 -0.037545163 -0.045323435 -0.019390097 -0.0064700707 0.011432359 -0.029250244 -0.02283582 0.031136608 -0.032153226 0.03838864 0.116456255 -0.07043758 0.06241661 -0.048352636 -0.0012089155 0.04043543 -0.054128107 0.029609498 0.030121056 -0.026098683 0.012260211 -0.026432937 0.038314108 0.042848144 -0.048131052 -0.020624435 -0.024535464 -0.113521986 -0.001050622 -0.004044622 -0.114987485 -0.040757865 -0.083343916 -0.032516897 -0.03452004 -0.0022952077 -0.052486252 0.001684823 -0.017050723 -0.032407016 0.058928475 -0.016740851 -1.1614651e-08 0.034844402 -0.03297015 0.06743932 -0.06488869 0.052690126 0.0076811323 0.04520752 0.021128733 0.04815795 0.039604887 0.10270136 0.022517381 0.07771288 0.09711795 0.051010624 0.021019563 -0.0032384554 0.018373035 -0.053349387 -0.032267295 -0.0026640513 -0.0056142705 -0.025726642 0.030348029 0.03469356 -0.0022581492 -0.008806468 0.045199957 0.031804956 -0.009062676 -0.013248133 0.036094543 -0.020345554 -0.04605989 -0.0690099 -0.059024017 -0.013242859 0.0038495637 -0.0116817895 0.032958478 0.015793556 -0.0122745745 -0.019848663 -0.018335195 -0.10996589 -0.0012408998 -0.10588921 -0.0020598983 0.013994707 0.07084472 0.010321154 0.0511015 0.01491576 -0.018507905 -0.016423227 0.0043073674 -0.05000255 0.015169856 -0.0704793 -0.010740033 0.13037713 -0.012316689 0.010752215 0.044747446
12 -0.053055286 0.12804082 0.067279905 -0.0029519184 0.110324174 0.016971704 0.06890257 -0.02584355 -0.057621337 0.05966363 0.032615412 -0.033426456 0.0076012528 0.008648348 -0.043568563 0.013224319 -0.033922065 0.008991518 -0.11851361 -0.021856558 -0.04334292 0.062131215 -0.0012921357 0.006834944 -0.12361225 0.06996675 -0.00038295198 0.03224159 0.028606677 -0.04803364 0.03451642 -0.01688868 0.039617546 -0.008363121 -0.07302856 0.057853278 0.050682437 -0.08309537 -0.005223555 -0.03323336 -0.0768831 -0.049319703 -0.07701296 -0.06515756 -0.06286736 0.0044182017 0.042555146 -0.0445137 -0.017656872 -0.091316134 0.113359064 0.073529005 -0.0627604 -0.027609564 0.011472757 -0.12229811 -0.014148861 -0.048143934 -0.025740894 -0.015577207 0.06398766 -0.06444554 -0.08380876 0.0456804 0.0713327 -0.03424831 -0.06157542 0.095519245 0.030660609 -0.014216307 0.0071455217 -0.03234417 0.007153518 -0.04714751 0.018778358 0.026215324 -0.002657577 -0.0020862017 0.081829004 -0.0524514 0.100971475 -0.05268782 0.015699852 0.017693019 0.056987192 0.04457465 0.012423452 -0.04016617 0.043747455 0.004890729 0.021891382 -0.06459933 0.14285347 0.059973788 -0.08642178 0.03364063 0.010517568 -0.046835896 -0.039262854 0.14695054 0.05009333 -0.020944284 -0.085590854 -0.031886127 -0.008931161 -0.06611342 0.02998942 0.00682781 0.016391171 0.0028143954 -0.05790718 -0.0012074863 -0.044433232 0.046991568 -0.014498272 0.015307661 0.08222722 -0.0693815 0.07676695 -0.02978461 0.063495025 -0.045692578 0.030562915 0.003634703 0.04136151 -0.05796801 0.008125959 -2.8100169e-33 -0.027298333 -0.018777862 0.020937327 -0.08561164 -0.00578753 0.028091757 -0.009043215 -0.020818114 -0.008133969 0.050539576 0.0480556 0.015583442 -0.013130734 0.018897247 0.14607115 0.0012172086 -0.07465762 0.030248448 0.08382978 -0.0188875 -0.019066636 -0.053148914 0.004457862 0.08796298 0.049660273 -0.0679978 0.048270173 -0.03797088 0.030992346 0.04177885 0.07617748 0.08164626 -0.06575326 0.0058692126 0.019151842 0.073136896 -0.09026766 0.007373531 -0.036177706 -0.020906163 -0.06971759 -0.027766822 0.05615573 0.015908692 0.094595976 -0.05189487 0.003942742 -0.013024487 -0.048676714 -0.025831088 -0.03863545 0.04593484 -0.07037138 -0.07229046 -0.0043048966 -0.035601616 0.03731272 -0.03383601 -0.0029597448 0.009611223 -0.025348611 0.10347924 -0.021846674 0.02027031 0.05984779 -0.03865547 0.042115573 -0.0128312 0.0149421245 -0.051041044 -0.064745694 -0.03961957 0.060260523 0.001248535 -0.09439462 -0.01657013 0.015123758 0.02487565 -0.033877507 0.0053366646 -0.09449378 -0.015458731 0.017779024 -0.018540394 0.012572563 -0.0015302248 0.0076161176 0.044125367 0.06982679 0.008387016 0.007902468 0.01967057 0.037068624 0.012645636 -0.056680236 1.7916473e-33 0.020322302 0.0003141947 0.00461631 -0.029296659 -0.060536515 -0.059417672 -0.06771559 -0.00087095774 0.0021432044 0.012632558 -0.067268565 0.09280652 0.12793946 0.031837724 0.035706785 -0.04545333 -0.020708656 -0.009688047 -0.058744058 -0.06094345 -0.03910931 0.0083126705 0.031421624 0.11016613 -0.12285232 0.045377698 -0.05586869 -0.049702693 0.11693148 0.021622688 -0.05150884 0.036670018 -0.052828044 0.068622865 -0.06744539 -0.044283547 0.04963845 -0.023738928 -0.043607607 -0.007606251 0.05902291 -0.020146018 -0.010030848 0.019256555 -0.025025759 0.034740675 -0.025426628 0.04388298 0.039822783 -0.017063076 0.047422502 0.019641967 -0.01702338 -0.03774298 0.06076541 -0.04615022 0.07195951 0.0072498177 -0.03418425 0.034932278 0.09339989 0.10520359 -0.012389403 0.07701289 -0.05280958 0.03571945 -0.0066077034 0.07255472 0.033720426 -0.039980184 0.0010812663 0.023984674 -0.0898735 -0.06913463 -0.047274683 -0.07352367 -0.040673506 0.037201002 -0.07038135 0.08549578 0.0060547544 -0.012963005 -0.07680287 0.030241324 0.067460656 -0.075799875 -0.02839587 -0.10818353 0.009480901 0.015188873 -0.08988574 0.027596693 -0.14840654 0.07094207 -0.011818885 -1.3081045e-08 0.018011415 -0.01933237 0.025389818 -0.006994706 -0.037985954 -0.012611235 0.009211322 -0.0016742016 0.015524343 0.030509224 0.024184754 0.010521359 0.06752535 0.03537335 -0.036930006 -0.04930414 0.03874975 -0.014871917 -0.059945803 0.017300038 0.011055455 0.0054277126 0.013183165 0.04227688 0.022967873 0.004670322 0.09580141 0.014958094 0.04768151 0.07899938 -0.0072746063 0.07521605 -0.027038435 0.0081484495 -0.020088801 -0.011882387 0.037664782 -0.005208345 -0.016383803 0.0022612312 -0.09955277 0.045420412 0.026906969 0.020665217 0.040565047 -0.046307687 -0.014752384 0.01053558 0.042906124 0.0015985288 0.004827453 -0.044264033 0.065664254 0.08141467 -0.008966698 -0.010849027 0.013023977 0.0051074056 -0.006307778 0.037523128 0.03274632 -0.034800123 0.08779722 0.06269288
13 -0.04107542 0.017766815 -0.01615591 0.020584038 -0.06239592 0.01508571 0.045319438 -0.024435248 0.035413012 -0.01842979 0.11038124 -0.029240502 0.046253987 -0.013649274 -0.03295407 -0.01838737 -0.030970192 -0.023796843 -0.0885014 -0.058612376 -0.06406784 -0.022738783 0.010774639 0.01172519 -0.031017968 0.11009019 -0.020788684 -0.03513138 -0.004586922 -0.04048344 0.033390578 -0.013742534 0.112719476 0.030022947 0.012334714 0.07254794 0.04915899 0.054438055 0.04712337 -0.023535049 -0.005326926 0.0047852695 0.09477329 -0.099634856 0.026990343 0.023164118 0.0020167008 -0.0030408725 0.05625154 0.04894947 0.012213194 -0.0499546 0.0113583915 0.028130366 0.05059958 0.042366605 -0.06715219 -0.016550904 -0.028661039 0.016521027 0.084306315 0.028977904 -0.12768322 0.00597485 -0.029769456 0.03374105 0.017836373 0.07081961 0.016151177 -0.03219472 -0.030946117 0.026859533 -0.019479308 0.11172323 -0.020392952 0.014069747 0.036699563 0.009771444 -0.027947286 -0.07648427 -0.03740559 -0.060103618 -0.027558656 -0.012724616 -0.023511592 0.025166286 -0.0010429652 -0.040286284 -0.0046770005 0.036509193 -0.10261551 -0.059998494 0.09719834 -0.01960716 -0.08628571 0.035902373 0.048826396 -0.058588255 -0.047566943 0.25253555 0.012841913 -0.042526115 0.037680153 0.060855277 -0.07898385 -0.04902253 -0.05591285 -0.00368147 -0.019877644 0.016939318 -0.07124323 0.03290348 -0.0767139 0.0046436945 -0.042401206 -0.06827666 0.073288724 -0.0051726215 0.0017884097 -0.0036092594 0.011502615 0.06904 -0.02394783 -0.041052286 -0.006257666 -0.041116975 -0.053588927 -5.2209802e-33 -0.04962727 -0.004102721 0.036192033 0.055152122 -0.018002711 -0.0051276656 -0.053114034 0.03832516 -0.030717308 0.024948418 0.014801686 -0.008326344 -0.028497344 -0.030689027 0.031659305 0.04907012 -0.053998705 0.04362757 -0.018024523 0.051911302 -0.0696723 0.10429324 -0.007846425 0.03437976 -0.08220117 -0.05840206 0.06596 -0.003957663 -0.03652929 0.019191455 0.028111326 0.05680083 0.021500407 -0.07616595 -0.013465246 0.024448607 0.08275365 -0.08626648 0.02217581 -0.011633651 -0.03135355 -0.044136338 0.016145196 0.043537788 0.021968646 0.016885271 0.053779714 -0.05362764 -0.027020214 0.09800219 -0.04965023 -0.017945314 -0.08310101 -0.007511478 0.012662346 -0.020482512 0.033069063 0.010285576 0.005139391 0.04257724 0.044641122 -0.020691736 -0.007268625 0.03288101 -0.026025923 0.0027718032 0.05468383 0.03495407 0.0633796 -0.013350659 -0.025353698 -0.0053712125 0.018699791 0.020999048 -0.011071078 0.09295195 -0.010242723 0.043609213 -0.052802414 0.03772564 0.0033350752 0.038185418 0.084949374 0.006327627 0.010040775 -0.026304716 -0.0135367755 -0.0064947642 -0.06333604 0.03077872 -0.09976164 -0.013492595 0.09489736 -0.028746786 -0.017907582 3.1959002e-33 -0.0072238278 0.013752544 -0.025750326 -0.0843569 0.08123966 -0.05299144 0.04624455 -0.06937788 0.09070421 0.09701618 -0.099928804 -0.054204177 0.14225495 -0.0073395423 -0.07008742 -0.049923286 0.073283255 0.00655594 0.051787026 -0.050907034 -0.010566658 0.03014843 -0.010649359 0.030895371 -0.0011539086 0.032855663 -0.12479781 0.03287706 -0.081955835 0.011766407 -0.029383041 -0.009514521 0.1074966 0.009939681 0.06883859 0.06589186 -0.0036870642 0.074616686 -0.08486423 -0.052365594 0.09289642 -0.0013699654 -0.01507224 0.10709708 -0.059175156 0.047015235 -0.008651741 0.026991172 0.038847297 0.014521588 -0.063437484 -0.0027457618 -0.009525295 0.032826565 0.039731104 -0.031219836 0.07692472 -0.029846895 -0.0440459 0.036710843 -0.06185968 0.02239168 -0.072521545 0.10983903 -0.025059817 -0.020681465 -0.1134266 -0.046520714 0.021096386 0.048320387 -0.015301182 -0.08356711 -0.036926694 -0.026698556 -0.09382378 0.048221808 -0.09416651 0.02482025 0.028954253 0.025332632 -0.033328947 -0.06914861 0.007953399 -0.012874907 -0.023559716 -0.08426004 0.07858271 -0.025479643 0.02471337 0.034664694 0.026571382 -0.047650576 0.05009636 -0.0348968 -0.010631329 -1.2789423e-08 0.10341781 -0.012654526 0.0068072295 -0.038717438 0.026473597 -0.02272416 0.04200188 0.102070786 -0.03813551 0.09939214 -0.081697285 0.010993687 0.052745674 -0.022269424 0.04870203 -0.032886248 -0.008215287 0.017903943 -0.040693797 0.03150988 0.048978075 0.006747258 0.039474048 0.055698715 -0.044488963 -0.002044509 0.026634809 -0.03363175 -0.036039017 0.04541431 0.04344725 0.001309908 -0.08597583 0.014609238 -0.04210862 -0.03796334 -0.0623006 0.027782436 0.0019768667 -0.015725337 -0.034195047 -0.046685405 -0.037245166 0.0031298527 0.0052187885 0.010902081 -0.015710844 0.034059428 -0.022489244 -0.0016650362 -0.1096818 0.01872894 -0.094553925 -0.0042523243 0.0099316705 -0.019677654 0.021576991 0.051855322 -0.021570966 0.01952817 0.13698111 0.06549236 0.1105746 0.02694215
14 0.046598565 -0.021919066 -0.13062164 0.05198143 0.035424016 -0.0077227657 0.042391945 0.0069826925 0.037160054 -0.045645706 0.021658354 -0.029981669 -0.037074946 -0.023470845 0.0029743735 -0.097162984 -0.07965592 -0.028599063 -0.0075041926 0.036418203 -0.060370315 -0.050872985 -0.009192686 -0.048267532 0.04008845 0.0021720817 0.018479059 0.060844537 -0.06045465 -0.055774823 -0.0049201776 0.046713594 0.085177265 -0.017914392 0.05601728 0.05826821 0.042924438 0.08775005 0.06577022 -0.024272583 -0.063868925 -0.10066286 0.0150295645 -0.06871372 0.06454757 -0.06460138 0.02305709 0.041754264 0.020876003 0.047466055 -0.046932846 0.023520904 -0.020991396 0.0046175364 0.049884275 0.05891514 0.04732533 -0.010528219 0.010386363 -0.011921149 9.565285e-05 0.015929414 0.02371037 0.028546307 0.07948197 0.051308963 -0.008697825 0.08868628 -0.04834705 -0.0043443255 0.037822768 -0.15480565 -0.05465818 -0.04077544 -0.016441835 -0.033628706 -0.00091944466 0.12804466 0.031731103 -0.015988676 0.033681072 -0.05623537 -0.08460607 -0.035563692 -0.073217295 0.022381106 0.008555557 -0.058595415 -0.024222871 0.016234115 0.03388173 -0.010357302 0.06972545 0.013743379 0.0217663 -0.008752623 -0.03893217 -0.05797577 0.046313744 0.04747711 0.06277134 -0.028178329 -0.039978214 0.05537697 -0.051594235 -0.048580587 0.0796146 0.0999524 0.07811145 -0.060567353 -0.00074877177 0.08349514 -0.039257318 -0.07609441 -0.02582062 0.007863461 -0.02382714 -0.024266832 0.04926538 0.059883874 -0.015877508 0.05880088 -0.10430163 -0.031205213 -0.03817926 -0.061691362 -0.12019308 -3.9015194e-33 -0.063210905 -0.05415811 0.031931676 -0.026112977 -0.06962052 0.07802402 -0.04541278 -0.019771194 -0.079010695 0.025001993 0.016745307 0.033333246 -0.01832735 -0.06715608 0.04674874 -0.03898701 -0.026174286 0.03832771 0.04300739 -0.010437749 -0.0036113348 0.072158925 0.0704788 -0.09139401 0.10278796 -0.037895102 -0.016164592 -0.033954985 0.07230543 0.048842587 0.028945299 0.061753154 -0.019488871 -0.015386541 -0.058185425 -0.011079407 -0.03844846 0.00405926 -0.048926167 -0.020976322 -0.07705994 -0.0035635736 -0.025825815 0.013279765 -0.031190917 0.10677026 0.06289584 0.062068563 -0.029232997 -0.035561126 -0.046251 0.023627283 -0.01697073 -0.087364994 0.0400579 0.014649065 0.0023291751 -0.028020842 -0.10959502 -0.04440367 -0.023250507 -0.026962178 -0.054081153 -0.05184633 -0.08212597 0.10818125 0.0012317274 0.06278129 -0.015379984 0.02992668 -0.069824 -0.008279808 0.027393967 0.097557224 0.020660248 0.014171277 -0.024587024 0.06785692 -0.0024282692 0.09985957 -0.049284954 -0.009446121 -0.019630881 0.0646702 0.081542075 0.06508632 0.020429257 -0.05858554 0.097259775 0.00016970633 -0.13817573 -0.040854674 0.05091377 0.01863241 0.06727185 -3.6827614e-34 0.010036617 0.018763624 -0.03471788 -0.00034733606 -0.074917205 0.046784032 -0.0014693968 -0.057347864 0.0027083517 0.09994764 -0.054874886 0.01019199 -0.00920553 -0.0045569544 -0.080136605 -0.054620713 0.011946558 -0.039752737 -0.01656586 -0.021834081 0.0025752168 0.017759968 0.049432438 -0.02519032 -0.008803626 0.03610425 -0.10052557 -0.00013940835 -0.07460075 -0.0027099252 0.044616506 0.032299303 0.0020635298 0.0053763078 -0.06999028 -0.050289497 0.010520123 -0.071566515 -0.0132433735 0.047489524 0.03599594 -0.04124554 0.035866942 -0.0070405207 0.04196074 -0.07172968 0.04299763 0.056259666 0.07306639 -0.032943472 -0.016866101 0.006314909 0.046411064 0.03462332 -0.05152769 0.089091055 0.043529674 -0.00690892 -0.03698243 0.067505464 0.0018038001 0.08816493 0.033083525 0.097198844 -0.03607282 -0.012868033 -0.03670869 -0.01471817 0.028130796 -0.04075973 0.012780168 -0.02309715 0.0084432885 0.07075155 -0.018790506 0.12884332 -0.08183048 -0.054513622 0.0085334405 0.046461307 0.043315876 0.06422756 -0.05754594 0.047443077 -0.08762385 0.012621962 0.08298243 -0.11084716 0.034724034 -0.099340394 -0.046934173 0.012518207 0.018950228 0.0073978812 -0.08581091 -1.564985e-08 -0.06549603 -0.039765332 -0.011475306 -0.030874008 0.03166257 -0.029634284 -0.041289013 -0.058471832 -0.016245084 0.035103697 0.01496023 0.035752516 -0.07657302 0.015664522 -0.06661298 -0.06189301 -0.029805332 -0.0045239106 0.02340712 -0.03118698 0.094621375 0.012489673 0.033560637 0.042817477 0.020752264 -0.08328189 0.051309362 0.05878381 0.057828248 -0.013108208 -0.019189928 -0.012653745 0.02337207 -0.036062837 -0.03946811 0.01528807 0.06035407 0.007119788 -0.034589235 -0.015030703 0.029768541 -0.059257086 -0.021294089 -0.019713448 0.010244674 -0.0094853025 -0.018783143 0.0107260095 0.065772824 -0.104687475 -0.04516659 0.02521016 0.06319453 0.060078524 0.017193144 0.027193148 -0.048941392 -0.0018382773 -0.087030955 -0.07583286 0.056613907 -0.061918262 0.08268446 -0.0019782428
15 0.022230092 -0.09051168 -0.07997872 0.0065232357 0.06687529 -0.0071263155 0.0575801 0.045243796 -0.009107563 -0.03558305 -0.0054088896 0.012591816 -0.08825016 0.09526309 -0.06457396 -0.020971952 -0.08957762 -0.0042619263 -0.033528086 -0.01066752 -0.05816128 -0.06880497 0.040053584 -0.05249699 0.06397712 -0.047262605 0.059698634 -0.046667323 -0.007371464 -0.022124102 -0.015394995 0.044722375 0.008341617 0.031225672 0.006362453 0.013268651 0.054829586 0.0049137934 0.10183132 -0.032336935 0.042196676 -0.053268112 0.09914142 -0.061083805 0.0010562227 -0.03538267 0.038020834 0.034550942 0.0010316258 0.07393652 -0.014160757 0.08195057 -0.06062076 -0.042783774 0.039867815 0.06975363 0.02932708 -0.02969703 -0.0006541028 0.031689793 -0.009165568 0.004696983 0.018831939 0.04338003 0.046508618 -0.053080212 0.008487387 0.061744213 -0.09964162 0.010586909 0.0025239468 -0.07662811 -0.058661796 0.011237147 0.006336658 -0.061706483 0.08228833 0.025384953 -0.0233728 -0.045576245 0.015291389 0.0721637 -0.041221786 -0.13393764 -0.016114432 0.007170801 0.03451218 -0.026530758 -0.017271588 0.03815865 0.051477276 -0.09955705 0.043303374 0.060284358 -0.0043686554 0.027274145 0.03912522 0.03647453 -0.0029466003 0.04634467 0.10304026 -0.035298128 -0.05689694 0.08296608 -0.05411867 0.0042449916 -0.021057874 0.013238931 -0.0075762174 0.017027138 -0.108657934 0.037352215 -0.07084685 -0.036473263 -0.07596201 0.010710674 -0.0027096157 -0.062404957 0.045994356 -0.012514608 0.042168804 0.03194188 -0.043455545 -0.036113046 -0.11468922 -0.037167814 -0.085123084 -2.9421692e-33 -0.07093674 -0.04041771 -0.03146471 -0.022748183 -0.09474095 0.087091364 -0.03335247 0.03416798 -0.080226704 0.015961476 -0.08167979 0.07244853 -0.006493685 0.045259528 0.04222036 0.025188627 0.010121199 0.049778253 0.11396086 0.042414907 0.09375537 -0.036471885 0.07458197 -0.0024288145 0.098206736 -0.015880203 -0.03007523 -0.043589856 0.0634347 0.022800673 -0.027604915 0.05032708 0.018157437 0.019584153 -0.11416914 0.034677427 -0.044294387 -0.008103675 -0.052210927 -0.0007339993 0.0018817285 0.056999307 -0.06996961 0.054554403 0.022190837 0.053413328 0.00027441507 0.045353025 -0.034879666 0.00063529686 -0.035791498 0.013048046 -0.07431126 -0.12496495 0.029035069 0.010905742 -0.05748133 -0.030684281 -0.08181744 -0.06898963 -0.04205011 -0.06131664 -0.0019957428 0.032396864 -0.026333842 0.1415955 -0.025431134 -0.022894934 -0.057409737 -0.02958079 -0.08848229 0.015068477 0.06562418 0.04273752 0.0050817705 0.059604477 0.0068691312 0.05768333 0.067159146 -0.024551356 -0.07303227 0.0049693617 0.012236956 0.0894418 -0.046704806 0.05820934 -0.015935395 -0.036523946 0.1250071 -0.0062582116 -0.090347946 -0.028664932 0.005091118 -0.06954434 0.061329227 -1.6416564e-34 0.0015153318 0.03267411 -0.03300836 -0.07559745 -0.058022227 0.037801675 0.012771697 0.04783522 -0.010871918 0.044034455 0.002618405 -0.030464057 0.064253494 0.06598486 -0.03838628 -0.05432033 0.058324423 0.00769557 0.000652798 -0.00045046074 0.046901397 0.0764744 0.037320565 -0.015845003 0.006737775 -0.001330206 -0.04643166 -0.059370298 -0.02434786 0.04052321 0.05529431 0.10547824 0.011395143 0.042440683 -0.09152128 0.03434276 -0.05506358 -0.044626627 0.0012863264 0.03071137 0.02776047 0.028614007 0.043981355 0.0060867495 -0.07118798 -0.031318504 -0.032597624 0.028075688 0.0433789 -0.066156924 -0.01301292 0.06980223 0.020727972 -0.031368006 -0.079109445 0.060331397 0.011522388 -0.048050363 0.0330479 -0.026996559 -0.042879578 0.10953673 0.0011309106 0.03182326 -0.020744685 0.00041714613 0.030349793 -0.04405686 0.13592704 -0.05458402 0.079255275 0.019566262 -0.05883666 0.07689121 0.062884025 0.0434134 -0.041171182 -0.060376626 0.0135982465 0.03835356 0.014263698 -0.02647353 0.036524203 0.0126612075 -0.010477955 -0.030302772 -0.021327762 -0.020996334 0.04373178 -0.079624645 -0.05902263 0.045831017 -0.012287853 -0.061552063 -0.016971892 -1.4685983e-08 -0.07316337 -0.07529103 -0.025649713 0.092096075 -0.10177227 -0.015073134 -0.06646205 0.02472976 -0.02216162 0.044759993 -0.017297886 0.03321899 -0.029201698 0.0052057253 -0.09962622 0.018315583 -0.01951549 0.07360902 0.020098329 -0.014358054 0.027655493 0.05454658 0.04175529 0.012109153 0.031937305 -0.02760396 0.0026187883 0.012478033 0.017946891 -0.025587955 -0.02776148 0.05635029 0.022813 -0.006064001 -0.023919703 0.017863225 0.09054654 -0.029320719 -0.054382365 -0.050646514 -0.010597795 0.008495694 -0.05248741 -0.047051247 0.024585098 -0.06517675 -0.014446858 -0.08795652 0.090130486 -0.08691359 -0.029713133 0.059782203 0.088422135 -0.015685413 0.065741315 0.042788308 -0.09434674 0.028319383 -0.040973134 -0.0013179097 -0.07620837 -0.059106424 0.04657718 -0.024265269
16 0.09794729 -0.0788124 0.05136337 0.028149977 -0.0063696746 -0.0055738594 -0.013827492 -0.0673099 0.01339768 0.023328137 -0.019357381 -0.07782195 -0.045349102 0.035549235 0.018685158 0.030165253 0.0022900803 0.070366405 -0.006198465 0.0055104545 0.007973513 -0.031979784 0.015114207 0.034675516 -0.0284578 -0.040726762 0.011499435 0.0042158733 -0.029338203 -0.032266777 -0.00070954836 0.079002835 0.059702035 0.0555474 0.040599324 0.031849273 -0.013514038 0.030679801 0.021864194 0.024394402 -0.05938013 -0.059347857 0.01734926 0.022932997 -0.020771986 0.08148497 0.06876908 0.05776828 -0.045503262 0.04043016 0.07120338 -0.018369315 -0.0044038706 -0.017594242 -0.024054471 0.0074158767 0.012411534 -0.017339842 -0.016590852 -0.00209973 0.0191373 -0.0016904409 -0.07096379 0.026027625 0.09075376 0.027226623 -0.08869859 0.0010551723 -0.016202161 -0.10261603 0.106494814 -0.04325224 -0.05101014 -0.00021946258 0.016005697 -0.0046279784 -0.08014955 0.097514346 0.042912643 -0.10317914 0.035370555 0.12608325 0.059759695 -0.005737396 0.041127484 -0.016264156 0.06079235 -0.015655363 -0.010959339 -0.000938946 0.051700186 -0.015927391 0.14145313 -0.04414185 -0.019246314 0.025957173 0.023462024 -0.06991957 0.056878634 0.041488383 -0.025387544 -0.023106448 -0.060724013 -0.015301996 -0.044384055 -0.03832635 -0.05102087 0.008596744 0.024469994 0.06719406 -0.02879821 0.04304906 -0.076923996 0.035814863 -0.021532515 -0.09457374 0.036200963 0.0386334 -0.0037127312 -0.07221693 -0.08327344 -0.04968755 -0.063325375 -0.023313232 0.09369995 0.01830315 -0.03950238 -4.4370717e-33 0.027337343 -0.07014532 0.007188625 0.071639046 -0.07195208 0.05186658 0.02290544 -0.055801556 -0.020444738 0.0369627 0.010330539 0.052858155 0.09454692 0.011968957 0.16031095 -0.017593283 0.017146008 0.053377658 0.0056634685 0.0362352 -0.07959737 0.07804937 0.03520351 -0.018892445 0.06434671 0.0011973516 -0.067367174 0.015711047 -0.069424205 0.036707427 0.015119906 -0.04365554 0.0013579073 0.021430481 0.009179113 0.08294311 -0.01175368 -0.07271567 0.01772421 -0.03082145 -0.045944802 -0.038882636 0.022436457 0.007942003 0.0076997518 0.020605838 0.05340421 0.045354463 0.07829493 0.05069405 0.01890341 0.045235638 0.07330914 -0.11659071 0.07818426 2.4889498e-05 -0.015321416 -0.002384742 0.03213616 0.019930424 0.045873728 0.11273619 -0.046156872 -0.009990813 0.006703665 -0.09095693 -0.04309603 -0.0047081816 0.09230696 -0.066994116 0.03373917 0.023211893 0.024879448 0.10131784 -0.090406425 -0.04590632 -0.03682425 0.012741454 -0.036856204 0.027452042 -0.03986811 -0.045404408 -0.099600375 -0.0038567092 0.09922372 -0.016982522 0.08901006 -0.02249146 -0.028002262 -0.035466876 -0.091977805 -0.013850604 -0.020076249 0.039173465 0.0024022285 9.880654e-34 -0.07699726 -0.06826962 0.018055221 -0.08405354 -0.062652506 -0.024232863 -0.04246075 -0.10752577 -0.025434151 -0.011698734 -0.13359062 -0.0217716 0.010988146 -0.022378264 0.011895943 -0.046584856 -0.04098958 -0.015162281 0.009863029 0.029319394 -0.016797584 0.049315523 0.047862425 0.033596005 -0.05732661 -0.024154486 -0.04324456 -0.07081625 0.004913699 -0.017836222 -0.0643182 -0.116101384 -0.025859715 0.0025543165 -0.09209992 -0.0740466 0.01609651 -0.087218225 -0.0002767443 -0.0047415523 0.034058306 -0.015409242 0.05454586 0.03069649 -0.06502079 0.003515516 -0.028219467 0.122212976 -0.06157566 -0.043551736 -0.078566015 0.04554379 -0.009009489 0.078622684 0.098587655 0.08318123 0.020981671 -0.035169493 0.092200615 0.0041712546 0.014519707 0.09332301 -0.013287764 0.093762495 0.058398724 -0.010176486 -0.02006771 0.03267401 0.04620844 0.0115037775 -0.008974414 -0.048252612 -0.119837165 -0.037582334 -0.051564157 0.043510128 0.010909804 0.05685271 -0.017961606 -0.022996144 0.023387196 0.026936816 -0.028666506 -0.016878126 0.11964335 0.0512714 0.04531556 -0.11025321 0.056573674 0.06971601 -0.054653514 0.00046921716 -0.0027378094 0.034215514 -0.04201738 -1.5215134e-08 0.0048523624 0.015141255 -0.024893885 -0.0034257835 -0.025423322 -0.108626135 -0.018817365 0.032941952 -0.0572496 0.11368711 0.03915419 0.069136396 -0.03147583 -0.026824461 0.041878436 -0.05806176 0.017289696 0.036408063 -0.058657907 0.056206454 0.0016816593 -0.017244436 -0.036736436 -0.00061417563 0.044541016 0.0211118 0.0032934719 -0.010821128 0.019168403 -0.009945437 0.037388705 -0.0046847765 -0.045664784 0.06171267 0.059920993 -0.03994005 -0.049139433 0.01562826 -0.0011488718 -0.05779538 -0.016181163 -0.03101312 -0.0006236034 0.0607071 0.07689194 -7.428573e-05 0.0035277065 0.0053165946 0.039155785 -0.087529816 -0.12534373 -0.027446326 -0.060237132 0.030512309 0.031153105 -0.005751958 0.02773197 -0.030237386 0.023655219 0.016412422 -0.023266608 0.051571168 -0.03082981 -0.075699374
17 -0.018338706 -0.057426896 0.006796796 -0.0046954784 -0.053935096 -0.019364705 0.091752835 -0.03501926 -0.019009382 0.05546257 0.021027656 0.048355546 -0.041845895 0.015547566 0.009113162 0.015219839 -0.03873025 0.039850675 -0.10189152 0.016228456 0.052499615 -0.055572573 -0.060301222 0.020612087 0.058339786 0.024793772 -0.112797424 -0.034716338 -0.0322911 -0.08078155 -0.0011399084 -0.0061769467 0.048590545 0.03548738 0.045827813 0.074969135 0.08243551 -0.036756407 0.10457497 -0.022258261 0.03326899 -0.06771124 0.004340005 -0.043788128 -0.068908036 0.05570888 0.085493036 -0.009631241 -0.00214199 -0.07963204 -0.0019121253 0.059578836 -0.056912206 0.02911028 0.05546873 -0.05306282 0.021376748 0.022265784 -0.001547027 -0.06573667 -0.014553321 0.009569998 0.00092389877 0.04813212 0.014674095 0.016697533 -0.040601138 -0.03970174 -0.007917866 -0.08322102 0.02931673 -0.05945682 0.009266842 -0.021957131 -0.027780691 -0.073873974 0.066013075 0.08451221 0.059956986 -0.07559595 0.096790664 -0.013573166 -0.0054346262 0.047656137 0.0022765459 -0.04666418 -0.038851347 -0.023214916 0.042503115 0.009086379 -0.0014727137 -0.038540527 0.07009988 0.005149964 0.0054920567 0.037485007 0.033337094 -0.044015028 -0.00761138 0.13040933 -0.025261533 0.007247279 -0.07673481 -0.050200753 -0.051289845 -0.0049739606 -0.110804155 -0.053956512 -0.025679035 -0.013110222 0.0047973683 0.031865645 -0.024047503 0.0098439 0.0077122706 -0.02140108 0.012335927 0.02708097 -0.03221206 -0.05293734 -0.026154019 -0.03133656 -0.04886457 -0.0051010996 0.0032254716 -0.014452801 -0.007427923 -5.6204385e-33 -0.0767824 -0.119146325 0.012160722 0.124673255 -0.016364155 0.049635213 -0.06440792 -0.07540492 0.024570862 0.047278892 -0.010516879 0.09994257 0.040977146 -0.03194058 0.11269312 -0.043639153 -0.050387703 0.03154353 0.042425126 0.065176725 -0.014585395 0.023537667 -0.015985316 -0.026177423 0.1809789 -0.003029683 -0.011333217 -0.024651537 0.043124743 0.015580776 0.0043791565 0.10551198 0.028148718 0.0011491679 0.012880043 0.08269456 0.005893146 -0.05321974 0.046055764 -0.036962196 -0.043482978 0.008794172 -0.06567457 0.050652474 -0.01520485 0.07166973 0.023966093 0.021071995 0.03820132 0.00069101475 0.032695603 0.0019113155 0.018088572 -0.039842118 0.023375029 0.0043525775 -0.00031116878 -0.013751469 0.01870314 0.019557895 0.05363563 -0.028329058 -0.030142443 0.054724015 -0.0027451457 -0.045680683 -0.07802933 0.017707432 0.06616428 -0.025465004 -0.019919226 0.020267662 0.029201087 0.00973923 -0.038564574 0.0056309686 -0.007527047 -0.024383327 -0.09660164 0.03621661 0.0014754332 -0.006263932 0.13128361 -0.017089607 0.13138336 0.021418575 0.030814612 -0.04627755 0.07638897 0.03373439 -0.15953708 -0.03646241 0.013911727 0.028802022 -0.034340315 2.5025197e-33 -0.048502553 -0.042172927 -0.047243867 -0.034463353 -0.022247495 0.070878744 -0.014536141 -0.15954827 0.049063582 0.020624055 -0.09283492 -0.028602172 0.032511946 0.031016825 0.040341638 -0.08810089 0.05795359 -0.018147033 -0.037710097 0.044784006 -0.024480315 0.08441296 -0.09484501 0.019342436 -0.028042307 0.011660667 -0.09032024 -0.10417616 0.07512982 0.016328411 -0.018332958 -0.012403599 -0.03819117 0.026638733 -0.094570726 0.06530683 0.029119048 -0.03251779 0.060207747 -0.011912135 0.009364804 -0.084776305 0.021494614 0.05631539 -0.122338444 -0.051296014 -0.07490882 0.06106472 -0.08435089 -0.05802605 -0.060576104 0.04597951 -0.04518408 -0.0036472608 0.0018018848 0.08210978 -0.022200825 -0.0013411294 -0.0076264725 0.057189096 0.030960986 0.055882104 -0.0218244 -0.014700512 -0.07184739 0.07288756 -0.024619864 -0.1147682 0.12101225 -0.029236414 0.054910447 -0.028950939 -0.11967946 0.022675976 0.03852302 0.038026802 -0.056352273 0.041335527 0.020024257 0.055522118 0.06443989 0.0020659822 -0.0188965 -0.041091714 -0.0551639 0.06083935 0.10425448 -0.01939346 0.03009692 -0.040949434 -0.08358245 -0.040651042 0.03038281 -0.0007794279 0.051210765 -1.44603955e-08 0.008295477 0.020629501 0.018420398 -0.0209352 -0.024219252 -0.019532528 0.056573234 -0.02354779 -0.065236054 -0.03361318 0.06534176 0.034057893 -0.04704247 -0.002981952 0.009733064 0.01565972 -0.016431205 0.02205229 -0.029394211 0.020189695 0.0013465808 -0.026731895 -0.009680005 0.06754488 0.054394267 0.053461526 0.009484854 0.023253063 0.039981034 0.09362092 0.0221075 -0.008992638 -0.017787216 0.056161497 0.00051381334 0.035565134 -0.003562404 -0.018931184 0.005160574 -0.11845226 -0.0024007729 0.035786837 0.090442814 0.0571847 0.0138795655 0.026848737 -0.004838046 -0.010003754 0.09108632 -0.1298598 0.0017585309 0.020487992 -0.030509593 0.045066662 -0.0043269354 -0.01073235 -0.0066932575 0.06486253 -0.02221431 0.015796224 -0.06377972 -0.0139344605 0.0665981 -0.026254272
18 0.0053712334 0.09974141 0.0019113808 0.08381048 -0.022239167 0.050864276 0.1258998 0.03504174 -0.08007869 -0.025376003 0.022486787 -0.011805538 -0.046744723 -0.08854073 -0.013379921 -0.07676194 -0.016539618 0.020499906 -0.09202416 0.040027507 -0.08485406 0.11784203 0.062312298 0.06397993 -0.06879195 0.08657286 -0.013052048 -0.0696766 -0.018750072 -0.043983843 0.075063355 0.026740588 0.074640796 -0.018979736 -0.0531701 0.0023616469 0.05839013 -0.045064066 -0.061071567 -0.072448894 -0.046636377 -0.073774666 0.024013383 0.023947991 0.036091276 -0.017013572 -0.034846008 -0.0014881586 0.08157574 0.017500792 -0.078748696 0.0068547004 0.0036710766 0.048406705 0.10589585 -0.038976207 -0.06250885 -0.08718431 -0.08567717 0.02881862 0.074011244 -0.007635416 0.015386044 0.06197243 0.071442686 -0.017592799 -0.0372048 0.023793718 -0.050583914 -5.0465437e-06 -0.03535116 -0.09449321 -0.025239771 0.042089373 0.07599146 0.02436492 -0.061618797 -0.09115189 0.0769328 0.0021249342 0.042726483 0.01879743 0.025366569 0.10976972 0.021375809 0.017431475 0.098770544 0.010695305 -0.067907885 0.00723605 -0.04987672 -0.024578715 0.04300985 0.052280627 -0.027551018 0.025020903 -0.028104596 -0.07435514 -0.05609732 0.20906062 -0.020560136 0.009149646 0.012506306 0.07225722 -0.024633825 -0.012454958 -0.037660386 0.026537651 0.027876174 0.018532485 -0.038302794 0.043215122 -0.009426503 0.010003132 0.020072239 0.020916695 0.010150202 -0.068605304 -0.017264754 -0.020053258 -0.007613706 -0.06322478 0.009887565 0.009774739 -0.022922814 -0.092450336 0.022434093 -6.1472275e-33 -0.0010625569 -0.08565318 0.1476448 0.04950842 -0.018972807 0.04290801 -0.02583373 -0.070210725 0.018272853 -0.006787544 0.019264484 -0.007625908 -0.015656792 0.04217554 0.027862068 -0.009137692 -0.09847685 0.07421731 -0.017494045 0.025141872 0.0037633409 -0.047849383 -0.008057503 0.077174015 -0.042822048 0.0559714 0.014874681 -0.061482713 0.04187892 0.010580636 -0.043419562 0.060028046 -0.026861288 -0.1402273 -0.020681767 -0.04699952 -0.03779597 -0.034758266 -0.051274538 -0.061800975 0.009916053 -0.0020949792 0.024146313 0.032205243 0.048613213 0.0038436232 -0.011949879 -0.00096057955 -0.1139976 -0.021782383 -0.055879217 0.009153653 -0.008624838 -0.026236802 0.0032368242 -0.028221594 0.016620323 0.01239328 -0.077998415 0.033754375 0.09800438 0.06173964 -0.05360229 -0.027329449 -0.043783106 -0.03280394 0.00013874547 -0.05531353 0.031332254 0.014549135 0.0121148955 0.037215296 -0.018197687 0.020487936 -0.055023044 0.036089048 -0.0065935063 -0.043669134 -0.08706797 0.025884086 0.02891095 0.03385864 -0.021021962 0.051302787 0.055243578 0.054703835 -0.027621191 -0.029583989 0.0034529474 0.009782546 -0.091125414 0.022989532 0.0901133 0.042185396 -0.017582413 3.7436692e-33 -0.007937297 0.0012022106 -0.0765881 0.097604424 0.059398565 -0.06056797 0.009738537 -0.0043212585 0.054407064 0.10725685 0.034602124 -0.07539014 0.035280656 -0.016229464 0.03755112 0.05006244 0.047081172 -0.020189798 -0.032949883 0.07256602 -0.016871119 0.036182545 -0.00056952063 0.012905422 -0.058286373 0.09394904 -0.03659225 0.036140323 0.0365441 -0.009948577 0.028959643 0.049356535 -0.008304203 -0.02837272 0.03169349 0.022588342 0.041230664 -0.016872024 -0.039830606 0.032222647 0.13645382 -0.00073926593 -0.019833177 0.10044721 -0.008496268 0.040509786 -0.011164338 0.030266333 -0.03951603 0.016980927 0.041458413 -0.019393165 -0.05941304 0.046059668 0.025398087 -0.031097082 -0.10577568 -0.056091078 -0.06105802 -0.008683484 -0.0124801705 0.055145748 -0.10803909 0.036847092 -0.09672749 -0.015359115 0.018678218 -0.02409509 0.00042204832 -0.040295172 -0.0123774735 -0.037794963 -0.014250493 -0.016427273 -0.052302614 0.017447058 -0.08135201 -0.02708744 -0.015821258 0.010423117 -0.08083128 -0.10754011 -0.014851996 -0.030188525 -0.08827795 -0.028287543 -0.00055351213 0.0025793584 -0.009132631 0.013603953 -0.035511743 0.0388916 -0.12510638 0.03439824 -0.03543199 -1.3896007e-08 0.05418886 -0.07080167 0.01753806 -0.05918981 -0.014434371 -0.00021456632 -0.020506859 0.082409196 0.08623307 0.10614387 -0.008999593 0.07033515 0.043474603 0.021175303 0.012859069 -0.018778037 -0.042313285 0.031950597 -0.02808973 0.012786384 0.025724528 -0.030765327 0.06539568 0.03910354 -0.096614175 -0.037287317 0.044529412 -0.01855039 0.00793928 -0.016201494 0.059857965 0.06901556 0.024557104 0.011672483 -0.025203943 -0.06170827 0.048688255 -0.05380166 -0.02300833 0.015019549 -0.00257033 0.06457102 0.037084877 0.01844966 -0.033525445 -0.090050206 0.024279077 0.037163414 0.03388276 -0.085129485 -0.01320269 0.0072424477 0.04717456 0.008302347 -0.01088654 0.04508205 0.03430243 0.03079604 -0.051543463 -0.016948888 0.14215766 -0.03231755 0.03840277 0.05430636
19 0.04233249 -0.02651569 0.02665118 0.070345536 -0.00819376 0.009775193 -0.016767746 -0.09136484 -0.09035535 0.017037636 0.09053897 -0.06441195 -0.03457509 0.0499152 0.037869923 0.020935537 -0.047564246 0.036410905 0.051057152 -0.02357496 -0.042820103 0.009802709 0.004190981 -0.021420611 0.06678499 0.052903466 0.062584125 0.028174153 0.053734276 -0.00541773 0.09932221 0.018719425 0.10179633 -0.02704564 0.057601273 0.068265356 0.081417814 0.03639513 0.06556904 -0.01935353 1.1209671e-06 -0.051959567 0.045291305 -0.037161484 -0.0411345 0.038777992 0.01432446 -0.07381381 -0.007878432 -0.062693685 0.06935918 0.079568595 0.007113592 -0.018093964 0.03955562 0.046616778 -0.02331332 9.7618045e-05 0.041372012 -0.06699383 0.07106459 -0.008747145 -0.05946024 0.06450251 0.10227586 -0.055070233 -0.007911431 0.05449625 -0.028568419 -0.08215694 0.010092425 -0.0401131 0.01406047 -0.040969547 0.061169524 -0.015831223 -0.02967132 -0.0017467599 0.060320605 -0.010795877 0.066632666 -0.010396631 -0.08362271 0.025118247 -0.10025664 0.0324569 0.045771096 -0.052086435 -0.06044203 -0.028255768 0.02518677 0.045749106 -0.009386723 0.03510134 -0.04857558 -0.04143962 -0.045164354 -0.092435285 -0.00532513 0.12875688 -0.061528407 -0.054465584 0.00076504017 -0.062212665 -0.016051097 -0.0633471 0.0019663821 0.044547323 -0.04484623 0.043726366 -0.03117943 -0.033733696 -0.07785334 0.039577488 0.06154491 -0.03821868 0.044224076 -0.02834713 0.025360383 0.01788159 0.070111014 -0.033266746 -0.05912319 -0.054097332 0.02331848 -0.052525822 -0.050320487 -4.5924132e-33 0.05053528 0.009866543 -0.084407665 0.103900544 -0.0021630863 -0.02789765 -0.015866583 0.040954385 0.032888427 -0.041495666 0.07292537 -0.009774801 -0.036252774 -0.0013550934 0.081865415 -0.020171337 -0.060982373 0.03193858 0.0073630256 0.08650761 0.039998073 0.10433559 -0.01721193 0.0123175355 0.023664445 -0.08370676 0.003003366 0.0011208925 -0.032031983 0.011345924 -0.016493741 0.08820711 -0.035825476 -0.065190054 -0.028600397 0.07821097 -0.009190692 -0.034633856 -0.07600268 -0.053954598 -0.045665216 -0.05960543 -0.007260753 -0.02863336 0.1247345 0.04230153 0.042509586 -0.05742099 -0.08906869 0.06166865 0.012224794 -0.0373761 -0.16647905 0.056145947 0.04192196 0.008384216 -0.022496441 -0.026384298 0.032536894 -0.05272818 -0.011030232 -0.002774158 -0.0042817486 -0.02973437 0.0019887807 -0.04824616 0.08134326 0.042121805 0.10073602 -0.031931557 0.0081047835 -0.010030826 -0.029903896 0.04411843 -0.011538587 -0.03273407 -0.11982103 0.036164492 -0.00037517844 0.074487105 0.039969705 0.035263665 -0.05276035 0.02728605 0.13789581 0.0046918727 0.036656242 0.035221636 0.0004281848 -0.06143664 -0.051533803 -0.014916416 0.03227978 -0.031796988 0.014710866 2.3582641e-33 -0.10147214 0.0039156443 -0.08412643 -0.019541431 -0.034681916 -0.0033777996 -0.024587074 -0.07376657 0.06532006 0.04854042 -0.03170373 -0.084022164 0.10528524 0.06396519 -0.0929524 0.018351238 0.044475403 -0.038747333 0.0322972 0.04756089 0.0011513138 0.064391084 -0.08143107 0.0034968094 0.03384112 0.028677596 -0.08156362 -0.039148733 -0.03014243 -0.007972108 -0.052442048 0.0032061974 -0.052094765 0.06222932 -0.045147255 -0.007008343 0.025629278 -0.043411724 -0.098015375 -0.012784128 0.061522394 0.0060618324 0.03267277 0.021725764 -0.015314607 0.020062417 0.024262562 -0.012110333 -0.062173903 -0.002826129 0.06825775 0.03694893 -0.0018421989 -0.057768624 0.048304617 -0.027482534 0.11131147 0.01448351 -0.037703052 0.13254848 0.024321452 0.058190443 -0.009930522 0.06035778 -0.027033143 -0.017934404 -0.055646542 -0.13743079 0.005440065 0.017421728 -0.02396587 -0.0760454 -0.06246837 -0.048458487 -0.044805497 0.0070038624 0.0016143037 0.09198528 -0.015060366 -0.051016316 -0.039250303 -0.0154506145 -0.037669566 -0.00030920786 0.028554156 -0.058552314 -0.017194076 -0.057935726 0.02142902 0.11580021 -0.10111533 0.08702962 0.012271419 -0.033801593 0.008712245 -1.405429e-08 0.08339115 0.043991916 -0.03410984 -0.019779393 0.025076605 0.03890102 -0.004117528 0.012436477 0.050627843 0.11142865 -0.017171668 0.08439357 0.00030626767 0.037920777 -0.055365615 0.04925207 0.014324516 -0.0458 -0.055660013 -0.009402594 0.06550311 0.016719777 -0.02612696 0.046126146 -0.013806703 -0.049133237 -0.04987267 -0.01704011 -0.006443641 -0.044920303 0.040966276 0.07145342 -0.05958291 0.0034771431 0.009036737 0.036244046 0.11503183 0.019911481 0.04079394 -0.05473473 -0.028988611 -0.036254063 -0.033375055 -0.07549291 0.006368563 0.0073745213 -0.023592142 -0.00095507567 -0.01674373 -0.12825608 -0.03861242 -0.038809907 -0.03804457 -0.003814992 0.046222318 -0.0021172483 0.014819024 0.02653749 0.03717247 -0.046154615 -0.0055277683 0.051381703 0.015576907 0.022618873
20 0.039529707 0.00016752696 -0.03918916 0.010783227 0.07590862 0.018893365 0.111911595 -0.068759054 -0.014555482 0.0073525757 0.027927792 -0.046658453 -0.010939881 -0.0030706194 -0.039270412 0.033704486 -0.0107415235 -0.08083083 -0.046870925 -0.06349241 -0.08909337 0.01410258 -0.06870785 0.005504844 0.009325685 0.06454228 -0.028402606 0.020653602 0.044428397 -0.07463976 0.013386312 0.091857575 -0.032192033 0.12433359 -0.049762458 -0.048369184 0.10941636 -0.058797017 0.075625494 -0.041092403 0.017653774 -0.069130786 0.012808097 -0.016985254 0.037384763 0.016290102 0.038227096 0.0121226655 0.047445804 0.027968373 0.019477155 0.020860773 -0.014952823 0.03867086 0.030474212 0.01244833 0.059896924 -0.023845289 -0.045149215 -0.012355213 0.016832395 -0.00072576053 0.024348946 0.051838815 -0.021841353 -0.029590897 -0.050876517 0.042540602 0.03886987 -0.047166802 0.014970826 0.008016532 -0.08000608 0.04932548 0.091728956 -0.12924528 -0.010683162 0.03500832 0.003440018 -0.031101003 0.049163654 -0.018576704 -0.14294676 -0.03785854 -0.030954208 -0.042198226 -0.005898266 0.024524868 -0.0363785 0.053141184 0.0015994759 -0.05052469 0.11259834 -0.008885018 -0.04919197 -0.04557449 0.018797329 -0.023924904 -0.007813038 0.20795053 -0.0017358558 0.013873652 -0.045511674 0.02901057 -0.010953658 -0.047529683 -0.04361831 -0.011866509 -0.0029644598 0.0151080005 0.02619901 -0.050090358 -0.08117872 0.056430798 -0.011850368 -0.033062525 0.051389713 -0.006780705 -0.009152437 0.04881155 0.014325651 0.0539001 -0.14361705 -0.053305116 -0.085730426 -0.11457346 -0.025010562 -5.1124332e-33 -0.013027508 -0.054657612 -0.020066958 0.024182044 -0.020101596 -0.050594043 -0.05959806 0.028305259 0.00509174 -0.022494819 -0.035841636 -0.000827215 0.024555737 0.025987996 0.06147663 0.031135049 -0.066692926 0.07551398 0.0031911903 0.08648863 0.12408301 -0.03385829 -0.020195885 0.06402764 0.036017854 -0.0015441724 -0.061429337 -0.100060165 0.027041717 0.025020644 -0.0654751 0.10624621 0.07256475 -0.02911805 0.007824016 0.014053271 0.047815394 -0.057881676 -0.014404764 -0.033050507 -0.07361435 0.0163539 0.04807258 0.077930816 0.088677175 0.038840942 0.06461158 0.01980323 0.027156524 0.025356816 -0.07469545 -0.044725046 0.0064481385 -0.06267101 0.0405413 -0.051477227 -0.0073407493 0.043586344 -0.02829025 -0.024857776 -0.029292343 0.0014650777 -0.082187794 0.0676139 0.00733534 -0.07222571 -0.009669954 0.019120632 0.0017067773 -0.057807285 -0.061448652 -0.006438721 0.01113619 0.027513387 -0.02428955 0.036884326 0.006320834 0.032436423 0.0016914633 -0.0729948 -0.062328108 0.014521277 -0.04880969 -0.020450283 0.085609175 0.08261691 -0.0046667377 -0.018431995 0.0404722 0.023879237 -0.0617642 0.009099862 0.08276619 -0.018762462 -0.008233595 3.2814083e-33 -0.08282552 -0.050640162 -0.023082756 0.03527701 0.044860233 -0.04736091 0.07449277 0.03565111 0.04300143 0.035694215 -0.07069888 -0.065321214 0.14522518 0.09105114 -0.10151149 -0.023294127 0.11673686 0.021598333 -0.022408351 0.048126824 -0.016496556 -0.009639587 0.0284949 -0.05597138 -0.004200982 0.023706572 -0.0017531022 -0.05125909 0.004954098 -0.016356533 0.018046262 -0.006475597 -0.03627944 0.07876901 -0.05640802 0.08990376 0.013883168 0.035857406 -0.020521022 -0.00581987 -0.015309044 -0.006497204 -0.003974688 0.061817996 -0.09235531 0.11042461 -0.05177879 0.10433835 -0.016474253 -0.02273771 -0.01583203 0.09521864 0.023048397 0.04174485 0.013690626 -0.0067087477 -0.046891842 -0.018485494 0.02088962 0.03557056 -0.040106427 0.075597726 -0.0041486816 -0.005489047 -0.0076407916 -0.022124639 -0.01565769 0.039414614 0.06439523 0.053383075 0.068228446 -0.04761345 -0.10114896 0.03367573 -0.022811463 -0.030326884 0.007841444 -0.00787134 -0.012246938 -0.013878286 -0.015747687 -0.05539098 -0.04074483 0.010594361 0.04005291 -0.011564548 0.0028299433 -0.00876872 0.08082414 0.022653343 -0.079859585 -0.005140275 -0.0721419 -0.07019102 -0.051601946 -1.1956289e-08 -0.0182316 -0.059299644 -0.037266012 -0.03186478 0.007695945 0.056126703 -0.044991396 0.070454806 0.04087638 0.007127736 -0.06901284 0.060807046 0.009491726 -0.029300772 -0.039033756 0.04518108 0.06044503 0.006390239 0.008389956 0.0017749745 -0.08330511 0.010958952 0.0255793 0.014451007 0.017317755 0.06983701 -0.031671524 0.034811094 0.08517824 -0.0021053462 -0.048524674 0.05595391 -0.07674422 0.037004735 -0.021723917 -0.023377704 -0.026386542 -0.0050068614 0.06614755 -0.1298995 0.007620242 0.09624986 -0.008194605 -0.03765153 -0.053725142 -0.104600705 -0.0418737 0.0028305724 -0.007560445 0.0034802612 -0.022213882 -0.044217482 -0.01445906 0.09141784 0.119092986 -0.001172494 0.0015273758 0.0003549212 0.017425433 0.06508715 0.06906338 0.07354681 0.07878144 0.0227018
