35 300
0 0.38209 -0.1536 0.44273 0.015187 0.56423 -0.37362 -0.13583 -0.37139 0.29488 -1.8328 -0.1551 0.16571 0.32464 0.20698 0.21956 -0.1903 0.15654 0.28809 0.52535 0.43149 -0.11395 0.74353 0.42517 0.39081 -0.4496 -0.14392 0.13373 0.20721 0.30911 -0.25329 0.20917 -0.069561 -0.16529 0.049224 -0.694 0.37159 0.12804 -0.1105 -0.19188 0.50671 0.72505 -0.29587 0.070868 -0.50142 0.15374 -0.093758 -0.16142 0.030345 -0.10497 0.68282 -0.2187 0.20056 0.18579 -0.5778 0.24368 -0.49523 0.26445 -0.39865 0.12955 -0.16349 0.90405 0.34906 -0.42685 0.031078 -0.086587 -0.66496 0.40323 0.18234 0.37703 -0.20244 -0.094186 -0.019453 -0.16907 -0.027835 0.33529 -0.13946 0.18397 0.72998 -0.01333 -0.15199 -0.055586 -0.44749 -0.13255 0.23491 0.083461 -0.23842 0.23849 0.10647 -0.026978 0.086108 -0.14567 -0.30535 0.032789 0.029785 0.0015293 -0.36061 0.060396 0.61269 -0.0085348 -0.12638 -0.29993 0.23152 -0.17261 -0.4184 -0.3646 0.12271 0.088395 -0.085026 0.51075 0.50266 -0.083863 -0.38637 -0.11834 -0.1025 0.90845 0.085127 0.0099196 -0.25235 -0.20391 -0.73558 -0.25587 0.26504 -0.09187 0.14532 0.11764 0.10006 0.35823 -0.19518 0.068038 0.49121 0.16318 -0.078982 0.39171 -0.58066 -0.05172 -0.12666 -0.25401 0.1213 -0.0078879 -0.074288 -0.21411 0.38712 -0.22652 0.14897 -0.16065 0.13142 0.086618 0.2783 -0.16417 0.67368 0.36011 0.53872 0.071555 0.053932 -0.26361 0.20909 0.1724 0.11066 0.76514 -0.039877 -0.3669 0.074913 0.010857 0.068738 -0.22561 -0.20852 -0.011548 -0.13162 -0.40157 -0.42692 -0.075843 -0.047266 -1.3713 -0.099924 -0.11082 0.10544 0.2205 -0.38662 -0.25901 0.20737 0.019941 0.72469 0.035995 0.48104 0.041567 0.1403 0.1696 0.59486 -0.15791 -0.69684 -0.36688 -0.53675 0.44808 0.11949 0.2072 0.63186 0.12012 0.12257 0.081764 -0.16183 1.1213 -0.25186 0.32566 -0.17974 -0.39608 -0.592 0.2934 0.42017 0.3652 0.017067 0.065849 -0.13462 0.24798 0.52584 -0.2465 0.35111 0.054375 -0.080269 0.81721 0.55619 -0.15825 0.17229 0.23078 -0.5102 0.07441 -0.38509 -0.29376 -0.0034403 0.43207 0.25173 0.23704 -0.02809 0.55104 0.12276 -0.66769 -0.12775 0.21518 -0.15288 -0.40507 0.10323 -0.42932 0.042126 0.52622 0.03821 -0.82392 0.10323 -0.43154 0.32574 0.14739 0.045955 -0.26115 -0.59161 -0.33342 0.17789 0.29506 -0.082279 -0.010506 -0.52943 -0.041061 0.26895 -0.035653 -0.65172 -0.075259 -0.11187 0.62208 0.053527 0.18404 0.28967 -0.015554 0.37589 -0.20255 0.44544 0.1994 -0.48304 0.25626 0.39908 -1.113 0.27141 1.3189 -0.60588 0.0093421 -0.46835 -0.14627 -0.39796 0.62975 -0.12688 -0.20438 0.45566 0.59107 0.033236 -0.053375 0.47512 0.063308 0.13919 0.33986 0.30973 0.059414 -0.28622 -0.56721 0.93252
1 0.206353 0.17618969 -0.067375004 -0.26033998 0.0635105 0.15859 0.04112999 0.0075194985 -0.37733498 -1.6789 -0.0294195 -0.975675 -0.461905 0.60308003 0.065675996 -0.40984 0.01005015 0.094849 -0.10447249 0.11374001 -0.199627 0.51321 0.546435 0.40938002 -0.2054275 0.394185 -0.045432 -0.212905 -0.126905 0.27906 -0.31938502 0.40425 -0.444215 0.24689001 -0.4363445 0.1127325 0.459242 -0.280125 -0.16689451 -0.37028 -0.26402497 -0.40656 0.279358 0.027768001 -0.33380002 -0.416875 -0.44243 0.0156099945 -0.12245151 0.169753 -0.1935005 0.28920498 0.262165 -0.1256795 -0.168755 0.113005504 0.307025 -0.0430315 -0.038703 -0.36981001 -0.26961 -0.129142 0.109184995 -0.033680998 -0.89642 -0.344095 -0.246465 -0.110434994 -0.49747497 -0.05795845 0.214145 0.24290001 0.01733499 -0.39945498 0.0931805 -0.1867735 0.261716 0.141754 -0.31458 0.06802501 0.41786498 -0.0811215 -0.392905 0.2028085 0.275665 -0.705705 -0.44424498 0.00990885 -0.386365 -0.44924 0.015639998 -0.1497505 -0.201026 -0.16835001 0.1082174 0.015265003 -0.16187751 -0.0091741 -0.53461003 0.2021745 -0.052515 0.2937335 -0.162435 -0.233565 -0.48067 -0.243599 -0.28852 -0.210264 -0.326 -0.119408995 0.072905496 -0.57104003 -0.63365 0.023750007 -0.027129993 0.1097735 0.1411815 0.36066002 0.42816502 0.3837 -0.43716502 0.300515 0.06528499 0.2966375 -0.035036497 0.138259 0.0634135 0.08541 0.16735 0.050189994 0.0965839 0.0257845 0.746005 -0.182992 -0.253265 -0.3806 0.13705 0.40008497 -0.0890245 0.625165 -0.012905501 0.102019995 0.35467 -0.586245 -0.13163 0.43409002 0.357355 0.144885 0.080436 -0.42918 0.053910002 -0.08342001 0.24830298 -0.0419185 0.008184999 0.2827185 -0.301795 -0.13404101 0.214705 -0.504335 0.39912 0.060599998 0.247895 -0.16596499 -0.206347 -0.16569999 0.13285342 -0.772345 -0.15463601 0.407435 -0.18255 0.1750125 -0.611405 0.10726249 0.052650005 0.2828246 0.23098901 -0.486435 -0.14534 -0.16597 -0.11985999 -0.050394997 -0.627615 -0.21902 0.077205 0.006190002 -0.058300003 -0.07398 0.20757 -0.010394998 -0.33692 0.6831 -0.74927 -0.2734 -0.1857275 0.45473003 -0.036040008 0.189355 0.355985 0.33244002 -0.31825 -0.013460003 0.017664999 0.407965 -0.0077699944 -0.067795 0.26528 -0.18973549 0.33765852 -0.018985003 -0.17151 -0.415825 -0.097334996 -0.119830005 0.061568 0.49883503 0.197635 0.086765 0.477185 0.15057501 0.59845 -0.618935 -0.298365 -0.193959 0.2853565 0.03768999 0.027440004 0.332035 0.3508 0.570385 0.320865 0.393965 -0.102254994 0.25940502 0.0875802 0.09262 0.31397 0.0436645 -0.142595 0.2687825 -0.385445 0.09693499 -0.0284025 -0.21716 -1.07184 0.2596085 0.0739165 -0.30707502 -0.1326375 0.177564 0.19143 0.090012 0.22670999 0.099287 0.64747 0.33319002 -0.650715 -0.159035 -0.33151 0.072825 0.0005099997 -0.40584302 -0.15253499 -0.654935 0.27402002 -0.04784382 -0.13839105 0.207675 0.29955 -0.04713 -0.745015 0.402435 -0.36171 0.087006494 0.11622399 -0.0711435 -1.82715 0.39034498 0.0747 -0.27701 -0.658525 -0.10525501 0.17647 0.1301795 -0.038239997 0.007799998 0.56728 -0.33893502 0.14134 -0.0323025 0.103729896 -0.1381745 0.104303 -0.185835 -0.105545 0.61085004 -0.59011 -0.625355 -0.340745 -0.20000502
2 -0.0094213 0.63354 -0.37749 0.24669 0.10314 0.44911 0.43333 0.33401 -0.12511 -1.1627 0.27053 -0.43928 -0.5691 -0.025394 0.12787 -0.15473 0.23247 -0.059768 -0.19759 0.5002 -0.17518 0.54642 0.26454 0.2505 -0.11956 0.11705 0.050782 -0.26387 0.23964 0.28133 -0.1 0.32603 -0.88895 -0.89163 0.18044 -0.40551 0.9432 0.28172 0.095633 -0.51032 -0.25606 -0.24582 -0.024457 -0.59162 -0.67455 0.16085 -0.2846 -0.13083 0.55663 0.29613 -0.18492 0.31902 -0.20994 -0.22486 0.22128 0.095839 0.065525 -0.086854 -0.52325 -0.2551 -0.28355 0.29705 0.94809 0.059425 -0.23377 -0.18281 0.0047758 -0.092799 0.033693 0.44838 0.034463 0.61213 0.046499 -0.20983 0.040887 -0.33239 0.3732 0.39388 0.3237 0.32129 -0.2459 -0.16302 -0.39765 -0.14701 -0.23221 -0.078091 0.26456 0.044282 -0.26734 0.13295 -0.15892 -0.20981 0.1198 0.36817 0.12703 -0.043391 0.33541 -0.068457 -0.451 -0.1782 0.50989 -0.040026 0.13141 -0.064147 -0.68147 0.27199 0.068413 -0.082276 0.080134 0.73645 -0.079535 0.22134 -0.84189 0.24375 0.20541 0.5102 0.26769 0.8483 0.21463 0.17216 -0.96506 -0.34867 -0.41149 0.72744 -0.35986 0.17287 -0.50858 0.39032 0.041553 -0.60398 0.52233 -0.20762 0.45755 0.76581 -0.25659 -0.10014 0.7113 -0.34817 -0.13322 0.80704 -0.22544 0.38565 -0.39991 -0.2484 -0.072268 -0.17041 0.32629 0.094476 -0.21523 -0.095493 -0.44519 0.019557 -0.2782 -0.081347 0.32913 -0.014387 -0.57459 0.1265 0.09191 0.074174 0.18235 0.32942 0.3814 0.10016 -0.13997 0.11994 0.64292 -0.43686 -0.28197 0.13123 0.13687 -0.3257 0.3288 0.84172 -0.00288 -0.081841 -0.025515 -0.1171 -0.0021683 -0.14087 0.20627 -0.39133 -0.33174 -0.31104 -0.31913 0.064396 0.25217 -0.2273 0.58924 -0.39774 -0.31226 0.028686 -0.20207 -0.3324 -0.14704 0.10756 0.052417 0.052376 -0.38688 0.13871 0.71706 -0.14882 -0.17291 0.046615 0.71918 0.57753 -0.28925 -0.21641 -0.16302 0.046927 0.022936 -0.16021 -0.079127 -0.38852 0.028872 -0.0838 0.32364 0.28608 0.41281 -0.31925 -0.12242 -0.073876 -0.47763 -0.66514 -0.17315 0.06703 -0.10634 0.22132 -0.12189 0.15438 0.37169 -0.011465 -0.049455 -0.31916 -0.0076186 0.20572 -0.3437 -0.19958 -0.41721 0.3977 -0.58272 0.1849 -0.10621 0.20014 -1.3165 -0.096661 0.06608 -0.083429 0.15109 0.56353 -0.3271 -0.20765 -0.12196 -0.1276 0.95322 1.0511 0.24715 -0.14066 0.10839 0.035831 0.19614 -0.54408 -0.23345 -0.34666 0.29014 0.31953 -0.031352 0.11639 -0.25758 0.2289 -0.15052 0.25019 0.074785 0.10905 0.14435 0.35485 -2.3433 0.31759 -0.3023 0.20244 -0.612 -0.025462 0.23244 0.46976 -0.76929 -0.01324 0.057803 0.1288 0.31685 -0.20744 -0.045275 -0.12195 0.040846 -0.47068 -0.11337 -0.40137 0.12027 0.03207 0.90006 -0.33036
3 -0.1921365 0.31475252 0.27663022 0.010872498 0.116492495 0.0809825 0.08392125 0.7593 0.185645 -2.106975 0.055232495 0.09074725 0.0461315 -0.16667774 -0.1770885 0.36587077 0.42481 -0.11222675 -0.2625005 -0.24906185 -0.004125502 -0.02980525 0.45015752 -0.1208045 -0.4801975 -0.08924999 0.01970725 0.20093276 -0.211023 0.34895998 0.47459275 -0.36478502 0.07345198 0.07598 -0.03525099 -0.39716947 0.21434551 0.09997499 -0.20682 -0.26144052 0.023250503 -0.25265747 0.16159774 0.051439248 0.014929995 -0.082265496 -0.1465315 0.2002925 -0.02103675 0.233195 -0.14649999 -0.08972475 -0.4319775 0.15715699 0.11548 -0.066010006 -0.15292498 0.2731745 0.071201995 -0.105988495 -0.07025499 0.18192658 -0.06522325 0.1660135 -0.429455 -0.1443825 0.05654501 0.3892375 0.0933275 -0.008889243 -0.1291735 0.016432244 -0.15418701 -0.2597385 -0.138761 0.391575 0.17669126 0.038773 0.01416975 -0.142275 0.14491999 0.073912255 0.14896975 0.018022496 0.2113975 0.044924993 -0.50441 0.20021424 -0.1779705 -0.06535874 -0.39560002 0.1430525 -0.0827965 0.312441 -0.015016999 0.098476246 -0.17766336 0.10604 -0.04804045 0.10061924 -0.14388624 0.318255 0.10053925 -0.1619595 0.3255825 -0.0052134953 -0.065032 0.32060748 -0.26617 0.108035 -0.130959 -0.17315425 0.117329985 -0.22619951 0.2268975 0.4515475 -0.17137599 0.100375 0.11109958 -0.30541626 0.07632955 0.14785177 0.0006314982 -0.2115025 -0.063912496 -0.410665 -0.014100753 -0.09924475 0.0006274991 0.14154899 -0.20745 -0.0369996 -0.38726747 -0.25022 -0.063704506 -0.018914998 0.16307725 -0.10954751 0.5068575 0.20775749 -0.559585 0.45055252 -0.37207127 0.219587 -0.364475 0.088896245 0.057754003 0.1185925 -0.45801502 0.15265751 0.99384254 -0.19497499 0.31351 0.102086246 0.34546503 -0.35146773 -0.19169924 0.2464845 0.1526075 -0.235369 0.126329 0.20972626 0.049459025 0.00079749525 -0.21306525 -0.24398224 -0.08959 0.2092725 -0.04029 0.0023225024 0.22306252 0.12973775 -0.06266376 -0.009887502 0.021154001 -0.019745 -0.241965 -0.061047 0.061736748 0.20683001 -0.14042026 -0.17980474 0.06708007 0.19855049 -0.20004201 0.11798999 -0.3851225 0.291585 0.023772 0.10688078 -0.06436317 -0.24798824 -0.078868 0.07795501 -0.017320007 0.5919675 0.099531494 -0.018791495 0.3677225 0.32010174 0.6137025 0.231385 0.101637244 -0.06613251 0.020940999 -0.32633725 0.33463752 -0.260541 0.27358 -0.095995754 0.24682 0.11652703 -0.047395 0.2477075 0.413065 0.046791453 0.1463458 0.22421499 0.20046124 0.3464275 0.4865125 -0.2637415 0.2729975 -0.10942127 -0.12035298 -0.31002998 0.116847 -0.2852075 -0.026341999 -0.22488001 0.056149997 -0.04509543 0.112637 -0.017379243 0.12880525 -0.028014999 -0.216556 -0.187276 0.25250348 0.17981425 0.1749965 0.4155 0.6655918 -0.21810426 0.14471251 -0.33836251 0.2921125 -0.360743 -0.037831 -0.06933775 -0.078706354 0.006246999 0.19794175 -0.1311225 0.53535 -0.174741 0.010690744 -0.109527506 -0.068491 0.38836175 0.053753998 -0.08157003 0.06861749 0.1824705 0.07737959 -0.11509642 -0.42198753 0.304268 0.08048025 0.077687755 0.43603998 -0.013722502 -0.200335 0.264015 -0.039614253 0.024394989 -2.261825 0.3249 0.7026415 0.17696749 0.46166277 -0.26067275 0.33931825 0.0029400103 0.401935 0.0034827054 0.026571251 0.20674276 0.3038685 0.059866756 -0.09357248 -0.4389525 -0.263716 -0.1407757 -0.069420196 1.1843925 0.008061498 0.014153251 -0.69307 -0.18472801
4 0.0035266678 -0.219348 -0.12242899 -0.15258801 0.17183332 -0.25132 0.035790008 0.16114333 0.15130334 -1.18755 0.14224333 -0.030073 -0.10604799 0.59974664 0.25504103 -0.23574668 0.16674334 0.32986334 0.22678699 0.44208667 -0.121083654 0.32744667 0.12592499 0.53503996 -0.117527 -0.12815101 0.09453001 -0.16055866 -0.026570002 0.51279455 0.59992 0.15415668 -0.22353667 0.25820664 -0.58943665 0.28310665 0.34620667 -0.12470267 0.09636233 0.011056666 0.49822068 -0.26669 -0.12404134 -0.14177333 0.59707665 0.14222467 0.11382901 0.32524535 0.011136673 0.06840333 -0.031147333 0.11539099 0.172327 -0.48746333 -0.24485333 -0.047030006 -0.023836 -0.51323 0.51392 -0.29249334 0.16305667 0.47355 0.12544666 0.112453334 -0.076233335 0.005517999 0.070984 0.16554333 0.23656332 0.06797334 -0.49857 -0.44993004 0.08019067 -0.10466766 0.068789326 0.15039334 0.353122 0.18367934 0.19970967 -0.019996336 -0.29661798 -0.37709665 -0.38939667 -0.4210367 -0.02919433 0.09056967 0.15139668 0.003328666 -0.27308166 0.03027 -0.19229667 -0.66374665 0.005152168 0.253472 0.4262 -0.028248005 0.4153633 0.35685802 -0.07662734 -0.068565 0.024060005 0.10998034 0.16254 -0.092842996 0.33777002 0.20786333 0.10445934 -0.13691999 0.019853333 0.023316337 0.18437667 -0.49187663 0.072832994 -0.24338998 0.26350167 0.06887177 -0.17219 0.012868713 -0.14034499 -0.066470005 0.13150133 0.253366 -0.42407668 0.03180966 0.0028390016 -0.0061973347 -0.14429666 -0.034401998 0.014036934 0.17812067 0.14051668 -0.43407 0.62078 -0.7455233 -0.34214935 -0.44695005 0.18613465 0.14883667 -0.21047668 0.44040334 0.17261733 0.14315332 0.09136534 -0.34926665 0.5034067 -0.21582766 -0.16654034 -0.31872967 -0.17369334 0.25452 0.67012334 0.23738599 0.42915666 -0.04665223 -0.29708135 0.014378334 -0.08083 0.08417367 0.26988998 -0.30051002 0.55189997 0.31929 0.18369001 -0.22128333 -0.41988 -0.2099824 0.024385333 -0.15735665 -0.34113336 -0.079993345 0.10777223 -0.40614 -0.92211 0.138335 0.21673834 0.186619 -0.25972566 -0.4640533 0.15542267 0.24414366 -0.13157 0.4529933 -0.25594333 0.12295333 0.35836998 0.22437733 -0.36588 0.12297166 0.016667001 -0.18943201 -0.23242666 -0.13130333 0.18810666 0.28474668 -0.10474033 0.1609673 -0.143406 0.10285001 0.26512334 0.11106932 0.6759767 -0.07309733 -0.13790132 0.100974 0.12235334 -0.39301667 0.013779998 0.42740667 -0.24441133 0.12644668 0.023557672 0.047198337 0.011806667 0.25432533 -0.144766 0.60776 0.072676666 0.12253001 0.06707734 0.5385 -0.390457 0.070107974 -0.30440333 -0.26524666 -0.19604065 -0.27948 -0.023486326 0.28553733 0.5145367 0.64394665 -0.023718165 -0.023947665 -0.16378917 0.009219994 -0.38731667 -0.251089 0.14429335 -0.38475332 -0.19684334 0.16884701 -0.25653002 -0.21432666 0.52821666 -0.056964133 -0.97745675 0.28232998 -0.76669 0.06903699 -0.022936672 0.53528 0.008737673 0.07389834 0.11517099 0.13424967 -0.11385467 0.24807666 0.25689334 -0.6759867 0.095435 -0.21250899 -0.075399995 -0.44300666 0.25774953 -0.38888332 0.12883233 -0.53353 -0.52999 0.40633133 -0.10823667 0.33622336 -0.28773332 -0.062203333 0.2022047 -0.09078 -0.09408667 -0.08161733 -1.4244 0.047829997 0.5554853 -0.21832602 -0.13329001 -0.5111367 -0.27104032 -0.29878 0.21655302 0.00783667 -0.45782337 0.18294267 0.21398668 0.25297633 0.22210266 -0.41258335 -0.5801633 -0.012783666 0.20516668 0.0036849976 -0.059173334 0.17871666 -0.33179036 0.05215019
5 0.014695403 -0.3154295 0.0008773923 0.1370798 -0.098042 -0.21545999 0.055888005 0.500406 0.2974704 -1.295346 -0.39940882 0.10327802 0.0061848015 -0.21392119 0.066825405 0.33345598 0.282486 0.6652225 -0.0108437985 -0.23572262 0.06160021 0.29826123 0.313612 -0.22262919 -0.2364994 0.1775792 0.20612481 -0.1488156 -0.2064332 -0.1738672 0.13581699 0.151 -0.449184 -0.16203192 -0.58651364 -0.154628 -0.037221998 -0.073440805 -0.010711515 -0.15080526 0.693092 -0.16223541 0.35999322 0.22033265 -0.064274 -0.170224 -0.49703804 0.18505721 -0.094549805 -0.010489201 -0.071772195 0.13104561 -0.011480999 0.026314963 0.311946 -0.1486286 0.20436199 -0.2231488 -0.06573999 0.0386822 0.12249599 -0.1441278 -0.30716598 0.087130405 -0.34036997 -0.33472398 -0.019873142 0.092396 0.4773015 -0.4472208 -0.055917878 -0.32737398 -0.1216398 0.055577397 0.3812906 0.036632124 -0.15129401 0.2693888 -0.2436976 -0.08400421 -0.24394281 -0.23267397 0.031085405 0.30641198 0.14872698 -0.1106562 0.1750838 -0.1446847 -0.1525082 0.07046001 -0.31571043 -0.13690619 -0.27212062 0.471282 -0.21282001 -0.1190452 -0.066476 0.33091998 -0.083657995 0.0044499994 -0.020743996 -0.74076396 -0.48141003 -0.3354958 0.042046 0.036535393 -0.10456439 0.044064 0.057550002 -0.306302 0.32622838 -0.19546981 -0.24886999 0.2184 -0.08778441 0.0028234005 0.335875 0.0337858 -0.3485176 -0.2583286 0.023725 0.18996093 0.0031304061 -0.111347005 -0.042190205 -0.11382921 0.015047605 0.5552441 0.2990944 -0.049349606 -0.07803599 -0.52242804 0.071612 -0.472884 0.29136 -0.1362988 -0.112298 -0.043944996 -0.04268799 0.18173079 0.40157324 -0.0542716 0.11057 0.1490826 -0.21050379 0.11546681 -0.18741098 -0.099884 -0.20079538 -0.042823795 0.508842 -0.36832798 0.465444 0.142682 -0.26349598 0.23766401 -0.22383201 0.00049877167 0.053881995 -0.022410963 0.27190202 0.035459697 -0.08754841 0.126298 -0.1836496 -0.14143199 0.13055801 -0.1304754 -0.51388 0.1732792 0.1157126 -0.16710901 -0.86336994 0.359114 -0.1252342 -0.35344878 0.0011340022 -0.003626007 -0.06824495 0.792822 0.0221018 -0.198998 0.08741313 -0.12373719 -0.38847402 -0.044685397 -0.332134 0.1028294 -0.015864003 0.0800678 0.1204384 -0.41044822 0.021243682 0.1690082 0.3561444 0.22905579 -0.06704472 -0.2751208 -0.17311059 -0.261106 0.23643799 0.124423005 -0.107823804 -0.191798 0.34364998 0.1804972 0.08776121 -0.117012 0.352532 0.50585604 0.2520406 0.38076 0.102275595 0.15738878 0.047022793 0.24330398 -0.22105698 0.35476303 -0.041236807 0.433944 -0.345032 -0.08605199 0.28133398 -0.06981599 -0.0627822 -0.01018641 0.204988 -0.0699404 -0.368432 0.0429874 -0.16984598 -0.2073574 -0.21570316 0.108638 0.0241624 -0.001772213 -0.14970799 -0.063761994 -0.2543948 -0.276644 -0.180832 0.29247 0.927156 -0.1947968 -0.81310004 0.105296195 -0.014478001 -0.15151839 0.10326533 0.2705858 -0.27060002 -0.046743196 -0.11061199 -0.10742541 0.2203712 -0.1413682 -0.04025559 -0.50331795 -0.1363436 0.23201017 0.12100519 0.09015801 0.5406524 0.14239581 -0.020888602 0.044063993 -0.24261601 0.24638398 -0.1588132 0.10537745 0.098533794 0.0796292 -0.07260899 0.04968141 -0.13479081 0.346634 -1.5379 -0.029430393 1.1452919 0.0749532 0.085542 -0.514612 0.22212398 -0.34587002 0.051654004 0.076735005 0.1466622 0.2118216 0.065804884 -0.010361808 -0.13485 -0.4874668 -0.054402005 -0.2978732 -0.201154 0.753928 -0.092250995 -0.25027198 -0.1592748 0.165706
6 -0.13187 -0.42733 -0.21966 -0.18693 -0.21649 0.12928 0.36713 0.19067 -0.39185 -1.3515 -0.51548 0.11032 -0.9519 -0.33434 0.24677 0.30443 0.14366 0.25902 -0.10819 0.51531 -0.60306 0.47176 0.7572 0.31467 -0.67195 0.31971 -0.0055328 -0.26323 0.08607 0.070591 0.36466 0.37314 0.51433 0.10465 -0.48842 -0.014876 0.57026 -0.64883 -0.17656 -0.10998 -0.0024661 0.071005 0.084374 0.59335 0.15296 -0.25145 -0.87765 0.51799 -0.091182 0.094327 -0.25425 -0.042157 -0.34876 0.26964 -0.053638 0.11815 -0.76048 -0.51767 -0.2265 -0.22823 0.0059264 -0.38257 -0.019615 -0.014578 0.048225 -0.44953 -0.23823 0.23425 -0.087151 -0.14127 -0.21966 0.24815 0.26474 -0.054417 0.06508 0.38031 0.3814 0.23603 0.20887 0.32615 0.090855 -0.17482 -0.19864 -0.16381 0.43667 -0.14456 -0.50011 0.26055 0.029474 -0.20075 -0.26572 -0.46314 -0.27584 0.0080899 0.21137 0.29052 -0.43051 0.47755 0.23108 -0.085927 -0.025518 -0.37419 -0.37754 -0.54767 0.19044 -0.19683 -0.285 -0.6923 0.2067 -0.28958 0.14912 -0.67743 -0.027733 0.19558 0.34959 0.10719 0.32014 -0.012925 0.21067 0.17185 0.52274 -0.59883 -0.071469 -0.57899 -0.13865 -0.026534 -0.15832 -0.25802 0.089214 -0.093665 -0.17016 0.013802 0.27359 -0.77923 -0.71854 -0.51658 -0.021524 -0.22944 -0.37424 0.61744 0.060259 -0.23834 0.31246 -0.21691 -0.25324 0.304 0.12401 -0.34854 -0.10292 0.37209 0.87975 0.077179 0.14614 -0.35347 0.39273 0.079636 -0.53976 -0.41216 -0.45071 -1.0259 0.43402 0.66286 -0.48705 -0.43043 0.36097 -0.65681 -0.19064 -0.81057 -0.26617 1.112 -0.83607 -0.56961 -0.88458 0.1946 0.50375 0.035111 -0.46853 -0.71194 -0.10347 0.1364 0.17472 0.088818 -0.6505 0.24795 0.45998 -0.54724 -0.24449 0.23632 -0.33686 0.18242 0.49826 -0.46657 -0.12304 0.0049857 0.10772 0.44707 0.51948 0.16983 0.14489 -0.48148 -0.047647 -0.27205 -0.012475 -0.034345 -0.36547 -0.56977 0.23126 0.087827 0.19668 -0.30648 -0.40807 0.30765 0.42859 -0.23754 -0.37638 0.47866 -0.25862 0.58176 -0.071264 0.027741 0.39804 -0.82722 -0.82785 -0.18947 0.13037 0.66335 -0.56547 0.14867 0.75443 0.29882 -0.53317 0.14319 -0.020964 -0.048048 -0.14307 -0.83933 0.37395 -0.22637 0.13344 -0.028929 0.048955 0.17193 -0.30528 0.056974 0.084353 0.5997 -0.3823 -0.68911 -0.29958 -0.10814 0.19712 -0.18127 0.56122 -0.21285 -0.459 -0.12386 -0.36095 -0.34896 -0.061993 0.50969 0.14668 -0.40731 0.11532 -0.26906 0.42822 -0.017243 0.47897 -0.043442 0.017412 0.1918 -0.47673 0.27349 0.20992 0.16893 -0.50343 -0.0036888 -1.0097 0.43452 0.17092 0.0147 -0.64331 -0.36592 0.27095 -0.22936 0.37036 -0.13492 0.1777 0.044695 0.16021 0.0083269 0.12431 0.1765 0.074649 0.15533 -0.30205 0.51879 -0.063052 -0.17686 -0.65171 0.38447
7 -0.19287433 0.25192332 0.003866665 0.3336333 -0.005571333 0.28278401 0.19061 0.407657 0.070341 -1.6209666 0.23365398 0.34649634 -0.19728653 0.3321033 -0.20448333 0.01740666 -0.031623334 -0.008583334 -0.108662 0.16976134 0.055406664 0.060646664 0.30804 0.0035836597 -0.44954267 0.616 0.05705666 -0.17194666 -0.27912465 -0.37351498 -0.031026661 0.25820336 -0.10502097 0.042050004 -0.48953 -0.21113665 0.32755664 0.03828233 -0.17419867 -0.20874667 0.28843966 -0.039610337 0.33320832 0.38363335 -0.20988166 -0.164236 -0.29609 0.51469 -0.084187664 0.066687666 -0.17703567 -0.20010667 -0.021715334 0.12960733 0.151655 -0.01305667 -0.42251 -0.26301134 0.05024433 -0.43612328 0.28301334 0.08254167 0.044224996 0.38362667 -0.39554 -0.23561765 -0.40172002 0.14602166 0.39990667 -0.2761067 -0.13931 -0.12013567 -0.23541333 -0.13687001 0.49658668 0.19015168 -0.08599767 0.4059 0.15765797 0.32944 0.41671667 -0.24702765 0.2436556 0.30158 0.19720668 -0.061448336 -0.028756008 0.015257 -0.30717668 0.13846432 -0.70509666 0.342903 0.034406003 0.122640006 -0.44237003 -0.047778 -0.45209 0.045058 0.042002004 -0.24917667 0.31884333 0.16007033 -0.18929732 0.19136667 -0.13532133 0.020156667 0.16917832 0.25352648 0.12609202 -0.045634333 0.052550334 -0.51724666 -0.037804667 -0.35870335 0.4641 0.314237 0.43932667 -0.2643 -0.45191336 -0.40497562 0.25048333 0.43350998 0.08682754 -0.37586033 -0.19936334 0.019504996 0.22056 -0.20859599 0.15261532 0.49298 0.21394335 -0.11291167 0.25212 0.07864001 0.10305199 -0.12057334 0.133124 0.2391 -0.043507803 -0.13643932 0.17650342 0.242333 -0.24166667 0.22263233 -0.17980666 -0.22635932 0.093937 0.02951163 0.31427065 0.40276667 0.77059335 0.189313 0.29558668 -0.054401666 0.05958134 0.24742334 0.016116336 0.047900002 -0.05023 -0.032236665 0.28035134 0.11317 0.09640234 0.08018666 0.0071766474 -0.4230667 0.25079 -0.1664074 -0.15229 0.4256867 0.5277633 -0.14933033 -0.5583833 0.34099665 -0.12521334 -0.26783332 -0.026702136 -0.22108334 -0.18042958 -0.21869834 0.0025220036 0.048951957 -0.19643335 0.02220667 0.002782032 -0.289622 -0.15423867 -0.11158067 0.05356 -0.027445665 -0.14736167 -0.64666 -0.47036004 0.09150267 0.28913668 -0.19088167 -0.34957668 -0.18324834 -0.17422725 -0.39877334 -0.14140034 0.58006 0.15949066 -0.16690968 -0.06616 -0.102678664 -0.040854663 -0.05896767 0.048799995 0.024096658 0.061603334 0.035297673 0.120009996 0.46194997 0.05242667 0.06862 -0.34811997 0.68918663 -0.171884 0.0077560022 -0.52164334 -0.024986664 0.33244666 0.11401 -0.24743335 -0.13824734 0.33276668 -0.33933333 -0.004904002 0.15120299 0.17936365 -0.18962164 0.13775666 0.16563234 -0.7077934 -0.144946 0.09049967 -0.13536553 -0.077769995 0.09253634 -0.03532413 -0.2171833 0.7150767 -0.24943 -0.221542 0.31954336 0.028666675 -0.102699004 -0.13159932 -0.15152334 -0.002039666 -0.06964666 0.20129548 0.06557366 0.7694333 -0.14040293 -0.07123533 0.20337524 0.13838433 0.48646665 -0.40008333 0.17241998 0.20873 0.049565002 -0.2699717 -0.07117099 -0.234531 0.08970734 -0.65075666 0.031383336 0.34154 0.091944665 -0.28897 0.40658 -0.18892668 0.35401633 -2.1463 0.4557067 1.0411 0.6178166 0.031856667 -0.36098334 0.03281333 0.053103328 -0.080109 -0.093574665 -0.007283999 0.14989446 0.35994998 -0.04354 0.16296613 -0.16315001 -0.23985 0.22447334 0.14892666 0.05558933 0.035357334 -0.075449996 -0.19169967 0.43703365
8 0.03055667 -0.153099 -0.153795 0.315425 0.24333334 0.20339233 0.215092 0.006382001 -0.18063067 -1.8760333 -0.061703335 0.42586336 -0.13941 0.47934666 0.3827667 0.08606267 0.20517766 -0.15424567 0.48742667 0.11997434 -0.00833267 0.27746335 0.55293 0.15070002 -0.35798398 0.368477 0.11256667 0.14024167 -0.028036332 -0.16570333 0.062837 -0.14497833 0.39795497 0.38743666 -0.94658995 0.017197669 0.20238 0.028789664 0.06524267 -0.067680664 0.17433868 -0.22082299 -0.06851 0.23399667 -0.11622667 -0.060881335 -0.54629666 0.08355334 -0.38803664 0.06459333 -0.30549 0.12024733 0.040078 -0.3119 0.22219133 -0.15953666 0.11985334 0.07139334 -0.22696 0.035328 0.28509998 -0.046306998 -0.054270666 0.068467595 -0.41482067 -0.35996333 0.103300996 -0.23232 -0.07316383 -0.13456333 -0.25415733 0.45483002 0.342793 -0.118534334 0.12176133 0.16135241 0.12875667 0.34208235 0.04432233 -0.0024852182 0.2973 -0.45503667 0.035195 0.21993534 0.47782668 -0.065032 0.3296267 0.044717997 -0.37221447 0.0053043365 -0.10154667 0.056388672 -0.21760635 -0.337922 0.07608866 -0.18322666 -0.07464233 0.15555333 -0.30477002 -0.19515334 -0.14190634 0.038199995 -0.17754002 0.018793331 0.090887 0.15888 -0.13227001 -0.08643567 -0.03928733 -0.16333634 -0.16067334 -0.8034434 -0.13935734 0.028323332 0.37558666 0.185701 0.061443325 -0.193424 0.1448736 -0.10445666 0.029955337 0.28768 -0.07165284 0.15737633 -0.073195 0.05240333 -0.028140662 -0.10447332 -0.44872332 -0.009887001 0.14585334 -0.025598997 0.5471733 -0.41046333 -0.47273663 -0.17846668 0.12418634 0.055466667 -0.3536533 0.07671666 0.06634093 0.11507597 0.53982 0.13300002 0.33904 -0.078471005 0.4497 -0.14238 0.1177493 0.4710833 1.0179234 0.12819666 0.17519866 0.12584369 -0.21511167 0.39319 -0.07982333 -0.124962665 -0.13942 -0.4126067 -0.08706967 0.6656967 0.179738 -0.19288333 -0.18108635 -0.19183902 0.066690005 -0.18234932 -0.073451996 0.31455332 -0.2940167 -0.23055999 -0.8002866 -0.0525 -0.42117468 -0.068242334 0.10385334 -0.47445333 0.12828666 0.21671669 0.11590866 0.038268328 -0.12410732 0.12975834 0.0012899885 0.25611567 -0.45785332 -0.092133336 -0.09860768 0.23017633 -0.11797134 0.020295992 -0.03064999 0.0018426677 -0.07034333 0.13163333 0.24166699 0.06648 0.06338333 -0.21258001 0.011929671 -0.012326325 -0.096215 -0.0054590106 -0.25625366 -0.47494665 -0.19790013 0.18045707 0.24972667 -0.25999334 0.41222 -0.22157665 0.11446 -0.50352335 0.07267734 0.43886665 -0.12707134 -0.023275336 0.21429968 -0.021601668 0.10638833 0.13382667 -0.2994667 0.23268001 0.23289001 0.09414 -0.5356333 0.085716665 0.2646233 0.11859999 0.1001 0.23134333 0.12630235 -0.070357665 -0.054167014 -0.053026665 0.30334267 0.032409284 -0.30301067 0.01630033 -0.035758674 0.42999163 0.52631336 -0.44945002 -0.38979998 0.50096667 -0.15344669 -0.30886665 -0.08399334 0.055858236 -0.020063331 -0.22698332 0.18224333 0.15153666 0.131893 0.08206001 -0.38984 0.038800664 -0.05825 -0.30964333 -0.10993267 -0.25207743 0.03604332 0.124796666 0.414499 -0.055416662 0.04221033 0.37004003 0.0025036659 0.19229889 -0.16404332 0.38413668 -0.07103801 -0.21677667 -0.010706668 0.11656934 -1.3449334 0.007984669 0.89110667 -0.54609 -0.15420233 -0.06449734 -0.12045299 -0.30302998 0.28230268 0.0090233665 -0.090110004 0.23529167 0.18694134 -0.18620999 -0.09803834 0.06740334 -0.17618 0.08247666 0.39638332 0.49281967 -0.012878333 -0.30515 -0.334155 0.33458665
9 -0.15599 -0.48863 -0.095793 0.33088 -0.058741 0.19546 0.14079 -0.23351 -0.22091 -1.809 0.23999 0.23155 -0.2614 0.58763 0.14984 0.039441 0.26857 -0.35678 0.33978 -0.086884 -0.31331 0.083792 -0.45803 0.48424 -0.014717 0.53933 0.088042 0.13115 0.18257 0.107 0.48577 -0.029373 0.18012 0.47554 -0.87488 0.39149 0.53745 -0.0063546 0.060698 -0.46311 0.55727 -0.58281 -0.20869 -0.45452 -0.13888 -0.083076 -0.45609 0.88219 0.18462 -0.84753 -0.2523 0.2111 0.037397 -0.36724 0.10139 -0.11059 0.52339 0.13964 -0.012866 0.2447 0.24951 -0.17792 0.19481 -0.13235 -0.1326 0.0090331 0.11366 -0.22846 -0.55384 -0.19502 -0.69034 -0.60809 0.19883 -0.19056 0.51211 -0.11389 -0.32236 0.4768 -0.068785 0.42006 0.46125 -0.25753 0.24404 -0.24938 -0.088638 -0.050059 0.12597 -0.41955 -0.32934 -0.093084 -0.37752 -0.042846 -0.41694 0.44503 0.40834 -0.078672 -0.19077 0.10634 -0.45438 0.10417 -0.091169 -0.25406 -0.050085 -0.15111 0.19377 -0.48826 -0.32771 -0.013199 -0.12172 -0.082718 0.22685 -1.1618 0.26638 -0.095021 -0.051916 -0.0094577 0.17666 -0.10423 0.11075 0.31282 0.080793 0.9009 -0.14988 0.040196 0.087837 -0.19295 -0.17704 -0.36456 -0.10088 -0.041492 0.053511 -0.58331 0.7997 -0.16211 -0.14938 -0.37602 -0.3355 0.40658 -0.22852 0.56702 0.45796 -0.17536 0.24725 -0.20521 0.33738 -0.20325 0.46125 -0.096619 0.35503 0.458 1.1045 -0.06066 0.72095 0.26253 -0.78934 0.19634 -0.18822 -0.5945 0.1074 -0.21854 0.45644 0.26283 -0.12558 -0.5837 -0.35181 -0.77446 -0.057786 -0.45396 0.021407 0.40866 -0.19257 -0.39938 -1.1346 0.53859 0.2992 0.18479 -0.32065 -0.92896 -0.11041 0.43687 -0.22184 0.17882 -0.29285 -0.21025 0.019958 0.11018 -0.28076 0.091363 -0.043574 0.2452 -0.12323 0.24119 0.082295 0.063377 0.052041 0.67751 0.058919 0.19593 0.45511 -0.16609 0.24755 0.26625 0.16469 0.098158 -0.40091 -0.12506 -0.3074 -0.19394 0.1118 0.29548 -0.0029244 -0.37724 -0.50793 -0.37191 0.2317 0.44089 -0.25758 0.27855 0.54572 -0.14578 -0.10627 0.46546 -0.74192 -0.21909 0.21883 -0.18607 0.30635 -0.27689 0.16028 0.15592 0.00010438 0.40641 -0.11154 -0.067444 -0.21263 -0.054281 0.22308 0.1675 -0.10388 0.21529 0.44342 0.0782 0.74798 -0.36624 -1.197 0.66083 0.10179 -0.27821 0.11598 0.17297 0.061977 0.15777 -0.00025323 0.10331 0.18671 -0.0088602 0.26155 -0.12531 -0.28656 0.095677 -0.21804 -0.41513 0.49224 -0.18266 -0.064651 -0.15015 -0.35053 0.27396 -0.17054 0.45922 -0.54717 -0.079053 0.047745 -0.15922 -0.42948 -0.092585 -1.9926 0.20223 0.88295 -0.11956 -0.054063 -0.45556 -0.29706 -0.34774 0.10337 0.48005 -0.10413 0.26968 0.04454 -0.12409 -0.30056 -0.086034 -0.33568 0.018582 0.14153 0.50129 -0.24236 -0.71039 -0.44195 0.032832
10 -0.0004725 -0.181658 0.151799 0.0986595 0.37439 -0.302445 0.63122 0.11723499 -0.414375 -1.66415 0.1625655 0.46357 -0.073485 -0.20135851 0.095387 0.274585 0.004765004 -0.0706155 0.036314994 -0.076050006 0.21388 -0.421075 0.0409575 -0.124370955 -0.17274855 0.53639996 -0.29849 0.39717 -0.197665 0.37251002 0.306755 0.079845 0.173269 0.154605 -0.664235 0.139071 0.2164 0.30274 -0.19726351 -0.31008 -0.730215 0.20500785 0.15103 0.1966625 -0.30721498 -0.105758 -0.13956499 0.043124996 -0.26927 0.253179 -0.21248001 -0.253916 -0.0681325 -0.07874501 -0.18173501 0.063695 0.1791935 0.35442 -0.135163 0.13616 -0.37413448 -0.12696299 0.29578 0.065375 -0.2942675 -0.15464832 -0.088522 -0.23531899 -0.314239 -0.46476 0.031047048 0.06466499 -0.148225 0.136529 0.23646998 -0.0311135 -0.27025002 0.109798 0.006389998 -0.292165 0.42393702 -0.276932 -0.167058 0.155835 0.3538035 -0.16883 0.0352684 0.19602 -0.57991004 0.11099 -0.60928 0.583 -0.109412 -0.057223503 0.27888 -0.2725361 -0.330195 -0.23742001 0.201256 -0.3855935 0.24124348 -0.103499494 -0.15876 -0.14057499 0.0762275 -0.12612799 -0.0713511 0.301185 -0.13723 0.15389 -0.228445 -0.6069388 -0.53485 0.113712996 -0.187744 -0.32193 0.1098677 -0.44756 -0.182285 -0.0079135 0.220635 -0.0378365 -0.185971 -0.07068999 -0.20816 -0.07638 -0.315889 -0.1555195 0.17626502 0.0779925 0.54914 -0.052254997 0.24377 -0.35856998 0.033924997 0.041350007 -0.17901245 -0.036983 -0.52423 0.354645 0.0875545 -0.0023449957 0.18154499 -0.379 -0.24515998 0.43800503 0.27478498 -0.080694996 0.4032575 0.022455 0.872155 -0.05741 0.67907 0.042689994 0.128855 0.590845 0.48365498 -0.262511 -0.24597 0.12548 0.02085725 -0.223055 -0.123357 0.0800985 -0.29575002 -0.128095 0.20076999 -0.1448635 -0.06288999 0.52105 -0.1792825 0.4343535 -0.16384499 0.13654 -0.271005 0.19092 0.48051 -0.364125 -0.033395 -0.22051299 -0.0925835 -0.0509625 0.1431245 0.036036 -0.498403 -0.124455 -0.38565 -0.228057 -0.124057 -0.386345 0.085985 0.66049504 -0.54999 -0.30052 0.391495 -0.0035300106 0.057365 -0.020535499 -0.020491995 0.49693498 0.20504 0.09866999 -0.022889 0.219825 0.066778146 0.1741365 0.063646 -0.42548 0.351935 -0.156935 -0.207912 -0.34092999 -0.0447955 -0.76441 0.429285 -0.03723 0.151591 -0.040820003 -0.15705 -0.021799497 0.022835016 0.11858 0.24028501 0.36399615 0.33333802 -0.302215 -0.06508 -0.12832999 -0.21711501 -0.1261955 0.052789994 0.124151506 0.249475 -0.088579 0.29595 -0.20969196 -0.061222 -0.1408545 0.18509999 0.027255002 0.14054501 0.206181 0.359335 -0.019734979 -0.39985502 0.0018399991 0.44867998 -0.587595 0.35969502 0.218285 0.2480615 0.0688855 0.244225 -0.289395 0.089595 0.069385 -0.460815 0.25064498 0.50986 0.069966495 -0.023780003 0.077303 -0.100711495 0.199541 0.05461 0.404115 -0.24171501 0.505145 -0.0518185 -0.137614 -0.09052999 0.189969 -0.2623325 -0.266125 0.32066 0.14336699 -1.8225499 0.629475 0.70678496 -0.011125006 -0.33107498 -0.52030003 0.2130235 -0.21661499 0.20836 -0.142011 -0.2633 0.197644 -0.194805 -0.26269 -0.263903 -0.74357504 -0.552218 -0.2626905 0.411155 0.669775 -0.366855 -0.38567 -0.011389999 0.041954994
11 0.78421 0.038821 -0.51715 -0.507 0.64195 -0.087256 0.33351 -0.097453 -0.26637 -2.3458 0.32017 -0.2822 -0.43848 -0.015474 -0.12346 0.33387 -0.25904 0.24962 -0.36994 0.19812 0.054311 0.63741 0.63037 0.48128 0.48461 0.0054405 0.099987 0.57157 -0.28713 0.0049929 0.34296 0.45675 -0.29873 -0.018955 -0.68245 -0.021861 0.37953 0.017973 0.21117 0.49017 -0.52737 -0.26651 -0.29649 -0.20251 -0.63851 -0.37701 -0.88635 -0.44829 0.31853 -0.30701 -0.043028 0.11433 0.073186 -0.55199 -0.051791 0.13208 -0.05214 0.639 0.041211 -0.19379 0.088482 0.29771 0.60947 -0.63766 -0.58926 -0.40101 -0.328 0.14536 -0.15527 0.56753 -0.19511 0.29207 -0.076968 -0.23875 -0.13523 0.53686 -0.41598 -0.082264 -0.30144 0.5889 0.15952 -0.67577 0.042544 0.65432 0.6181 -0.35286 -0.29506 0.62493 0.10805 -0.62124 0.18876 0.48216 -0.051004 -0.15605 -0.62613 -0.52587 -0.99127 -0.15449 0.25544 -0.48953 -0.77982 -0.17199 -0.39137 -0.1408 0.020499 0.58306 -0.48842 0.2084 -0.69361 0.2837 0.98185 -0.97389 -0.41317 0.71583 -0.011831 0.18762 0.78959 -0.39001 0.9324 0.55102 -0.26244 -0.324 -0.13771 -0.15435 0.18779 0.051074 0.16714 -0.46158 -0.75933 -0.062854 0.46258 -0.59592 0.17131 -0.23692 -0.46087 0.114 -0.12973 0.62509 -0.16429 -0.19284 0.50038 -0.36477 1.0536 0.0059693 -0.28857 0.89603 0.23035 -0.053207 -0.32472 0.14946 0.84799 0.28925 -0.27744 0.1601 0.3361 -0.29613 0.19876 -0.65559 -0.4197 -1.0971 -0.15584 -0.54352 0.27494 -0.058869 0.15779 -0.18818 -0.56677 -0.17243 -0.1668 0.67699 0.034887 0.089113 -0.67582 -0.12187 0.54095 -0.33874 0.019207 -0.45034 0.21362 0.32826 -0.80675 -0.52704 0.027774 -0.19444 0.0057971 0.022575 0.74748 -0.074478 -0.056637 -0.19566 -0.13654 0.12433 -0.30421 -0.36748 -0.71557 0.28387 -0.20334 -0.50191 0.67712 0.83771 0.2424 0.59091 0.5491 0.23873 -0.07866 0.070184 -0.74816 0.44551 0.35052 -0.42642 -0.2006 -0.29991 0.10747 -0.20881 0.40208 1.3549 0.7774 -0.16058 0.0022458 -0.098542 0.27876 -0.04591 -0.59636 -0.16149 -0.36691 -0.49802 -0.55918 0.19277 -0.16095 -0.10847 0.12016 0.22825 0.1377 -0.23621 0.016962 -0.53679 -0.22448 -0.45134 -0.22247 0.52737 0.26005 0.14143 -0.11546 0.54133 -0.44995 -0.27751 0.058454 -0.4594 -0.37816 -0.50907 0.062499 -0.22508 -0.65914 -0.32735 -0.25722 -0.64682 -0.68002 -0.22438 -0.49769 0.62116 0.34442 0.28843 0.11686 -0.1956 0.68656 -0.032652 0.32636 0.060544 0.5178 0.03198 -0.56865 -0.27862 -0.37402 -0.15263 -0.73297 -0.10154 -1.614 0.32767 0.68274 -0.071809 -0.82181 0.13381 -0.14682 0.35942 0.092184 -0.5891 -0.036188 -0.22977 0.33596 -0.3979 -0.19968 -0.070893 -0.063727 -0.046801 0.57746 0.66394 -0.010813 -0.52146 -0.20787 -0.063546
12 0.30604 -0.20627001 -0.48378003 0.12044895 -0.05023501 -0.21650499 0.346025 0.321585 0.207645 -1.78965 0.219445 -0.018865999 -0.22969 0.06941 -0.3776805 0.131026 -0.070417196 0.2799 -0.25508 0.16190001 -0.243855 -0.011371501 0.49886 0.08866 -0.35227 0.43499 -0.1324786 0.2152215 -0.249035 0.28076002 0.3503665 0.142281 -0.22258501 -0.203695 -0.157215 -0.12584749 0.12705345 -0.302585 -0.03086999 -0.29465002 0.22036 -0.16195899 0.592005 0.18722 -0.62517 -0.12902504 -0.1530855 0.15799001 -0.0592415 -0.21414499 -0.45108998 0.0669005 0.075600006 -0.043745004 0.047192503 0.46425998 0.1229312 -0.35409 -0.102835 0.117216006 -0.16982499 0.063034 0.014943002 -0.352175 -0.55433 0.1614245 -0.329225 -0.027667 0.0329265 -0.293975 0.074969 -0.18812501 0.350225 -0.38626 -0.281275 0.302935 -0.218065 0.248976 -0.02539 0.076165006 -0.1498325 -0.4305 -0.05730501 -0.03932 0.287775 -0.093380496 -0.019964993 0.40245998 -0.82675505 -0.79444003 -0.57317 0.0403225 -0.1026725 0.49675 -0.35846502 -0.071455 -0.15678391 -0.079027 0.023595002 -0.21087651 -0.11661501 -0.40113002 -0.111966 -0.109863 0.21510501 -0.05331 -0.215265 0.0663935 -0.173611 -0.163117 0.407385 -0.515395 -0.439055 0.20729351 0.049401 0.30113 0.85836995 0.069714 -0.26283398 0.08791001 -0.094545 0.28611168 -0.25174 0.248565 -0.1585585 -0.146825 -0.054405004 -0.14159551 -0.012063501 0.23689151 0.2655 -0.20162301 0.291482 -0.3522645 0.061285503 -0.30594 -0.008595005 0.274605 0.17892 0.23762 0.215215 0.033883 0.546705 -0.39252502 0.059859 0.35746002 0.193834 0.55131 -0.19512 0.1402675 0.57993 -0.41583997 -0.032587 -0.39196002 -0.1545745 0.303705 0.233865 -0.0650149 -0.112838 -0.1432655 0.0276845 0.0459835 -0.068454996 -0.0074250028 0.0708829 -0.62864 0.0606715 -0.36609 -0.2868265 0.63614 -0.065289006 -0.034184992 -0.21842 0.66058 0.11313 -0.37826502 0.319335 0.035125002 -0.287305 -0.12893799 -0.085295 -0.29944 0.2477245 -0.27380002 -0.34131 -0.063760504 -0.236225 -0.028312448 0.347505 -0.1098215 0.11669 -0.1789945 -0.723635 0.167365 0.082709 -0.200185 0.28677002 -0.097675994 0.041321002 0.24483499 -0.148828 0.42478 0.321085 -0.158054 0.19824901 0.478865 -0.229105 -0.091529995 0.665805 0.25009 -0.0109849945 0.077705 -0.082828 -0.506125 0.194285 -0.13700101 -0.42898002 0.41690502 0.1196006 0.0599845 0.00956 -0.226755 0.00784 0.299605 0.1771205 -0.161734 -0.15816501 -0.13525051 0.1328285 -0.05187055 0.2712285 0.2508415 0.06853501 -0.0462925 -0.19848001 -0.172179 0.008925006 -0.0943375 0.33696002 0.234852 -0.078869 0.253164 0.843845 -0.148369 -1.348515 0.48181498 0.04019 -0.76463497 -0.042286 0.1949355 -0.19431001 -0.244366 0.27042502 -0.172136 0.56029 0.077905 -0.15814 -0.23493502 -0.216295 0.165627 -0.0397475 -0.32098 0.1543495 0.117888995 0.05679001 0.39846 -0.636625 0.26977 0.094625995 -0.244035 0.46962 -0.226055 -0.33122998 0.26136 -0.327005 0.17798 -1.97665 0.0701588 0.96907 0.17361 -0.14110251 -0.28284502 -0.06694999 0.1421335 -0.25781 -0.087601505 0.37331498 -0.402415 0.56527 -0.303455 -0.14577499 -0.0939905 -0.196468 -0.37036 0.085430846 0.464385 -0.064564995 0.36685002 0.072808 0.15560451
13 -0.68424 0.11365 0.59915 -0.0086437 -0.073828 0.18235 -0.32764 -0.027885 0.23905 -0.58206 -0.67576 -0.36087 -0.11035 0.31371 -0.19737 -0.29492 -0.00026239 -0.24713 -0.24554 -0.22856 0.0039739 0.46546 0.46632 0.20312 0.15053 0.47651 0.027995 0.32293 -0.18733 -0.17064 0.13471 0.87507 -0.62105 0.13534 -0.46267 -0.69851 0.85119 0.051789 0.53255 -0.0059473 0.36858 -0.23924 0.55178 -0.077312 -0.047109 -0.11237 0.25078 -0.01497 0.19876 -0.13862 0.21369 -0.1927 0.079315 -0.77903 -0.40255 -0.10394 0.27262 0.4083 -0.023808 -0.18308 -0.19217 -0.2084 0.35456 -0.15819 0.47879 -0.34419 0.034056 0.30662 -0.39587 0.14504 0.074408 -0.62362 -0.72078 -0.086438 0.18201 0.080602 0.26329 0.24818 -0.19555 0.17559 -0.22438 -0.41851 -0.17808 0.024456 -0.040801 -0.24202 0.10416 -0.74005 0.059183 0.27437 -0.3442 0.024433 -0.3758 -0.057521 0.64236 -0.22179 -0.074228 0.2852 -0.21123 0.16354 0.23651 -0.33213 -0.15795 0.026403 0.15945 -0.39853 0.57252 -0.53049 0.02221 -0.15279 -0.43976 -0.58357 0.44097 -0.3092 -0.35296 0.22227 0.12865 -0.04611 -0.12054 -0.19077 -0.0085934 -0.017269 0.2549 0.58715 -0.04921 0.37577 0.045461 0.18083 0.32698 0.13983 0.089288 -0.090641 0.27412 0.47006 0.054627 -0.14224 -0.37802 -0.16727 -0.036565 -0.44296 -0.50309 0.35035 -0.046321 0.5519 -0.32073 0.22815 0.44035 -0.20847 0.1942 0.61016 -0.096475 -0.309 -0.16009 0.41875 -0.052758 0.50023 -0.15023 -0.079535 0.05508 -0.25401 0.20058 -0.10542 -0.18649 0.078198 -0.15307 0.16668 0.16276 -0.38938 0.36654 0.044867 0.25398 -0.33666 -0.37777 0.8613 -0.58527 0.3416 -0.40462 0.090505 0.20473 0.87704 0.025378 -0.34996 0.17936 0.32589 0.098896 0.4434 -0.42725 -0.19384 0.20536 0.1276 0.059657 -0.24079 -0.19942 0.24148 -0.27409 0.0031861 0.0049819 -0.19178 0.048683 -0.62671 0.14396 0.31546 0.33088 0.44164 0.72563 0.13673 -0.03969 0.016188 -0.28204 0.19801 -0.849 -0.10541 -0.15152 0.20992 0.35874 0.34907 0.057671 0.26844 0.36219 0.3231 0.50298 -0.42619 0.12536 -0.35056 -0.29101 0.066112 0.56407 0.054716 -0.56738 -0.46374 -0.92409 -0.4433 -0.24861 0.69736 0.35155 0.27126 -0.20431 -0.073727 -0.26592 0.34683 -0.1024 0.17114 0.9278 0.38605 -0.69337 0.057332 0.54234 0.01432 0.27878 0.03897 -0.20423 0.60913 0.34806 -0.034436 0.61726 0.5276 -0.074406 0.47379 -0.031918 0.14555 0.0044976 -0.44324 0.16506 -0.049132 0.20578 0.20652 0.10934 -0.10855 0.08141 0.18273 -0.81582 -0.012948 -0.10534 -0.33735 0.18444 -0.499 -2.4163 0.64866 1.0294 -0.086652 -0.12457 -0.022137 0.28909 -0.12044 -0.47343 0.60354 0.65023 0.71906 0.81357 0.025642 0.18733 -0.64423 0.26798 -0.11796 -0.4253 -0.32666 -0.09582 -0.032599 -0.16299 0.048485
14 0.26495 -0.18134665 -0.28079334 0.024910001 0.08960333 0.075320005 0.12062333 0.21893299 -0.52178997 -2.2300332 -0.04177167 0.22248332 -0.021860763 0.37245265 0.3634567 -0.3096713 -0.33328333 0.13846533 0.14451668 -0.18752234 -0.07484599 0.38639998 0.5125367 -0.04653367 -0.34997332 0.4273 -0.05988234 0.11624434 -0.14372 -0.03586567 -0.16014531 0.10047 0.4287033 0.06258034 -0.9818401 -0.26385334 0.42101336 0.30565667 0.30380002 -0.150004 -0.21729533 -0.34833133 0.103256665 0.32801 0.11228333 -0.080106676 -0.54983336 0.17965333 -0.3995633 -0.05599 0.043517996 0.11743199 0.34845033 -0.08028665 0.087273665 -0.156191 0.13722266 0.43864 -0.16306 -0.281124 0.30925432 -0.39767334 -0.22902334 -0.044207335 0.04640627 0.18150334 -0.10211033 -0.280774 -0.12731117 -0.19963665 -0.27081734 0.5151333 0.14886 -0.006321341 0.20318466 0.140562 -0.09519001 -0.025857994 0.11106733 0.114852004 0.50349 -0.36861667 -0.114932336 0.067153335 0.77340335 -0.048488334 -0.056246668 0.07987333 -0.56644005 -0.15867601 -0.05797668 0.14396533 -0.54995 -0.16260368 0.08012333 0.04950334 -0.48454666 0.15280767 0.17690666 0.008466661 -0.005640767 0.34404 -0.31601664 -0.36318 0.30461 -0.08079666 -0.22841334 0.20818435 0.022335673 -0.1498 -0.050703336 -0.96103 -0.19297336 0.173227 0.3326533 0.07903001 0.48018003 -0.103502996 0.243137 -0.20960768 0.56028 -0.12155667 0.05287667 0.24264665 0.28528234 0.250451 -0.038517 -0.19517332 -0.39060333 -0.29007968 0.21288334 0.11539534 0.19579066 -0.036179 -0.41690668 -0.20436168 -0.13503002 -0.10014567 -0.214526 -0.08557866 -0.11523241 0.1656473 0.32457635 0.18074065 0.030729333 0.11579266 0.15342666 -0.32692334 -0.019072331 0.28072667 0.49663997 0.008070064 0.16790533 0.013303001 0.30721167 0.09430467 -0.32771334 0.08912333 -0.32184333 0.017444128 -0.1071108 0.42157003 -0.056476668 -0.236427 -0.268264 -0.28620866 0.24068667 -0.16975667 -0.096920006 0.74240667 -0.28993067 -0.084809 -0.60845 -0.21628 -0.304658 -0.18619567 0.20922899 -0.35015666 0.15638201 0.9104133 0.31398866 -0.17492034 -0.25283933 0.18798666 -0.03632335 0.18542534 -0.35281435 -0.17553966 -0.16009 0.07440933 0.22482334 0.16519867 -0.30082333 -0.14619 -0.05702533 0.07603 0.29218003 0.03958403 0.18452334 -0.157007 -0.012559327 0.014420666 -0.043458667 0.31808832 -0.28056666 -0.17674233 -0.0948078 0.0071023353 0.23214598 -0.42736998 0.06434 -0.056598667 0.049930993 -0.49372664 0.35816598 0.2796333 0.34033835 0.152381 0.08405 0.26681167 0.08706667 -0.12741 -0.19075733 0.09371633 0.20646334 0.22892 -0.46294332 0.25556967 0.09701333 0.17604667 -0.28465334 0.46179664 -0.07995667 0.18865667 0.11732999 0.015589997 0.23433365 -0.15274738 -0.19030686 -0.08230666 0.25228932 0.2651936 0.5254433 -0.44019333 -0.49266002 0.34380332 0.26592335 -0.53016 -0.09308667 -0.02483966 -0.05420913 0.18133332 0.31472668 0.15924667 0.13322 -0.33216333 -0.82076335 0.16628666 -0.13579333 0.14034666 0.13930131 0.06513334 -0.051233336 0.10667533 0.2648246 -0.16481534 0.074271664 0.04348667 0.087633334 -0.09439334 -0.4206933 0.53890663 -0.18103667 0.14337666 0.06371367 -0.038743332 -1.1504667 0.026325002 0.67139333 -0.42371666 -0.19678666 -0.08097201 -0.171596 -0.24423666 0.35766068 -0.232261 0.15432666 0.29765335 0.4937327 -0.32532334 0.0054966607 0.21376501 -0.35727334 -0.081810005 0.43627334 1.2038001 -0.19677 -0.37221333 -0.315212 0.03019599
15 0.047035754 -0.16635251 -0.24249774 0.0072124973 -0.022173747 0.12791249 -0.27815998 0.21312976 -0.26859 -2.1905 0.2837475 0.12946251 -0.17039251 0.18425 0.086357504 -0.36485797 0.14321424 0.027521752 -0.134545 -0.14603426 -0.2764595 0.1703195 0.56282777 -0.08097475 -0.3189775 0.5513325 0.0161025 0.09504325 -0.19531375 0.25079748 -0.18692501 -0.1381 0.323089 0.15320125 -0.97687244 -0.344945 0.3603475 -0.14808124 0.09202 0.05917787 -0.279629 0.097994 0.066874996 0.35324502 -0.14051124 0.17184499 -0.48707753 0.22094399 -0.55829 -0.045639653 0.12827499 -0.11110824 -0.27498227 -0.165468 -0.15048724 0.21464999 -0.3396925 0.44994 -0.035931736 -0.40253252 0.4191725 -0.15472475 -0.2259375 -0.25964725 0.025064498 -0.20374501 0.2497125 0.049335003 0.083403125 -0.120468244 0.075119 0.42473298 0.3602675 0.10164999 0.42443752 -0.10112475 0.30355215 -0.15148675 0.115377754 0.061914504 0.41062 -0.330365 -0.249585 0.2567351 0.316625 -0.200274 -0.095 0.014862493 -0.22106874 -0.34152502 -0.28217375 -0.158876 -0.4809775 -0.08294825 0.111674994 0.033307508 -0.43563825 0.09891375 -0.1796475 0.14123851 0.15079026 -0.10504874 0.029168254 -0.19210249 -0.26758498 0.019337747 -0.17560476 -0.17012425 0.18924525 -0.040723503 0.286552 -0.46179074 -0.2680195 0.07790649 0.48279 0.17756775 0.14896 0.21824251 -0.047655 -0.14982675 0.38079476 -0.122425 -0.095915005 -0.0074072555 -0.09859575 0.34888253 0.019889498 0.17758626 -0.1056425 -0.28958875 0.086867504 -0.057266254 0.3121825 -0.62940496 -0.11178905 -0.183956 0.0923745 -0.158565 -0.288495 -0.15616074 -0.0392688 -0.039463017 0.4174075 -0.28391752 0.345165 -0.0042057545 0.5611125 -0.1379575 -0.2536475 0.02308499 0.9476125 0.07973 0.11452175 -0.18823999 0.10935375 0.24673751 -0.45979246 0.06953425 0.03916552 -0.4417825 0.34664026 0.46846247 0.08337875 -0.17091075 -0.057118375 -0.37439924 0.25578502 -0.197655 0.04982175 0.32934004 -0.225132 -0.14016148 -0.8296924 -0.11701751 -0.2837675 -0.17960674 -0.02051925 -0.2236295 -0.1874575 0.7404175 0.14131999 -0.324765 -0.3494975 0.17035249 0.114619255 0.047485 -0.518935 -0.0418875 0.103042506 0.078575 -0.14715101 0.017744493 0.0370415 -0.1591875 0.031164747 -0.02354297 0.38745502 0.013374992 0.12441775 0.2642853 0.42039502 0.013954498 0.1315011 -0.210575 0.011680007 0.009322494 0.066831656 0.24202599 0.2842625 -0.08619501 0.29757 -0.1976175 0.3014625 -0.1531125 -0.11593025 0.11793275 0.060676247 0.20559049 -0.143123 0.17274874 0.6975375 -0.366122 -0.294285 0.22359607 0.048549503 0.31758225 -0.5060983 0.314135 0.117967494 0.281185 -0.012084752 0.08626075 0.1987555 0.3038325 0.2415705 -0.1107315 0.300806 0.15443847 -0.024415 -0.14376399 0.034832504 0.18305574 0.098278 -0.20893958 -0.03426251 0.29697827 0.13351242 -0.03742475 -0.090875 -0.23044026 0.13252676 -0.11721425 0.24555045 0.030857496 0.13853401 -0.26033998 -0.7707275 -0.23935498 -0.20943251 0.324235 -0.10846475 -0.06422475 0.0627425 0.284267 0.34781125 -0.18689752 0.011530248 0.19114012 -0.151495 -0.04697101 0.021643247 0.332165 0.007084988 0.20237301 -0.03805525 0.055902503 -1.6783249 -0.191296 0.67734253 -0.05442501 -0.0866 -0.19448125 0.083148 -0.18078873 0.4134705 -0.28842825 0.16097873 0.2293635 0.17291325 -0.22013925 0.093836755 -0.0027924925 -0.459085 -0.062869996 0.30397826 0.87374747 -0.073512495 -0.20971376 -0.42377776 0.35815
16 -0.228722 -0.0448036 0.0535305 0.016484994 0.1400005 0.38021252 -0.20890552 0.35619676 0.178606 -1.3151 -0.146143 -0.06570625 -0.40759748 0.023207754 0.15833075 -0.1543591 -0.1842 0.110663995 -0.0523105 0.089737505 -0.106785744 0.1586145 0.09837299 0.152583 -0.376904 0.14843892 -0.41682926 0.08690199 -0.121980004 -0.05967344 0.39051425 -0.15895274 0.13018751 0.123697005 -0.125413 0.00067374855 0.3495005 0.19303697 -0.2384125 0.023579247 0.1907925 -0.03989675 -0.058509994 0.18405075 -0.04298551 0.084725246 -0.09341 0.22579925 0.004268851 0.4013275 0.04971751 0.0490405 0.28980997 -0.1614825 -0.025774 -0.22800575 0.10136525 0.04398501 0.028892495 0.035618745 0.21842325 0.20151576 -0.28791654 -0.20695774 0.26082677 0.17199 0.13506001 0.3091 -0.44801003 0.5233025 -0.116363205 -0.050887745 -0.1493485 -0.121491775 -0.22401975 -0.031934023 -0.029457975 0.374879 0.11104575 -0.275115 0.04302425 -0.28514752 -0.31862754 -0.41693777 -0.05743675 -0.1480475 0.09999475 -0.051470026 0.084403075 0.23546499 -0.5279225 0.07559 0.250852 0.15500826 -0.16932102 -0.026861995 0.012095001 0.3197125 0.123335004 -0.05384876 0.0406465 0.051087994 -0.2681495 0.018879257 -0.2784325 0.26683497 -0.036967494 0.048514992 0.200786 0.12158826 -0.0133752525 -0.49738774 -0.11300675 -0.244145 -0.35658124 0.06495175 -0.1367655 -0.10557025 0.10004251 0.46415251 0.0867125 0.46966624 0.18981683 0.152525 0.2611675 0.17824498 -0.130358 0.21813275 -0.03779509 -0.3094875 -0.23675899 -0.34975374 -0.0710925 -0.0878275 -0.08755725 -0.11468001 -0.2668082 0.11978074 -0.33499575 0.117127255 -0.28956524 0.07861875 0.007442504 -0.12938926 -0.0838605 -0.013384994 0.073489994 0.10388776 -0.08362351 -0.13531151 0.2472 0.060422495 0.262255 -0.1156465 -0.0855 -0.10933351 -0.013262499 0.091814995 0.328055 -0.11641875 -0.335338 0.201003 0.010317504 0.17817125 -0.074667506 -0.29212752 0.07266324 -0.060851 -0.09972951 0.62339 -0.07684674 -0.029149994 -0.142985 0.55954003 0.018783301 0.0987836 -0.15893626 -0.188801 -0.0506325 0.1707075 0.011493243 -0.3646435 0.018292509 0.12757125 -0.19073999 0.10767099 -0.0378325 -0.24171901 0.046090007 -0.16144499 0.2205225 0.013530016 -0.2846225 0.0133715 0.24807999 0.01554575 0.16843176 0.43156752 -0.26200098 0.170632 -0.1128165 -0.012893245 -0.42961 -0.01658125 0.0558525 -0.093705244 -0.49296498 -0.05641025 0.5296425 0.072740495 -0.09317249 0.243767 0.27904925 -0.27195498 0.043490008 -0.11707749 0.091747746 0.5062 0.41888076 0.40162903 -0.09488249 -0.51632726 0.4147775 -0.24451852 0.2730375 -0.025020495 0.037925243 0.1971797 -0.369725 -0.16274226 -0.16123948 0.180156 -0.15896176 0.088744 -0.05968476 -0.026060004 -0.034699447 -0.256253 0.15719801 -0.0034550037 0.19786999 0.046609886 0.69662 -0.22477199 -0.890185 -0.0291605 -0.097051755 0.24451526 0.04023175 0.045601003 0.004685998 0.09935026 0.06870825 -0.46438253 -0.1746285 -0.035375006 -0.23786101 -0.16333824 -0.34542155 0.52882 0.13524075 0.1339825 0.36098433 0.04266875 -0.08199251 -0.45628 -0.006208496 0.06085925 0.182498 0.1264525 -0.114963 0.2649815 -0.054144748 0.3214415 -0.1081875 0.26307648 -1.4905674 0.2868625 0.51898754 -0.19954626 -0.055647492 0.024844352 -0.16412999 0.093989 -0.07651975 0.051619504 0.037120253 0.10134249 0.49972248 -0.023685 0.098685004 -0.251608 -0.1605275 -0.26830727 -0.2604225 0.6376325 -0.262225 0.07797875 0.137813 -0.023645002
17 0.094859995 0.013773332 0.21728666 -0.029230999 0.11076001 -0.30942932 -0.20027667 0.14905001 0.04807633 -2.2893999 -0.23965 0.15288667 0.24264999 0.32296333 0.043217 0.25639334 0.20458035 -0.0072506764 0.21258335 -0.017053664 0.050776664 -0.02573667 0.60981995 -0.09503432 -0.34756336 0.15354334 -0.098942004 0.163853 0.082619995 0.21719666 0.06582 -0.13758367 0.14773364 0.112573 -0.40394333 0.08739 0.21586333 0.113313325 -0.17569368 0.14332333 -0.08582336 0.06399 -0.053640332 -0.0034666758 0.08208334 -0.27943265 -0.18520641 0.22623502 -0.10716667 0.35218334 -0.15806998 -0.0044386685 0.23581332 -0.02052333 -0.007010599 -0.108386 0.11374334 0.26096 -0.011950001 -0.13656433 0.04989334 0.09784 -0.40279496 -0.03940734 -0.05693833 -0.29462668 0.18280761 0.024123332 0.07492999 0.21325333 0.023853667 0.24720265 0.008234665 0.23406899 0.16422401 -0.17870133 0.063028 0.44335333 0.09530583 0.01117 0.081978 -0.33718666 0.027439997 0.08934667 0.3621637 -0.14508666 0.04423067 0.09378777 -0.15906933 0.121945344 -0.24509 -0.010053337 -0.008123663 0.18490165 0.05620977 -0.25347635 -0.2519333 0.32289335 -0.0533186 0.10473901 0.05701666 0.087220006 -0.099693336 -0.31990665 -0.11112567 -0.08524301 -0.103085004 0.059297998 0.33055067 0.43513998 -0.14981833 -0.63592 -0.20426667 -0.24277334 0.35899332 0.16191566 -0.02462147 -0.16402 -0.09628666 -0.35127 0.06249832 -0.01624766 0.044873327 0.06222333 0.098191 -0.18731934 0.19083722 -0.014350668 -0.029109666 0.31309566 0.023630003 0.25057167 0.054708336 -0.47109032 0.12141564 0.021822661 -0.11400333 -0.105731666 0.1510607 -0.07719234 -0.138493 0.255077 -0.043533325 0.06628233 -0.42528334 0.03880333 0.117638 0.20117332 -0.022682667 0.240021 0.6708267 0.019061008 0.18609066 -0.17181599 0.1897933 0.118826665 5.7334702e-05 -0.021716664 0.20673133 0.046724338 -0.030739993 0.10471767 0.12054499 0.18896599 -0.29094666 -0.03687 0.25524068 -0.09898367 -0.1445368 0.22530998 -0.038847663 -0.022798665 -0.69967365 0.0045313365 -0.23042566 0.22652334 0.048313335 -0.25255665 -0.09979 0.33451533 -0.017201664 0.44993338 -0.073605 0.24286 0.0112419985 0.17399633 0.008242667 0.19306733 0.030220002 -0.47534665 -0.08924667 -0.023229012 0.065092005 0.068351 0.19941 0.5144333 0.13140799 0.14988066 0.053767335 -0.13239999 0.5831533 -0.037949663 0.049962327 0.044845328 -0.108210295 -0.21450333 0.045667995 0.064493336 0.49426666 -0.14309435 0.07646667 -0.07865933 0.132303 0.2578633 0.038613334 0.246403 -0.023284333 0.16600366 0.307662 0.55990666 0.13091633 -0.14068267 -0.17504667 -0.01651001 0.0064019994 -0.23209667 0.16999668 -0.1370561 0.13673334 -0.14403 0.16985446 0.070912994 0.40984336 0.25867 -0.27366865 -0.152304 0.14617334 -0.17949001 -0.17025332 -0.006822 -0.19568335 -0.004900001 0.51645666 -0.15550332 -0.44370332 0.17815334 0.073483326 -0.20445998 0.021310998 0.21730101 -0.13481234 0.009339988 -0.059528667 0.061246667 0.5578367 -0.09877033 -0.172592 0.08272334 -0.24531366 0.13592 0.009862337 -0.13 -0.20023668 0.010691998 0.30947533 0.092312336 -0.020136675 0.17477034 -0.056588665 0.05944933 0.14553666 0.31803334 -0.035361007 -0.060381997 0.22335668 0.23243666 -1.7604332 0.14074199 0.96994334 -0.23472469 -0.005365959 -0.24360664 0.015176997 -0.105002336 0.48008665 -0.08481567 -0.08694366 0.37004998 0.25741667 -0.11271134 -0.013564996 0.13754667 0.014455999 -0.08780333 0.34076667 0.88794 -0.122251995 -0.42755 -0.386 0.18824065
18 -0.12675 0.097588 0.024441 0.58839 0.15702 0.22347 0.072646 -0.079123 -0.16317 -2.1278 0.10263 -0.31551 -0.26848 0.41369 -0.046356 0.45516 0.25288 0.033974 0.13483 -0.33914 -0.098029 0.095802 -0.054047 0.3268 -0.25628 0.5113 -0.041814 0.053912 0.022851 -0.35711 0.30817 0.6091 -0.012757 -0.063379 -0.74174 0.20061 -0.18646 0.077313 0.081405 -0.85644 0.069541 -0.82872 0.25978 0.29015 -0.43316 -0.10492 -0.4336 0.012446 -0.40941 -0.16639 -0.21518 0.40238 -0.026306 -0.002978 0.24311 -0.065038 0.53769 0.50769 -0.0085818 0.19178 0.31536 -0.026048 0.26944 0.049644 -0.13655 -0.50489 -0.078748 -0.12039 -0.18975 -0.27605 -0.49282 -0.031374 0.29433 -0.59042 0.41943 -0.11982 -0.46373 -0.036346 -0.039207 0.26006 0.073545 -0.29071 0.30289 0.34559 0.068833 -0.23641 -0.048775 -0.089592 -0.3677 -0.60441 -0.30123 0.12419 -0.34769 0.43088 0.33611 0.083298 0.11201 0.027577 -0.017371 -0.22614 0.50906 -0.25653 -0.11084 -0.26178 0.26387 -0.29472 -0.019474 0.061951 -0.29314 0.083392 -0.084716 -0.3785 -0.56759 -0.13139 0.57295 -0.099015 0.20769 0.085624 0.20269 0.18399 -0.2914 0.54452 0.10055 0.28297 0.093059 0.049726 0.023905 0.024881 -0.22967 0.31044 0.58825 -0.32457 0.16671 0.19588 -0.053239 -0.84108 -0.57018 -0.14157 0.0182 0.44474 0.14245 -0.059209 0.33094 0.50983 -0.24404 0.14473 0.30821 0.028757 0.14716 0.2591 0.69048 -0.68877 0.56056 0.29884 -0.61629 -0.0026465 -0.18656 -0.60684 0.20008 -0.33112 0.32864 -0.029046 0.29885 -0.43899 -0.1213 -0.41261 -0.19333 -0.21549 0.010039 0.53063 -0.43665 0.40024 -0.5513 0.70777 -0.021431 -0.28351 0.30698 -0.55052 0.12439 0.25709 -0.35548 0.13331 0.089927 -0.16462 -0.72015 -0.12404 -0.31812 -0.70075 0.023253 -0.1666 0.18772 0.3004 -0.41922 -0.090363 -0.39339 0.60048 0.68939 0.16486 0.22645 0.96954 -0.20712 0.60904 0.032094 -0.0028826 -0.90993 0.37545 -0.12201 -0.34071 0.55131 0.26587 -0.056076 -0.64571 -0.32522 -0.55998 0.8731 0.1737 0.35162 0.031491 1.0154 0.19811 0.13338 -0.056668 -0.12998 -0.016976 0.46712 0.14723 -0.36209 0.0089157 0.19687 0.57084 0.37441 0.63557 0.58124 -0.18312 0.0005946 -0.14006 0.049755 0.25913 -0.088637 0.43825 0.070023 -0.054169 1.2845 -0.38824 -1.0278 0.34208 0.22392 -0.62139 0.27271 0.78743 0.18889 0.28335 0.26116 0.33905 0.62014 -0.057902 -0.32772 -0.16917 -0.36186 0.32054 0.15009 -0.80359 0.52609 -0.21701 -0.090753 0.35635 -0.23805 0.16417 -0.3826 0.18918 -0.25168 0.28175 -0.21239 -0.33632 0.023988 -0.15469 -2.1915 0.66607 0.6445 -0.13256 0.22 -0.4513 0.097398 0.40333 0.17868 0.26758 -0.14664 0.049903 -0.20749 0.04324 0.209 -0.034103 0.11057 -0.69345 -0.021538 -0.027986 -0.042978 -0.64101 -0.23461 -0.18814
19 -0.0063099936 -0.33964667 -0.19882333 -0.18905331 0.25538966 -0.021796336 -0.09927666 0.114798 -0.16488 -1.6455334 -0.17974733 -0.25444233 0.07030666 0.29483 0.41362667 0.12534836 -0.04968633 -0.07132707 0.10556666 -0.06321553 -0.37975335 0.40202 0.20602332 0.28669333 -0.06621974 0.17701232 0.069288 0.09738199 -0.31354666 0.241593 0.31927666 0.27043 -0.248242 0.5145033 -0.33357334 0.3063133 -0.060976658 0.13656999 0.219285 -0.17081332 -0.21916366 -0.04213667 0.051466662 0.15898168 0.15184332 -0.13183333 -0.3187267 0.20919967 -0.0012499988 0.16213934 -0.27462435 0.034367334 0.05118567 -0.02182 -0.05580334 -0.10093632 0.22905 0.32204333 -0.015182994 -0.11661133 -0.039441008 -0.21994334 0.13412333 -0.13605 0.25601733 0.29279003 0.21168934 0.20151334 -0.030482665 -0.094733 -0.18324201 -0.34458336 -0.072061 0.008716673 -0.082598664 0.0007783367 0.058719993 0.14843532 0.08604965 0.12785967 0.083195336 -0.2573423 0.033075668 -0.071743004 0.25719666 -0.35779667 0.07283533 -0.18057267 0.008649334 -0.27339664 -0.106970005 -0.016723337 -0.31029966 0.00271334 0.35397336 -0.19540162 0.22635168 0.26618668 -0.012319674 -0.09160999 -0.17602001 -0.25081834 -0.42030334 -0.362317 0.23399667 -0.005633332 0.23712534 -0.059581 -0.038126666 -0.23208 -0.17857333 -0.9168933 0.008763666 -0.03779334 -0.005493333 0.043876942 0.31814334 0.09010168 -0.2505 0.18958335 0.30693066 0.08145333 0.24762666 0.251417 0.03233333 -0.0006733338 -0.050956663 -0.073371336 -0.023993338 -0.09697533 0.14933999 -0.14475334 0.40432367 -0.06470334 -0.13681833 -0.093026996 -0.45327964 -0.2801267 -0.27682665 0.09058666 0.16017087 0.060833335 0.42881998 0.13734724 -0.07849 0.0050226673 0.13390668 -0.10783333 -0.40330136 0.14047132 0.36535665 -0.17284666 -0.16107367 0.27584 -0.02954333 0.036006674 -0.048358005 0.1425871 -0.26291332 0.18935132 0.17263734 0.32715666 -0.22402 -0.31605 -0.27666 -0.5982933 0.072403334 -0.14359333 -0.26373333 0.43840432 0.39567003 -0.15485632 -0.50229996 0.08293 -0.05351667 0.033105 -0.45593667 -0.40085664 -0.031303346 0.40947667 -0.23643132 -0.13772334 0.19788499 -0.18921266 0.027613 -0.0028033305 -0.32985333 -0.107506 -0.25672665 0.36660865 0.32455364 0.31204665 -0.18065767 -0.055882197 -0.42300665 0.30566666 0.111889996 -0.07864333 0.45864066 -0.318812 0.05986333 -0.18013132 0.188523 0.018830335 0.08101333 0.06959233 -0.024837434 0.013546333 0.03566566 0.54427665 -0.12596333 0.11304333 -0.22819997 -0.5466833 0.14866 0.35842 -0.32356334 0.330706 0.18435 0.14490233 0.3020157 -0.6287467 -0.35945812 0.05407667 0.21420066 -0.25187302 -0.126994 0.09867134 -0.13430767 0.34045434 0.115136735 0.27449667 -0.29495668 0.0285635 0.14423233 0.18076901 -0.001534 0.029232336 0.021580001 0.17631932 0.40378603 0.31557667 0.44490662 0.06233533 -1.0064467 0.34792998 0.13705666 -0.29103336 -0.258981 0.12226701 0.13729367 0.5378967 0.37330332 0.050497334 0.37398335 -0.23350334 -0.20207667 0.0808 -0.20212801 -0.0088 -0.22343667 0.16757368 0.279981 -0.086575896 -0.12465467 -0.3545756 0.050505996 0.4964367 0.21427399 0.21266367 -0.32416266 0.20498733 -0.18471734 -0.08015666 0.28064334 -0.2597 -1.8885332 0.93695 0.8406334 -0.030413339 -0.40183663 -0.32779002 -0.06650167 0.19660334 -0.19404525 0.35379267 0.152791 0.2821353 0.29390332 -0.340647 -0.36739 -0.63193333 -0.20073335 0.12408366 0.30147 0.81992674 0.0198788 0.024664 -0.26636332 -0.035760004
20 0.46825 -0.55791 -0.21694 0.36852 0.30092 -0.073815 0.39292 0.11097 -0.47911 -1.4872 -0.011408 0.31061 -0.23085 -0.0053886 -0.0076126 -0.17596 0.41157 0.12964 0.00030021 0.51424 -0.11738 0.16086 0.32933 -0.13945 -0.27975 1.0758 0.34122 0.34501 -0.39563 -0.25963 -0.18574 0.71166 -0.60397 0.19887 -0.70533 -0.61843 0.25505 -0.29709 -0.49259 -0.16674 0.15768 -0.44266 1.2768 -0.051522 -0.72223 -0.12049 -1.3611 0.070742 -0.51713 0.076407 -0.62929 -0.18327 -0.028035 0.23454 0.1025 -0.085464 -0.26259 -0.38159 -0.055665 -0.35684 0.59932 -0.26529 0.054769 0.14277 -0.026321 -0.5836 -0.46509 0.54682 0.57971 -0.088512 -0.42356 -0.47374 0.076958 -0.093198 0.43934 0.23574 0.026266 -0.087221 0.057707 0.12087 -0.16379 -0.067555 0.17401 0.51164 -0.0010303 -0.57396 -0.52381 -0.6062 -0.46194 0.069325 -0.71327 -0.12847 -0.35479 -0.011785 -0.27856 -0.40308 -0.53646 0.035242 -0.17038 -0.26048 0.0054961 -0.30583 -0.074808 -0.59904 -0.46618 -0.26913 -0.46729 0.35334 0.10456 0.27835 0.099602 -0.35834 0.3509 -0.070011 0.033351 -0.17721 -0.065726 0.11158 -0.7324 -0.1744 0.61891 -0.033927 -0.52072 -0.34653 0.24474 0.0060709 0.33407 -0.53069 0.12252 0.0025757 0.50608 -0.15952 0.20796 -0.12703 0.59821 -0.027963 0.35141 -0.46459 0.062243 -0.72144 0.23751 -0.18543 -0.58268 0.75007 -0.27185 -0.43476 0.28283 -0.041011 0.052542 0.62098 0.8476 0.067201 0.68928 -0.25081 -0.45035 0.27566 -0.45866 -0.25814 -0.026141 -0.15645 0.3402 0.31218 0.22949 0.034554 0.30329 0.056399 -0.43981 -0.14592 -0.054905 0.28134 0.4233 0.049197 -0.25952 -0.56587 0.031053 -0.18322 -0.29799 -0.47165 -0.21548 0.02733 0.061592 -0.44898 0.10588 0.11624 0.3488 -0.62663 0.059408 0.32991 -0.0022576 0.28104 -0.22059 -0.047712 -0.22309 0.55114 0.60464 0.22699 0.17173 -0.054808 -0.0031661 0.02127 -0.4668 0.66597 -0.24367 0.41668 0.40245 0.32754 0.10994 -0.015927 0.066472 0.38858 0.31508 0.0061121 0.042294 0.74703 -0.21334 -0.18188 -0.78082 0.87425 0.18505 0.63635 0.36912 0.11788 0.27467 -0.55037 -0.041381 -0.10738 0.48866 -0.3376 -0.0055222 0.1993 0.46088 0.19718 0.2207 0.094329 -0.42687 -0.11047 0.11806 0.05508 0.67148 0.20369 -0.59048 0.45074 0.70346 -0.080994 -0.32865 -0.0097216 0.46591 0.011039 0.23647 0.10618 -0.40463 -0.47677 0.20297 0.95125 0.40953 -0.40741 0.70288 -0.071683 -1.2386 0.46958 -0.64715 -0.045495 0.63232 0.12283 -0.12542 -0.19722 0.41021 0.16603 -0.81618 -0.40883 -0.12687 -0.1906 0.02276 0.18347 -0.32201 0.069322 -1.5981 1.0112 1.2236 0.5612 -0.34065 -0.6913 -0.0052698 0.46949 -0.077427 -0.33128 0.19593 0.61622 -0.41627 -0.14208 0.46285 0.30832 -0.18287 0.422 0.10271 0.20729 0.096571 -0.14283 -0.19467 0.65261
21 0.006765008 -0.313635 0.0057905 -0.051369995 0.11595 -0.22238499 -0.629605 0.361305 -0.22005 -2.04065 0.52872 0.431585 0.017360002 -0.075985 0.14722499 -0.159905 0.38031 0.1121345 -0.079119995 -0.19056 -0.204375 0.02231501 0.3508605 -0.17722 -0.41271502 0.723445 0.069905 0.234835 -0.207664 -0.023944989 0.010583498 -0.376215 0.280798 0.278095 -0.829275 -0.243505 0.33377498 -0.0829975 -0.020434998 0.059554998 -0.123959996 -0.22931 0.40618 0.10046001 -0.108224005 0.42296 -0.52255 -0.075876996 -0.35518 0.28996 -0.22788501 0.16312 -0.21423501 -0.151939 -0.1449275 0.15229 -0.073717 0.2964 0.1089065 -0.6093 0.45556998 -0.04124 -0.052075006 0.012999997 -0.22106099 -0.45668 0.22247499 0.2080055 0.17428601 -0.37818497 0.03953001 0.23431501 0.47662503 -0.24592751 0.26041502 0.092495 0.432795 0.062168498 0.369515 0.1063505 0.270395 0.073935 -0.408455 0.241505 0.08257501 -0.354265 0.085806504 0.124746 -0.0425825 -0.38224998 -0.681335 -0.242865 -0.461385 0.0584485 -0.1278945 -0.23586002 0.0565985 0.1388875 -0.39998 0.273502 0.28473002 -0.46287 0.03708 -0.377735 -0.259963 -0.0715285 0.0472885 -0.1454955 0.17914 0.204075 0.406655 -0.194275 -0.047435 -0.112147 0.345895 0.166333 -0.083409 0.09540351 -0.31189498 0.039174996 -0.0193705 0.27309102 0.160265 -0.0692695 -0.102433 0.025183 -0.15199201 0.14146 -0.21320501 -0.050021 0.24384502 -0.4485 0.200965 -0.68654 -0.06362 -0.35904998 0.062375 -0.3509 -0.591735 0.23074499 -0.04113 0.589255 0.70796 -0.45881498 0.423097 -0.036518 0.470535 0.15166 -0.42360502 0.0876175 1.5562501 0.41902 0.22696999 -0.26832998 0.164519 0.2656629 -0.24520999 0.14841351 0.2135275 -0.131648 0.342457 0.12828 -0.1030425 -0.25885502 -0.12039275 -0.30691 -0.032920003 -0.154115 -0.11141901 0.145825 -0.0123845 0.13139349 -1.002915 0.132335 -0.24581501 0.029992001 -0.22635 -0.40987998 -0.53574 0.41374 -0.291235 -0.16055502 0.26593947 0.281975 -0.097796 0.103055 -0.606145 0.114296496 -0.31884 -0.26523 0.128858 -0.26559502 0.165016 -0.2069625 -0.2522215 0.20619501 0.617115 0.144035 -0.010864995 0.38534498 0.4626275 0.17711851 0.33598498 -0.35582498 0.035495 0.301085 0.1372785 0.02109 0.17163 -0.43656498 0.30741 0.30111 0.145835 0.054413002 0.049140003 -0.0076950043 -0.29993498 0.081980005 0.0153399855 0.34436 0.5167065 -0.511415 -0.13828501 0.266715 0.101543 -0.03672 -0.52137953 0.295555 -0.16898999 0.041965 0.098914996 0.060380496 0.196271 -0.14156002 0.123661004 0.04461 0.105392 0.0964795 -0.0027215015 -0.02053 -0.1132855 0.2272765 0.22413 -0.38035002 -0.14678001 0.5252265 -0.20570001 -0.0737185 -0.16459002 0.150934 0.33001602 0.40711498 0.29944092 -0.2100265 0.154958 -0.450585 -0.37268 -0.71158 -0.11150999 0.44052 -0.2627115 0.0666705 0.04217 0.242799 0.2643175 -0.31777 0.136758 0.014929 0.26005 0.22354001 0.037485003 0.470335 -0.0046800002 0.13836 0.13324049 -0.16743599 -1.5157051 0.24658 0.79017997 0.0038599968 -0.11472499 -0.324085 0.15417501 -0.20583245 0.37228 -0.48753 0.137824 0.358525 0.36882 -0.2397955 -0.08948499 -0.254105 -0.271088 -0.42969 0.45322 0.61759496 0.32506502 0.133865 -0.280441 0.27356
22 -0.17966 0.08751435 -0.023275003 0.2662 -0.166814 -0.44322735 -0.015988503 0.13192901 -0.45246 -1.6275 -0.55933 -0.011970013 0.253335 0.0133764995 0.126569 -0.362445 0.50988996 -0.0813385 -0.1732195 0.31106 -0.3394 0.2976035 0.686315 0.1364005 -0.1199925 0.099511996 0.25562 -0.351415 -0.0452125 0.40547 -0.25241 0.24758999 0.14511 -0.018032001 -1.11947 0.20328501 0.22825001 -0.181995 0.61531997 -0.56519496 0.39867002 -0.0792935 0.389125 -0.0724295 -0.841565 -0.479155 -0.74337 0.360295 0.00457805 -0.34117502 0.1919138 -0.056935504 -0.115045 0.45276 0.15128249 -0.60586 0.010420002 -0.466905 -0.07362 0.201315 0.074305 -0.49571 -0.25604 0.0011079982 -0.52128 -0.671915 0.056043 -0.099319994 0.237616 0.45994997 -0.280435 -0.33722502 0.123365 -0.14571649 -0.016409993 -0.14306 -0.336995 -0.101600006 0.4345 0.054473497 -0.107714 -0.44211 -0.002489999 0.10345999 0.23196 -0.13401899 -0.123510495 -0.254785 -0.30232 0.1363965 0.0479735 -0.1278605 -0.48158997 -0.194666 -0.123579495 -0.024609998 0.043254994 -0.1315265 0.079732 -0.049140003 0.036179997 -0.563685 -0.401415 -0.43195498 -0.1022685 0.018505 0.009829998 -0.09726749 0.1297515 -0.23684001 0.153475 -0.44109 -0.079335 -0.25415 -0.118768 0.13678801 0.77850497 0.43182498 -0.22831349 -0.15105 0.3232445 0.264715 0.041399993 0.294025 0.47526503 0.3014585 0.24371001 -0.108835 -0.2525415 0.009791 -0.0463215 0.1299471 0.17666501 -0.26417 -0.21125501 0.17252001 -0.341845 0.23036 0.22337 0.35142 -0.017499998 0.1982595 -0.15186849 0.013184994 0.0133868 0.0041610003 0.1019035 0.0903905 0.44896 -0.32164 0.65023 -0.041814998 0.176435 0.37762502 -0.1127235 -0.36137998 -0.534175 0.296955 0.17920999 -0.31263 0.1371425 0.2567755 -0.34491 -0.009710003 0.11642501 -0.22826 -0.34876502 -0.09827 -0.007730499 0.889855 -0.315595 0.177415 -1.03743 0.0514135 0.29658002 -0.21044 -0.228117 -0.10621 -0.44582498 0.83243 0.47714 0.13582751 -0.12409949 -0.274854 0.44389 -0.238825 -0.0551385 -0.05984 -0.0009749979 0.1293935 -0.10528301 0.534895 -0.2227465 -0.019077 -0.345155 -0.035010003 0.078619994 -0.18090001 -0.0888635 -0.10456501 -0.34083 0.138072 0.011914499 -0.11014 -0.0472195 0.42864 0.0622435 -0.15578449 0.27198502 -0.1289505 -0.37596 -0.07216801 0.04795895 -0.52891004 -0.1437065 0.2144445 -0.192664 0.83048 0.235205 -0.305425 0.376865 0.173615 -0.106794 0.030443002 -0.016629498 -0.112545006 0.1603895 -0.1054635 0.34792 0.190985 0.20807499 -0.124184996 0.2281735 -0.058810003 -0.41921502 0.26201 0.373605 0.1237857 -0.053307503 0.10626 0.341765 0.15752 0.57843 -0.18570551 -0.49309 0.2707 0.483565 -0.39912027 0.016795 -0.21715 -0.446885 0.09678999 0.3787855 0.2202675 0.2565015 -0.12094401 -0.488095 0.0048400015 -0.16916502 0.63747 -0.280517 -0.37943023 0.7631 0.28387 -0.1487955 0.1284375 -0.168379 0.189455 -0.31981498 -0.41224 -0.585385 0.50585 0.200625 0.2008385 0.096511506 -0.289285 -1.1781 0.72354 0.82891 0.285495 -0.19458002 -0.382285 -0.191732 0.1381105 0.20467 -0.336595 0.50598997 0.584815 -0.31709 -0.0410475 -0.074292004 -0.0700275 0.129365 0.093976006 -0.015859999 0.782745 -0.4699 -0.360815 -0.143207 0.248555
23 -0.18463 0.11656 -0.32977 0.56327 0.04476 0.1521 0.42945 0.45648 0.12148 -1.7103 0.039626 0.41826 -0.0044656 -0.02618 -0.29989 0.73766 -0.103 -0.14104 -0.089106 0.1824 0.22395 0.20887 0.37213 0.41232 -0.64664 0.97441 -0.22956 0.072517 -0.036904 -0.54672 0.17471 0.5123 0.0042781 0.62738 -0.92557 -0.30508 0.39001 -0.1386 0.016032 -0.08789 0.50747 -0.055548 0.055825 0.45024 -0.40004 -0.23166 -0.35934 0.68305 -0.27881 -0.054456 -0.28458 -0.12331 0.15379 0.32381 0.43156 -0.35304 -0.12945 -0.50057 0.019027 -0.13331 0.59696 0.38475 0.041097 0.38861 -0.72401 -0.56593 -0.24894 0.042243 0.30436 -0.19468 0.11176 -0.23354 -0.2804 0.10439 0.46366 0.46504 -0.089147 0.58401 -0.0059561 0.25037 0.55776 -0.4556 -0.030425 0.43393 0.38622 -0.087805 0.29654 0.022039 -0.20968 0.14393 -0.78985 0.071899 -0.095604 0.31748 -0.50601 0.048581 -0.30923 0.12881 -0.061849 -0.02437 0.29237 0.14342 -0.10485 0.18105 -0.55718 0.36356 0.11343 0.41834 0.038676 -0.1925 0.33632 -0.52422 -0.27657 -0.18236 0.49169 0.059331 0.18446 -0.15302 -0.10524 -0.24888 0.48553 0.9035 0.011222 -0.60599 -0.28312 -0.26414 0.36455 -0.015068 0.040926 0.5271 0.20285 -0.031995 0.19328 -0.40718 0.39883 -0.12561 0.2458 0.02291 -0.18029 -0.028098 0.47825 0.50192 -0.2567 -0.040283 -0.31268 -0.69137 0.050252 -0.10317 0.45517 0.43816 1.0579 -0.011088 0.10686 0.053845 -0.037847 0.1701 -0.15312 -0.50114 0.21957 -0.13995 0.44227 0.18679 -0.043893 0.2539 -0.54378 -0.51703 0.35069 -0.0027322 -0.17432 0.57607 0.63553 -0.11235 -0.43529 0.53673 -0.40491 -0.20113 0.20946 -0.13411 -0.0097987 0.030565 0.44126 0.30606 -0.46921 -0.12414 0.1139 0.049624 -0.84241 -0.13632 0.31509 -0.071807 -0.10454 -0.66142 -0.47229 0.22206 0.42722 -0.32445 -0.45254 -0.29089 -0.42493 -0.55975 0.093747 0.83916 0.009549 -0.34177 -0.23512 -0.38901 0.047051 0.17003 0.21131 -0.26366 0.12599 -0.15952 0.43222 0.20605 -0.21349 0.38384 -0.22398 0.58202 -0.24538 -0.12851 -0.32661 0.28392 0.17538 0.24489 -0.46767 0.063132 0.27161 -0.21616 0.23295 0.33684 0.38717 0.11193 0.51119 0.1658 -0.70377 -0.16341 0.02506 -0.38535 -0.20163 -0.17749 -0.11532 0.17905 0.869 -0.14315 -0.72176 0.62647 -0.48819 -0.029377 0.017405 -0.24554 -0.22948 -0.32002 -0.0073136 -0.18418 0.45828 0.0048512 -0.27306 0.054841 0.68222 0.22943 -0.30002 -0.28865 0.17085 0.098155 -0.054678 0.17312 -0.46647 0.016841 -0.55787 -0.1205 -0.18163 -0.050437 -0.22712 0.48709 -0.22706 -0.016891 -2.3394 0.18111 1.0619 1.0838 0.1348 -0.58733 -0.19385 -0.238 0.10982 0.15669 -0.029953 0.31542 0.38002 0.26167 0.31634 -0.15496 0.24229 0.021682 0.24722 -0.17594 0.24267 -0.60973 0.058381 0.83062
24 -0.3958725 0.0639105 0.115454994 -0.059379995 -0.096351504 0.3191182 -0.44002998 0.270185 0.38247 -0.6035685 0.21954499 0.26410633 -0.0650875 0.049592 0.17351499 -0.1227645 0.280162 0.0815355 -0.0318075 0.24656999 -0.44476002 -0.014319 0.41105002 0.201166 -0.39227498 -0.298285 -0.110980004 0.038095325 -0.443627 0.146 -0.086575 0.53101 -0.38703 -0.25276 -0.57265 -0.30009001 0.105330005 -0.41072 0.024934992 0.1105095 -0.014050007 -0.504945 0.376245 0.0259525 0.1248855 -0.1241025 -0.051379498 0.184355 0.018490002 0.150645 0.096349 -0.112028494 0.1245765 0.1401695 -0.42841 -0.1458 0.183715 -0.21196999 0.39306 0.341861 -0.1824005 0.0463145 0.616065 0.178336 0.0500265 -0.166802 0.0493095 0.45931 0.41109496 -0.363495 -0.254255 -0.17357449 -0.17765999 0.27469 -0.44586998 0.17655401 -0.038695 0.55913997 -0.134095 -0.00033500046 -0.17655501 -0.12814501 -0.1197975 -0.174175 -0.245155 -0.198235 0.053859003 -0.14395699 0.094211996 -0.101027995 -0.29347 -0.410275 0.303925 0.21309501 0.164348 -0.287468 -0.064395 -0.21104 -0.23118 0.17091501 0.089876994 -0.1763132 0.19723 -0.383515 -0.02710435 0.35276502 0.11555 -0.27092502 -0.0440205 0.23505421 0.2898 0.012309499 0.043875 -0.46855 0.397715 0.146353 0.0053384 -0.089378 0.054155007 0.255693 -0.42754 -0.09729 -0.36855 0.31479248 -0.077533 0.455265 0.057373997 0.310805 0.46349502 0.08038001 -0.374825 -0.145405 0.365325 -0.21817 -0.17517 0.1220045 -0.15847 -0.1191355 0.0826415 0.2138025 0.22428 -0.23514 0.12514271 0.11687 -0.27028748 0.44252998 -0.21636 -0.37629 -0.46941 0.16345501 0.356485 -0.41150498 0.115345 0.030931002 -0.10090914 0.117138 -0.693075 -0.21807 0.228435 -0.45008498 0.052458502 -0.161819 0.25471 0.17495501 -0.206945 0.16239999 0.29868 -0.163605 0.109680995 -0.433005 0.17563 -0.304465 -0.60146 0.42754498 0.0514915 -0.022984996 -0.36289784 -0.06533 0.10304775 1.0399101 -0.091935 0.29412502 0.00096999854 -0.1132935 0.02274999 -0.028009996 -0.080712005 0.17582 0.36119 0.2261135 -0.102223 -0.0066635013 0.2951115 0.029143002 0.027469002 -0.172379 0.33451998 -0.312375 -0.130065 0.013480999 0.883355 0.064403 -0.284575 0.414335 -0.09181 -0.021104991 0.118888505 0.30354452 -0.203615 0.152805 -0.31306 0.020392 -0.0583275 0.18578002 0.429725 0.421895 0.070986 0.270085 0.029919002 0.052789997 0.22241801 -0.33254 -0.0213715 -0.35009497 -0.022287 0.082890004 0.41172498 0.40555 0.1525305 -0.090505004 -0.209985 0.40063 0.040780008 0.702765 -0.61639 -0.21860999 -0.1762645 -0.0068150014 -0.04882415 0.029786497 -0.467565 0.40889 0.570309 0.211855 -0.32992 -0.46030587 -0.28667 -0.094451 0.19229001 0.055397 0.0360905 -0.105440006 0.079708 0.19153002 0.45356 0.049014 0.294655 0.169897 -0.1067715 -0.122612 0.011476001 -0.019660499 -0.024936497 0.15558201 -0.08897801 -0.15726501 0.211195 -0.20682749 -0.094385505 0.310945 -0.2220575 -0.177905 0.064982496 0.11078 -0.119215 0.096848495 -2.0942001 0.47447002 0.42156 0.039483 -0.16163999 -0.045839995 0.27067 0.078030005 -0.37366602 0.1150945 -0.093393 0.14023 0.32815498 0.236433 0.504875 -0.404675 -0.082679 -0.039976 -0.18915 -0.024975002 -0.077115506 -0.180345 -0.346365 -0.18372001
25 -0.184535 -0.11325 -0.363185 0.48167002 0.1870125 0.18504 0.350545 0.08147025 -0.1392395 -1.7518001 -0.18349345 0.24103999 -0.0133094005 -0.013466001 -0.1568795 0.422548 0.038436 -0.00037499517 0.110860996 -0.091900006 0.066112 0.20539501 0.34085 0.54939497 -0.103585005 0.188733 -0.17585701 0.0852525 0.108896 -0.35617 0.06903501 0.456075 0.120971 0.0296295 -0.8028 0.267873 0.257843 -0.05185955 -0.118292995 -0.40452498 0.008845009 0.040308505 0.07343001 0.105355 -0.089033 -0.14657 -0.34843504 0.437195 -0.058296002 -0.073525 -0.334165 0.181808 -0.13151601 0.182025 0.3025 -0.35296512 -0.270135 0.402615 -0.024275005 0.009584 0.19331601 -0.18201001 -0.448565 0.08190501 0.07445501 -0.13841 0.083475 -0.10632 0.018335 -0.051078998 -0.40844 0.234226 -0.26038 -0.0204499 0.40390998 0.19622235 -0.44742802 0.328385 -0.20650999 0.117479995 0.528245 -0.15191 0.07575 -0.089292 0.60636497 -0.020239994 -0.099717 0.032629997 -0.22365001 -0.1023125 -0.030359998 0.18853499 -0.30235648 0.521125 0.081045 -0.25690502 -0.135491 0.019115001 -0.0022300035 -0.211005 0.26745 -0.095725 -0.385275 0.100333 -0.031724 0.26937 -0.52219146 -0.17414 -0.026615001 -0.078958996 -0.027549997 -0.260218 -0.08379 0.297421 -0.2820495 0.1062075 0.32964998 0.113114506 0.09643 -0.266 0.283435 0.47768998 -0.126005 -0.31349 0.16008 -0.49128002 -0.024236001 -0.1332325 -0.040605 -0.273526 0.33713 -0.033575006 0.455065 -0.023295 0.229306 0.0706705 -0.039892502 0.07188 0.09447999 -0.505035 0.06554001 -0.19861001 -0.282749 0.37759 -0.55919 -0.33289498 0.024280012 -0.231655 0.18436095 0.15038 0.566535 -0.1458905 0.0160015 -0.1887 -0.23025501 0.46346003 0.090705 -0.117865 -0.233665 -0.34596002 0.20037 0.0498745 -0.2529491 0.28717 0.0640025 -0.52577496 0.26545 -0.1109815 -0.106643505 0.58774 0.059245005 -0.20773849 -0.34696 0.42222 -0.279385 -0.2844235 -0.051754497 -0.419 0.144475 0.45766002 0.325715 -0.12516999 -0.21452498 -0.05094 0.0074949935 -0.1013435 -0.0545405 -0.0960445 0.201565 -0.28439 0.1765775 -0.18996 -0.157758 -0.031362 0.258895 0.14155999 -0.037191503 0.1364505 -0.428505 -0.442075 -0.0070600063 0.104665 -0.23692 -0.371135 0.183508 -0.1242065 -0.19139501 0.147454 -0.007024996 -0.14204499 0.31355 -0.27872 0.012230009 -0.149445 -0.09894501 0.311555 0.026376499 0.24854249 0.052394502 0.27485698 0.32655 -0.083114505 -0.0016849972 -0.038085 -0.16812 0.141745 -0.107668504 -0.1562545 0.29644 0.0187685 0.027890004 -0.21622498 0.223845 0.45201 0.21564999 0.01633501 0.093818 0.0012890003 -0.26683998 0.0042649955 0.18198 0.308655 0.72668505 -0.206366 -0.80133003 0.299395 0.044932 -0.12170498 -0.107419 -0.1269 -0.18645 -0.28242552 0.30833998 0.0063849986 0.33468002 -0.25233948 -0.088287994 -0.005829 0.160465 0.41111502 0.29395166 -0.029104 0.091473 0.029099502 0.082895 -0.012979999 -0.15846899 0.00037800148 -0.28917998 -0.13209 0.357655 0.09437 -0.1866875 0.110385 0.19096002 -0.019530002 -2.2124 0.190535 0.91883504 0.06561999 -0.0928975 -0.49953502 -0.12504 -0.18293801 -0.1280995 -0.1327005 0.11034 0.1557155 0.3643925 0.029925004 -0.040845007 -0.15593 -0.087145 0.0230355 -0.1131967 0.107549995 -0.0097458 -0.27003852 -0.0799305 0.464845
26 0.026965499 -0.057082005 -0.109033 0.091043 0.19037 0.09072173 0.1945125 0.042689748 0.1384095 -1.7498324 -0.15568599 0.024645504 -0.44242752 0.028565004 -0.07790999 -0.034902506 0.0151834935 0.08508751 0.128775 0.2076235 -0.23689501 0.252775 0.21399349 0.0194375 -0.02250275 0.0031177495 -0.05196075 0.25646526 -0.4117 0.38393748 0.41799274 0.18944375 -0.16937625 -0.16709849 -0.33488643 -0.11255302 0.1631425 -0.27820498 0.023296252 0.0038450062 -0.106929995 -0.0048062485 0.1512275 0.18177976 -0.027698748 -0.15802276 0.05416375 0.3297655 0.25874475 0.12612 -0.16713749 0.14296874 -0.18479174 -0.20503001 -0.12553751 -0.10488501 0.35172 -0.007506199 -0.1198805 -0.032973 -0.17363474 0.1986655 0.27025774 0.080534995 -0.1842275 -0.18686235 -0.19898501 -0.17102501 -0.1590175 0.13174 -0.032238755 -0.01626525 0.2547654 0.028127253 -0.029282251 -0.093731955 0.036129244 0.32126498 -0.10434501 0.030707838 0.1378125 -0.207435 -0.16311 -0.14705825 0.15967625 0.09127176 -0.046804 0.02874665 -0.124502994 0.01710625 -0.41332752 0.020117499 0.30720526 0.08694383 -0.14333999 -0.14485274 -0.11358175 0.07726249 -0.037413254 0.030222753 -0.077819996 -0.050241005 -0.509725 -0.17243126 0.021625005 0.3189475 -0.2073535 0.29400748 -0.12327926 -0.1420325 -0.019577496 -0.52289 -0.1344445 0.13064 -0.1666625 0.082086 0.556195 0.2313995 0.6303425 0.0882595 -0.16827168 0.30335075 -0.43411165 -0.05192375 -0.222164 -0.036216747 -0.261516 0.4665975 -0.122921504 -0.1565695 0.29150954 -0.028837502 0.05125648 -0.07496475 -0.1820765 -0.06849176 0.15005499 0.2313725 -0.4060825 0.1434825 0.16782899 -0.122392505 0.3377535 0.099281505 0.0528375 -0.053969745 0.3387075 0.04595483 -0.201145 -0.12120701 0.442831 0.132543 -0.024267495 -0.07717975 -0.09709799 0.1368925 0.0506883 0.112609506 0.21512274 -0.3978675 0.32856 -0.04549074 0.41191348 0.4135675 -0.0006447509 -0.43191248 0.23932852 -0.21740448 -0.21843499 0.3279 0.09801125 0.10000999 -0.4374925 0.27106327 0.14214125 0.2924075 0.07390162 -0.11841351 0.0514025 0.11861875 -0.4078325 0.02541624 0.14421426 -0.1178195 0.1038425 -0.0063930023 0.28825924 -0.027279546 -0.024503246 0.07075675 0.034204 0.1885575 -0.27609 -0.2620805 -0.095705 0.26295 -0.052778 -0.495385 0.015566993 0.13889301 0.320175 -0.015606247 -0.24687101 -0.14456251 0.03187 0.17711401 -0.2480025 -0.0294572 0.463005 -0.27253 -0.34297 -0.11845586 -0.047030006 -0.45103753 0.16059676 0.54591775 0.10148275 0.144828 0.1180505 0.0476105 0.0016225129 -0.17453499 -0.159536 -0.16286126 -0.026485998 -0.29953623 -0.20302501 0.115302496 -0.095809996 -0.032746997 0.0653625 0.15716 0.066843756 -0.15243675 -0.06891199 0.088257 -0.117920496 -0.1278055 -0.3300625 -0.17944425 -0.20042 0.5429117 0.5785503 0.01579875 -0.91247 0.27481 -0.004010003 -0.15553975 0.15391847 -0.28120384 0.144107 -0.2448025 0.34409997 -0.420535 0.33950502 0.08381249 -0.26397276 -0.088055246 0.033203 -0.047601737 -0.0372505 -0.07459358 -0.02117125 0.046553753 0.044869244 -0.20963252 0.020811751 0.051978 0.1401475 0.40315503 0.13400501 -0.08218475 0.028456995 -0.1349075 -0.08818775 -0.09078826 -1.7616 0.14263326 0.77627254 -0.0626855 -0.32225674 -0.0073649995 0.0290125 0.16145125 -0.026136003 -0.32475227 -0.080619 0.010789253 0.397835 0.056205004 -0.23218626 -0.2906625 -0.067603365 -0.001760006 0.20776251 0.6466923 -0.014376 -0.38866502 -0.05008775 0.011834994
27 0.058396664 -0.321089 0.18170233 -0.17803335 0.13013034 -0.21652001 -0.061434668 0.16180547 0.09494 -1.9629666 0.79404664 0.009346664 0.16792198 0.15537466 0.5232667 0.063023 -0.064956 0.0004946664 0.043899998 -0.04846411 -0.07071667 0.059660498 0.25147334 0.539239 -0.177842 0.33131334 0.23590334 0.431914 -0.075179 -0.013681634 0.26494667 -0.32075 -0.04560333 0.65745 -0.5379 0.13561998 0.069763 -0.09298567 0.15612666 -0.18487667 0.13701333 0.25019 -0.17880933 0.51423997 -0.15922333 -0.078896 -0.38422 0.16950034 0.24871133 -0.45285666 0.030193666 0.049526665 -0.29828 -0.05239133 -0.172686 0.030470997 0.33418334 -0.19594467 -0.075858094 -0.092876665 -0.0013300081 0.36711368 0.46825996 0.010916668 -0.09263567 0.29918334 -0.102003336 0.20784499 -0.28094003 -0.055010002 -0.15891832 0.25228867 0.444438 -0.017681 -0.18445067 0.3895367 -0.08231566 0.086321 -0.037216663 0.15011734 0.08686266 -0.44938663 -0.54207 -0.06468666 0.10389333 0.24378002 0.034256667 0.3231733 -0.16302434 -0.5637134 -0.27962336 0.25497666 0.18894334 0.27195668 0.06622166 0.07741967 -0.62229997 0.40568003 0.04036333 -0.3985057 -0.23722668 0.15805666 -0.16124433 0.25155 0.051068325 -0.12976733 -0.0071639917 -0.086166 -0.435912 -0.009016666 -0.20644033 -0.6305466 -0.18748666 -0.31298634 0.116521 -0.096041 -0.22222334 0.0005630006 -0.022483034 0.48908004 0.225673 0.053993333 0.012170662 -0.676836 -0.22241001 -0.16960436 -0.30071667 -0.08101233 -0.13479 0.18013199 -0.055956665 -0.30357668 0.31920335 0.10867566 -0.22098 -0.52243334 0.20591666 0.04265733 -0.26493666 0.39495 0.22125666 -0.092429996 0.70006007 -0.21966666 0.29567668 0.30797002 0.16011201 -0.18208425 -0.069477 -0.14792234 0.7484133 0.14126001 0.36994 -0.026335338 0.099843346 0.022591002 -0.25198668 0.068622 -0.16183 -0.58071 0.11157834 0.032338332 0.12541 -0.62301 0.16966002 -0.15375601 0.16880067 -0.168469 -0.45315668 0.7693367 -0.21665998 -0.22574668 -0.79067 0.39112568 -0.29510435 0.04987334 0.06551533 -0.5393767 -0.24393468 -0.29203102 -0.05431266 -0.22916602 0.102995664 0.11552801 -0.12045001 -0.16262366 -0.30471334 0.019096663 -0.096007 -0.047358666 -0.010410001 -0.03783433 0.28065 0.21615835 -0.13326 0.36331 -0.20393467 0.21282165 -0.17993666 -0.04539932 0.40802002 -0.18211867 0.18552333 -0.067089 -0.44999668 -0.47018364 0.14758234 0.1825 0.22654335 -0.31841335 0.44981337 -0.25085333 0.12705933 -0.28625667 -0.28601936 0.18343334 -0.26921266 0.44096136 0.17386334 0.31066665 -0.166094 -0.0020433366 -0.28127265 0.04946433 0.37099335 -0.19018935 -0.31034198 -0.5971859 0.24821334 0.32217333 0.0039266646 0.3001733 -0.12554666 0.0476 -0.27095833 -0.11121335 0.15744834 -0.17916733 -0.31839 -0.017899996 0.59496 0.35937667 0.37084666 -0.29433134 -0.86414 0.135023 -0.71561 -0.42387167 0.35206532 0.094444335 -0.10120667 0.04784 -0.41682664 0.009283769 -0.019780336 0.13507666 0.122095734 -0.3008759 0.039720338 0.112474 0.28151235 -0.4047133 -0.057228997 0.028130332 0.37392572 0.11497999 -0.54119664 0.18246333 0.48781335 0.43516064 -0.37483335 0.20674002 -0.13388868 -0.23187666 -0.36669 0.117992006 -1.3355433 0.08145333 0.18630135 -0.41396868 -0.76567 -0.36043203 -0.020763338 -0.30123666 0.5948966 -0.51281065 -0.35893333 -0.02062267 0.066528164 -0.11922034 0.07203667 -0.3260433 -0.22984666 -0.028063336 0.14575666 0.41057566 -0.131512 -0.40528 -0.18086 0.16291
28 -0.025486669 0.10053 0.056896668 0.18949668 0.0922 -0.47195998 -0.34743 -0.31010568 0.15115733 -1.5321001 0.31162766 0.049269993 0.029437 -0.077629 0.19997533 -0.26472467 0.28026667 0.23143633 0.10694433 0.12654999 -0.18254054 0.26193455 0.14564234 0.63347 -0.18557334 0.20839667 0.36212003 -0.023101658 0.033551995 -0.198629 0.524343 0.256505 -0.382452 0.20631033 -0.5336283 0.16641334 0.31044534 0.075581335 -0.274124 -0.14291666 0.14129 -0.47775665 0.30872664 0.04309999 -0.0070200064 0.058419663 -0.13338001 0.36128664 -0.092603326 -0.096822 -0.028968 0.08963233 -5.4667395e-05 -0.43872535 0.084557675 0.010623674 0.26863843 -0.54846996 -0.18112467 -0.106377006 0.087733 0.22564597 0.45751667 -0.030911 -0.019404665 -0.14029934 0.07112733 0.27001667 -0.058333337 -0.11252147 -0.14204767 0.16651101 -0.030873334 -0.030434668 -0.23959135 0.050076667 -0.18279368 0.026717996 0.030018335 0.07574587 -0.039162334 -0.36506 -0.073683344 -0.24448133 0.11129334 0.10126001 0.26802334 0.13399167 -0.33576664 0.24996133 -0.150487 -0.012853335 -0.032237995 0.22449 0.40761665 0.27529 0.17843334 0.15091233 -0.15695 -0.4657 0.40947 0.10761333 -0.15293999 0.17345667 0.07422834 0.012841334 -0.08849335 0.024525335 -0.018497968 -0.079749994 0.19926132 -0.64850336 -0.020476341 -0.07196999 0.15157667 0.12330934 0.11999667 0.08411667 -0.15725334 0.16256 0.12134001 0.78581333 -0.027770668 0.10778 -0.10050333 0.11878667 0.103629984 0.116105996 0.32438335 -0.046726663 -0.07802633 -0.29499266 0.00019033502 -0.29340032 -0.51542634 -0.42925334 0.10760661 0.45269668 -0.30891502 0.6377433 -0.086775005 0.27910832 0.16363268 0.25331166 0.9570567 0.061420333 0.13264199 0.07203666 0.014370664 0.5357134 0.7540533 -0.08727333 0.14660335 0.035268996 -0.147051 0.0017625671 -0.09485334 0.18446 0.19445801 -0.42664662 -0.01621147 0.36268327 0.31605664 -0.4955177 -0.060436677 0.20491166 0.085165 0.08099667 0.067899995 0.29309002 0.19927901 -0.53017664 -0.6588153 -0.001292328 0.41461667 0.101376675 0.20724134 -0.16350032 -0.021240698 0.166209 0.05584666 0.10688666 0.225815 -0.0027666662 0.010032673 -0.08974233 -0.50292 0.086426 -0.22071667 -0.07100999 -0.29617 0.073837005 -0.13232599 -0.10221001 -0.057845328 0.4656367 -0.002472331 0.25291666 0.109000005 0.19586332 0.5971367 -0.05769 -0.064442 0.10192001 -0.26636 -0.29965332 -0.14493033 0.11478334 0.077700004 0.30671334 0.049936995 -0.16540499 0.022402674 -0.17069666 0.09411201 0.42815998 -0.11906668 0.146226 0.406567 0.088712335 -0.26579002 0.44679332 -0.21964033 0.07352 0.05055667 -0.34826335 -0.37932333 -0.13315967 0.027376667 0.15652667 0.049132 0.101323 0.068415 -0.082715 -0.3736333 -0.07483333 0.1454907 -0.39041746 -0.17187667 -0.05323967 -0.07051633 0.118887 0.9871867 -0.20000233 -1.1834334 0.35780367 -0.33476332 0.11407 0.10406667 0.22353001 0.170353 0.09852334 0.32059667 -0.12906666 0.22121966 0.16641998 0.089833 -0.39239335 0.22784768 -0.094346665 -0.051613003 -0.34234 0.38219666 -0.17236167 0.32974002 0.10401168 -0.4648367 0.35225332 0.308754 0.38919663 -0.23120002 0.14139666 0.08186737 0.09263667 0.23877667 -0.13347 -1.2705134 -0.18821633 1.0206801 -0.07296967 -0.21721666 -0.20635332 0.319085 -0.31453335 0.45800337 -0.009331334 -0.48046663 0.08587084 0.24593668 0.29633197 0.17362666 -0.29119667 -0.12509 -0.2982163 0.15923466 0.41154334 -0.0036923315 -0.18453832 -0.22507 0.15270333
29 -0.468935 -0.122614995 -0.122957505 0.613135 0.411375 -0.223269 0.31431502 -0.0039875004 -0.503339 -1.7581 0.1841125 0.073383 0.12786001 0.09098 0.137635 -0.075459994 0.44664 0.065726995 0.017453449 0.283615 0.100848496 0.537465 0.26493502 0.138215 -0.14219 0.34262002 0.53195 0.16244 0.004996501 -0.24484499 0.14092949 0.55467 -0.30280998 0.090237 -0.48597497 0.023552995 0.55212 0.2281245 -0.0405385 -0.1565485 0.18251 -0.44243 0.534915 -0.49830502 -0.61150503 -0.0016900003 -0.45323 0.29224998 -0.325965 -0.26776 -0.0035500005 0.1862085 0.032493003 -0.3488265 0.0742925 -0.442275 0.07828035 -0.2828395 -0.39902 0.1831145 0.55563 -0.3244 0.0011250004 -0.12257999 -0.130136 -0.309435 -0.06857501 0.38289002 0.106078 -0.042805 -0.41847 0.14621 -0.144155 -0.298315 0.40360802 -0.0011299998 -0.28338 0.31185 0.22462 0.347125 -0.023822 0.09982 0.40181 -0.36612 0.19852501 -0.334485 -0.115669996 -0.042305 -0.64324 0.0340605 -0.232105 0.023355 -0.486085 0.1772445 0.373415 -0.656335 0.44481003 -0.1118675 0.006979499 -0.428761 0.37088 -0.42202502 -0.44396 -0.29039 -0.0661185 0.106865205 -0.132795 -0.071777 -0.024970949 -0.18878001 0.19253744 -0.648975 0.30181 0.0644845 0.54596 0.112894 0.38621 0.24888 -0.44787502 -0.12090299 0.449985 0.79184496 0.09895 0.380415 0.41606498 -0.080135494 0.15149 0.018004999 0.30184498 0.0533 0.1078455 -0.138939 0.19446 0.058924995 -0.340295 -0.54698503 0.2446249 0.317855 0.0942025 0.50567997 -0.19387001 0.33202597 -0.19809599 0.044705003 0.513437 -0.161435 0.39947498 0.066535 0.341735 0.13344151 0.64642 0.0834708 -0.13183 0.023158 -0.44956 0.329335 0.117627494 -0.040480003 -0.07246 -0.193292 0.0280268 0.67488 0.16039649 -0.4914 -0.32728 -0.07595 -0.33775 -0.065475 0.359785 0.16271001 -0.081107005 -0.407585 -0.60319996 0.30702502 0.11012 -0.2117095 -0.0019499958 -0.0771655 -0.083968505 0.873245 0.33177 0.076303996 0.40829003 -0.052802 -0.268005 0.103026494 -0.320585 -0.245521 0.221985 -0.20778999 0.066585004 0.019619 -0.56106997 0.054216497 -0.1774935 0.76110005 0.0831865 0.18345 0.612805 0.19728 0.15355 0.202905 0.31443998 0.39124 -0.16909 -0.29953 0.2804445 -0.685485 0.35293502 0.433775 0.010835001 -0.08219 -0.12693998 -0.028869994 0.17378801 0.442835 -0.081725 0.46355003 0.724765 0.46271002 -0.253375 0.598405 -0.030150501 -0.094305 0.078637496 -0.53476 0.041315004 0.0768855 0.021763 0.326755 -0.042505 -0.076105505 0.18474999 0.004849 -0.17251 0.317125 -0.06037945 0.1640638 0.043794997 0.067218 0.228245 -0.0789365 1.1608 -0.18127 -1.27735 0.43697 0.528255 -0.25716 0.21292001 0.517345 -0.28829548 0.109044 0.55280995 0.38826 0.439835 0.06255 0.0410975 -0.15970601 -0.2303555 0.13576001 -0.062243998 -0.34725502 0.68826 -0.192123 0.074810006 0.17533751 -0.282763 0.530445 -0.069324 0.1946 -0.239205 0.29251334 -0.17417395 0.303625 0.047685005 -0.19578001 -1.6531999 0.2918005 1.04408 -0.28 -0.20792499 0.009160005 0.047995 -0.11829355 0.0050000027 0.0200955 0.17766 0.079568505 0.1920875 -0.13060498 -0.074637 -0.041121498 0.091989994 -0.1134385 0.10226 0.12564 -0.22654 -0.047647502 -0.1720185 0.084143
30 0.080575496 0.067045 0.247215 -0.055350006 0.317885 0.237805 0.0397525 0.390325 -0.452775 -0.61236995 0.020487 0.24742499 0.19024001 0.38542002 0.26137 0.236825 -0.100401 0.1626785 0.42859998 -0.034435004 -0.54498 0.26830748 0.080056 0.57681 0.074030496 -0.1392265 -0.30688 0.147118 0.275604 0.178505 0.629205 -0.393235 0.018174998 0.36735502 -0.69737697 0.32183 0.35193 0.151905 -0.18044099 -0.106075 -0.1179845 0.029119998 -0.14575 0.011946999 0.22506851 -0.205293 0.479205 0.25494498 0.375228 0.137748 -0.748995 0.026814997 -0.27206498 -0.516335 -0.0007550046 0.436647 -0.220945 0.1411906 0.347865 -0.109879985 0.12872 -0.046910003 -0.3077455 -0.3631 -0.0834285 -0.1533609 -0.50936 0.03321001 -0.23344499 -0.22082508 -0.053954996 0.322045 -0.3000465 0.17963499 -0.308815 0.035689004 -0.0823465 0.091286495 0.360655 -0.027659997 0.33303395 0.096464 -0.16333601 -0.46219498 -0.09415999 -0.1431395 -0.29439 -0.080630004 -0.031306002 0.13773999 -0.218945 0.056020003 0.62964 -0.1406625 0.0598155 0.312285 0.61846 -0.142349 0.32973 -0.25116 0.043215 -0.2248995 -0.30475 0.08230001 0.17899865 0.37004 0.170505 -0.4788645 0.0702795 -0.22574499 -0.126972 -0.4312 0.037290003 -0.25893998 0.094029 0.20273 0.24320535 -0.1265615 -0.402185 0.65907747 0.1241735 0.47465998 0.29504502 0.375765 -0.263695 0.273165 -0.095855 -0.286078 -0.24373001 -0.035564996 0.03349 -0.0036749989 -0.023089997 -0.104261994 -0.08028999 -0.2753 0.141905 -0.087680504 -0.423465 0.40135002 -0.2248655 -0.229197 1.08431 0.019882001 0.2130255 -0.1043845 0.1545425 -0.0526652 0.110283 0.1259345 0.65716 0.510765 -0.125785 -0.50936496 0.0354583 -0.95282 0.055647 0.37991 0.051455 0.2128 0.47651 -0.16110101 0.017004997 -0.283355 0.01718095 -0.381675 -0.142645 -0.05993265 -0.1626135 0.09295501 -0.41728 0.101695 -1.162065 0.69402003 0.183309 0.281235 -0.173982 -0.3008 0.0081600025 0.048694998 0.1989975 0.441515 -0.056373 -0.20010199 0.1578 -0.037196003 0.282431 -0.25977 -0.265849 0.061065003 -0.18645449 0.50414 -0.382635 -0.2933865 -0.164242 0.216931 0.015825 0.47345 0.11992501 0.26285 0.3687 -0.2302715 -0.23827499 -0.24832001 -0.1132995 0.2624 -0.061787 -0.38143 -0.0108699985 -0.21765 -0.046655 -0.0289925 -0.734105 -0.0303085 -0.1983864 0.165045 -0.084948 0.23384501 0.13072002 -0.008285001 0.209441 -0.24166 0.03365001 -0.49256 0.36866498 0.07455501 0.026231501 0.028160002 -0.10180999 -0.027914 0.108785 -0.117621005 0.41216 -0.56421995 0.019584002 -0.07616745 0.3886485 0.31754 -0.30695504 0.013515003 0.17980501 0.30732 0.2364135 -0.451505 -0.42664498 0.047674503 -0.46857 -0.279255 -0.2264105 0.30628002 0.099131 0.17764 0.4271145 -0.43921 0.15704 -0.37729502 0.21149999 -0.744275 -0.113076 -0.309554 -0.312315 -0.59375 0.71698 -0.32343 0.13046499 -0.40138 -0.20116 0.65850496 0.18366 0.122695 -0.30425 -0.0039049983 0.03084 -0.34336 0.473145 0.102974996 -1.5639501 0.53993 0.18759301 0.293415 -0.264887 -0.279765 -0.04451535 -0.327885 -0.026479997 -0.32889 -0.54875004 -0.046495 -0.076465 -0.072996 -0.082676 -0.062058 -0.77562 -0.09910441 -0.157687 -0.237175 -0.0601475 0.1653405 -0.0735605 -0.20384
31 -0.037208 -0.20657 0.65493 0.66249 0.56806 0.10539 0.092735 0.63359 -0.44187 -1.2588 -0.18958 0.36822 -0.44172 -0.2356 -0.22642 0.14024 -0.071758 -0.57209 0.16475 0.27773 0.46705 -0.088129 0.1015 0.18346 -0.09706 0.48201 0.1742 -0.16163 -0.3445 0.078542 -0.38232 -0.26038 0.37451 0.55793 -0.05083 -0.33989 0.27879 -0.32726 -0.4005 0.17484 0.32866 -0.47994 0.26333 -0.027693 -0.2475 -0.162 -0.99887 0.36011 -0.54746 -0.053576 -0.1344 -0.017953 0.46019 -0.26603 -0.20959 -0.51968 -0.45739 0.069752 -0.18923 0.33782 0.42501 -0.077239 -0.41848 -0.041615 -0.20939 -0.17207 -0.40779 -0.13986 -0.025635 0.10041 -0.21359 0.084454 0.52873 -0.096216 -0.079552 0.14565 -0.38145 -0.23564 0.28548 0.22511 0.37085 -0.066206 0.37104 -0.31214 0.15916 -0.56613 0.42111 0.22357 0.016423 0.19245 -0.11019 -0.47373 -0.33951 -0.323 -0.13944 -0.56124 -0.039474 -0.15213 -0.27551 0.16937 -0.2167 -0.30342 0.068558 -0.091254 -0.54241 0.85688 -0.70814 -0.14357 -0.48919 -0.57573 0.70686 -0.75634 -0.52465 -0.026537 0.61266 0.15723 0.18041 -0.55138 0.066167 0.070348 -0.070617 0.31067 -0.25454 -0.29695 0.27535 -0.21503 -0.14877 0.1718 -0.002931 0.3906 0.24616 0.2279 -0.016499 -0.35067 0.13072 -0.24673 -0.29142 -0.14797 -0.17347 -0.012084 0.052881 -0.0060242 0.19869 -0.23652 0.0026738 -0.12562 0.34947 0.29186 0.52969 0.1289 0.21401 -0.37637 0.12699 -0.38927 -0.57497 0.48314 -0.37939 -0.20559 -0.087759 -0.507 0.045197 0.54858 -0.13751 -0.12164 0.29481 -0.19127 0.56002 -0.23824 0.23956 0.23267 -0.29602 0.30652 -0.17301 -0.059676 -0.44018 -0.38741 0.20129 -0.31549 0.15727 0.32715 0.62978 -0.21251 -0.4958 0.19492 0.50865 -0.26036 0.082078 0.23094 -0.18054 0.36765 -0.19958 0.093471 0.16648 -0.15601 0.69169 -0.11774 -0.22231 0.1341 -0.01508 0.022718 -0.90217 0.29792 -0.19768 0.19979 0.43354 -0.42664 -0.21082 -0.40629 0.64392 0.035725 -0.29481 0.050245 -0.38284 0.09134 -0.041284 -0.23582 -0.041124 1.1563 0.35205 0.54235 -0.49546 0.036416 0.43479 -0.059945 -0.51091 0.080665 -0.34598 0.43641 0.40015 -0.1966 -0.71334 0.27235 0.41546 -0.092524 -0.31836 -0.56993 0.12496 -0.13055 0.0078778 -0.0746 -0.044249 0.10205 0.77802 0.053021 -0.85722 0.49328 0.19333 -0.80926 0.22683 0.068353 -0.2016 -0.31122 1.0464 -0.39044 -0.3674 0.12129 -0.65135 -0.40262 -0.44726 -0.062016 -0.40481 0.11547 0.5951 0.027707 0.19606 -0.10349 0.35735 -0.33316 -0.16535 -0.13019 -0.27141 0.18331 -0.085133 0.36306 -0.48458 -0.031285 -0.97263 0.047624 0.71083 -0.57252 -0.33247 -0.7304 -0.38749 -0.49427 -0.083736 0.10706 0.50899 -0.4463 0.32409 -0.1681 -0.28242 0.69394 -0.76031 0.18543 0.36278 0.24922 -0.27777 -0.36252 0.57155 0.56648
