34 384
0 0.024427325 0.042798623 -0.007823264 0.066064246 0.04612328 0.030801646 0.0070599145 -0.13780229 -0.066944376 -0.013393088 0.13452557 -0.07212101 -0.055502262 -0.023158964 0.009576716 -0.037864033 0.054756615 -0.0003364783 -0.04707265 -0.13336542 -0.035460547 0.029272005 -0.014102683 -0.0714221 0.013206323 0.031016784 0.013126976 -0.05709429 -0.06924053 -0.042417243 0.030834688 0.059613265 0.07692615 0.043029778 -0.047332738 0.072235964 0.1480589 -0.06967208 0.028799307 -0.014121946 -0.010197464 -0.09372079 0.038554695 -0.035728198 0.021055462 0.017938912 -0.011236208 -0.025570853 0.028872116 -0.019693421 0.033995327 0.033484705 -0.07120185 -0.04679921 0.070148535 -0.004776654 -0.039634556 0.010581375 -0.03150126 0.018449163 0.031886358 -0.023056138 -0.044271294 0.041656323 0.10065106 -0.07997769 -0.086145654 0.06663135 -0.13687749 -0.033692453 0.049117133 -0.0632209 0.00337306 -0.033310756 -0.03608426 -0.03737817 -0.015139935 -0.030014632 0.051979966 -0.07385796 0.033576887 0.02311004 -0.03538701 -0.014228955 -0.019316472 0.013801743 -0.0369623 -0.012597806 0.01917261 -0.005377612 0.023707196 -0.12044358 0.026265085 0.057762697 -0.004254992 0.03098957 -0.023140907 -0.16250446 -0.02166412 0.10310087 0.022176195 -0.033224475 0.0004083244 -0.002696248 -0.035995867 -0.024061544 -0.111570634 0.020837033 -0.020519385 0.070142835 -0.07400471 0.10131606 -0.08432513 0.050399058 -0.0066104024 -0.04013624 0.053940866 -0.08213099 0.0002885253 -0.059290115 -0.024233945 0.029451149 -0.03777038 0.00096491765 -0.0039267163 -0.030335154 0.016435733 -3.5900093e-33 -0.0704859 -0.107012875 0.043766446 0.02700785 -0.018382888 0.023825213 0.014635654 -0.022023873 0.05836393 -0.02518226 -0.015395865 -0.016615432 0.010056803 0.040875483 0.117382854 -0.050826043 -0.042108085 0.048944805 0.081528984 0.05964894 -0.06379776 -0.03821409 0.021356363 0.039619263 0.07532747 -0.014269 0.04929774 -0.09079815 0.043362103 0.00039796773 0.06374042 0.017857121 -0.059691183 -0.06654989 -0.027380263 0.00033580413 -0.018349903 -0.018229453 -0.020808462 0.06483078 0.02719855 -0.02292675 0.08208445 0.0027870247 0.01014902 0.043976754 0.07882877 0.082582876 -0.043186337 0.023255724 -0.017828504 -0.027173596 0.025662435 -0.08788158 0.04536833 -0.006566089 -0.0055572973 0.011437572 -0.030112578 -0.01767599 -0.023305785 0.03590141 0.014335326 -0.04857223 0.027000088 0.019006504 -0.026350705 -0.0089831455 0.02363814 0.06867085 -0.034725297 -0.063945174 0.018661544 0.018062515 -0.026943281 0.033357147 0.01889589 -0.022298416 -0.03330033 0.048200563 0.044341464 0.0011046717 -0.00342562 0.0044479594 -0.053015582 0.08377229 -0.06203721 -0.07732738 0.10581831 0.011132335 -0.10138936 0.013959094 0.018106567 -0.032439675 0.020062588 1.8305184e-33 -0.04607594 0.035593286 -0.033203352 0.07950541 0.032712925 -0.0836639 -0.0022419177 -0.04764238 0.028144311 0.011524664 -0.07890609 0.03370748 0.07770891 -0.012272657 -0.047664493 0.049200606 0.008742267 0.06287019 -0.01668387 0.01399703 -0.07716658 0.070988625 0.0012695192 -0.03870348 -0.06357015 0.081946746 -0.0756059 0.02833587 -0.100868486 -0.030017572 0.06987342 -0.056356512 0.019174058 -0.017446138 -0.03190192 0.02839181 0.016381856 -0.08296225 -0.024945065 0.06761991 0.11459557 0.020434832 -0.0004687843 0.11865856 -0.070475414 -0.010447918 0.0042641414 0.024140738 0.035718217 -0.0075553623 0.046657618 0.038484097 -0.0063745086 -0.04252142 0.047840398 0.021240715 0.01944307 0.021430582 -0.016108576 -0.0026588745 -0.031774417 0.11841499 0.02432367 0.0647964 0.0503946 0.02672566 0.017311737 -0.013426075 0.02665602 -0.0034704208 -0.03352285 0.018290073 0.02224693 0.003410625 -0.08955408 0.07438439 -0.01747568 0.03398984 0.045026593 -0.009858067 0.008457552 -0.09563137 0.04038164 -0.0025687902 -0.033904403 0.03778021 -0.031703778 -0.058234252 0.06868681 0.05958536 -0.13931549 -0.047724646 0.053048853 0.04385472 0.011551167 -1.3935703e-08 0.07244901 -0.039731454 -0.010966329 0.016159056 -0.003923841 -0.011216644 0.09101268 0.014852976 0.04812728 0.121264115 -0.14735734 0.13113824 -0.016283674 0.062934816 0.026759233 -0.021071905 0.038317036 -0.012000798 -0.064488575 0.009935736 0.045852773 0.01686999 -0.047858812 -0.017765077 0.002123993 -0.02126231 -0.0033024044 0.057655215 0.0990258 0.07376867 0.035192747 -0.028333098 -0.025661224 -0.008751998 0.008999403 -0.042613182 -0.042720824 -0.039675947 0.031265996 -0.09321332 -0.015768344 0.032138 -0.015905235 -0.022201665 -0.049669415 -0.0078551965 -0.043772127 0.015968576 -0.024515994 -0.00018005857 -0.072602205 0.037380293 0.06776989 -0.013841679 0.029948175 -0.019741017 0.03670282 -0.047120824 0.06634113 0.027815042 0.013362672 -0.017768562 0.040267777 -0.019967332
1 -0.007197121 0.013334248 0.037723903 0.10129561 -0.0543573 -0.020972166 0.050801538 -0.054491248 0.06698703 0.060031813 0.01700277 -0.06936905 -0.024861604 0.043123294 -0.01176448 0.032162443 -0.046817064 -0.020396475 -0.042090576 -0.022031786 -0.0832272 0.01629121 -0.0060571968 0.02683691 -0.09211743 0.044471856 -0.08823137 -0.015794093 -0.027417086 -0.04920827 -0.03117149 -0.018778382 0.055381484 0.025256237 -0.047550566 0.016216967 0.040059246 -0.02518165 0.106105305 0.038162783 0.015715504 -0.0888588 0.01728482 -0.040264953 -0.022656316 0.00072292757 -0.07025463 -0.018625004 0.05798037 -0.009085107 -0.018025959 -0.024342747 -0.11129555 0.034905717 -0.031552795 -0.06438555 -0.060517896 -0.055027887 0.030304832 -0.062312238 0.0918274 0.0024198494 0.03581492 0.06966138 0.010396587 0.018726993 -0.03996937 0.05802559 0.012760861 -0.038566843 0.038980473 -0.016567614 0.048344668 -0.03828975 -0.02811445 -0.02167828 -0.006236323 -0.0057568494 0.08201833 -0.077097304 -0.019586138 -0.088086076 -0.032798316 0.003709836 0.13983352 0.015659159 0.02046932 -0.008773926 -0.1143905 -0.0086927 -0.05464935 -0.08124692 0.05255373 -0.0068109958 -0.015741514 -0.0021704254 0.024351532 -0.08497305 0.023395754 0.19808312 -0.0013720461 -0.019608043 0.0036170767 -0.016801981 0.06918771 -0.004546379 -0.111977294 0.024370324 0.026205748 0.04847274 -0.06919881 0.051401854 -0.039949697 0.119397506 0.022300899 0.009804172 -0.019858304 -0.040784482 0.01234676 -0.026656406 0.016527 0.039147947 0.021876812 -0.055891432 0.046979025 -0.062090054 -0.04336987 -5.8452037e-33 0.06280385 -0.13573356 -0.0122770155 -0.046289977 0.0024041221 0.022446312 -0.01726415 0.00224927 -0.0023128726 0.033418044 -0.0822475 0.022158062 0.002412148 0.009933265 0.1398068 -0.06082654 0.02296145 -0.007265003 0.04266929 -0.015851945 -0.06927579 0.0811705 0.03836182 0.049143523 0.027802149 -0.045630667 -0.05621686 -0.086818315 -0.034772895 0.02210545 0.058731697 -0.07074129 -0.0004115302 0.019654807 -0.07651073 -0.053511508 0.014960618 -0.10376967 -0.010938188 -0.0060813115 0.0987 -0.039588153 0.048755594 -0.017654432 0.005408864 0.053447165 -0.012946541 0.025310187 -0.06225529 0.039142743 -0.001861259 0.023411632 -0.026637511 -0.03919904 0.031663273 0.047404036 0.0003956141 -0.009809657 -0.098028824 0.014977978 0.04498712 0.08695889 0.009437169 -0.06716092 0.13919836 -0.073750205 -0.0208163 0.044730358 -0.013470665 0.0032445956 -0.017791508 0.002444791 0.029594593 -0.12683938 -0.03545486 -0.0070341188 0.08901838 -0.027502932 -0.069108486 -0.008035549 0.010230328 0.044862386 -0.017058961 0.046191163 -0.0355316 0.06561982 0.0059533673 -0.065679915 0.061443176 0.00015592159 -0.05927708 -0.010041635 0.0095230965 -0.07451422 0.041279923 3.501733e-33 -0.03043171 0.025554428 -0.017962819 0.07954282 -0.028710384 0.00806077 -0.003045863 0.036214918 0.012181226 0.060002834 -0.113241196 0.010987405 0.07978741 -0.012336232 0.020296594 -0.052297387 0.025482489 -0.016163798 0.11426224 -0.08698706 -0.095992945 -0.0041734 0.024904607 -0.0063446662 0.023215452 0.0911069 -0.0462414 -0.034910657 -0.01782906 -0.07279045 0.015925376 0.0061052083 0.006278234 -0.0074692206 0.06275531 0.056699865 0.010188387 0.002173103 -0.022125889 -0.03229155 0.113149375 -0.0008592062 -0.054690894 0.063969165 -0.032504525 0.06261271 0.020726321 0.018111145 -0.019385917 0.028520726 -0.016612098 0.016539691 -0.02051804 -0.10315482 0.022374265 -0.03780315 -0.017475268 -0.02809634 0.10527948 -0.008295591 0.024603212 0.073963314 -0.022792917 0.07352465 -0.12462189 -0.009882587 -0.062400084 -0.028918441 0.03273312 -0.05691878 0.09453226 0.0703205 -0.028177846 -0.051502932 -0.01816981 0.07371286 -0.03498638 -0.011953471 0.096824065 -0.0009630454 0.004690568 -0.02917069 0.017450444 0.08672886 -0.036431096 -0.005283169 -0.010969773 0.056032263 0.029952489 0.009942267 -0.005612134 0.025759596 0.062715515 0.017424377 -0.03600564 -1.4242955e-08 0.0027251125 0.008466694 -0.005152405 0.00081063807 0.0723382 0.020208107 -0.012546085 0.0059523126 0.0053004436 0.04699836 0.05424545 -0.021289531 0.009108085 0.058574848 0.04623005 0.009322165 0.009347144 -0.055502795 0.022871723 0.0450432 -0.09414591 0.025030844 -0.029809466 0.0091595305 -0.052224625 -0.055258516 -0.01065759 0.019730693 -0.0045994557 0.06790086 -0.039675858 0.05711592 -0.008017987 -0.041168552 0.062960245 -0.057699148 0.020528933 -0.079586096 0.04417578 -0.020041263 -0.0031060642 0.1020305 0.033580657 -0.043723006 0.03669783 -0.033731963 0.026725195 -0.03384958 -0.035563577 -0.06167392 -0.14850341 -0.004861166 0.028856589 0.037374992 -0.0685804 -0.058090165 -0.020862287 -0.038112562 -0.027330972 0.08244039 0.053845588 0.05449017 0.07339177 0.07451587
2 0.020252544 0.024308654 0.0009176597 0.0019967859 0.074871175 0.07441659 0.08215885 -0.06603106 -0.024603993 0.018152354 -0.03721084 0.013880945 0.084357135 0.04038725 -0.0068161828 -0.06686338 -0.0349623 -0.04934762 -0.031055741 -0.04022178 -0.054394588 -0.001112574 0.031337116 -0.034147635 -0.054728273 -0.030098284 0.008917123 0.006242939 -0.0632963 -0.044078756 0.04751508 -0.02828842 0.05490248 0.08389809 -0.032145232 0.012987869 0.1047375 -0.03229097 -0.025175529 -0.020666651 0.0028975627 -0.10080995 0.07191378 0.03368225 0.02820392 0.061975356 -0.012570068 -0.03353985 0.007390271 0.006995927 0.053474907 -0.040389247 -0.07705158 0.015802398 0.029914672 -0.04740411 -0.0034658385 -0.078808255 0.044374183 0.022379102 0.010725568 0.0111429095 -0.057602357 0.007221649 0.10235614 -0.05045862 0.049697462 0.020527903 -0.015647866 -0.03091007 0.03569093 0.02106352 -0.0025244881 -0.041594792 -0.0015537594 0.020969985 0.05040047 0.075405456 0.10092857 -0.12254127 0.03551601 0.04772694 0.02120885 -0.008797113 0.058650777 -0.0006489264 -0.03896045 -0.054667916 0.0071195327 0.036287498 -0.03911701 -0.07003335 0.107497126 0.018336121 0.055856645 0.08198885 0.01366538 -0.0032534602 -0.14643817 0.034147125 0.057658773 -0.008281199 -0.06953777 -0.027976053 -0.07065345 0.055993352 0.002888186 -0.04469215 -0.026734723 0.0053994013 0.057611614 0.043255605 -0.041772414 -0.011790039 -0.008800635 0.0035417324 -0.02446876 0.0047715195 0.027581649 0.032970093 0.007131531 0.012000291 -0.024043933 -0.015614587 -0.015094181 -0.012535983 -0.052558765 -2.6350664e-33 -0.051971115 -0.044999916 0.00846002 0.034838084 -0.021289947 -0.0774516 -0.018011628 -0.013517355 -0.0032766387 0.08198146 -0.03235624 0.10830214 0.056294873 0.007244727 0.12608303 0.0118979225 -0.07150953 0.059322044 0.0665298 0.04665301 0.010747566 0.014068804 -0.0073945965 -0.012771938 0.15465356 -0.039921876 -0.07793809 0.067708485 0.038480524 0.0090879155 -0.027688289 0.073266275 -0.0022994773 -0.0629734 0.06992975 -0.1220403 0.035502743 -0.0030713058 -0.034801558 -0.061367035 -0.020584155 0.03549432 -0.03170911 0.07661742 0.08357742 -0.011961379 0.013841024 0.053135782 -0.03888442 -0.03692701 -0.034660548 0.046748906 -0.010390319 -0.05866287 -0.00085847 -0.006983913 -0.015387072 0.08214738 -0.048645534 -0.043417905 -0.019798707 0.036176678 0.05647768 -0.027508983 0.065447204 0.0017556811 -0.024361525 0.069956556 0.04884084 -0.019102441 -0.087634124 0.01656568 0.08496176 -0.04163455 -0.068539105 0.005141185 0.03808794 0.03775631 0.027359566 -0.013535111 -0.06911219 0.08260971 0.02951231 0.105887525 0.030594392 0.034407817 -0.004803176 -0.073399626 -0.031976566 -0.054209754 -0.11023942 -0.03827586 0.036205474 -0.01782367 -0.03995675 8.913548e-34 -0.027089309 0.029352603 -0.10044451 0.002191074 -0.0051433337 -0.033051264 -0.0056333574 -0.0016603839 -0.047667958 0.054031733 0.0024981585 -0.06037106 0.064057976 0.044655573 0.008780246 -0.076345675 0.041496176 0.03298607 -0.030607447 -0.024748137 0.06976185 0.019052912 0.036092654 -0.022683175 0.059645254 0.059021935 -0.033999998 0.034575865 -0.06017646 0.0046499707 0.08595453 -0.04838334 -0.0042210803 0.024812635 -0.04015391 -0.02010073 0.079329215 -0.070385896 -0.013663098 0.012593971 0.058818642 0.04526661 0.032348253 0.0501117 -0.09287469 -0.006124479 -0.0012529588 0.07688925 -0.08131078 -0.06294999 -0.020583589 -0.021930283 -0.08226064 -0.010945497 -0.024107685 0.01692552 -0.025917249 -0.012551871 0.067077585 0.0371557 -0.020903707 0.049657077 -0.034457605 0.005769343 -0.028951349 0.0040688524 -0.047709316 0.10663877 -0.016596299 0.02086057 0.024480324 -0.005132586 0.0439684 0.006759872 -0.011442332 0.010784875 0.05919101 -0.082763895 -0.07388439 -0.0104427645 0.0097964 -0.05663433 -0.15783164 0.05047264 -0.0579378 0.14415902 0.058209483 -0.04246928 0.06790439 -0.008402559 -0.14287406 -0.10164225 -0.0068634525 -0.0016352547 -0.008979293 -1.472168e-08 0.07333195 0.07989636 -0.027363777 0.022425784 -0.04953271 -0.041876454 -0.0550638 -0.1094296 0.029652731 -0.0047640875 0.032738812 0.0315528 -0.00019585984 -0.081082076 -0.035969604 -0.017749213 -0.050997842 -0.029584019 -0.08066592 -0.074083 0.027625598 -0.010734719 -0.031664945 0.019735228 -0.025934651 0.084718965 -0.026859757 -0.07154723 -0.0019708378 0.14665647 -0.0058644186 -0.025720473 -0.005321283 0.016186459 0.067884654 -0.0058429735 0.022559952 -0.0741223 0.03579378 -0.113529354 -0.024533173 0.045287035 0.06966589 0.04999878 -0.06435276 -0.0060758623 -0.018628344 -0.028481247 0.012710721 -0.02056455 -0.005563835 -0.0045171264 -0.026551234 0.110455856 0.0068571377 0.019722933 0.049785223 0.020000536 -0.022204632 0.08493667 -0.0055649346 -0.070734195 0.03050713 0.030192465
3 0.09055491 0.03772403 -0.06719925 0.01713636 -0.06925065 0.034990504 0.009560703 -0.13315615 0.118196696 -0.026854476 -0.01537349 0.0034395794 -0.0056845048 -0.009204811 0.0069004213 0.012211212 -0.058748417 0.026809227 0.009108194 -0.049382128 -0.063004285 -0.011743353 -0.009396681 -0.00812634 0.045486737 0.012729322 0.07424288 -0.019052487 0.027859667 -0.02177869 -0.07024954 0.0389438 -0.027245581 -0.007178181 -0.037920102 0.122629605 0.0023106833 0.046531416 0.047937095 0.034217875 -0.00970826 0.04549531 -0.015643798 -0.080822885 0.051644668 0.026499612 -0.063089095 0.03553794 -0.04604655 0.009466301 0.007026717 0.0029706522 -0.0080068465 0.016985277 0.010734812 -0.05994471 -0.0007767149 0.012862733 0.009282309 0.028453765 0.011676132 0.004447128 0.045561034 0.076474145 0.005447957 0.01904572 -0.055946022 0.085505985 -0.11940502 -0.12229072 0.003162784 -0.099558085 0.03594031 0.024944894 0.008740218 -0.03940832 -0.088792406 -0.1068923 -0.0932767 -0.06894502 0.05192561 -0.04492271 0.0049027 -0.0051041357 0.016473455 0.075881906 -0.031164894 0.048528966 0.031772 0.048023224 0.021427121 0.0141463755 -0.06303745 0.0010226498 0.07724139 0.007441609 0.01006977 -0.045889013 -0.04678918 0.10506334 0.0030019034 0.089514054 0.04877385 -0.0008049237 0.051603127 -0.049514692 -0.052067522 0.013138882 -0.03696609 -0.008882927 0.00788984 0.050255135 -0.09651721 0.018128175 0.1021008 0.041885268 0.0439418 -0.04500342 -0.02922566 -0.069814615 -0.025066739 -0.012203676 0.008039478 0.023565194 -0.033325516 -0.05641922 -0.10742996 -9.418819e-34 0.0226355 -0.022673417 0.05833333 -0.026203284 0.016415253 -0.04631663 0.038469154 -0.05645074 -0.018827703 -0.06567597 0.060336564 0.030015297 -0.046633627 0.025716312 0.03738112 -0.0021192254 -0.03231721 0.010442358 0.008461266 0.0042195553 -0.030962596 0.033141125 -0.038016975 0.0074978606 -0.050253127 0.034389406 0.025091657 -0.016864214 0.021659844 0.032705918 -0.028547363 0.039767925 0.043460548 -0.076570116 0.010932096 -0.009021093 0.018169431 -0.03886066 0.049241878 0.009311586 0.03304853 -0.019670906 -0.019147886 0.037053596 -0.018393336 0.13132878 0.09597908 -0.088506676 -0.060967304 0.12557922 0.0034243744 0.07706845 0.044652864 -0.02874006 0.03680376 -0.020059887 -0.0044453014 0.058484904 0.0026812863 -0.08093596 -0.033493407 0.025618795 -0.011957855 0.045234572 0.023229798 0.027088875 0.0144084105 -0.055004492 0.07033573 -0.03224384 -0.032719616 0.0024775136 -0.008276858 0.007190693 0.0068242047 -0.03251879 -0.0332678 -0.08519849 0.0034268824 0.048434548 -0.039302904 0.04439636 -0.038422674 -0.024848854 0.012010071 0.07179601 0.07361049 -0.015525378 -0.00075938046 0.008674644 0.034803227 0.00635439 0.03493416 -0.04316805 -0.010781146 1.2366639e-33 0.031083107 -0.07491251 -0.028570049 0.03983293 0.029574629 -0.04772911 -0.0389657 0.10419274 0.045030806 0.014065205 0.095633775 -0.042884264 -0.02056973 0.03627938 -0.0012852811 -0.13209558 0.053559907 0.09284885 -0.044129323 0.020849029 0.059126794 0.0696586 -0.037217863 -0.09510968 -0.09284426 0.10606812 -0.1149996 -0.012548325 -0.054724827 0.015502949 0.05045914 -0.010439313 0.06226926 -0.012186885 0.0052510197 -0.03222327 0.07195928 0.021448284 -0.015070878 -0.0059734117 0.023821726 0.011264846 -0.043234985 0.12528801 -0.036523934 0.040700004 -0.018273124 0.08576629 0.013214144 -0.061407097 -0.07172924 -0.057093956 0.03809865 -0.12627059 0.08216162 -0.021966511 -0.015484427 -0.05303655 -0.1259566 0.09203254 0.06408216 0.059847735 -0.02481194 -0.026115274 -0.022065613 0.05485588 0.016258426 0.10904525 -0.031070877 0.012275542 0.016931843 0.086447805 -0.02951813 0.054495145 -0.054849446 0.05637803 0.07371218 0.0058896956 0.08966885 -0.009304452 -0.069863774 -0.06313832 -0.10747423 0.0025114089 0.038164187 0.013962216 -0.07094167 -0.02076958 -0.010711144 -0.015903685 -0.033589628 -0.045607425 0.025758084 -0.042417016 -0.020725466 -1.2235179e-08 -0.030341528 -0.031885542 0.037365645 -0.0040478176 0.010460753 0.06639786 0.059101887 -0.039300844 -0.04324828 0.010842642 -0.014539408 0.025323834 0.0075790966 0.06918606 -0.049298707 -0.07668187 0.061354868 -0.00587454 0.036319982 -0.02658764 0.1025823 0.0039517386 0.07915507 -0.09811233 -0.07463989 -0.0019195196 -0.056064695 0.023907904 -0.08130251 0.023049088 -0.011105041 0.0048886733 -0.0595221 0.018078214 -0.019686524 -0.056032818 -0.05893702 -0.056450933 -0.016997762 -0.0025759004 0.0848758 -0.045160655 0.10384524 -0.029520987 0.008679224 0.030438215 0.07528515 0.073002525 0.02524918 0.036566492 -0.06724538 0.008794662 0.045206603 -0.05997723 -0.03904341 -0.040090762 0.006298088 0.11234141 -0.04332217 -0.019355612 0.028477652 0.008929624 0.06867162 0.0073292744
4 0.009938489 0.08018358 -0.060673844 -0.03409696 0.01511542 0.15408406 0.022104288 -0.123374596 -0.027814258 0.009792012 -0.009467702 0.043029428 -0.041505497 -0.055002715 0.051685337 0.026895743 0.022013009 0.050222304 -0.105785444 0.02271949 -0.11130211 -0.032889556 -0.02673936 0.040562086 -0.07705196 -0.017080665 0.04572225 -0.048916236 0.025635522 -0.037374083 -0.020346593 -0.013673288 0.03849425 0.06138074 -0.032306038 0.022206092 0.020832473 0.0017071937 0.048305694 -0.043017406 -0.041634504 -0.07599393 0.008163662 0.017207706 0.029469747 -0.005435421 0.07396162 -0.041938487 -0.056988686 -0.013189509 0.10335027 0.08121865 -0.042157006 0.034037992 -0.072032765 -0.12839803 -0.052395348 -0.04607587 0.031618156 0.038891073 -0.012036619 -0.031248081 -0.042505234 0.083715476 -0.02765162 -0.0022883066 0.043906406 0.0024333142 -0.01212795 -0.043190222 0.037334654 0.07202441 0.033511575 -0.018260999 0.050545044 -0.036346585 0.05043332 0.011621852 0.037096247 -0.0673497 0.04337667 0.003158725 -0.040176988 0.022277331 0.0008443705 -0.025520053 -0.03782368 0.019944016 -0.07598449 -0.048815764 -0.00707559 0.03664441 0.09859909 -0.06504811 0.083567746 -0.062158868 0.049029343 -0.06848149 -0.018130906 0.029015101 0.0151872495 0.012941381 -0.016897256 -0.018492647 -0.009939932 -0.078959905 -0.011389323 -0.037151612 -0.09015112 0.05109401 0.04453974 -0.041415293 0.0012616848 0.04053008 0.08631435 -0.12623478 0.04405526 0.0070470287 0.0009941853 0.032173727 -0.13595352 0.019299578 -0.06695973 -0.01976719 0.020609435 -0.026121182 -0.052517954 -3.3062465e-33 -0.06283327 -0.07133836 -0.021011053 0.0057218648 0.023974339 -0.012543461 -0.01866911 -0.006296371 -0.025411593 0.07179095 0.025710108 0.0270776 0.038037453 -0.07393507 -0.024709756 0.008734006 -0.11295296 0.0028080777 -0.02755474 -0.03391443 -0.029662337 0.05215829 0.0076383105 0.06440393 -0.037113983 -0.055893917 0.012462954 -0.032978937 0.008499064 0.015424093 -0.045228984 0.09492478 0.03342414 0.0024955824 0.109982096 0.040053822 0.03442715 0.05338387 0.0038036823 -0.025738133 -0.070426 0.031876247 0.002983619 -0.07069034 0.117975995 -0.01121172 0.027346145 -0.010417456 0.0062365863 0.0385052 0.00018106138 0.011016295 -0.11631023 -0.027169302 -0.0009640856 -0.03785269 -0.07991301 0.05821773 -0.0057092835 -0.009031091 0.0039795637 0.0852859 -0.019494204 -0.0574329 0.021201238 -0.002990017 -0.023494327 -0.00085677643 0.031379998 -0.03724004 0.074887246 -0.035542116 0.020953434 0.019082516 -0.0007691081 0.058796942 0.07780768 0.009463792 0.115673766 -0.07329292 -0.064560235 0.01186302 0.07981626 0.014191072 -0.011257606 -0.055293605 0.023564648 -0.04275001 0.0657976 -0.060105473 -0.06147538 0.025617654 0.0046009435 -0.04470419 -0.05422486 -2.6819181e-34 -0.11173966 -0.09700763 -0.07460492 0.04975603 -0.010280885 0.008606073 0.018522244 -0.04417851 0.06557047 0.022221347 -0.013263083 -0.016662857 -0.028361302 0.05522895 0.0016785428 -0.054688368 0.041084804 0.023621343 0.008890024 0.07417774 -0.004473564 0.06431474 0.03739804 0.04046989 0.038989797 0.011445461 -0.046893537 -0.09872559 0.05974754 -0.019738767 0.039841242 -0.04555798 -0.07500789 0.010809798 -0.10303384 -0.17501192 0.05648567 0.024195597 0.009354717 -0.013221716 0.07905109 0.02120204 -0.07358366 0.00786196 -0.029688166 0.047743212 0.050939873 0.06565532 -0.018938944 -0.020733671 -0.090781294 -0.052364692 0.06462318 0.095216304 0.061997242 -0.01974123 0.06039027 -0.06342593 0.032267723 0.084264934 -0.012312663 0.084824584 -0.03980796 -0.067087725 0.07768089 0.022212904 -0.05408255 -0.007468263 0.013206087 0.022630325 0.03136907 -0.035443544 -0.03215083 -0.1300832 -0.041196108 0.040365223 0.00048012656 0.04199417 -0.03922679 0.03852269 0.07935028 -0.03285708 -0.11016441 0.035580043 -0.102317296 0.10593035 0.020828044 -0.043150276 0.05290748 -0.004483863 -0.037984524 0.06128521 -0.0023388427 0.027440915 0.056175705 -1.5476104e-08 0.023871649 0.05570718 -0.051525656 0.020320185 -0.04858703 0.07772407 -0.0557028 -0.037742432 0.04510804 0.08495453 0.0013496124 -0.0039472086 -0.017198453 0.006819241 -0.039979056 -0.019811707 0.06860572 -0.11164639 0.035422076 0.0362467 -0.016404204 -0.015580524 0.080572255 -0.031066963 -0.016134856 -0.009676052 -0.04262267 -0.086131245 0.0040354854 0.0753077 -0.033180643 0.06510159 -0.0488 -0.00045989073 0.025914785 -0.03533905 -0.006338737 0.027959747 0.057274006 -0.05099331 0.0130752465 0.046012823 0.01527143 -0.018081544 -0.0041110883 -0.0013761346 -0.012143226 0.036136225 -0.011621203 0.028823916 -0.028454693 -0.0016427254 0.04354984 0.0173686 0.08700836 0.048129827 0.09370909 -0.017124362 -0.012377512 -0.03700972 0.034645837 0.020671349 -0.015018077 0.0008550034
5 -0.022891054 -0.015741283 -0.037960026 -0.0073861415 0.036965106 -0.00087592256 0.14479923 -0.0016223533 -0.02468799 -0.037742104 0.068460934 -0.03375378 -0.03039507 0.005165681 -0.009352134 -0.030569678 0.038272753 0.0020652898 -0.06117304 -0.068847254 -0.04427983 0.0052292575 -0.03664274 0.020476818 -0.06935346 0.05695751 -0.030898722 -0.0587982 -0.029413085 -0.13371989 -0.002874201 0.050793707 0.063129805 0.047044683 -0.0404619 -0.05680759 0.047786735 -0.055796534 0.06489743 -0.032705292 -0.01745906 -0.093598 -0.08565909 0.0055026 0.04714334 -0.000557715 0.036976386 0.024778824 -0.0017716046 0.05592315 -0.037992597 0.015718037 -0.09880324 0.02859276 -0.020997008 0.023319874 0.018415375 0.0019769212 0.030796297 -0.082582414 0.035615295 -0.0493944 -0.016494067 0.032907687 0.07912 0.0042936024 -0.07366134 0.08450076 -0.11205737 -0.024062322 0.09772223 -0.07719147 -0.050562218 0.058500316 0.06383976 -0.06636447 0.08973863 -0.014392549 0.027753862 0.0074411184 0.0050313124 0.029075649 -0.12858516 0.017748766 -0.024502467 -0.048518617 -0.01918756 -0.017490188 0.0074727866 -0.07086956 0.015717627 -0.034769766 -0.019328147 0.020086633 -0.076168105 -0.022240955 0.00853761 -0.017017325 0.09610887 0.20585662 0.07371854 0.051589098 -0.022192307 -0.007246656 -0.07263401 -0.038540546 -0.02888617 0.08055428 0.03795834 0.039436154 -0.10057609 -0.0099764215 -0.030574448 -0.00037645115 -0.021380443 0.027281601 -0.01195054 0.050807584 0.08165978 0.015444491 -0.00060979795 0.08125833 -0.04070422 -0.06897348 -0.107200086 -0.04482246 0.0066209543 -4.720583e-33 -0.091040246 -0.024365904 -0.021282477 -0.021524664 0.0022524963 0.021736786 0.0040537664 -0.036887817 -0.10224809 0.104916885 -0.03762627 0.047281265 -0.030759646 0.055615503 0.089833885 0.039537936 -0.01062055 0.074383594 0.09147332 -0.030257039 -0.0058683143 0.02612936 0.0058753937 0.011256006 -0.0109212715 0.009076503 0.001081212 0.023343375 0.131877 0.033385754 0.10127786 0.031186212 0.00082783645 0.015011307 -0.07210471 -0.032167044 -0.034509525 -0.0815043 0.06577755 -0.085117824 -0.10246256 0.023057753 0.00521744 0.072671525 -0.05043467 0.0765247 0.0015526651 0.020499632 0.030122435 0.01603168 -0.066224486 -0.020150859 0.033063114 -0.03599258 0.0008625911 -0.05310814 0.005293914 -0.025965327 -0.023319777 -0.023902413 0.07485475 0.06516231 -0.07459142 -0.008300945 -0.059212413 -0.03160769 -0.015544763 -0.04822161 0.037597932 -0.025581496 -0.06081294 0.04529314 0.061022326 0.023257915 0.004199303 0.06454385 0.04827124 0.090403944 -0.043189358 -0.021976179 -0.121696346 -0.0040059425 0.04446239 0.07728173 0.0073550427 0.05022741 -0.028230716 -0.047144916 0.019052703 0.0002726387 -0.07603573 0.01870179 0.025735084 0.080851376 0.034841947 2.7493838e-33 -0.0465333 -0.015045785 -0.05138319 0.13993882 -0.019118903 -0.0016835158 -0.0039402796 -0.028337425 0.018516002 0.017935427 -0.061017852 -0.026306374 0.05742806 0.04548835 0.031139601 -0.022889376 0.1433995 -0.008848669 -0.012697439 0.028445069 0.011733619 0.013882571 -0.052609537 -0.049908705 -0.039345346 0.0262467 -0.052522346 -0.051552303 -0.027453916 0.01658147 0.030233089 -0.024794048 0.010897363 0.049144324 -0.061086584 -0.03762395 0.00041122737 0.0152793545 0.008029709 0.035801668 0.051368844 -0.011010474 -0.0020114149 0.10198449 -0.007996486 -0.060135532 0.012698619 0.015626248 0.14143114 -0.02189201 -0.07735631 0.09765668 0.009996261 -0.06568081 -0.038603768 0.107701555 0.01619913 0.0195114 -0.04445393 0.04457726 0.014617873 0.077955075 0.01871966 0.036371324 -0.025832634 0.036939774 0.044598937 0.0137140555 0.06660303 -0.05257835 0.068585455 0.037137628 -0.028302293 -0.008081237 -0.06205467 -0.012644126 -0.035145678 0.03435124 -0.011118758 0.012000866 -0.0039372607 -0.023671107 0.008760166 0.041067865 0.005039133 -0.034095977 0.018968826 -0.034773875 0.01566806 -0.119869515 -0.08254344 0.0011802957 0.023908822 -0.039907984 -0.05026949 -1.2677557e-08 -0.014529812 -0.07132214 0.034566354 0.04735881 0.009930828 0.022603588 0.019295745 0.09414122 -0.054630596 0.063018695 -0.05292763 -0.021413436 -0.10091141 0.03416362 0.010661697 -0.0119058 0.04070592 -0.04281846 -0.0060042576 -0.0022303886 0.044075835 0.03928144 0.048951812 0.037082184 -0.06139209 -0.0036403018 0.09984737 0.026415668 0.010656199 -0.014722991 0.006645334 0.05955934 0.013764302 -0.045683205 -0.01772799 -0.034566768 0.032558165 0.01960955 -0.007856044 -0.022680016 -0.04501862 -0.03740795 -0.018558513 -0.004642021 0.0876846 -0.0011508836 -0.032053974 -0.07909207 0.023774683 -0.021396287 -0.03256512 0.014778384 0.042073067 -0.042917714 0.02980864 -0.05399091 0.018217498 -0.055021856 -0.054932393 0.039831594 0.08938707 -0.089490995 0.07719278 -0.02048742
6 -0.018243669 0.042235814 -0.04878579 -0.013734239 0.054261237 0.08975181 0.065417774 -0.018267205 -0.043202434 0.042445507 0.121415384 -0.024737779 0.011792869 0.0014736387 0.0077347592 -0.05288397 0.036242522 -0.0042845057 -0.032205895 -0.033275306 -0.034084532 0.010503248 0.029475585 -0.042158544 -0.06276644 0.04743123 -0.07134005 -0.001488092 -0.037956595 -0.059930958 0.0013134571 0.008901472 0.11541476 0.12201003 -0.050778423 -0.07343311 0.08643346 -0.035835903 0.063863285 0.013443726 0.050678242 -0.081352964 -0.028086502 0.019927802 -0.045709655 -0.046093848 0.0388305 0.03725267 0.019600179 -0.063820995 0.025289277 0.01891938 -0.029472984 0.055967145 -0.01690354 -0.061865885 -0.0005481431 0.098890714 0.012315749 -0.017159536 0.041485958 0.03585589 -0.016550954 0.07899019 0.089667246 -0.062380254 -0.055650122 0.06820065 0.05853569 -0.01527638 -0.014892797 -0.030091982 0.020432163 0.014944855 0.051543716 -0.035274044 -0.0005465196 0.017109636 0.046120718 -0.10929493 0.03256502 -0.10397927 -0.08803748 0.04379973 -0.03498563 -0.052200284 -0.09027991 0.010423802 -0.020408051 -0.09343034 0.021248138 -0.04143293 0.051737003 -0.06660239 -0.031785347 0.051288422 -0.03802274 -0.023298398 -8.231544e-05 0.06754702 -0.037546095 0.023639686 -0.059451994 0.007882749 0.051213767 -0.011355797 -0.035182104 0.017230067 -0.04458638 0.04057136 0.078809716 0.033945315 -0.005170636 0.03259022 0.08478034 0.0642353 -0.001286192 0.08446554 -0.027481502 0.0109816305 -0.030645337 0.033044748 -0.041424934 0.009099418 -0.07010974 -0.076530516 -0.051792566 -4.063613e-33 -0.007719074 -0.024003187 -0.05353964 0.031063717 0.0007997389 -0.0051642167 -0.028294409 -0.00023616459 0.024508169 0.10450307 -0.009905226 0.01128837 -0.0006018924 0.042074684 0.13706946 0.049008913 -0.034105368 0.0251819 0.006131499 0.06018204 -0.0019455457 0.032022387 -0.019682452 0.035094798 -0.013337964 0.0033364124 0.0134549625 -0.050879464 0.08437481 0.0066362517 0.038702853 0.15455538 0.057521448 0.029399753 0.023372475 0.014459981 -0.048242353 -0.030697735 -0.026631065 -0.04155769 -0.07064059 -0.015295909 -0.004835691 0.0076240604 0.01859415 -0.007350729 -0.028551614 -0.016774017 -0.07478923 0.009639044 -0.032048415 -0.06927475 0.022278825 0.029338526 -0.045281086 0.10352886 -0.038338162 -0.03441549 -0.00481499 0.04780336 -0.004239288 0.1327999 -0.004941527 -0.0412578 0.014022615 -0.07726376 0.0076795146 -0.024288187 0.07701152 -0.029034903 -0.058048174 0.090199344 0.070622474 0.018637372 0.0302918 0.0071929363 0.04366812 -0.045010637 -0.020571899 0.02067125 -0.092259325 -0.0024609324 0.029177902 0.018052172 0.085331164 0.041616827 0.010734621 -0.061473057 0.021444904 0.0301353 -0.11296038 -0.08578491 0.009533062 0.046985853 0.015040737 1.52450395e-33 -0.033173606 -0.07696416 -0.071608 0.032171793 -0.016968142 -0.040820234 -0.026084911 -0.035203457 0.02979382 0.052255765 -0.11938816 -0.066030435 0.09191175 0.061003406 0.060230162 -0.07112533 0.06531737 -0.020350713 -0.10144253 0.019110996 0.04937669 -0.0064590485 -0.018681621 -0.018997062 0.00081831537 0.0023195434 -0.012130792 -0.059572298 -0.05174245 0.04862962 0.022313867 0.038780537 0.0057139616 0.04542266 -0.12461234 0.018903524 0.11407535 -0.06510813 -0.04690236 -0.053346127 0.011940191 0.013253736 -0.010423204 0.025761569 -0.09601707 0.002484821 -0.009382552 0.13987054 -0.103532486 -0.04860332 -0.032632932 0.017861215 -0.031628095 0.012700649 0.009489559 0.05130361 -0.008529455 0.01613101 -0.03813092 0.034407772 0.062223032 0.12567398 -0.07272953 0.08829899 0.024066428 0.04244464 -0.083051346 0.021782044 0.0398591 -0.037075173 0.076280236 0.0077788997 -0.021103883 -0.0064393887 -0.085305065 -0.038380887 -0.04484928 0.022291774 -0.016388208 0.0004949613 0.028131118 -0.0654354 -0.115523055 0.094989106 -0.058398936 0.040364187 0.046437286 -0.04695565 0.014161249 -0.028857991 -0.10101616 -0.00079872325 -0.049174454 -0.022122866 -0.03832545 -1.487312e-08 0.021859823 0.06044165 0.0038926543 0.0005731286 0.010678565 0.09240578 0.02323722 0.016049689 -0.002181826 0.018072687 0.036035407 0.01365364 -0.027410971 -0.055094633 -0.025545783 -0.034345385 0.09259745 -0.03347346 -0.030012993 0.01432078 -0.009355926 0.022394747 0.015180959 0.040226914 -0.015837068 -0.038519032 0.01970032 0.038818534 0.016575089 0.108676605 -0.06540534 -0.025888367 -0.01601508 -0.019458497 0.0046656574 -0.10363178 0.010034277 -0.06424684 0.033521954 -0.09316835 -0.0055075227 -0.0076425197 0.024119833 0.007034941 0.030663008 -0.043125477 0.0026400145 0.010445776 0.09381092 -0.049358595 -0.033013728 -0.040749393 -0.031125624 0.04947636 0.04024705 -0.0051602744 0.059093934 0.014022381 -0.09529388 0.030779937 0.10243803 0.0066335937 0.095207915 -0.05110332
7 0.04873455 -0.01732744 -0.08505778 0.050759047 0.07198879 0.04976713 0.01985064 -0.0051097157 0.017860627 0.07092997 0.012942792 0.045882426 -0.105261855 -0.069687866 -0.010081414 -0.042572428 -0.056841284 0.003145128 0.009840778 0.0339363 -0.006723713 -0.04267044 -0.0043731593 -0.021258432 0.051270902 -0.0026126835 0.032289274 0.01714232 -0.037683886 -0.06768207 0.011083379 -0.01869847 0.11972768 0.014711144 0.057563696 0.0373917 0.063171595 0.021748595 0.017352527 0.015966559 0.0005058613 -0.080658734 -0.016296225 -0.03319521 0.01097224 -0.034520827 0.11545094 0.036995452 -0.037483778 -0.029356547 0.011339853 0.02008518 -0.017759865 -0.04915993 0.04967219 0.01724021 -0.004332163 0.02679166 0.021269882 -0.0018281423 0.014586248 -0.022214584 -0.05524555 0.029883472 0.1550851 0.008237191 0.05189461 0.021066431 -0.056014534 0.014164433 0.07150186 -0.06951059 -0.057082787 -0.10976405 0.012032292 -0.060882345 0.048625715 0.10430625 0.06467476 -0.030019637 0.04379266 -0.096463874 -0.07040327 -0.045559637 -0.05236021 -0.0048727947 0.016341759 -0.05852673 0.075623885 -0.012927153 0.031011863 -0.032524638 0.031326614 0.012075947 0.01260809 0.04311755 -0.041843146 -0.03285995 0.055032372 0.122365505 -0.016086843 0.009266985 -0.027283616 0.058627896 0.024248213 -0.045882195 0.03349933 0.03568804 0.051627997 0.011855589 0.015059864 -0.008236804 0.026877524 0.004695986 0.0022476362 -0.03293471 -0.021004198 -0.061402418 0.046815768 -0.0039891074 0.0154433455 0.00013133865 -0.047887865 -0.0236687 -0.034550678 -0.062482458 -0.103608355 -4.9319283e-33 -0.043416835 -0.015097887 0.055269208 -0.060278714 -0.06141384 0.06498513 -0.06156859 -0.043579336 -0.0056665237 0.026260972 0.039080586 0.038056653 0.033859048 -0.009131643 0.03834046 -0.03418002 -0.04707021 0.09690327 0.07172915 0.05401619 0.02751787 0.04733465 0.038102258 -0.047516204 0.018175747 -0.061528094 -0.007402154 -0.032082368 0.16587776 0.019768137 0.06632231 0.08058241 0.0070477417 0.002252879 -0.07906897 -0.04632284 -0.06070775 0.002457323 -0.0014967285 -0.0025375688 6.151347e-06 -0.028365187 -0.011624695 0.0718379 -0.0269489 0.0064385724 0.027765453 0.06734639 -0.037706777 -0.022411713 -0.02915061 0.03898688 -0.093576804 -0.1102689 -0.019597154 -0.0047684517 -0.032246258 -0.03897503 -0.08843603 -0.118580416 -0.0018946085 0.011703321 -0.0043089814 -0.02178385 -0.09423815 0.11396081 -0.03778065 0.010446902 0.032569516 0.01596613 -0.024156999 0.025813827 -0.026047016 0.039696153 0.046194147 0.013499923 0.013854367 0.027649797 0.024608063 0.02765435 -0.067280166 -0.056666162 -0.012055117 0.05013818 0.045995366 0.06320621 0.0044786735 0.01684086 0.13062459 -0.015575611 -0.12336894 -0.010148619 -0.03386991 -0.03164358 0.03650977 1.1942575e-33 -0.047416456 0.039622597 -0.020643042 -0.028063335 -0.031782087 0.055445716 -0.017128129 -0.101092696 0.052608155 0.064116225 -0.06230913 -0.036116514 0.04067025 0.09034071 -0.045645513 -0.06762839 0.026431277 -0.054415043 -0.037277624 -0.030031435 -0.029565781 0.039422825 0.037840623 0.024856865 0.010815467 -0.017804438 -0.088093996 -0.049041055 -0.066588245 -0.0062923497 0.005146561 0.02237805 -0.028167706 0.034394246 -0.110757515 0.02655413 -0.0026225257 -0.05613512 -0.025672799 0.010384498 0.024473563 -0.04921981 0.03820034 -0.033261776 0.034403525 -0.02641816 -0.028343624 0.04027849 0.033941127 0.010387096 0.017519923 0.076826476 0.022527011 0.015523959 -0.08349524 0.027234951 0.06267721 -0.069120295 0.013586191 0.05771592 -0.03417518 0.09834316 -0.027163131 0.13608222 -0.039230205 -0.08047346 -0.021531535 -0.1078576 0.057608936 -0.117605306 -0.020761877 -0.027817594 -0.021646338 0.043348044 0.0031863211 0.20258905 -0.065308034 0.04083318 0.08333519 0.0277828 -0.0037279236 0.040832907 -0.013601273 -0.06351652 -0.038907193 -0.033748154 0.0797523 -0.10234902 -0.039954104 -0.038455147 -0.061236374 -0.001962828 0.10545623 -0.022922492 -0.026076712 -1.4631189e-08 -0.038125105 -0.03782417 0.011782951 0.041133303 0.021332305 -0.012700212 0.0022922778 -0.06284397 -0.032756936 0.0149194375 0.007259236 0.11081 -0.053022183 0.079110645 -0.068334304 -0.017651144 -0.038180944 -0.024667723 -0.030645698 -0.040456656 0.01885082 0.04519731 0.013174415 0.050692376 0.020788876 0.038969547 0.056829207 0.048879806 -0.01997044 0.0449599 -0.008894906 0.039774004 -0.00028868028 -0.041337248 -0.016483057 0.017492682 0.045735512 0.050362494 0.005238312 0.0064105284 0.020891583 -0.029362509 -0.06421749 -0.041147348 0.07886669 -0.030588118 -0.018199936 -0.017301265 0.045636017 -0.11472574 0.0035193148 0.00821322 0.06537257 -0.03869382 0.00538591 -0.023831952 -0.026579687 0.0265374 -0.13999063 -0.058384698 0.05319227 -0.057408426 0.0663159 -0.021166543
8 0.030874398 0.09993649 -0.02064299 0.07698144 -0.015606974 0.019744268 0.06858688 -0.01470296 0.01698546 0.08566073 0.058149662 0.00029353565 -0.009104518 -0.0050777555 -0.036118295 -0.022485916 -0.048373185 -0.041000735 -0.08303205 -0.117572166 -0.031098148 0.074827105 0.007927643 0.01870681 -0.0076301764 0.070940785 0.02743184 -0.06735186 -0.0025948072 -0.09258037 0.055698525 -0.0025730345 0.05575406 0.020363584 -0.014827995 0.104460955 0.07272813 0.012908201 0.051851362 -0.05185341 -0.013868559 -0.04211347 -0.034660168 -0.03946426 0.079723746 -0.02487339 0.016445229 -0.04288401 0.010256223 0.0015840825 -0.042540234 -0.044015575 -0.021015603 -0.04887872 -0.021045946 0.04249067 -0.03356825 0.034970924 -0.012971266 -0.03390812 0.016426004 -0.01642919 -0.04475002 0.06065624 0.056665216 -0.038677648 -0.035046335 0.093985006 -0.043460384 -0.02054361 0.049362443 0.0066709393 0.0108744195 0.010608233 0.113066785 -0.054390408 0.015172978 0.037050985 0.0914493 -0.060278233 0.07324806 -0.008375246 -0.056420147 0.026413955 0.01525373 -0.017778134 0.026437562 0.031838708 -0.009087186 -0.009056727 -0.007808087 -0.07718616 0.018510904 0.057519052 0.014468501 0.0022334077 -0.0051819896 -0.078320846 -0.034320135 0.25202408 -0.040232163 0.0009169381 -0.035996333 0.072905764 -0.045439392 -0.006936323 -0.014384753 0.037321143 0.00077514537 -0.033230077 -0.03199168 0.046679344 -0.07592965 0.0710819 0.048126552 0.059916154 0.07834855 0.03169105 0.029923528 0.031251818 -0.02612357 0.019009775 -0.054225683 -0.0044274153 -0.029040562 -0.17667776 -0.052309465 -3.8606052e-33 0.0533938 -0.04630049 0.029072868 0.06319126 -0.052042473 0.017764267 0.056139737 0.001441651 -0.027077444 0.05172777 0.018043553 0.068406634 0.0062098936 0.08523166 0.15310894 0.040713985 -0.08942497 0.09719696 0.06134689 0.024169737 -0.008299103 0.0030434525 -0.010652787 -0.029842488 -0.04008996 -0.014549373 0.0054902155 -0.029846761 0.05026026 -0.0099952575 0.010659665 0.04127822 -0.09645738 -0.0711556 0.02458998 -0.041808516 0.03478231 -0.08747081 0.009729944 -0.066273466 0.050480414 -0.010404277 0.02170016 0.012550851 0.0015868226 0.05453552 0.05603999 0.009285461 -0.050003603 0.045728702 -0.064843945 -0.045814663 -0.04613801 -0.09844974 0.05199123 0.049387332 0.029931534 0.04495389 -0.0045563066 -0.03580799 -0.009449043 0.06675559 -0.011851952 -0.010017901 0.024705214 0.016520025 0.013282767 -0.009636276 0.16593476 -0.119458295 -0.09458207 -0.022485923 -0.021919945 0.023835866 -0.025390226 -0.031615235 -0.014547851 -0.043801174 0.039269965 0.06676399 0.05863371 -0.01783783 0.024759611 -0.040216636 0.12603131 0.027834166 -0.015719904 -0.07346359 0.056850772 0.0009819971 -0.048204795 -0.070576124 -0.0054553305 0.075344756 0.0093426965 2.9032218e-33 -0.017851029 0.03262025 -0.119608566 0.11444361 0.05458878 0.016092526 0.0798891 -0.007149392 0.0068540974 0.02992145 -0.04981003 -0.035795193 0.047986146 0.07939184 -0.0020510152 -0.039445218 0.046401396 -0.014685669 -0.026167756 -0.012301515 -0.05503794 0.02844253 -0.022745712 0.005842659 -0.054586843 -0.0018305837 -0.04894693 0.019407084 -0.06761043 0.07635589 0.08594068 -0.03522324 -0.0038530373 0.04014947 -0.04473688 0.058376927 0.033233803 0.036313307 -0.06559633 0.05283284 0.053030968 -0.05603561 -0.05454327 0.065997116 -0.07081791 0.026477626 -0.0002508314 0.0579064 0.04339908 0.035713706 -0.040543776 -0.005393709 0.012663507 -0.057064936 0.009870641 -0.038265534 0.019080263 -0.009000758 0.0045218025 -0.0031112179 0.06737311 0.014947356 -0.056721665 0.08897936 -0.070405364 0.016878039 -0.03967747 0.058537245 -0.021852948 0.0033896712 0.1066115 0.046148244 -0.033598013 -0.0433136 -0.048904646 0.037445433 -0.034842674 0.053243242 -0.01612316 -0.0055085295 -0.011206878 -0.080219336 0.00039360608 0.017573636 -0.060801685 0.0128240045 0.06858223 -0.05555711 0.02416864 -0.09897564 -0.048905153 0.0032195197 -0.055780176 -0.021216268 -0.036635067 -1.3368668e-08 -0.015916746 -0.06907112 -0.0022795526 -0.07231497 0.00011991523 0.05735896 -0.017102545 0.011034512 0.014776055 0.066183634 -0.07892206 0.03734346 0.011928395 -0.025611624 0.03849784 0.05468049 0.02392719 0.03722704 -0.01184929 0.031692047 0.051636316 -0.026650447 0.004581331 0.0006435327 -0.018112449 -0.029630788 0.04553576 0.04855278 -0.059249092 0.088377774 -0.0150191905 -0.030268712 0.009723202 -0.08088442 0.026064035 -0.046548616 0.00423621 -0.03904503 0.06250128 -0.05284524 -0.05050482 0.008241954 0.073222935 -0.027320432 0.018263383 0.035634656 -0.06259978 0.040377017 -0.009359659 0.0067582685 -0.041203786 -0.039473478 -0.027262358 -0.07039607 0.051986344 -0.080186866 -0.016784156 -0.07306306 -0.07467311 0.02098813 0.11523329 0.0029489386 0.059590954 0.006326783
9 0.0040957117 0.037235968 0.016336026 0.06800968 0.029289952 -0.034797296 0.07201809 0.026234627 -0.011474599 0.070454516 0.025040412 -0.016163362 0.03452095 0.039485887 -0.013656478 -0.023588141 0.017734814 -0.058596227 -0.045900475 -0.058169045 0.007958512 0.033174828 -0.010297742 -0.020241134 -0.05173389 0.02754567 0.005866511 0.06107577 -0.03743544 -0.07119915 0.07529726 -0.04717067 0.070111945 -0.055095706 0.00598646 0.11832405 0.040566765 0.022035541 -0.011096612 0.020560227 -0.019607008 -0.03650588 -0.023595333 -0.0252919 -0.0013703348 0.07698401 -0.03341915 -0.011078153 0.037036754 -0.0071067424 0.087898225 0.01469195 -0.05235587 0.002720953 0.029298918 -0.038978014 0.021450689 -0.02829805 -0.05432334 -0.088498645 -0.042925127 0.0079471925 0.011778162 -0.0024868075 -0.018308282 -0.023662584 0.0071718893 0.033285595 0.08163878 -0.061746553 0.024976827 -0.054862965 0.038273517 0.018592224 -0.03384836 -0.021412104 0.06148767 0.0024157674 0.06809015 0.04100179 0.05754837 -0.07511183 0.006870651 0.019013278 0.01559468 0.0454589 -0.03109026 0.05018665 0.023368 0.049498256 0.007998054 -0.06175725 0.11548689 0.037266664 0.046406575 -0.013126058 0.013632675 -0.06108567 -0.083845295 0.104502045 0.037600078 -0.0031709333 -0.013852979 -0.024824968 0.035511512 -0.078414574 -0.029501688 -0.047765628 0.03922543 -0.02886542 0.030838408 0.030459838 0.018062247 -0.047295887 0.009578708 -0.02222203 -0.055653386 0.006239382 0.004997952 0.08853255 -0.024788378 -0.0029953092 -0.035748623 -0.026349295 0.019263007 0.00058097567 0.05755445 -2.4832796e-33 0.030014616 -0.026359472 -0.032389704 0.044157986 0.07038256 0.004697392 -0.055681605 -0.01045313 0.10563053 -0.020742115 0.0052587655 0.020572005 0.09424445 -0.03401235 0.02187171 -0.051457617 -0.02128632 0.076616585 -0.049517326 -0.04385023 -0.09813643 -0.02499802 -0.01289476 -0.0100718 0.057024855 0.02290549 0.0055036903 0.01823117 0.14648265 0.0006482347 -0.016183475 0.059539467 -0.03317193 -0.03417792 -0.03193818 0.04692522 -0.06773241 -0.008877871 -0.0125424275 -0.08795064 -0.07344893 0.004527221 0.01666802 0.06858664 0.0076865726 -0.04057547 0.026209356 -0.005297779 0.029690009 -0.04914048 -0.06207346 -0.042512685 -0.037648596 -0.050508432 -0.039656583 0.0500686 0.081605196 0.024174727 0.046496015 -0.005435796 0.02678059 0.088020794 -0.026053492 0.041665748 0.11311757 -0.058667738 0.02920745 -0.043922335 0.11385532 -0.0057537076 -0.02546468 -0.025116127 0.081514865 0.031198125 -0.0847822 -0.016352477 0.063328974 0.0013249367 -0.07976803 -0.020468237 0.009255457 -0.045033365 0.067775555 0.10471025 0.094517365 -0.01789859 -0.08012407 0.04519592 -0.09845508 0.08095808 -0.0945995 0.02179751 0.034834668 0.0760542 -0.0007104195 2.3730266e-33 0.06721479 -0.0043258527 -0.072671846 0.026426507 0.07137862 -0.014593152 -0.0275962 -0.025718855 -0.065698095 0.042164803 -0.10065124 -0.050707832 0.056214657 0.028352473 0.023752458 -0.042782377 0.041548938 -0.013562497 -0.09847038 0.07243606 -0.036315516 -0.03354772 -0.035563376 -0.005290461 -0.055211715 0.13233006 -0.017741736 7.528538e-05 -0.112034686 -0.044948038 -0.035493158 -0.0665112 0.020137368 0.075742215 -0.09123539 0.040367212 0.043809626 -0.0119323665 -0.08509754 0.018503796 0.051766902 0.022914743 0.029988617 0.06850472 0.016805628 0.016039336 0.042984515 0.011712243 -0.07786515 -0.008438847 -0.0975481 -0.09827744 -0.07199548 0.042817123 0.027462918 -0.040346786 -0.023253744 -0.087727524 -0.097206645 -0.041474473 0.053345557 0.020796014 -0.009392023 0.09057172 -0.062216483 -0.028711015 -0.030513149 -0.11469625 -0.025129732 -0.017455494 0.09827754 0.05835737 -0.0458455 0.007428993 0.026825469 0.0004965596 -0.07369589 -0.01730947 -0.05873908 -0.058056176 -0.017485937 -0.03259773 -0.10821462 0.11789312 -0.01478181 -0.024416447 0.13562568 -0.034645468 0.0030925272 -0.019373162 -0.059073165 0.028663376 0.018148992 0.04039645 0.004571474 -1.2814217e-08 -0.046557914 0.016962899 0.011852809 -0.075935565 -0.0075152814 -0.092454486 0.015120389 -0.008321737 -0.015193897 0.037932627 0.010858202 0.045040578 0.019257838 0.061964493 0.059338268 -0.03773876 0.076791085 -0.000365951 -0.03693868 0.02673922 -0.03627063 -0.0021061036 0.008267304 -0.005363149 0.13869396 0.06559399 -0.008137929 0.03584153 -0.013069522 0.10211438 -0.054066807 -0.014782045 -0.0018557829 0.04351861 -0.027338373 0.039833903 0.1278187 -0.04331803 0.015082654 -0.07324703 -0.017983975 -0.04770506 0.026923768 0.034213573 0.0015054125 -0.033324324 -0.003354763 0.01612127 -0.0009920188 -0.100402795 0.012913785 -0.055158034 0.04540107 0.055032507 0.04367299 -0.0060934736 -0.02185919 -0.062672414 0.012572023 0.069520496 0.068707414 0.055404693 -0.08584559 -0.046292555
10 -0.035394523 0.09909573 -0.010701155 0.14239548 0.0297487 -0.014692781 0.13192561 -0.029108185 0.052319482 0.010370673 -0.014342743 -0.066066615 -0.07143248 -0.009318426 0.010563895 -0.013075224 0.04984554 0.0021092494 -0.1623708 -0.036616787 0.05386934 -0.024182424 0.03288722 0.038837496 0.051655464 0.093377195 -0.054885145 0.103241675 0.047666565 -0.07578748 0.0032252285 -0.032115925 -0.009729118 -0.000935883 0.004108532 0.117297255 -0.01781758 0.04814915 -0.0020173856 -0.010407722 -0.1118781 -0.10656524 0.07253994 -0.0030051982 -0.05647369 -0.039669286 -0.0009892315 -0.04676253 0.03410063 0.01881823 0.023651062 -0.056231 -0.040699586 0.068339996 0.07376682 0.030763078 0.030173372 0.0015682816 0.029339409 -0.008004105 0.034232568 -0.06874686 -0.06684071 0.03283235 0.09676067 -0.023916926 0.043730184 0.044171125 -0.047243454 -0.051684517 0.028471343 -0.03676702 -0.0058859633 -0.09735585 0.022911156 -0.073494986 0.014615222 0.017495235 0.12113108 0.014075227 0.04193028 -0.05056447 -0.07978228 0.009421759 0.064780354 0.030895978 0.07765993 0.034746516 0.010034531 0.023400962 -0.07125301 -0.012024384 0.017121138 0.032855075 0.027639924 0.011607198 -0.02589323 -0.10162904 -0.04572333 0.17843586 -0.018482918 0.08336063 -0.032122485 0.060326688 0.0033480504 -0.056057554 -0.05770575 0.11384123 0.070624396 0.06756655 0.0091321 0.029805 -0.010921527 0.061013486 -0.05281974 -0.028183594 0.05131777 -0.019863147 0.01277207 0.028710032 0.019751389 -0.0040396475 0.006417766 0.0069755185 -0.06450229 -0.1194314 0.004679718 -4.470021e-33 -0.073723376 -0.062598124 0.11729873 0.015560662 0.022426529 -0.025199717 -0.12256815 -0.03593267 0.0056327046 -0.026952967 -0.023614021 0.06322683 0.06638939 0.09024365 0.010412659 -0.056631733 0.0024635198 0.04062865 0.038209524 -0.041191943 -0.016812148 0.036729302 0.07762273 0.033480868 0.0032398603 0.019408343 -0.00172502 -0.051618848 -0.046310533 0.013782478 -0.027324019 0.0065732035 -0.034140147 -0.014311216 -0.06174227 -0.015642796 0.057081442 -0.037462052 0.006063202 -0.020549007 -0.021852732 0.043106683 0.0126948 0.0011790086 0.048896108 0.006669807 0.1455023 0.017838094 -0.10455415 0.036025476 0.0067241373 -0.019056046 -0.006861716 -0.008725608 0.038105357 -0.028669676 0.033142284 0.023647089 -0.007145277 -0.023196641 0.023268826 0.07030047 0.048868645 -0.008449712 0.024918616 -0.04603058 -0.024515044 -0.027836602 -0.015985698 0.0048056915 -0.049163464 -0.035427224 0.0771362 -0.049425796 0.09464385 0.025856385 -0.039881036 -0.012693739 -0.13323148 0.0214571 -0.043588392 -0.035691924 0.034539077 -0.0339477 -0.040875748 -0.042807497 -0.07126692 -0.06313699 0.019311132 0.055340793 -0.03081332 -0.02930392 0.06409371 0.003361351 -0.05798678 3.6913865e-33 -0.039025247 0.009441336 -0.09059888 0.07049912 0.053036153 -0.026725573 -0.05718828 -0.09814202 -0.053090967 0.022821054 0.012291194 -0.05253853 -0.02934688 0.0032794736 0.024498152 0.023676895 0.043821543 0.016155142 -0.005149846 0.048857134 -0.0040708017 0.06068878 -0.034287244 -0.0038218575 -0.0076810643 0.091601335 0.0113215875 -0.06490047 0.0069625513 -0.011176511 -0.021454208 0.005563612 -0.04140553 0.035333127 -0.044609115 0.109774135 0.08487419 0.02085932 -0.023006314 0.014327932 0.07791257 0.037606645 0.038256638 0.1257857 -0.043661986 -0.050402794 -0.007001305 0.006941429 -0.07161706 0.009404174 0.0687235 -0.035498396 -0.07403263 -0.037545156 -0.045323394 -0.019390093 -0.0064700656 0.011432379 -0.029250244 -0.02283584 0.031136645 -0.03215321 0.038388655 0.11645626 -0.07043759 0.062416617 -0.048352655 -0.0012088976 0.040435404 -0.054128096 0.0296095 0.030121064 -0.026098674 0.012260198 -0.026432944 0.038314123 0.042848136 -0.048131026 -0.020624435 -0.024535459 -0.11352204 -0.0010506276 -0.0040446166 -0.11498749 -0.040757865 -0.08334392 -0.032516878 -0.034520052 -0.0022952165 -0.052486263 0.0016848552 -0.017050719 -0.032407027 0.05892847 -0.016740847 -1.1614651e-08 0.034844376 -0.03297016 0.06743931 -0.06488871 0.052690133 0.007681124 0.04520753 0.02112872 0.048157953 0.0396049 0.10270136 0.022517396 0.07771288 0.097117975 0.05101063 0.021019561 -0.0032384465 0.018373016 -0.053349383 -0.032267258 -0.0026640682 -0.0056142714 -0.025726622 0.03034805 0.034693554 -0.0022581527 -0.008806466 0.045199946 0.031804956 -0.009062673 -0.01324811 0.036094546 -0.020345567 -0.04605991 -0.0690099 -0.059024017 -0.013242853 0.0038495844 -0.011681798 0.032958478 0.015793573 -0.01227461 -0.019848658 -0.018335177 -0.1099659 -0.0012408915 -0.1058892 -0.002059927 0.013994703 0.07084472 0.010321157 0.05110148 0.014915766 -0.018507907 -0.016423231 0.0043073734 -0.050002553 0.015169855 -0.07047928 -0.010740046 0.13037713 -0.012316692 0.010752235 0.044747453
11 -0.053055286 0.12804082 0.067279905 -0.0029519184 0.110324174 0.016971704 0.06890257 -0.02584355 -0.057621337 0.05966363 0.032615412 -0.033426456 0.0076012528 0.008648348 -0.043568563 0.013224319 -0.033922065 0.008991518 -0.11851361 -0.021856558 -0.04334292 0.062131215 -0.0012921357 0.006834944 -0.12361225 0.06996675 -0.00038295198 0.03224159 0.028606677 -0.04803364 0.03451642 -0.01688868 0.039617546 -0.008363121 -0.07302856 0.057853278 0.050682437 -0.08309537 -0.005223555 -0.03323336 -0.0768831 -0.049319703 -0.07701296 -0.06515756 -0.06286736 0.0044182017 0.042555146 -0.0445137 -0.017656872 -0.091316134 0.113359064 0.073529005 -0.0627604 -0.027609564 0.011472757 -0.12229811 -0.014148861 -0.048143934 -0.025740894 -0.015577207 0.06398766 -0.06444554 -0.08380876 0.0456804 0.0713327 -0.03424831 -0.06157542 0.095519245 0.030660609 -0.014216307 0.0071455217 -0.03234417 0.007153518 -0.04714751 0.018778358 0.026215324 -0.002657577 -0.0020862017 0.081829004 -0.0524514 0.100971475 -0.05268782 0.015699852 0.017693019 0.056987192 0.04457465 0.012423452 -0.04016617 0.043747455 0.004890729 0.021891382 -0.06459933 0.14285347 0.059973788 -0.08642178 0.03364063 0.010517568 -0.046835896 -0.039262854 0.14695054 0.05009333 -0.020944284 -0.085590854 -0.031886127 -0.008931161 -0.06611342 0.02998942 0.00682781 0.016391171 0.0028143954 -0.05790718 -0.0012074863 -0.044433232 0.046991568 -0.014498272 0.015307661 0.08222722 -0.0693815 0.07676695 -0.02978461 0.063495025 -0.045692578 0.030562915 0.003634703 0.04136151 -0.05796801 0.008125959 -2.8100169e-33 -0.027298333 -0.018777862 0.020937327 -0.08561164 -0.00578753 0.028091757 -0.009043215 -0.020818114 -0.008133969 0.050539576 0.0480556 0.015583442 -0.013130734 0.018897247 0.14607115 0.0012172086 -0.07465762 0.030248448 0.08382978 -0.0188875 -0.019066636 -0.053148914 0.004457862 0.08796298 0.049660273 -0.0679978 0.048270173 -0.03797088 0.030992346 0.04177885 0.07617748 0.08164626 -0.06575326 0.0058692126 0.019151842 0.073136896 -0.09026766 0.007373531 -0.036177706 -0.020906163 -0.06971759 -0.027766822 0.05615573 0.015908692 0.094595976 -0.05189487 0.003942742 -0.013024487 -0.048676714 -0.025831088 -0.03863545 0.04593484 -0.07037138 -0.07229046 -0.0043048966 -0.035601616 0.03731272 -0.03383601 -0.0029597448 0.009611223 -0.025348611 0.10347924 -0.021846674 0.02027031 0.05984779 -0.03865547 0.042115573 -0.0128312 0.0149421245 -0.051041044 -0.064745694 -0.03961957 0.060260523 0.001248535 -0.09439462 -0.01657013 0.015123758 0.02487565 -0.033877507 0.0053366646 -0.09449378 -0.015458731 0.017779024 -0.018540394 0.012572563 -0.0015302248 0.0076161176 0.044125367 0.06982679 0.008387016 0.007902468 0.01967057 0.037068624 0.012645636 -0.056680236 1.7916473e-33 0.020322302 0.0003141947 0.00461631 -0.029296659 -0.060536515 -0.059417672 -0.06771559 -0.00087095774 0.0021432044 0.012632558 -0.067268565 0.09280652 0.12793946 0.031837724 0.035706785 -0.04545333 -0.020708656 -0.009688047 -0.058744058 -0.06094345 -0.03910931 0.0083126705 0.031421624 0.11016613 -0.12285232 0.045377698 -0.05586869 -0.049702693 0.11693148 0.021622688 -0.05150884 0.036670018 -0.052828044 0.068622865 -0.06744539 -0.044283547 0.04963845 -0.023738928 -0.043607607 -0.007606251 0.05902291 -0.020146018 -0.010030848 0.019256555 -0.025025759 0.034740675 -0.025426628 0.04388298 0.039822783 -0.017063076 0.047422502 0.019641967 -0.01702338 -0.03774298 0.06076541 -0.04615022 0.07195951 0.0072498177 -0.03418425 0.034932278 0.09339989 0.10520359 -0.012389403 0.07701289 -0.05280958 0.03571945 -0.0066077034 0.07255472 0.033720426 -0.039980184 0.0010812663 0.023984674 -0.0898735 -0.06913463 -0.047274683 -0.07352367 -0.040673506 0.037201002 -0.07038135 0.08549578 0.0060547544 -0.012963005 -0.07680287 0.030241324 0.067460656 -0.075799875 -0.02839587 -0.10818353 0.009480901 0.015188873 -0.08988574 0.027596693 -0.14840654 0.07094207 -0.011818885 -1.3081045e-08 0.018011415 -0.01933237 0.025389818 -0.006994706 -0.037985954 -0.012611235 0.009211322 -0.0016742016 0.015524343 0.030509224 0.024184754 0.010521359 0.06752535 0.03537335 -0.036930006 -0.04930414 0.03874975 -0.014871917 -0.059945803 0.017300038 0.011055455 0.0054277126 0.013183165 0.04227688 0.022967873 0.004670322 0.09580141 0.014958094 0.04768151 0.07899938 -0.0072746063 0.07521605 -0.027038435 0.0081484495 -0.020088801 -0.011882387 0.037664782 -0.005208345 -0.016383803 0.0022612312 -0.09955277 0.045420412 0.026906969 0.020665217 0.040565047 -0.046307687 -0.014752384 0.01053558 0.042906124 0.0015985288 0.004827453 -0.044264033 0.065664254 0.08141467 -0.008966698 -0.010849027 0.013023977 0.0051074056 -0.006307778 0.037523128 0.03274632 -0.034800123 0.08779722 0.06269288
12 -0.041075397 0.01776679 -0.016155886 0.02058403 -0.06239597 0.015085741 0.04531943 -0.024435274 0.03541302 -0.018429793 0.110381246 -0.029240498 0.046254013 -0.013649254 -0.03295404 -0.018387381 -0.030970227 -0.02379684 -0.088501416 -0.058612406 -0.064067826 -0.022738768 0.010774659 0.011725143 -0.031017968 0.11009018 -0.020788698 -0.035131358 -0.004586924 -0.04048346 0.03339059 -0.013742518 0.11271949 0.030022934 0.012334714 0.072547935 0.049159 0.05443804 0.047123343 -0.02353506 -0.005326924 0.0047852695 0.0947733 -0.09963483 0.026990335 0.023164127 0.0020167222 -0.0030408737 0.05625156 0.04894945 0.012213203 -0.049954575 0.01135838 0.028130373 0.050599582 0.04236658 -0.06715218 -0.01655089 -0.028661042 0.016520971 0.08430633 0.028977927 -0.12768325 0.005974862 -0.029769458 0.033741046 0.01783635 0.07081963 0.016151173 -0.032194696 -0.03094612 0.026859568 -0.019479312 0.1117232 -0.02039296 0.014069747 0.036699533 0.009771415 -0.02794731 -0.07648426 -0.037405573 -0.060103625 -0.027558645 -0.012724618 -0.023511615 0.02516629 -0.0010429688 -0.040286325 -0.0046769967 0.03650917 -0.102615535 -0.059998505 0.097198375 -0.019607183 -0.08628574 0.035902377 0.0488264 -0.058588248 -0.047566928 0.25253558 0.012841915 -0.04252613 0.03768016 0.060855266 -0.07898385 -0.049022533 -0.055912863 -0.0036814744 -0.01987765 0.016939314 -0.07124319 0.03290348 -0.07671392 0.0046437075 -0.042401217 -0.06827667 0.07328872 -0.005172649 0.0017883745 -0.0036092398 0.011502604 0.06904 -0.023947824 -0.04105227 -0.0062576476 -0.041116953 -0.053588886 -5.2209806e-33 -0.04962727 -0.004102745 0.036192045 0.055152144 -0.01800272 -0.005127656 -0.053114023 0.038325183 -0.03071731 0.024948426 0.014801673 -0.008326308 -0.02849736 -0.030689009 0.031659346 0.049070112 -0.053998683 0.043627575 -0.018024515 0.05191132 -0.06967232 0.10429321 -0.007846422 0.034379795 -0.08220117 -0.058402058 0.06596004 -0.0039576497 -0.036529306 0.019191448 0.028111318 0.056800816 0.02150043 -0.07616593 -0.013465239 0.024448626 0.082753636 -0.086266465 0.022175798 -0.011633674 -0.031353515 -0.044136338 0.016145164 0.043537796 0.021968637 0.016885286 0.053779718 -0.053627618 -0.027020209 0.09800216 -0.049650237 -0.01794528 -0.083101004 -0.0075114635 0.012662376 -0.020482529 0.03306909 0.0102856085 0.0051393807 0.042577244 0.04464113 -0.020691747 -0.0072686397 0.03288099 -0.026025927 0.002771785 0.054683838 0.034954075 0.06337957 -0.013350632 -0.025353739 -0.0053711953 0.01869978 0.020999115 -0.0110710785 0.09295198 -0.010242731 0.043609206 -0.052802425 0.03772564 0.003335074 0.038185403 0.08494933 0.0063276356 0.010040748 -0.026304677 -0.013536751 -0.0064947703 -0.06333604 0.030778721 -0.09976167 -0.013492582 0.09489735 -0.02874681 -0.017907588 3.1959002e-33 -0.0072238585 0.0137525415 -0.02575034 -0.08435692 0.08123967 -0.052991405 0.046244543 -0.06937787 0.09070424 0.09701615 -0.09992881 -0.05420418 0.14225495 -0.0073395497 -0.07008742 -0.049923297 0.07328327 0.0065559656 0.051787045 -0.050907034 -0.010566663 0.030148419 -0.010649361 0.03089536 -0.0011539328 0.03285567 -0.12479785 0.032877043 -0.08195583 0.011766423 -0.029383045 -0.009514518 0.1074966 0.009939684 0.06883857 0.06589189 -0.0036870276 0.07461673 -0.084864214 -0.052365568 0.092896424 -0.0013699648 -0.015072224 0.1070971 -0.05917516 0.047015242 -0.008651751 0.02699115 0.03884727 0.014521603 -0.06343751 -0.002745779 -0.009525301 0.032826528 0.039731115 -0.03121985 0.07692474 -0.029846897 -0.044045884 0.03671086 -0.061859716 0.02239169 -0.072521545 0.10983901 -0.025059836 -0.02068146 -0.1134266 -0.046520706 0.021096384 0.04832038 -0.0153012 -0.083567075 -0.036926694 -0.02669856 -0.093823835 0.04822182 -0.09416652 0.024820248 0.02895427 0.025332643 -0.03332893 -0.0691486 0.007953385 -0.01287491 -0.023559757 -0.08426004 0.07858271 -0.025479652 0.024713354 0.034664717 0.026571363 -0.04765058 0.050096374 -0.034896813 -0.010631358 -1.2789424e-08 0.103417836 -0.012654539 0.006807234 -0.038717415 0.026473586 -0.022724146 0.042001873 0.102070786 -0.038135502 0.09939215 -0.081697255 0.010993684 0.05274564 -0.02226938 0.048702024 -0.03288623 -0.008215301 0.017903946 -0.040693805 0.03150985 0.04897807 0.006747275 0.03947405 0.05569872 -0.044488966 -0.002044513 0.026634805 -0.033631764 -0.036039006 0.045414332 0.04344727 0.0013098911 -0.08597585 0.014609242 -0.042108618 -0.03796333 -0.062300596 0.027782435 0.0019768868 -0.015725326 -0.034195073 -0.04668543 -0.037245147 0.0031298422 0.0052187685 0.010902059 -0.015710827 0.034059454 -0.022489239 -0.0016650385 -0.10968181 0.018728944 -0.09455392 -0.004252322 0.009931666 -0.019677676 0.021576995 0.05185532 -0.021570943 0.019528177 0.13698111 0.065492384 0.11057456 0.026942143
13 0.046598554 -0.021919072 -0.13062164 0.051981427 0.03542401 -0.0077227545 0.042391963 0.0069827116 0.03716009 -0.04564572 0.021658365 -0.029981645 -0.03707497 -0.02347086 0.0029743516 -0.097163 -0.0796559 -0.028599055 -0.007504163 0.036418203 -0.060370326 -0.050872974 -0.009192712 -0.04826753 0.04008847 0.00217207 0.018479062 0.060844537 -0.06045465 -0.055774838 -0.0049202135 0.04671359 0.08517726 -0.017914396 0.056017283 0.058268208 0.04292443 0.087750055 0.0657702 -0.02427258 -0.06386894 -0.10066284 0.015029578 -0.06871372 0.064547576 -0.064601384 0.023057088 0.041754227 0.020876009 0.04746606 -0.046932846 0.023520939 -0.020991396 0.004617558 0.049884275 0.058915127 0.047325354 -0.010528235 0.010386391 -0.011921147 9.5647054e-05 0.015929438 0.023710378 0.028546307 0.079481944 0.051308982 -0.008697822 0.088686265 -0.048347037 -0.0043443213 0.037822764 -0.15480563 -0.054658182 -0.040775426 -0.016441844 -0.03362871 -0.0009194358 0.12804465 0.031731077 -0.015988655 0.033681076 -0.05623537 -0.084606044 -0.03556371 -0.07321729 0.022381112 0.008555565 -0.058595408 -0.024222853 0.0162341 0.03388173 -0.010357293 0.06972545 0.013743355 0.021766288 -0.008752617 -0.038932163 -0.05797577 0.046313737 0.047477107 0.06277133 -0.028178295 -0.039978206 0.055376966 -0.051594257 -0.048580606 0.07961459 0.09995238 0.07811145 -0.060567357 -0.0007487752 0.08349514 -0.03925732 -0.07609443 -0.025820632 0.007863453 -0.023827162 -0.02426687 0.04926539 0.059883893 -0.015877489 0.058800902 -0.10430163 -0.031205202 -0.038179263 -0.061691355 -0.12019306 -3.9015212e-33 -0.06321089 -0.05415808 0.031931683 -0.026112987 -0.0696205 0.07802401 -0.045412734 -0.019771218 -0.07901069 0.025002 0.016745284 0.033333264 -0.018327342 -0.067156084 0.0467487 -0.038987033 -0.02617429 0.0383277 0.043007385 -0.010437779 -0.003611308 0.07215891 0.07047879 -0.09139399 0.10278795 -0.037895106 -0.016164605 -0.033954963 0.07230543 0.048842598 0.028945284 0.061753143 -0.019488875 -0.015386534 -0.058185413 -0.011079439 -0.038448494 0.0040592668 -0.048926167 -0.020976314 -0.07705994 -0.003563548 -0.02582582 0.013279736 -0.031190917 0.10677023 0.06289586 0.06206855 -0.029233009 -0.035561122 -0.046251003 0.023627285 -0.016970757 -0.08736497 0.04005791 0.014649079 0.0023292026 -0.028020883 -0.10959504 -0.044403665 -0.023250522 -0.026962152 -0.05408117 -0.051846348 -0.08212597 0.10818127 0.0012317366 0.06278128 -0.015379987 0.029926676 -0.06982398 -0.008279824 0.027393958 0.097557195 0.020660257 0.014171254 -0.024587011 0.06785693 -0.002428253 0.09985957 -0.04928493 -0.009446143 -0.019630885 0.0646702 0.08154208 0.06508632 0.020429254 -0.05858551 0.09725974 0.00016969736 -0.1381757 -0.040854663 0.050913807 0.018632408 0.06727186 -3.6827529e-34 0.010036615 0.01876362 -0.03471785 -0.00034734668 -0.07491723 0.04678404 -0.0014693751 -0.057347838 0.0027083382 0.099947646 -0.054874897 0.010191995 -0.009205547 -0.004556948 -0.08013661 -0.054620698 0.011946546 -0.039752733 -0.016565861 -0.021834087 0.002575223 0.017759982 0.049432464 -0.025190312 -0.008803608 0.036104232 -0.10052555 -0.00013938671 -0.07460075 -0.0027099499 0.044616524 0.03229931 0.0020635384 0.005376328 -0.06999029 -0.050289504 0.010520141 -0.07156647 -0.013243351 0.04748954 0.03599596 -0.041245516 0.03586695 -0.007040542 0.04196075 -0.07172969 0.04299762 0.056259647 0.073066406 -0.032943476 -0.016866112 0.006314919 0.046411075 0.034623336 -0.051527705 0.08909107 0.043529663 -0.0069089006 -0.03698243 0.06750546 0.0018038001 0.088164926 0.03308354 0.09719882 -0.03607282 -0.0128680635 -0.036708698 -0.014718177 0.028130809 -0.040759753 0.012780195 -0.023097185 0.008443295 0.07075155 -0.018790498 0.12884335 -0.081830494 -0.054513637 0.008533433 0.046461344 0.043315876 0.06422756 -0.05754594 0.047443084 -0.087623864 0.0126219345 0.08298243 -0.11084713 0.034724023 -0.099340394 -0.046934187 0.012518204 0.018950246 0.0073978617 -0.085810885 -1.564985e-08 -0.06549599 -0.03976532 -0.011475315 -0.030874033 0.031662583 -0.029634312 -0.04128899 -0.058471832 -0.016245088 0.03510371 0.0149602555 0.035752505 -0.076573044 0.015664505 -0.06661298 -0.061893 -0.029805336 -0.0045238975 0.023407133 -0.031186963 0.09462139 0.012489674 0.033560652 0.042817492 0.020752264 -0.08328191 0.051309362 0.05878379 0.057828248 -0.013108186 -0.019189944 -0.012653757 0.023372106 -0.036062833 -0.039468125 0.015288091 0.06035409 0.0071197515 -0.034589253 -0.015030703 0.02976856 -0.059257083 -0.021294108 -0.01971345 0.010244666 -0.00948528 -0.018783152 0.010726005 0.065772824 -0.104687475 -0.04516658 0.025210157 0.063194506 0.060078517 0.017193124 0.02719315 -0.048941396 -0.001838275 -0.08703097 -0.075832866 0.056613903 -0.061918274 0.08268446 -0.0019782246
14 0.022230074 -0.09051167 -0.07997871 0.006523226 0.06687531 -0.0071263113 0.0575801 0.045243807 -0.0091075795 -0.03558304 -0.0054088687 0.012591793 -0.08825017 0.09526312 -0.06457395 -0.020971922 -0.08957764 -0.0042619165 -0.033528097 -0.010667547 -0.05816128 -0.06880497 0.04005358 -0.052496977 0.063977115 -0.04726261 0.059698634 -0.04666733 -0.0073714643 -0.022124097 -0.015394993 0.044722375 0.008341607 0.031225678 0.006362443 0.013268664 0.05482958 0.0049137804 0.1018313 -0.03233693 0.04219668 -0.05326811 0.099141404 -0.061083786 0.0010562115 -0.035382655 0.038020857 0.03455092 0.0010316062 0.07393651 -0.014160766 0.081950575 -0.060620755 -0.042783782 0.039867803 0.06975361 0.029327063 -0.029697053 -0.0006541344 0.03168981 -0.009165578 0.004696982 0.018831927 0.043380015 0.046508614 -0.053080227 0.008487388 0.061744202 -0.0996416 0.010586911 0.0025239515 -0.07662811 -0.058661792 0.011237151 0.0063366583 -0.061706495 0.08228831 0.025384955 -0.023372775 -0.04557627 0.015291386 0.072163716 -0.041221768 -0.13393766 -0.016114432 0.007170788 0.034512203 -0.026530793 -0.017271586 0.038158655 0.051477283 -0.09955708 0.043303397 0.060284376 -0.0043686554 0.027274169 0.039125215 0.03647454 -0.0029466117 0.046344694 0.10304026 -0.035298113 -0.05689695 0.08296609 -0.054118723 0.004244968 -0.021057885 0.013238895 -0.007576226 0.017027121 -0.108657956 0.037352223 -0.07084684 -0.036473263 -0.07596199 0.010710691 -0.0027096102 -0.06240495 0.045994338 -0.0125146145 0.042168785 0.031941872 -0.043455515 -0.036113024 -0.114689216 -0.037167817 -0.085123055 -2.9421692e-33 -0.07093675 -0.04041769 -0.031464703 -0.022748137 -0.09474099 0.08709137 -0.03335249 0.034167986 -0.08022669 0.015961459 -0.0816798 0.07244855 -0.006493691 0.045259554 0.042220373 0.025188632 0.01012122 0.04977826 0.11396088 0.042414892 0.093755364 -0.036471885 0.074581966 -0.0024287784 0.098206736 -0.015880184 -0.030075222 -0.043589875 0.06343469 0.022800684 -0.027604904 0.050327096 0.018157415 0.019584147 -0.11416915 0.03467745 -0.044294387 -0.008103685 -0.052210946 -0.0007339725 0.0018817318 0.056999285 -0.06996961 0.0545544 0.022190852 0.053413313 0.0002744116 0.045353014 -0.034879655 0.00063530635 -0.035791516 0.0130480165 -0.07431124 -0.12496495 0.029035084 0.010905766 -0.057481337 -0.03068428 -0.08181742 -0.0689896 -0.0420501 -0.06131661 -0.0019957428 0.032396868 -0.026333837 0.14159554 -0.025431134 -0.022894958 -0.05740974 -0.029580794 -0.08848229 0.015068486 0.06562421 0.04273751 0.0050817556 0.059604492 0.006869123 0.057683308 0.067159146 -0.02455137 -0.073032275 0.0049693664 0.01223696 0.0894418 -0.04670481 0.05820933 -0.015935397 -0.036523964 0.1250071 -0.0062581915 -0.090347975 -0.028664926 0.0050911037 -0.06954434 0.061329216 -1.6416559e-34 0.0015153356 0.032674104 -0.033008367 -0.075597465 -0.058022205 0.037801675 0.01277169 0.047835205 -0.010871901 0.044034455 0.0026184064 -0.030464076 0.064253524 0.06598484 -0.038386304 -0.054320335 0.058324408 0.0076955664 0.00065276463 -0.00045045355 0.046901383 0.07647438 0.037320554 -0.015844997 0.006737745 -0.0013301935 -0.04643166 -0.0593703 -0.024347886 0.040523194 0.055294286 0.10547824 0.011395141 0.042440694 -0.09152127 0.03434276 -0.055063583 -0.044626646 0.0012863099 0.030711377 0.027760463 0.028613985 0.04398135 0.0060867504 -0.07118797 -0.031318493 -0.032597654 0.02807569 0.043378938 -0.06615694 -0.01301287 0.06980226 0.020727979 -0.03136802 -0.07910943 0.06033141 0.0115223555 -0.048050355 0.033047922 -0.026996555 -0.04287958 0.10953674 0.0011309073 0.031823255 -0.020744676 0.00041715175 0.030349804 -0.044056866 0.13592708 -0.054584034 0.079255305 0.019566255 -0.05883668 0.076891206 0.06288401 0.04341337 -0.041171197 -0.06037661 0.013598263 0.038353533 0.0142636765 -0.026473561 0.036524214 0.012661196 -0.010477952 -0.030302752 -0.02132775 -0.02099633 0.043731805 -0.07962463 -0.059022646 0.04583102 -0.01228786 -0.061552074 -0.01697189 -1.4685984e-08 -0.073163375 -0.075291015 -0.025649697 0.09209607 -0.1017723 -0.015073125 -0.066462 0.024729794 -0.022161638 0.044760022 -0.017297897 0.03321903 -0.029201701 0.00520573 -0.099626206 0.018315595 -0.019515492 0.073609 0.020098327 -0.014358088 0.027655493 0.054546565 0.041755285 0.012109155 0.031937297 -0.027603969 0.0026187804 0.012478037 0.017946895 -0.025587937 -0.027761482 0.05635028 0.022813013 -0.006064003 -0.02391969 0.017863223 0.09054655 -0.02932072 -0.054382365 -0.050646525 -0.010597809 0.008495712 -0.052487433 -0.047051232 0.024585111 -0.06517673 -0.014446847 -0.087956525 0.090130486 -0.08691358 -0.029713135 0.059782207 0.08842214 -0.015685407 0.065741286 0.042788327 -0.094346754 0.028319368 -0.04097315 -0.0013178897 -0.07620837 -0.059106413 0.046577193 -0.02426527
15 0.09794732 -0.078812376 0.05136335 0.028150002 -0.00636969 -0.005573885 -0.013827526 -0.06730991 0.0133976955 0.023328109 -0.019357378 -0.077821925 -0.04534911 0.035549242 0.018685156 0.030165235 0.0022900812 0.07036639 -0.0061984533 0.005510482 0.00797351 -0.03197977 0.015114192 0.0346755 -0.028457789 -0.04072675 0.011499416 0.0042158794 -0.029338209 -0.032266773 -0.00070953654 0.07900287 0.059702028 0.055547364 0.04059935 0.03184927 -0.013514021 0.03067979 0.021864222 0.024394376 -0.059380114 -0.059347846 0.017349258 0.022933 -0.020771997 0.08148497 0.06876911 0.057768278 -0.04550326 0.040430166 0.07120339 -0.018369325 -0.0044038547 -0.017594252 -0.024054468 0.007415864 0.012411559 -0.017339813 -0.016590878 -0.002099724 0.019137297 -0.0016904168 -0.070963785 0.026027642 0.09075376 0.02722664 -0.088698596 0.0010551574 -0.016202152 -0.10261604 0.106494784 -0.043252233 -0.051010113 -0.00021941445 0.016005702 -0.004628025 -0.080149546 0.09751433 0.042912625 -0.103179134 0.03537056 0.12608324 0.059759703 -0.0057374006 0.041127462 -0.01626416 0.060792353 -0.015655352 -0.010959314 -0.00093897054 0.051700175 -0.015927427 0.14145313 -0.044141855 -0.019246303 0.02595717 0.023462022 -0.06991958 0.056878645 0.04148838 -0.025387544 -0.023106469 -0.060723994 -0.015301982 -0.044384036 -0.038326345 -0.051020883 0.008596734 0.024469966 0.067194045 -0.028798202 0.043049056 -0.07692399 0.03581487 -0.021532504 -0.09457377 0.036200948 0.0386334 -0.0037127307 -0.07221693 -0.08327346 -0.049687557 -0.06332537 -0.023313243 0.09369994 0.01830316 -0.039502386 -4.4370717e-33 0.027337318 -0.07014532 0.007188629 0.07163907 -0.07195208 0.05186658 0.022905447 -0.055801544 -0.020444723 0.036962707 0.010330563 0.052858118 0.09454693 0.011968963 0.16031095 -0.017593252 0.017145995 0.05337764 0.00566347 0.036235183 -0.07959736 0.078049354 0.03520352 -0.018892461 0.0643467 0.0011973613 -0.06736717 0.015711054 -0.069424205 0.036707416 0.015119898 -0.04365553 0.0013579288 0.021430474 0.009179107 0.08294314 -0.011753676 -0.07271567 0.017724225 -0.030821431 -0.045944814 -0.038882636 0.022436457 0.007942004 0.007699765 0.020605877 0.053404186 0.04535447 0.078294925 0.05069401 0.01890339 0.045235615 0.07330915 -0.1165907 0.07818424 2.4886447e-05 -0.015321444 -0.0023847267 0.03213617 0.01993041 0.04587373 0.11273618 -0.046156883 -0.009990812 0.006703663 -0.09095693 -0.04309603 -0.004708177 0.092306934 -0.0669941 0.033739142 0.02321191 0.024879444 0.10131783 -0.0904064 -0.04590631 -0.036824267 0.012741444 -0.036856204 0.02745204 -0.039868094 -0.045404416 -0.09960038 -0.0038567102 0.099223725 -0.016982498 0.08901006 -0.022491474 -0.028002251 -0.035466895 -0.091977835 -0.013850596 -0.020076243 0.039173447 0.002402237 9.880661e-34 -0.07699723 -0.06826963 0.018055202 -0.08405353 -0.06265253 -0.024232877 -0.042460755 -0.10752577 -0.025434151 -0.011698715 -0.13359062 -0.021771597 0.010988152 -0.02237828 0.011895959 -0.04658485 -0.040989585 -0.015162284 0.009863025 0.029319406 -0.016797593 0.049315505 0.047862414 0.033595975 -0.05732661 -0.024154466 -0.04324457 -0.07081627 0.0049136737 -0.017836219 -0.06431824 -0.11610137 -0.025859704 0.00255433 -0.09209994 -0.07404657 0.016096499 -0.08721824 -0.00027672783 -0.0047415746 0.03405829 -0.015409228 0.054545872 0.030696483 -0.06502079 0.0035155055 -0.028219478 0.12221298 -0.061575647 -0.04355175 -0.078566015 0.045543786 -0.009009491 0.07862268 0.09858765 0.08318123 0.020981675 -0.035169493 0.0922006 0.0041712583 0.014519701 0.09332304 -0.0132877715 0.09376248 0.05839872 -0.010176489 -0.020067718 0.032674003 0.04620847 0.01150378 -0.0089744 -0.048252597 -0.11983714 -0.03758233 -0.051564176 0.04351014 0.010909825 0.05685269 -0.017961616 -0.02299614 0.02338721 0.026936809 -0.028666532 -0.01687814 0.11964336 0.051271427 0.04531554 -0.1102532 0.05657367 0.06971597 -0.05465352 0.00046920797 -0.0027378132 0.034215502 -0.042017374 -1.5215134e-08 0.0048523624 0.015141247 -0.024893869 -0.0034257746 -0.025423333 -0.10862614 -0.01881734 0.032941952 -0.057249594 0.11368711 0.0391542 0.0691364 -0.031475846 -0.026824467 0.04187843 -0.05806177 0.01728967 0.036408078 -0.058657907 0.05620645 0.0016816792 -0.017244456 -0.036736436 -0.0006141756 0.044541027 0.02111182 0.0032934672 -0.010821132 0.019168364 -0.009945462 0.037388705 -0.00468478 -0.045664795 0.061712675 0.059921 -0.03994003 -0.04913941 0.015628252 -0.0011488599 -0.057795387 -0.01618115 -0.031013144 -0.0006235796 0.060707096 0.07689192 -7.42742e-05 0.0035277088 0.0053166375 0.039155815 -0.08752979 -0.12534373 -0.027446318 -0.06023713 0.030512314 0.031153103 -0.0057519716 0.027731972 -0.03023738 0.023655212 0.016412443 -0.023266602 0.051571175 -0.030829819 -0.07569939
16 -0.01833867 -0.057426892 0.0067968005 -0.004695472 -0.053935133 -0.01936471 0.091752864 -0.03501929 -0.01900938 0.055462584 0.021027662 0.048355583 -0.041845888 0.015547548 0.009113107 0.015219835 -0.038730226 0.03985064 -0.10189151 0.016228393 0.052499607 -0.055572573 -0.060301207 0.020612089 0.058339786 0.024793766 -0.112797424 -0.034716334 -0.032291085 -0.08078158 -0.0011399285 -0.006176947 0.04859058 0.03548737 0.045827832 0.07496912 0.08243552 -0.03675637 0.104574986 -0.02225827 0.033268988 -0.067711286 0.0043400205 -0.04378812 -0.06890803 0.05570888 0.085493006 -0.009631251 -0.002141981 -0.07963203 -0.0019121222 0.059578847 -0.056912236 0.029110277 0.05546873 -0.053062838 0.021376763 0.022265797 -0.0015470185 -0.065736674 -0.014553331 0.009569961 0.00092388724 0.048132107 0.014674095 0.01669751 -0.040601097 -0.039701726 -0.007917866 -0.083221 0.029316727 -0.059456814 0.009266834 -0.021957124 -0.027780656 -0.073873945 0.066013075 0.084512234 0.059956986 -0.07559596 0.09679068 -0.013573196 -0.005434634 0.047656156 0.0022765507 -0.046664175 -0.038851377 -0.0232149 0.04250313 0.009086364 -0.0014726978 -0.038540505 0.07009988 0.005149968 0.005492084 0.03748498 0.033337064 -0.044015016 -0.007611405 0.13040933 -0.02526152 0.0072473087 -0.07673478 -0.05020073 -0.051289845 -0.004973954 -0.110804155 -0.053956527 -0.025679028 -0.013110257 0.0047973553 0.031865653 -0.024047503 0.009843881 0.007712232 -0.021401085 0.012335887 0.027080944 -0.032212075 -0.052937344 -0.026154019 -0.03133653 -0.048864573 -0.0051010973 0.0032254653 -0.014452825 -0.007427917 -5.6204385e-33 -0.076782405 -0.11914629 0.012160754 0.124673255 -0.016364146 0.049635198 -0.06440796 -0.07540495 0.024570864 0.047278896 -0.010516891 0.099942595 0.04097716 -0.031940553 0.11269315 -0.043639153 -0.05038767 0.03154355 0.042425133 0.06517671 -0.014585392 0.02353764 -0.015985334 -0.026177468 0.18097894 -0.0030296799 -0.011333207 -0.024651526 0.043124788 0.015580795 0.00437916 0.105512 0.028148731 0.0011491644 0.012880025 0.082694545 0.0058931457 -0.053219754 0.04605573 -0.0369622 -0.043482997 0.008794176 -0.06567457 0.05065248 -0.015204837 0.071669735 0.023966093 0.021072004 0.038201354 0.0006910145 0.03269559 0.0019113373 0.01808855 -0.03984213 0.023375023 0.0043526003 -0.000311116 -0.013751475 0.018703155 0.019557891 0.053635556 -0.028329017 -0.030142445 0.05472404 -0.0027451753 -0.045680672 -0.07802934 0.017707435 0.06616424 -0.025464986 -0.019919232 0.020267654 0.029201072 0.009739214 -0.03856459 0.005630961 -0.0075270715 -0.024383314 -0.09660162 0.036216583 0.0014754524 -0.006263952 0.13128364 -0.017089603 0.13138342 0.02141859 0.030814594 -0.046277512 0.076388985 0.033734396 -0.15953706 -0.03646243 0.013911752 0.02880204 -0.03434031 2.5025197e-33 -0.04850257 -0.042172913 -0.047243867 -0.034463353 -0.022247484 0.0708787 -0.014536142 -0.15954827 0.049063597 0.020624077 -0.092834935 -0.028602164 0.03251197 0.031016823 0.040341634 -0.08810089 0.057953626 -0.018147035 -0.03771011 0.044783983 -0.024480276 0.08441297 -0.09484501 0.019342445 -0.028042294 0.011660678 -0.09032021 -0.10417613 0.075129844 0.016328426 -0.018332982 -0.012403603 -0.03819115 0.026638739 -0.09457071 0.06530682 0.029119048 -0.03251778 0.060207747 -0.011912098 0.009364818 -0.08477633 0.02149461 0.056315403 -0.12233841 -0.05129602 -0.07490885 0.0610647 -0.08435089 -0.058026053 -0.060576078 0.045979526 -0.0451841 -0.0036472369 0.0018018949 0.082109824 -0.022200843 -0.0013411524 -0.007626466 0.057189092 0.030960996 0.05588208 -0.02182439 -0.014700468 -0.07184739 0.07288758 -0.024619855 -0.11476822 0.12101225 -0.029236404 0.05491046 -0.02895093 -0.11967946 0.022675944 0.038523003 0.038026795 -0.056352284 0.041335545 0.020024246 0.05552213 0.06443989 0.0020659612 -0.018896516 -0.041091703 -0.05516392 0.06083933 0.104254514 -0.01939346 0.030096909 -0.040949438 -0.08358247 -0.040651068 0.030382793 -0.0007794523 0.05121075 -1.44603955e-08 0.008295467 0.020629482 0.018420395 -0.02093522 -0.02421923 -0.019532535 0.056573242 -0.02354778 -0.065236054 -0.033613138 0.065341756 0.0340579 -0.047042493 -0.0029819515 0.009733075 0.015659705 -0.016431209 0.02205224 -0.029394213 0.020189665 0.0013465969 -0.026731893 -0.009680019 0.06754488 0.05439425 0.053461563 0.009484875 0.023253081 0.039981034 0.093620956 0.0221075 -0.008992629 -0.01778721 0.05616149 0.0005137772 0.035565127 -0.0035623717 -0.018931167 0.005160599 -0.11845228 -0.0024007878 0.03578681 0.09044282 0.05718472 0.013879565 0.026848719 -0.0048380783 -0.010003765 0.091086306 -0.12985983 0.0017585403 0.020487973 -0.030509574 0.045066684 -0.004326928 -0.01073236 -0.006693223 0.06486249 -0.022214329 0.015796224 -0.063779704 -0.013934476 0.06659811 -0.026254263
17 0.005371267 0.09974137 0.0019113695 0.08381049 -0.02223915 0.050864264 0.12589976 0.035041746 -0.080078736 -0.025376052 0.022486772 -0.011805519 -0.046744734 -0.08854073 -0.013379945 -0.07676192 -0.016539617 0.020499885 -0.09202416 0.040027514 -0.08485407 0.11784207 0.062312305 0.06397991 -0.06879192 0.086572826 -0.013051997 -0.06967658 -0.018750103 -0.043983858 0.07506335 0.026740571 0.074640766 -0.018979713 -0.053170092 0.0023616347 0.058390144 -0.04506407 -0.061071567 -0.072448894 -0.046636395 -0.073774636 0.024013389 0.023948 0.03609128 -0.017013552 -0.03484603 -0.0014881598 0.08157572 0.017500767 -0.07874871 0.0068546976 0.0036710962 0.048406668 0.10589585 -0.03897619 -0.062508844 -0.0871843 -0.08567719 0.028818615 0.07401125 -0.0076353825 0.01538601 0.06197245 0.07144265 -0.017592799 -0.037204828 0.023793727 -0.05058389 -5.0842386e-06 -0.035351165 -0.0944932 -0.02523977 0.04208934 0.07599146 0.024364902 -0.061618768 -0.091151856 0.0769328 0.002124919 0.042726476 0.018797446 0.025366569 0.109769695 0.021375773 0.017431466 0.098770514 0.010695321 -0.06790788 0.0072360225 -0.049876727 -0.024578707 0.04300983 0.052280612 -0.027550997 0.025020922 -0.02810461 -0.074355125 -0.056097303 0.20906062 -0.020560132 0.009149644 0.012506339 0.07225721 -0.024633814 -0.012454967 -0.037660386 0.026537662 0.027876165 0.018532515 -0.038302794 0.043215152 -0.009426532 0.010003155 0.020072237 0.020916726 0.010150194 -0.06860532 -0.017264701 -0.020053253 -0.0076136985 -0.06322474 0.00988755 0.009774756 -0.022922749 -0.092450306 0.022434082 -6.147229e-33 -0.0010625077 -0.08565319 0.14764483 0.04950842 -0.018972779 0.042907994 -0.025833737 -0.07021074 0.01827283 -0.006787565 0.019264502 -0.00762591 -0.015656777 0.042175543 0.027862031 -0.009137682 -0.09847688 0.07421735 -0.017494045 0.02514191 0.0037633437 -0.047849413 -0.008057489 0.077174045 -0.042822056 0.05597139 0.014874675 -0.0614827 0.04187893 0.010580634 -0.04341954 0.060028028 -0.026861306 -0.1402273 -0.020681757 -0.046999518 -0.037795942 -0.034758195 -0.051274545 -0.061800987 0.009916048 -0.0020949794 0.024146326 0.03220524 0.048613176 0.0038436088 -0.011949846 -0.00096059684 -0.11399757 -0.021782385 -0.055879213 0.009153642 -0.008624827 -0.026236799 0.0032368007 -0.028221628 0.016620308 0.012393274 -0.07799836 0.033754356 0.098004356 0.061739642 -0.05360228 -0.027329449 -0.04378312 -0.032803923 0.00013874717 -0.055313528 0.031332266 0.014549169 0.012114908 0.037215285 -0.018197687 0.020487955 -0.055023063 0.03608905 -0.0065935305 -0.043669127 -0.087067954 0.025884083 0.028910996 0.03385863 -0.02102194 0.051302783 0.055243596 0.054703806 -0.027621211 -0.029583996 0.0034529488 0.009782509 -0.091125436 0.022989528 0.09011327 0.042185396 -0.017582433 3.7436703e-33 -0.007937291 0.001202206 -0.07658809 0.09760443 0.059398554 -0.060567986 0.009738511 -0.0043212194 0.054407056 0.10725683 0.03460216 -0.075390115 0.0352807 -0.016229467 0.03755114 0.050062437 0.047081165 -0.020189827 -0.0329499 0.07256604 -0.016871119 0.036182534 -0.0005695448 0.01290543 -0.058286373 0.09394909 -0.036592238 0.036140352 0.036544096 -0.009948578 0.028959641 0.04935657 -0.008304228 -0.028372737 0.031693485 0.022588314 0.04123063 -0.016872028 -0.039830618 0.032222647 0.13645384 -0.00073929154 -0.019833155 0.100447215 -0.008496259 0.040509798 -0.011164358 0.03026632 -0.03951605 0.016980931 0.041458413 -0.019393167 -0.05941305 0.046059694 0.02539812 -0.031097077 -0.10577567 -0.056091115 -0.06105805 -0.008683504 -0.012480183 0.055145744 -0.10803909 0.03684705 -0.096727476 -0.015359118 0.018678175 -0.02409512 0.00042201666 -0.040295128 -0.012377448 -0.03779497 -0.014250468 -0.016427297 -0.052302606 0.017447043 -0.08135199 -0.027087439 -0.015821232 0.0104231415 -0.08083126 -0.107540086 -0.014851969 -0.03018848 -0.088277966 -0.028287545 -0.0005535325 0.0025793386 -0.009132629 0.013603966 -0.03551176 0.038891584 -0.12510635 0.034398228 -0.035431966 -1.3896004e-08 0.054188825 -0.070801675 0.017538011 -0.059189785 -0.014434373 -0.00021458893 -0.020506844 0.08240919 0.08623309 0.10614385 -0.008999581 0.07033516 0.043474637 0.021175308 0.012859067 -0.01877804 -0.04231329 0.031950615 -0.028089754 0.012786386 0.025724512 -0.030765332 0.0653957 0.039103523 -0.09661418 -0.03728732 0.044529367 -0.018550368 0.007939275 -0.016201507 0.059857957 0.06901557 0.024557097 0.0116724735 -0.025203926 -0.061708253 0.048688274 -0.053801645 -0.023008334 0.015019544 -0.0025703344 0.06457104 0.037084877 0.018449664 -0.033525456 -0.09005025 0.024279084 0.03716343 0.033882756 -0.085129514 -0.013202701 0.0072424295 0.047174558 0.008302347 -0.010886534 0.045082055 0.0343024 0.030796053 -0.05154348 -0.016948896 0.14215767 -0.032317545 0.03840274 0.054306373
18 0.042332504 -0.026515702 0.026651198 0.07034554 -0.008193774 0.009775212 -0.016767723 -0.09136483 -0.09035535 0.017037634 0.090538956 -0.06441196 -0.03457511 0.049915206 0.03786992 0.020935517 -0.04756425 0.036410887 0.051057152 -0.023574946 -0.042820092 0.009802673 0.004190977 -0.021420605 0.066784985 0.05290348 0.0625841 0.028174149 0.053734273 -0.0054177428 0.09932223 0.018719422 0.10179633 -0.027045645 0.05760124 0.068265356 0.081417814 0.03639513 0.06556905 -0.01935351 1.1369189e-06 -0.05195957 0.0452913 -0.037161484 -0.041134518 0.038778 0.014324468 -0.073813796 -0.007878397 -0.06269368 0.069359176 0.0795686 0.0071135806 -0.018093964 0.039555646 0.046616755 -0.023313329 9.761732e-05 0.04137201 -0.066993825 0.07106461 -0.008747146 -0.05946026 0.06450252 0.10227586 -0.055070236 -0.007911439 0.054496255 -0.028568402 -0.08215694 0.010092426 -0.040113103 0.014060471 -0.040969566 0.061169513 -0.015831217 -0.029671313 -0.0017467323 0.060320623 -0.010795905 0.066632666 -0.010396635 -0.083622694 0.025118235 -0.10025666 0.032456897 0.04577109 -0.05208645 -0.060442053 -0.028255798 0.025186773 0.04574911 -0.009386731 0.03510132 -0.04857559 -0.041439615 -0.045164347 -0.092435285 -0.005325131 0.12875688 -0.0615284 -0.05446559 0.0007650546 -0.062212683 -0.016051114 -0.06334711 0.0019663838 0.044547334 -0.04484625 0.04372637 -0.031179432 -0.03373368 -0.077853315 0.039577506 0.06154493 -0.038218673 0.04422411 -0.028347146 0.025360385 0.017881567 0.07011101 -0.03326676 -0.05912318 -0.054097336 0.023318505 -0.05252581 -0.05032051 -4.5924136e-33 0.050535265 0.009866531 -0.08440766 0.10390053 -0.0021630782 -0.027897628 -0.015866581 0.040954363 0.032888424 -0.04149567 0.07292539 -0.009774777 -0.036252785 -0.0013551154 0.08186543 -0.02017133 -0.06098239 0.031938598 0.0073630125 0.08650756 0.039998025 0.104335554 -0.017211922 0.012317559 0.023664435 -0.08370678 0.0030033612 0.0011208642 -0.03203198 0.011345922 -0.016493713 0.08820712 -0.035825495 -0.06519003 -0.028600404 0.07821098 -0.009190672 -0.034633856 -0.07600268 -0.05395462 -0.04566523 -0.059605412 -0.0072607747 -0.028633343 0.1247345 0.04230152 0.0425096 -0.057421006 -0.089068644 0.06166865 0.012224795 -0.037376095 -0.166479 0.05614594 0.04192193 0.008384233 -0.02249643 -0.02638429 0.032536905 -0.052728187 -0.011030227 -0.0027741625 -0.004281737 -0.029734373 0.001988791 -0.048246164 0.08134326 0.04212182 0.10073601 -0.031931557 0.008104767 -0.010030819 -0.029903872 0.044118445 -0.011538597 -0.03273404 -0.119821034 0.03616448 -0.00037517006 0.0744871 0.039969698 0.03526366 -0.052760344 0.027286053 0.13789581 0.0046918495 0.03665625 0.03522164 0.00042817177 -0.061436657 -0.051533777 -0.014916416 0.032279793 -0.031797 0.014710863 2.3582646e-33 -0.10147214 0.0039156326 -0.08412643 -0.019541427 -0.03468194 -0.0033778062 -0.02458706 -0.07376655 0.06532006 0.048540417 -0.031703737 -0.08402217 0.10528525 0.06396519 -0.09295236 0.018351221 0.044475425 -0.038747314 0.0322972 0.047560863 0.0011512765 0.06439111 -0.08143105 0.0034968078 0.033841103 0.028677609 -0.081563644 -0.03914873 -0.03014244 -0.007972111 -0.052442048 0.0032062219 -0.052094776 0.0622293 -0.045147266 -0.007008357 0.025629284 -0.043411728 -0.09801539 -0.012784152 0.06152244 0.0060618175 0.032672778 0.021725751 -0.015314593 0.020062393 0.024262546 -0.012110303 -0.062173914 -0.0028261128 0.06825777 0.03694891 -0.0018422159 -0.057768624 0.048304614 -0.027482526 0.111311466 0.014483529 -0.037703075 0.13254848 0.02432145 0.058190454 -0.009930523 0.060357787 -0.027033152 -0.017934402 -0.055646542 -0.1374308 0.0054400815 0.017421728 -0.023965862 -0.0760454 -0.062468372 -0.048458472 -0.044805504 0.0070038782 0.0016143059 0.09198528 -0.015060374 -0.051016305 -0.039250303 -0.015450592 -0.037669558 -0.00030923757 0.028554134 -0.058552302 -0.017194098 -0.057935715 0.021429025 0.11580021 -0.10111535 0.087029606 0.012271403 -0.033801608 0.008712246 -1.405429e-08 0.08339116 0.043991916 -0.034109816 -0.019779397 0.025076613 0.038901 -0.004117511 0.012436501 0.050627846 0.11142864 -0.017171623 0.08439358 0.0003062648 0.037920777 -0.055365615 0.04925206 0.014324502 -0.04579998 -0.055660035 -0.009402581 0.06550309 0.016719764 -0.026126968 0.046126146 -0.013806719 -0.049133215 -0.049872663 -0.01704011 -0.0064436398 -0.044920303 0.04096628 0.0714534 -0.05958292 0.003477138 0.009036717 0.03624404 0.11503183 0.019911483 0.040793933 -0.054734737 -0.028988592 -0.03625407 -0.033375055 -0.0754929 0.0063685477 0.007374512 -0.023592157 -0.00095507456 -0.016743679 -0.12825607 -0.038612433 -0.03880988 -0.03804457 -0.0038149757 0.0462223 -0.0021172483 0.0148190195 0.026537513 0.037172455 -0.04615461 -0.005527762 0.051381677 0.015576911 0.022618894
19 0.03952974 0.00016754548 -0.03918915 0.010783233 0.07590862 0.018893378 0.11191156 -0.06875903 -0.014555517 0.007352535 0.02792781 -0.04665842 -0.010939858 -0.0030706152 -0.039270412 0.033704493 -0.010741541 -0.08083082 -0.046870887 -0.0634924 -0.08909337 0.014102585 -0.06870785 0.005504842 0.009325684 0.06454228 -0.028402599 0.020653592 0.04442838 -0.07463976 0.013386304 0.091857605 -0.03219203 0.12433357 -0.049762446 -0.048369166 0.10941638 -0.058797017 0.07562549 -0.041092403 0.017653793 -0.06913079 0.012808104 -0.016985273 0.037384752 0.016290085 0.03822709 0.012122683 0.04744584 0.027968358 0.019477166 0.02086079 -0.01495281 0.038670838 0.030474234 0.012448335 0.05989691 -0.023845304 -0.045149203 -0.012355201 0.01683237 -0.0007257579 0.024348946 0.051838797 -0.021841343 -0.029590884 -0.050876506 0.042540595 0.03886986 -0.047166787 0.014970821 0.008016555 -0.08000607 0.049325492 0.091728956 -0.1292453 -0.010683156 0.03500832 0.003440018 -0.031101014 0.049163662 -0.01857671 -0.14294675 -0.03785852 -0.030954227 -0.042198237 -0.0058982503 0.024524832 -0.036378514 0.05314117 0.0015994672 -0.050524663 0.11259834 -0.0088850185 -0.04919195 -0.045574486 0.018797323 -0.02392491 -0.007813057 0.20795049 -0.0017358643 0.013873634 -0.045511648 0.029010557 -0.0109536555 -0.047529656 -0.04361829 -0.01186649 -0.002964483 0.015107999 0.026199006 -0.05009035 -0.08117871 0.056430817 -0.011850367 -0.033062536 0.051389705 -0.006780726 -0.009152464 0.048811566 0.014325656 0.05390008 -0.14361705 -0.053305116 -0.085730426 -0.114573464 -0.025010582 -5.1124332e-33 -0.01302753 -0.054657597 -0.020066952 0.024182037 -0.02010159 -0.050594036 -0.059598047 0.028305274 0.005091738 -0.022494812 -0.03584162 -0.00082722557 0.02455573 0.02598798 0.06147666 0.031135067 -0.06669294 0.07551396 0.0031912003 0.086488634 0.124083005 -0.033858262 -0.02019589 0.064027615 0.036017857 -0.0015441632 -0.06142933 -0.10006014 0.027041722 0.025020652 -0.06547511 0.10624619 0.07256476 -0.029118052 0.007824012 0.01405328 0.047815416 -0.05788165 -0.014404761 -0.033050492 -0.073614344 0.016353918 0.048072577 0.07793082 0.08867719 0.038840946 0.064611554 0.01980322 0.027156515 0.025356798 -0.07469543 -0.044725053 0.0064481273 -0.06267099 0.040541273 -0.051477224 -0.007340763 0.043586344 -0.028290253 -0.024857765 -0.029292334 0.0014650738 -0.082187824 0.0676139 0.007335338 -0.07222569 -0.009669962 0.01912066 0.0017067879 -0.057807278 -0.06144866 -0.006438751 0.011136211 0.027513398 -0.024289569 0.036884334 0.0063208262 0.0324364 0.0016914924 -0.072994776 -0.062328096 0.0145212775 -0.04880961 -0.02045027 0.08560919 0.08261689 -0.00466673 -0.018431962 0.040472213 0.023879236 -0.06176419 0.009099877 0.08276621 -0.018762475 -0.008233606 3.2814094e-33 -0.082825504 -0.05064012 -0.023082754 0.03527701 0.0448602 -0.0473609 0.074492775 0.03565117 0.04300141 0.035694186 -0.07069886 -0.06532121 0.14522517 0.09105117 -0.10151149 -0.023294125 0.116736814 0.021598332 -0.02240834 0.048126835 -0.016496569 -0.009639577 0.028494876 -0.05597139 -0.004200982 0.023706565 -0.0017531287 -0.051259093 0.0049541057 -0.016356505 0.01804626 -0.0064755892 -0.036279432 0.07876903 -0.056408014 0.089903764 0.0138831595 0.035857398 -0.02052101 -0.0058198795 -0.015309042 -0.006497208 -0.0039746775 0.061818007 -0.09235531 0.11042464 -0.051778805 0.104338326 -0.016474258 -0.022737693 -0.015832044 0.09521865 0.023048375 0.04174485 0.0136906225 -0.006708769 -0.0468918 -0.018485472 0.020889616 0.035570547 -0.04010645 0.075597726 -0.0041486723 -0.0054890946 -0.0076407674 -0.022124635 -0.015657665 0.03941462 0.064395234 0.05338306 0.068228446 -0.047613446 -0.101148985 0.03367577 -0.022811467 -0.030326843 0.007841436 -0.007871324 -0.012246941 -0.013878267 -0.015747713 -0.055390984 -0.040744815 0.010594326 0.04005292 -0.011564512 0.0028299189 -0.008768749 0.08082414 0.022653392 -0.07985961 -0.005140287 -0.07214189 -0.07019105 -0.051601965 -1.1956289e-08 -0.01823163 -0.05929965 -0.03726598 -0.03186478 0.007695929 0.056126684 -0.044991408 0.070454806 0.04087639 0.007127736 -0.06901284 0.060807023 0.009491729 -0.029300783 -0.039033737 0.045181092 0.060445033 0.0063902866 0.0083899405 0.001774962 -0.08330513 0.010958963 0.025579313 0.014451014 0.01731776 0.06983701 -0.03167151 0.034811057 0.085178226 -0.0021053462 -0.048524655 0.05595392 -0.0767442 0.037004735 -0.021723917 -0.02337769 -0.026386566 -0.0050068493 0.06614755 -0.12989955 0.0076202354 0.09624987 -0.008194612 -0.03765154 -0.05372512 -0.104600735 -0.0418737 0.0028305843 -0.007560432 0.0034802633 -0.022213863 -0.04421748 -0.014459067 0.09141785 0.119092986 -0.0011724968 0.0015273936 0.0003549212 0.017425444 0.06508715 0.06906337 0.07354677 0.078781456 0.022701807
20 -0.027485969 -0.022755299 -0.0074961246 0.013058295 0.032915745 -0.028027508 0.05073131 0.0032354868 0.012499148 0.045962572 -0.032689344 -0.012283618 -0.013894124 0.074630395 -0.04464521 0.004995672 -0.07545195 -0.036339175 -0.09428657 -0.04758836 -0.026687292 -0.006509291 0.04055548 -0.020472154 -0.10151836 0.029479206 -0.037145123 -0.030720197 -0.031509373 -0.043784436 0.023075206 0.021577185 0.011695965 0.0404789 0.008694491 0.055558506 0.033897795 -0.042858332 0.08424936 -0.022024589 0.029434957 -0.079223625 0.09000318 -0.03173956 0.007823233 0.034313116 0.019828428 0.038906027 -0.027129862 0.018470546 0.05230929 -0.007464587 -0.03214252 0.002071493 0.053332422 -0.025368564 0.010553504 -0.026172431 -0.040622845 -0.040299445 -0.015452847 -0.02753862 -0.027647201 -0.00014465085 0.042700823 -0.06349732 0.04646448 0.050939567 -0.07503986 -0.09808763 0.0055616093 -0.025078371 -0.013771855 0.048973184 0.0721315 -0.098795936 0.067896724 0.061432358 0.089458324 -0.031687144 0.1287996 0.07240681 0.012429686 -0.013017562 0.068271056 -0.062862806 -0.01101258 -0.031584915 0.002532941 0.06154993 -0.026347144 -0.089938216 0.15311219 0.014661917 0.0015459879 0.042323865 0.049482718 -0.00014921639 -0.12161032 0.1596415 0.04227936 0.009991039 -0.088769995 0.070889115 -0.044905435 0.010718151 -0.011720457 -0.038903914 -0.045202523 0.056932807 -0.09366262 0.0134207625 -0.025006115 -0.017449845 -0.012523404 -0.022008633 0.039447255 0.04917487 0.045962244 -0.07120461 -0.0146534145 0.024596337 -0.044166666 0.010415776 -0.034058616 -0.06707683 -0.0022833247 -3.778941e-33 -0.06543631 -0.01563523 -6.4405167e-06 0.038092434 -0.08611713 0.030713696 -0.030590147 0.037743617 -0.0042215693 0.089670666 -0.0432051 0.09821743 0.041636337 -0.009907265 0.06165778 0.0071680257 -0.026925664 0.12272263 0.013804856 0.013734798 0.00091498654 0.024372116 0.07159941 -0.01270134 0.1512602 0.04328124 -0.016401432 -0.019710053 0.044899322 0.036008865 0.023552487 0.057302196 -0.04144547 -0.05425147 0.019769834 0.01301628 -0.0638533 -0.007070717 -0.020900717 -0.013033611 -0.011776956 0.034765262 -0.030403392 0.038597364 0.05196876 0.053243347 0.067264475 0.028555294 0.051447254 0.034682505 0.026716413 -0.026066326 -0.07748121 -0.07739859 0.050393224 0.017202053 0.009889748 0.031004513 -0.008772633 -0.0673104 0.033208977 -0.025589 -0.070837356 0.08505551 -0.023841323 0.026424527 -0.06607578 -0.033763207 0.028289821 -0.06750189 -0.04227703 -0.0076263603 0.070378765 -0.020970028 -0.102422625 0.044861995 0.0481545 -0.0058683753 -0.07118839 -0.040921923 -0.14074704 0.05763679 0.06433496 0.0038281342 0.027710967 0.027120024 -0.022025356 -0.023490274 0.042827513 -0.033421203 -0.16920683 -0.023728758 0.028261146 0.027453966 0.024024835 1.634952e-33 -0.021943359 -0.066996366 -0.06848425 -0.023526091 -0.013188254 -0.018028637 0.04262986 0.038923167 0.019385684 0.051778242 -0.044395834 -0.018885277 0.049710754 0.07524422 0.017409468 -0.013889329 0.047368746 -0.012040627 -0.012732428 0.024282975 0.03196615 -0.015888134 0.045646302 -0.036704365 -0.057292704 0.017157067 0.0967554 -0.099964745 -0.004741794 -0.046011776 0.008249852 -0.014200103 -0.057808965 0.06904565 -0.079216495 0.015791647 -0.024161078 -0.09995288 -0.07702693 -0.000592989 0.045219842 0.03728313 -0.009007332 0.081949145 -0.11044452 -0.030620014 -0.05513319 0.072163135 -0.036608703 -0.06839972 -0.06383146 0.0042982367 0.008041853 -0.015718343 0.023994105 0.039007165 -0.07627529 -0.021136774 0.05781968 -0.024393123 0.0020805597 0.0768597 -0.026299866 0.04386344 -0.009616302 0.0004551993 -0.0074888067 -0.015051502 0.07306549 0.05938469 0.083995275 -0.009036721 -0.19102892 -0.014920355 0.053741194 0.023416076 -0.027880128 -0.032449752 -0.019577531 0.051372014 -0.054337647 -0.031971004 -0.08107406 0.025305992 -0.00938384 0.083967604 0.06434519 -0.023629298 0.019790579 0.029274452 -0.01776869 -0.0034897395 0.020254008 0.0091596935 0.0010705898 -1.364953e-08 0.01735391 -0.013823881 -0.002054739 0.06230573 -0.10295457 -0.07782664 -0.058170266 -0.04967058 -0.023221223 0.06199751 0.016449064 0.05773343 0.021648094 -0.023286551 0.004304579 -0.07469228 -0.030356806 0.06151949 -0.017501304 0.040262304 -0.00026136969 0.025754698 0.005706933 -0.07537913 0.052596554 0.011551123 0.051638965 -0.062640205 -0.02825656 0.034482334 -0.010286312 0.05712967 -0.009755541 -0.038568843 -0.06893429 0.024519157 0.04170436 -0.092240214 0.021132799 -0.07508139 -0.02413308 0.11528019 0.07562329 0.0075150663 -0.0017135497 0.00846972 0.02282576 -0.0215917 0.050622016 -0.06699613 -0.08582163 0.049328223 -0.05180115 0.048664007 0.0214472 0.042683996 0.008672108 0.026736911 -0.025276378 0.09419904 0.04260088 -0.083856404 -0.01307441 -0.050471637
